{"learner":{"attributes":{"best_iteration":"232","best_score":"0.8187932529957361","scikit_learn":"{\"_estimator_type\": \"classifier\"}"},"feature_names":["elo_diff","elo_home_pre","elo_away_pre","h2h_matches","h2h_home_win_rate","home_form_goals_for_5","home_form_goals_against_5","home_form_points_5","away_form_goals_for_5","away_form_goals_against_5","away_form_points_5","home_form_goals_for_10","home_form_goals_against_10","home_form_points_10","away_form_goals_for_10","away_form_goals_against_10","away_form_points_10","form_points_diff_5","form_goal_diff_5","home_rest_days","away_rest_days","rest_days_diff","home_matches_played","away_matches_played","home_mcmc_attack_mean","home_mcmc_attack_sd","home_mcmc_defense_mean","home_mcmc_defense_sd","away_mcmc_attack_mean","away_mcmc_attack_sd","away_mcmc_defense_mean","away_mcmc_defense_sd","mcmc_attack_diff","mcmc_defense_diff","mcmc_net_strength_home","mcmc_net_strength_away","online_att_home","online_def_home","online_att_away","online_def_away","online_net_home","online_net_away","online_att_diff","online_def_diff","neutral","tournament_tier_enc"],"feature_types":["float","float","float","float","float","float","float","float","float","float","float","float","float","float","float","float","float","float","float","float","float","float","int","int","float","float","float","float","float","float","float","float","float","float","float","float","float","float","float","float","float","float","float","float","int","int"],"gradient_booster":{"model":{"cats":{"enc":[],"feature_segments":[],"sorted_idx":[]},"gbtree_model_param":{"num_parallel_tree":"1","num_trees":"849"},"iteration_indptr":[0,3,6,9,12,15,18,21,24,27,30,33,36,39,42,45,48,51,54,57,60,63,66,69,72,75,78,81,84,87,90,93,96,99,102,105,108,111,114,117,120,123,126,129,132,135,138,141,144,147,150,153,156,159,162,165,168,171,174,177,180,183,186,189,192,195,198,201,204,207,210,213,216,219,222,225,228,231,234,237,240,243,246,249,252,255,258,261,264,267,270,273,276,279,282,285,288,291,294,297,300,303,306,309,312,315,318,321,324,327,330,333,336,339,342,345,348,351,354,357,360,363,366,369,372,375,378,381,384,387,390,393,396,399,402,405,408,411,414,417,420,423,426,429,432,435,438,441,444,447,450,453,456,459,462,465,468,471,474,477,480,483,486,489,492,495,498,501,504,507,510,513,516,519,522,525,528,531,534,537,540,543,546,549,552,555,558,561,564,567,570,573,576,579,582,585,588,591,594,597,600,603,606,609,612,615,618,621,624,627,630,633,636,639,642,645,648,651,654,657,660,663,666,669,672,675,678,681,684,687,690,693,696,699,702,705,708,711,714,717,720,723,726,729,732,735,738,741,744,747,750,753,756,759,762,765,768,771,774,777,780,783,786,789,792,795,798,801,804,807,810,813,816,819,822,825,828,831,834,837,840,843,846,849],"tree_info":[0,1,2,0,1,2,0,1,2,0,1,2,0,1,2,0,1,2,0,1,2,0,1,2,0,1,2,0,1,2,0,1,2,0,1,2,0,1,2,0,1,2,0,1,2,0,1,2,0,1,2,0,1,2,0,1,2,0,1,2,0,1,2,0,1,2,0,1,2,0,1,2,0,1,2,0,1,2,0,1,2,0,1,2,0,1,2,0,1,2,0,1,2,0,1,2,0,1,2,0,1,2,0,1,2,0,1,2,0,1,2,0,1,2,0,1,2,0,1,2,0,1,2,0,1,2,0,1,2,0,1,2,0,1,2,0,1,2,0,1,2,0,1,2,0,1,2,0,1,2,0,1,2,0,1,2,0,1,2,0,1,2,0,1,2,0,1,2,0,1,2,0,1,2,0,1,2,0,1,2,0,1,2,0,1,2,0,1,2,0,1,2,0,1,2,0,1,2,0,1,2,0,1,2,0,1,2,0,1,2,0,1,2,0,1,2,0,1,2,0,1,2,0,1,2,0,1,2,0,1,2,0,1,2,0,1,2,0,1,2,0,1,2,0,1,2,0,1,2,0,1,2,0,1,2,0,1,2,0,1,2,0,1,2,0,1,2,0,1,2,0,1,2,0,1,2,0,1,2,0,1,2,0,1,2,0,1,2,0,1,2,0,1,2,0,1,2,0,1,2,0,1,2,0,1,2,0,1,2,0,1,2,0,1,2,0,1,2,0,1,2,0,1,2,0,1,2,0,1,2,0,1,2,0,1,2,0,1,2,0,1,2,0,1,2,0,1,2,0,1,2,0,1,2,0,1,2,0,1,2,0,1,2,0,1,2,0,1,2,0,1,2,0,1,2,0,1,2,0,1,2,0,1,2,0,1,2,0,1,2,0,1,2,0,1,2,0,1,2,0,1,2,0,1,2,0,1,2,0,1,2,0,1,2,0,1,2,0,1,2,0,1,2,0,1,2,0,1,2,0,1,2,0,1,2,0,1,2,0,1,2,0,1,2,0,1,2,0,1,2,0,1,2,0,1,2,0,1,2,0,1,2,0,1,2,0,1,2,0,1,2,0,1,2,0,1,2,0,1,2,0,1,2,0,1,2,0,1,2,0,1,2,0,1,2,0,1,2,0,1,2,0,1,2,0,1,2,0,1,2,0,1,2,0,1,2,0,1,2,0,1,2,0,1,2,0,1,2,0,1,2,0,1,2,0,1,2,0,1,2,0,1,2,0,1,2,0,1,2,0,1,2,0,1,2,0,1,2,0,1,2,0,1,2,0,1,2,0,1,2,0,1,2,0,1,2,0,1,2,0,1,2,0,1,2,0,1,2,0,1,2,0,1,2,0,1,2,0,1,2,0,1,2,0,1,2,0,1,2,0,1,2,0,1,2,0,1,2,0,1,2,0,1,2,0,1,2,0,1,2,0,1,2,0,1,2,0,1,2,0,1,2,0,1,2,0,1,2,0,1,2,0,1,2,0,1,2,0,1,2,0,1,2,0,1,2,0,1,2,0,1,2,0,1,2,0,1,2,0,1,2,0,1,2,0,1,2,0,1,2,0,1,2,0,1,2,0,1,2,0,1,2,0,1,2,0,1,2,0,1,2,0,1,2,0,1,2,0,1,2,0,1,2,0,1,2,0,1,2,0,1,2,0,1,2,0,1,2,0,1,2,0,1,2,0,1,2,0,1,2,0,1,2,0,1,2,0,1,2,0,1,2,0,1,2,0,1,2,0,1,2,0,1,2,0,1,2,0,1,2,0,1,2,0,1,2,0,1,2,0,1,2,0,1,2,0,1,2,0,1,2,0,1,2,0,1,2,0,1,2,0,1,2,0,1,2,0,1,2,0,1,2,0,1,2,0,1,2,0,1,2,0,1,2,0,1,2,0,1,2,0,1,2,0,1,2,0,1,2],"trees":[{"base_weights":[4.8724627E-3,-2.4953318E-1,8.095573E-1,-4.784237E-1,3.95877E-3,1.3959444E0,6.134114E-1,-3.333615E-1,-5.862289E-1,7.50392E-2,-2.8888178E-1,1.5998144E0,1.201536E0,7.609151E-1,3.2035556E-1,-6.232886E-3,-1.2038427E-2,-1.5539025E-2,-1.9249743E-2,9.530236E-3,3.4259874E-4,-1.9610326E-3,-1.0286549E-2,4.8351124E-2,7.1342997E-3,8.638852E-3,3.7033975E-2,2.173945E-2,3.65432E-2,1.23762125E-2,-1.0288174E-3],"categories":[],"categories_nodes":[],"categories_segments":[],"categories_sizes":[],"default_left":[0,0,0,0,0,0,0,0,0,0,0,0,0,0,0,0,0,0,0,0,0,0,0,0,0,0,0,0,0,0,0],"id":0,"left_children":[1,3,5,7,9,11,13,15,17,19,21,23,25,27,29,-1,-1,-1,-1,-1,-1,-1,-1,-1,-1,-1,-1,-1,-1,-1,-1],"loss_changes":[1.0789475E3,2.3235002E2,1.4390173E2,3.2518097E1,3.9635986E1,8.670654E0,4.0675323E1,7.5260468E0,3.8929749E0,2.3643772E1,4.4445133E0,1.6317444E0,4.39328E0,8.713287E0,1.0564629E1,0E0,0E0,0E0,0E0,0E0,0E0,0E0,0E0,0E0,0E0,0E0,0E0,0E0,0E0,0E0,0E0],"parents":[2147483647,0,0,1,1,2,2,3,3,4,4,5,5,6,6,7,7,8,8,9,9,10,10,11,11,12,12,13,13,14,14],"right_children":[2,4,6,8,10,12,14,16,18,20,22,24,26,28,30,-1,-1,-1,-1,-1,-1,-1,-1,-1,-1,-1,-1,-1,-1,-1,-1],"split_conditions":[1.1744613E-1,-3.0619112E-1,-7.56876E-1,3.5332847E-1,1.8409422E-2,-9.206879E-1,-3.1453755E-1,1.7548577E-1,5.0620985E-1,-2.5281328E-1,6.196263E-2,1.8333334E0,8.333333E-1,6.445213E-1,-1.19988255E-1,-6.232886E-3,-1.2038427E-2,-1.5539025E-2,-1.9249743E-2,9.530236E-3,3.4259874E-4,-1.9610326E-3,-1.0286549E-2,4.8351124E-2,7.1342997E-3,8.638852E-3,3.7033975E-2,2.173945E-2,3.65432E-2,1.23762125E-2,-1.0288174E-3],"split_indices":[35,35,33,33,34,32,33,32,32,32,33,13,12,35,32,0,0,0,0,0,0,0,0,0,0,0,0,0,0,0,0],"split_type":[0,0,0,0,0,0,0,0,0,0,0,0,0,0,0,0,0,0,0,0,0,0,0,0,0,0,0,0,0,0,0],"sum_hessian":[5.266477E3,4.0024573E3,1.2640195E3,2.1023584E3,1.9000989E3,3.137666E2,9.502529E2,8.9978986E2,1.2025685E3,1.5301718E3,3.6992715E2,1.4609885E2,1.6766776E2,6.29975E2,3.2027798E2,3.1865015E2,5.811397E2,5.481759E2,6.543926E2,3.1620837E2,1.2139634E3,7.284594E1,2.970812E2,1.4447101E2,1.6278423E0,6.511369E0,1.6115639E2,5.8846497E2,4.150998E1,2.539434E2,6.633457E1],"tree_param":{"num_deleted":"0","num_feature":"46","num_nodes":"31","size_leaf_vector":"1"}},{"base_weights":[-7.659546E-3,6.943522E-2,-4.5032638E-1,1.0046789E-1,-4.5518675E-1,-3.048501E-1,-5.5052525E-1,1.6837862E-1,-8.373317E-2,-5.665135E-1,-2.957781E-1,-3.1666487E-1,2.2259869E-2,-5.645177E-1,-1.481366E-1,6.166134E-3,-5.6293025E-4,1.6478376E-3,-3.884223E-3,-1.7442698E-2,1.2585658E-2,-1.0956624E-2,2.2144923E-2,-1.3096618E-2,-6.944206E-3,-1.4360772E-2,-1.8028468E-2,1.3169702E-2,-1.3724266E-2],"categories":[],"categories_nodes":[],"categories_segments":[],"categories_sizes":[],"default_left":[0,0,0,0,0,0,0,0,0,0,0,0,0,0,0,0,0,0,0,0,0,0,0,0,0,0,0,0,0],"id":1,"left_children":[1,3,5,7,9,11,13,15,17,19,21,23,-1,25,27,-1,-1,-1,-1,-1,-1,-1,-1,-1,-1,-1,-1,-1,-1],"loss_changes":[1.5941698E2,6.486385E1,9.763962E0,4.7037704E1,3.6145058E0,4.020458E0,2.1288223E0,1.9106201E1,6.443064E0,2.382244E0,7.4105234E0,2.7114735E0,0E0,6.546631E-1,3.3830757E0,0E0,0E0,0E0,0E0,0E0,0E0,0E0,0E0,0E0,0E0,0E0,0E0,0E0,0E0],"parents":[2147483647,0,0,1,1,2,2,3,3,4,4,5,5,6,6,7,7,8,8,9,9,10,10,11,11,13,13,14,14],"right_children":[2,4,6,8,10,12,14,16,18,20,22,24,-1,26,28,-1,-1,-1,-1,-1,-1,-1,-1,-1,-1,-1,-1,-1,-1],"split_conditions":[5.3945154E-1,6.66532E-1,5.106939E-1,2.4386378E-2,-9.206879E-1,2.52E2,5.182659E-1,2.900398E-1,1.7548577E-1,2E0,1.0671302E0,1.2E0,2.2259869E-2,7.1570003E-1,8.333333E-1,6.166134E-3,-5.6293025E-4,1.6478376E-3,-3.884223E-3,-1.7442698E-2,1.2585658E-2,-1.0956624E-2,2.2144923E-2,-1.3096618E-2,-6.944206E-3,-1.4360772E-2,-1.8028468E-2,1.3169702E-2,-1.3724266E-2],"split_indices":[33,35,34,34,32,22,28,35,32,13,28,5,0,32,18,0,0,0,0,0,0,0,0,0,0,0,0,0,0],"split_type":[0,0,0,0,0,0,0,0,0,0,0,0,0,0,0,0,0,0,0,0,0,0,0,0,0,0,0,0,0],"sum_hessian":[4.667413E3,3.976545E3,6.908679E2,3.7559863E3,2.2055878E2,2.850686E2,4.0579932E2,2.744371E3,1.0116152E3,1.2685734E2,9.370144E1,2.8326666E2,1.8019508E0,3.913837E2,1.44156065E1,2.2895586E3,4.5481238E2,2.5083154E2,7.607836E2,1.2577616E2,1.0811704E0,8.9016365E1,4.685072E0,1.1424368E2,1.6902298E2,1.2505538E2,2.6632834E2,4.685072E0,9.730535E0],"tree_param":{"num_deleted":"0","num_feature":"46","num_nodes":"29","size_leaf_vector":"1"}},{"base_weights":[1.7657935E-3,-3.62768E-1,4.7069153E-1,-6.486064E-1,-1.5356196E-1,2.9360405E-1,8.16426E-1,-8.3984476E-1,-5.467788E-1,-3.2248077E-1,-9.0271674E-2,8.3680086E-2,3.7634715E-1,7.2074956E-1,9.5515794E-1,4.806148E-3,-2.5299301E-2,-1.8309306E-2,-1.2854477E-2,-5.5955015E-3,-1.2368782E-2,-8.484133E-4,-7.342896E-3,5.1783035E-3,-3.4640895E-3,6.578601E-3,1.3545399E-2,2.3739206E-2,1.48301255E-2,2.9057607E-2,1.3910633E-2],"categories":[],"categories_nodes":[],"categories_segments":[],"categories_sizes":[],"default_left":[0,0,0,0,0,0,0,0,0,0,0,0,0,0,0,0,0,0,0,0,0,0,0,0,0,0,0,0,0,0,0],"id":2,"left_children":[1,3,5,7,9,11,13,15,17,19,21,23,25,27,29,-1,-1,-1,-1,-1,-1,-1,-1,-1,-1,-1,-1,-1,-1,-1,-1],"loss_changes":[1.0968503E3,2.1568478E2,1.7134656E2,2.8779053E1,2.2255043E1,3.2227264E1,1.1225708E1,2.0935364E0,6.999115E0,6.783169E0,1.455333E1,9.393563E0,1.5537033E1,8.324707E0,1.6188965E0,0E0,0E0,0E0,0E0,0E0,0E0,0E0,0E0,0E0,0E0,0E0,0E0,0E0,0E0,0E0,0E0],"parents":[2147483647,0,0,1,1,2,2,3,3,4,4,5,5,6,6,7,7,8,8,9,9,10,10,11,11,12,12,13,13,14,14],"right_children":[2,4,6,8,10,12,14,16,18,20,22,24,26,28,30,-1,-1,-1,-1,-1,-1,-1,-1,-1,-1,-1,-1,-1,-1,-1,-1],"split_conditions":[1.0375936E-1,-2.7153203E-1,5.3945154E-1,-6.4377683E-1,-1.4613049E-1,-8.357647E-3,8.284485E-1,1.187699E3,-3.7703782E-1,-1.6694932E-1,1E0,1E0,2.365097E-1,1E0,2.4444444E0,4.806148E-3,-2.5299301E-2,-1.8309306E-2,-1.2854477E-2,-5.5955015E-3,-1.2368782E-2,-8.484133E-4,-7.342896E-3,5.1783035E-3,-3.4640895E-3,6.578601E-3,1.3545399E-2,2.3739206E-2,1.48301255E-2,2.9057607E-2,1.3910633E-2],"split_indices":[33,33,33,33,33,42,33,2,33,43,44,44,33,44,14,0,0,0,0,0,0,0,0,0,0,0,0,0,0,0,0],"split_type":[0,0,0,0,0,0,0,0,0,0,0,0,0,0,0,0,0,0,0,0,0,0,0,0,0,0,0,0,0,0,0],"sum_hessian":[6.412611E3,3.6081543E3,2.8044565E3,1.5230325E3,2.0851218E3,1.8569915E3,9.47465E2,5.241508E2,9.988817E2,5.660829E2,1.519039E3,5.261476E2,1.3308439E3,5.6807965E2,3.7938535E2,1.4975737E0,5.2265326E2,6.4445593E2,3.5442578E2,2.2763121E2,3.3845166E2,1.085741E3,4.33298E2,3.6391043E2,1.6223715E2,4.33298E2,8.975459E2,4.2930447E2,1.3877516E2,3.6740475E2,1.198059E1],"tree_param":{"num_deleted":"0","num_feature":"46","num_nodes":"31","size_leaf_vector":"1"}},{"base_weights":[-2.4112805E-3,-2.615668E-1,7.7207315E-1,-4.603022E-1,1.6036082E-2,1.274921E0,5.829571E-1,-3.2695687E-1,-5.750466E-1,-1.24021426E-1,9.891735E-2,9.792842E-1,1.4365766E0,7.2816235E-1,3.2467672E-1,-1.1184873E-2,-5.8176946E-3,-1.5881006E-2,-1.9502325E-2,2.3029684E-3,-5.830745E-3,-2.3104719E-4,6.2532024E-3,-5.1148213E-3,3.0116E-2,4.3521438E-2,9.148905E-3,1.9597026E-2,2.8896436E-2,1.1765015E-2,-1.887651E-4],"categories":[],"categories_nodes":[],"categories_segments":[],"categories_sizes":[],"default_left":[0,0,0,0,0,0,0,0,0,0,0,0,0,0,0,0,0,0,0,0,0,0,0,0,0,0,0,0,0,0,0],"id":3,"left_children":[1,3,5,7,9,11,13,15,17,19,21,23,25,27,29,-1,-1,-1,-1,-1,-1,-1,-1,-1,-1,-1,-1,-1,-1,-1,-1],"loss_changes":[1.0543596E3,2.1716324E2,1.237619E2,3.4722443E1,1.9109482E1,1.4308716E1,3.5560394E1,6.3582916E0,3.528534E0,8.674485E0,1.2077318E1,4.0996323E0,2.7522583E0,9.545105E0,7.809044E0,0E0,0E0,0E0,0E0,0E0,0E0,0E0,0E0,0E0,0E0,0E0,0E0,0E0,0E0,0E0,0E0],"parents":[2147483647,0,0,1,1,2,2,3,3,4,4,5,5,6,6,7,7,8,8,9,9,10,10,11,11,12,12,13,13,14,14],"right_children":[2,4,6,8,10,12,14,16,18,20,22,24,26,28,30,-1,-1,-1,-1,-1,-1,-1,-1,-1,-1,-1,-1,-1,-1,-1,-1],"split_conditions":[1.06553055E-1,-2.6344615E-1,-7.0590687E-1,3.5332847E-1,5.6314584E-2,6.66532E-1,-3.1453755E-1,1E0,6.8954474E-1,-2.091182E-2,-7.232814E-2,-4.806028E-1,3E0,1E0,-3.4374796E-2,-1.1184873E-2,-5.8176946E-3,-1.5881006E-2,-1.9502325E-2,2.3029684E-3,-5.830745E-3,-2.3104719E-4,6.2532024E-3,-5.1148213E-3,3.0116E-2,4.3521438E-2,9.148905E-3,1.9597026E-2,2.8896436E-2,1.1765015E-2,-1.887651E-4],"split_indices":[35,35,33,33,39,35,33,44,33,33,35,28,5,44,33,0,0,0,0,0,0,0,0,0,0,0,0,0,0,0,0],"split_type":[0,0,0,0,0,0,0,0,0,0,0,0,0,0,0,0,0,0,0,0,0,0,0,0,0,0,0,0,0,0,0],"sum_hessian":[5.249088E3,3.9340225E3,1.3150656E3,2.2919226E3,1.6420997E3,3.562735E2,9.58792E2,1.0636019E3,1.2283208E3,6.101093E2,1.0319905E3,1.3093484E2,2.2533865E2,6.114155E2,3.4737646E2,7.8820905E2,2.7539282E2,7.735092E2,4.5481158E2,1.5823125E2,4.5187808E2,5.238697E2,5.081208E2,2.4923112E0,1.2844254E2,2.2200108E2,3.33758E0,4.6935602E2,1.4205954E2,2.8823117E2,5.9145287E1],"tree_param":{"num_deleted":"0","num_feature":"46","num_nodes":"31","size_leaf_vector":"1"}},{"base_weights":[-3.2687176E-3,6.8806164E-2,-4.2661458E-1,-3.8696992E-1,1.00636885E-1,-3.040234E-1,-5.486804E-1,-5.3276414E-1,-2.2196014E-1,1.6594155E-1,-7.4012496E-2,-3.54382E-1,-1.0323875E-1,-4.4625473E-1,-5.92373E-1,-1.6574092E-2,6.7301546E-3,4.127222E-4,-1.1017059E-2,5.4102675E-3,-2.0909316E-3,-4.0476564E-3,1.7791311E-4,-3.604574E-3,-1.2075304E-2,2.1390999E-3,-1.4048616E-2,-1.3806733E-2,2.5129612E-3,-1.8013809E-2,2.3423978E-3],"categories":[],"categories_nodes":[],"categories_segments":[],"categories_sizes":[],"default_left":[0,0,0,0,0,0,0,0,0,0,0,0,0,0,0,0,0,0,0,0,0,0,0,0,0,0,0,0,0,0,0],"id":4,"left_children":[1,3,5,7,9,11,13,15,17,19,21,23,25,27,29,-1,-1,-1,-1,-1,-1,-1,-1,-1,-1,-1,-1,-1,-1,-1,-1],"loss_changes":[1.4242278E2,5.7944473E1,9.82798E0,6.037491E0,4.2565575E1,3.3978767E0,9.8293304E-1,2.292244E0,4.3167076E0,9.239517E0,4.951179E0,2.9879074E0,4.6325064E0,8.8497734E-1,1.3444595E0,0E0,0E0,0E0,0E0,0E0,0E0,0E0,0E0,0E0,0E0,0E0,0E0,0E0,0E0,0E0,0E0],"parents":[2147483647,0,0,1,1,2,2,3,3,4,4,5,5,6,6,7,7,8,8,9,9,10,10,11,11,12,12,13,13,14,14],"right_children":[2,4,6,8,10,12,14,16,18,20,22,24,26,28,30,-1,-1,-1,-1,-1,-1,-1,-1,-1,-1,-1,-1,-1,-1,-1,-1],"split_conditions":[5.3945154E-1,-7.7915645E-1,5.744215E-1,-8.3238196E-1,2.4386378E-2,1.6666666E0,7.306534E-1,1.7142857E0,-2.438951E-1,4.2102313E-1,3.6992494E-2,4E0,2E0,6.2531614E-1,5.182659E-1,-1.6574092E-2,6.7301546E-3,4.127222E-4,-1.1017059E-2,5.4102675E-3,-2.0909316E-3,-4.0476564E-3,1.7791311E-4,-3.604574E-3,-1.2075304E-2,2.1390999E-3,-1.4048616E-2,-1.3806733E-2,2.5129612E-3,-1.8013809E-2,2.3423978E-3],"split_indices":[33,33,34,32,34,10,32,13,42,41,38,20,5,42,28,0,0,0,0,0,0,0,0,0,0,0,0,0,0,0,0],"split_type":[0,0,0,0,0,0,0,0,0,0,0,0,0,0,0,0,0,0,0,0,0,0,0,0,0,0,0,0,0,0,0],"sum_hessian":[4.663747E3,3.9866865E3,6.770608E2,2.5879218E2,3.7278943E3,3.412867E2,3.3577405E2,1.3502957E2,1.237626E2,2.713402E3,1.0144921E3,2.7162964E2,6.965708E1,1.07110016E2,2.2866403E2,1.3213107E2,2.8984873E0,4.7881935E1,7.588067E1,2.5575698E3,1.5583235E2,5.750102E2,4.3948193E2,4.7491497E1,2.2413815E2,4.8213783E1,2.1443298E1,1.0461603E2,2.4939888E0,2.2614499E2,2.5190475E0],"tree_param":{"num_deleted":"0","num_feature":"46","num_nodes":"31","size_leaf_vector":"1"}},{"base_weights":[8.0477755E-4,-3.2115558E-1,5.1809615E-1,-1.3095212E-1,-6.416268E-1,3.453614E-1,7.956461E-1,-5.060701E-1,-8.987528E-2,-7.7523273E-1,-4.936927E-1,-4.8098195E-2,4.1045195E-1,6.450024E-1,9.035669E-1,-1.9698156E-2,-1.3450572E-2,-8.0015714E-4,-7.6757916E-3,-2.0723207E-2,-2.5979355E-2,-1.2798278E-2,-1.9351192E-2,3.1063457E-3,-8.553292E-3,1.4360128E-2,7.00224E-3,2.1505862E-2,1.2619295E-2,1.5931847E-2,2.7569897E-2],"categories":[],"categories_nodes":[],"categories_segments":[],"categories_sizes":[],"default_left":[0,0,0,0,0,0,0,0,0,0,0,0,0,0,0,0,0,0,0,0,0,0,0,0,0,0,0,0,0,0,0],"id":5,"left_children":[1,3,5,7,9,11,13,15,17,19,21,23,25,27,29,-1,-1,-1,-1,-1,-1,-1,-1,-1,-1,-1,-1,-1,-1,-1,-1],"loss_changes":[1.0735844E3,2.420181E2,1.18007996E2,3.836723E1,2.8473328E1,3.9167343E1,1.4232056E1,1.5477486E0,2.3611372E1,4.7342834E0,6.6331177E0,7.91794E0,1.5612274E1,5.882889E0,2.1667786E0,0E0,0E0,0E0,0E0,0E0,0E0,0E0,0E0,0E0,0E0,0E0,0E0,0E0,0E0,0E0,0E0],"parents":[2147483647,0,0,1,1,2,2,3,3,4,4,5,5,6,6,7,7,8,8,9,9,10,10,11,11,12,12,13,13,14,14],"right_children":[2,4,6,8,10,12,14,16,18,20,22,24,26,28,30,-1,-1,-1,-1,-1,-1,-1,-1,-1,-1,-1,-1,-1,-1,-1,-1],"split_conditions":[1.8249205E-3,1.06553055E-1,5.468236E-1,-5.629367E-1,-6.2978315E-1,6.26469E-2,5.235536E-1,-1.35E0,1E0,5.1846933E-1,1E0,1E0,1E0,1E0,3.321191E-1,-1.9698156E-2,-1.3450572E-2,-8.0015714E-4,-7.6757916E-3,-2.0723207E-2,-2.5979355E-2,-1.2798278E-2,-1.9351192E-2,3.1063457E-3,-8.553292E-3,1.4360128E-2,7.00224E-3,2.1505862E-2,1.2619295E-2,1.5931847E-2,2.7569897E-2],"split_indices":[34,35,33,34,34,32,34,18,44,35,44,44,44,44,32,0,0,0,0,0,0,0,0,0,0,0,0,0,0,0,0],"split_type":[0,0,0,0,0,0,0,0,0,0,0,0,0,0,0,0,0,0,0,0,0,0,0,0,0,0,0,0,0,0,0],"sum_hessian":[6.442124E3,3.9712131E3,2.470911E3,2.4938818E3,1.4773312E3,1.5258059E3,9.4510504E2,2.4390215E2,2.2499797E3,7.7180164E2,7.055296E2,2.1666011E2,1.3091459E3,4.002961E2,5.4480896E2,6.1846363E1,1.8205577E2,1.6311816E3,6.1879816E2,4.086688E2,3.631328E2,4.9414227E2,2.113873E2,1.328117E2,8.384841E1,9.425521E2,3.6659372E2,2.9986313E2,1.0043298E2,2.4486567E1,5.203224E2],"tree_param":{"num_deleted":"0","num_feature":"46","num_nodes":"31","size_leaf_vector":"1"}},{"base_weights":[1.6641853E-4,6.501451E-1,-2.8110057E-1,1.1237056E0,4.2764553E-1,-6.648555E-2,-5.071404E-1,1.3879944E0,9.2246747E-1,6.3863945E-1,2.560546E-1,-1.524784E-1,1.3827483E-1,-4.1628623E-1,-6.079596E-1,4.2792328E-2,2.5574414E-2,3.145502E-2,2.3070917E-2,1.6735721E-2,2.6781496E-2,4.7717243E-3,1.5097418E-2,1.0812678E-3,-6.377016E-3,8.0957925E-3,-2.575701E-3,-1.4229205E-2,-8.273231E-3,-1.3922326E-2,-1.9230396E-2],"categories":[],"categories_nodes":[],"categories_segments":[],"categories_sizes":[],"default_left":[0,0,0,0,0,0,0,0,0,0,0,0,0,0,0,0,0,0,0,0,0,0,0,0,0,0,0,0,0,0,0],"id":6,"left_children":[1,3,5,7,9,11,13,15,17,19,21,23,25,27,29,-1,-1,-1,-1,-1,-1,-1,-1,-1,-1,-1,-1,-1,-1,-1,-1],"loss_changes":[9.618539E2,1.6647552E2,1.7807657E2,2.4389648E1,3.8931442E1,3.3250816E1,1.5873444E1,1.9929199E0,4.065857E0,8.958481E0,1.4258537E1,1.5071962E1,1.652818E1,7.458267E0,3.4154358E0,0E0,0E0,0E0,0E0,0E0,0E0,0E0,0E0,0E0,0E0,0E0,0E0,0E0,0E0,0E0,0E0],"parents":[2147483647,0,0,1,1,2,2,3,3,4,4,5,5,6,6,7,7,8,8,9,9,10,10,11,11,12,12,13,13,14,14],"right_children":[2,4,6,8,10,12,14,16,18,20,22,24,26,28,30,-1,-1,-1,-1,-1,-1,-1,-1,-1,-1,-1,-1,-1,-1,-1,-1],"split_conditions":[-1.9267298E-1,-5.937975E-1,2.0359074E-1,-8.0669534E-1,-3.068393E-1,1E0,4.522264E-1,4.5438296E-1,-7.3346907E-1,1E0,1E0,-1.5697871E-1,6.26469E-2,1E0,4.13344E-1,4.2792328E-2,2.5574414E-2,3.145502E-2,2.3070917E-2,1.6735721E-2,2.6781496E-2,4.7717243E-3,1.5097418E-2,1.0812678E-3,-6.377016E-3,8.0957925E-3,-2.575701E-3,-1.4229205E-2,-8.273231E-3,-1.3922326E-2,-1.9230396E-2],"split_indices":[32,33,33,32,33,44,32,26,33,44,44,33,32,44,33,0,0,0,0,0,0,0,0,0,0,0,0,0,0,0,0],"split_type":[0,0,0,0,0,0,0,0,0,0,0,0,0,0,0,0,0,0,0,0,0,0,0,0,0,0,0,0,0,0,0],"sum_hessian":[5.257279E3,1.5870798E3,3.670199E3,5.0472955E2,1.0823502E3,1.8840055E3,1.7861934E3,2.1308618E2,2.9164337E2,4.829972E2,5.993531E2,1.3271538E3,5.5685175E2,9.449242E2,8.412691E2,1.957185E2,1.7367676E1,1.5371484E2,1.3792853E2,3.7132748E2,1.116697E2,4.3280823E2,1.6654483E2,3.2096603E2,1.00618774E3,3.5060672E2,2.0624503E2,6.6540985E2,2.795144E2,1.6277795E2,6.7849115E2],"tree_param":{"num_deleted":"0","num_feature":"46","num_nodes":"31","size_leaf_vector":"1"}},{"base_weights":[-1.5674102E-3,8.8882275E-2,-3.1392547E-1,1.290471E-1,-3.5254276E-1,-1.8673393E-1,-4.9072665E-1,1.7472656E-1,5.290966E-3,-5.2930236E-1,-2.0596285E-1,-2.506837E-1,-1.5488778E-2,-5.0433075E-1,2.5406054E-1,6.621861E-3,1.418786E-3,-2.8711527E-3,2.1354102E-3,-1.6283834E-2,8.950956E-3,-1.0409312E-2,-1.15084986E-4,-8.358073E-3,7.2812606E-3,9.094243E-3,-2.8235365E-3,-1.563934E-2,-4.7568474E-3,1.9891666E-2,-1.1480638E-2],"categories":[],"categories_nodes":[],"categories_segments":[],"categories_sizes":[],"default_left":[0,0,0,0,0,0,0,0,0,0,0,0,0,0,0,0,0,0,0,0,0,0,0,0,0,0,0,0,0,0,0],"id":7,"left_children":[1,3,5,7,9,11,13,15,17,19,21,23,25,27,29,-1,-1,-1,-1,-1,-1,-1,-1,-1,-1,-1,-1,-1,-1,-1,-1],"loss_changes":[1.3165576E2,6.4158966E1,2.334726E1,1.873074E1,7.604286E0,6.692089E0,4.6797485E0,1.4167168E1,5.9722686E0,1.838047E0,4.7948923E0,6.269453E0,4.278104E0,2.355957E0,2.8933647E0,0E0,0E0,0E0,0E0,0E0,0E0,0E0,0E0,0E0,0E0,0E0,0E0,0E0,0E0,0E0,0E0],"parents":[2147483647,0,0,1,1,2,2,3,3,4,4,5,5,6,6,7,7,8,8,9,9,10,10,11,11,12,12,13,13,14,14],"right_children":[2,4,6,8,10,12,14,16,18,20,22,24,26,28,30,-1,-1,-1,-1,-1,-1,-1,-1,-1,-1,-1,-1,-1,-1,-1,-1],"split_conditions":[2.1925755E-1,5.557823E-1,5.106939E-1,-3.6304905E-3,-9.206879E-1,1E0,2.4637498E-1,1.6444515E-1,-3.946113E-1,1.875E0,2.1251668E-1,8.896591E-1,-2.4169323E-1,5.267617E-1,4.2222223E0,6.621861E-3,1.418786E-3,-2.8711527E-3,2.1354102E-3,-1.6283834E-2,8.950956E-3,-1.0409312E-2,-1.15084986E-4,-8.358073E-3,7.2812606E-3,9.094243E-3,-2.8235365E-3,-1.563934E-2,-4.7568474E-3,1.9891666E-2,-1.1480638E-2],"split_indices":[34,35,34,34,32,44,35,35,35,13,38,30,39,28,15,0,0,0,0,0,0,0,0,0,0,0,0,0,0,0,0],"split_type":[0,0,0,0,0,0,0,0,0,0,0,0,0,0,0,0,0,0,0,0,0,0,0,0,0,0,0,0,0,0,0],"sum_hessian":[4.655962E3,3.6115845E3,1.0443774E3,3.3116738E3,2.9991058E2,6.097982E2,4.3457925E2,2.4182522E3,8.934217E2,1.3359152E2,1.6631905E2,4.4331787E2,1.6648035E2,4.2741785E2,7.16141E0,1.775759E3,6.424932E2,3.5238168E2,5.4104004E2,1.3212607E2,1.4654524E0,9.712575E1,6.9193306E1,4.2040005E2,2.2917807E1,3.1820969E1,1.3465938E2,4.0644223E2,2.0975592E1,4.3102374E0,2.8511727E0],"tree_param":{"num_deleted":"0","num_feature":"46","num_nodes":"31","size_leaf_vector":"1"}},{"base_weights":[-4.9115466E-3,-3.3467722E-1,4.6734908E-1,-5.9777653E-1,-1.1810588E-1,2.972084E-1,7.9001546E-1,-7.55194E-1,-4.707442E-1,-2.4971837E-1,-3.703874E-2,1.4329971E-1,4.2989817E-1,8.6040264E-1,5.896814E-1,-2.0077081E-2,-2.5635943E-2,-1.0404492E-2,-1.6293565E-2,-3.6077923E-3,-9.445717E-3,1.6719571E-3,-4.2685154E-3,5.5131037E-3,-4.63984E-3,1.5465642E-2,8.280344E-3,2.6610827E-2,2.0553073E-2,1.966228E-2,7.878966E-3],"categories":[],"categories_nodes":[],"categories_segments":[],"categories_sizes":[],"default_left":[0,0,0,0,0,0,0,0,0,0,0,0,0,0,0,0,0,0,0,0,0,0,0,0,0,0,0,0,0,0,0],"id":8,"left_children":[1,3,5,7,9,11,13,15,17,19,21,23,25,27,29,-1,-1,-1,-1,-1,-1,-1,-1,-1,-1,-1,-1,-1,-1,-1,-1],"loss_changes":[9.995446E2,2.1519983E2,1.4440594E2,3.340094E1,2.212501E1,3.522896E1,1.1815552E1,5.3329773E0,8.138138E0,6.5923843E0,1.257852E1,9.757439E0,1.1951141E1,1.9068604E0,4.877754E0,0E0,0E0,0E0,0E0,0E0,0E0,0E0,0E0,0E0,0E0,0E0,0E0,0E0,0E0,0E0,0E0],"parents":[2147483647,0,0,1,1,2,2,3,3,4,4,5,5,6,6,7,7,8,8,9,9,10,10,11,11,12,12,13,13,14,14],"right_children":[2,4,6,8,10,12,14,16,18,20,22,24,26,28,30,-1,-1,-1,-1,-1,-1,-1,-1,-1,-1,-1,-1,-1,-1,-1,-1],"split_conditions":[1.1601369E-1,-2.4011917E-1,3.8990003E-1,-6.90703E-1,-6.3224934E-2,8.65108E-2,-6.0131204E-1,5.1846933E-1,1.2937425E-1,-8.4992E-2,7.2346345E-2,-2.0130354E-1,-4.5117247E-1,2.4163976E-1,2.2559367E2,-2.0077081E-2,-2.5635943E-2,-1.0404492E-2,-1.6293565E-2,-3.6077923E-3,-9.445717E-3,1.6719571E-3,-4.2685154E-3,5.5131037E-3,-4.63984E-3,1.5465642E-2,8.280344E-3,2.6610827E-2,2.0553073E-2,1.966228E-2,7.878966E-3],"split_indices":[32,32,34,34,43,34,35,35,35,35,39,35,35,28,0,0,0,0,0,0,0,0,0,0,0,0,0,0,0,0,0],"split_type":[0,0,0,0,0,0,0,0,0,0,0,0,0,0,0,0,0,0,0,0,0,0,0,0,0,0,0,0,0,0,0],"sum_hessian":[6.4142163E3,3.777254E3,2.6369624E3,1.7038412E3,2.0734128E3,1.7290719E3,9.0789056E2,7.56501E2,9.473402E2,7.8873724E2,1.2846755E3,8.0245416E2,9.2661774E2,6.669637E2,2.4092685E2,4.138582E2,3.426428E2,3.5354532E2,5.9379486E2,2.6592447E2,5.228128E2,6.8330347E2,6.013721E2,7.071697E2,9.528448E1,5.9233813E2,3.3427957E2,5.7197156E2,9.4992134E1,1.9893779E2,4.198906E1],"tree_param":{"num_deleted":"0","num_feature":"46","num_nodes":"31","size_leaf_vector":"1"}},{"base_weights":[-2.1376375E-3,-2.3997848E-1,7.3684895E-1,-1.9170178E-2,-5.065045E-1,5.8516777E-1,1.2870151E0,-1.6856824E-1,1.107376E-1,-3.464966E-1,-5.7410544E-1,6.875779E-1,3.3291417E-1,1.3043427E0,-2.0881385E-1,3.9552534E-3,-5.8159847E-3,9.484099E-3,8.857992E-4,6.2055048E-3,-1.1110818E-2,-1.46045275E-2,-1.8539663E-2,1.5920924E-2,2.2795742E-2,1.2355272E-2,-2.3905898E-3,3.947613E-2,4.900291E-3,-9.533382E-3,1.3144821E-3],"categories":[],"categories_nodes":[],"categories_segments":[],"categories_sizes":[],"default_left":[0,0,0,0,0,0,0,0,0,0,0,0,0,0,0,0,0,0,0,0,0,0,0,0,0,0,0,0,0,0,0],"id":9,"left_children":[1,3,5,7,9,11,13,15,17,19,21,23,25,27,29,-1,-1,-1,-1,-1,-1,-1,-1,-1,-1,-1,-1,-1,-1,-1,-1],"loss_changes":[9.235885E2,2.3393307E2,1.0526398E2,4.2273106E1,1.908429E1,2.5546265E1,7.6684875E0,7.74942E0,1.9418293E1,7.2837677E0,4.236725E0,7.290619E0,9.657532E0,3.1475525E0,1.6194575E-1,0E0,0E0,0E0,0E0,0E0,0E0,0E0,0E0,0E0,0E0,0E0,0E0,0E0,0E0,0E0,0E0],"parents":[2147483647,0,0,1,1,2,2,3,3,4,4,5,5,6,6,7,7,8,8,9,9,10,10,11,11,12,12,13,13,14,14],"right_children":[2,4,6,8,10,12,14,16,18,20,22,24,26,28,30,-1,-1,-1,-1,-1,-1,-1,-1,-1,-1,-1,-1,-1,-1,-1,-1],"split_conditions":[1.2937425E-1,2.0359074E-1,6.66532E-1,-1.3880613E-1,2.596157E-1,-3.1453755E-1,4.24199E-1,-1.8986407E-1,-2.2879153E-1,-2.460302E-1,4.5762885E-1,2.900398E-1,6.2590085E-2,3E0,-2.4781884E-1,3.9552534E-3,-5.8159847E-3,9.484099E-3,8.857992E-4,6.2055048E-3,-1.1110818E-2,-1.46045275E-2,-1.8539663E-2,1.5920924E-2,2.2795742E-2,1.2355272E-2,-2.3905898E-3,3.947613E-2,4.900291E-3,-9.533382E-3,1.3144821E-3],"split_indices":[35,33,35,35,32,33,34,33,32,32,33,35,34,5,37,0,0,0,0,0,0,0,0,0,0,0,0,0,0,0,0],"split_type":[0,0,0,0,0,0,0,0,0,0,0,0,0,0,0,0,0,0,0,0,0,0,0,0,0,0,0,0,0,0,0],"sum_hessian":[5.2507793E3,3.973326E3,1.2774536E3,2.1742078E3,1.799118E3,1.0046094E3,2.728443E2,1.0109677E3,1.1632401E3,5.3798596E2,1.2611321E3,7.120707E2,2.9253867E2,2.6997296E2,2.8713393E0,7.7868225E1,9.330995E2,3.2796478E2,8.3527527E2,2.1608257E1,5.163777E2,4.3000348E2,8.3112854E2,2.2985863E2,4.8221207E2,2.4556676E2,4.697191E1,2.669691E2,3.0038795E0,1.645726E0,1.2256132E0],"tree_param":{"num_deleted":"0","num_feature":"46","num_nodes":"31","size_leaf_vector":"1"}},{"base_weights":[9.575658E-3,7.715217E-2,-3.9969513E-1,1.06583074E-1,-4.4492134E-1,-3.0641514E-1,-5.4380494E-1,1.6089913E-1,-2.4912238E-2,-4.709647E-1,1.8237752E-1,-4.435768E-1,-2.106888E-1,-5.579137E-1,1.6703203E-1,5.9000547E-3,-6.689948E-4,3.7319693E-3,-2.4689499E-3,-1.4636747E-2,1.0905824E-2,1.57144E-2,-1.1576079E-2,-4.1377353E-3,-1.5461622E-2,-7.993249E-3,4.077588E-3,-1.7070482E-2,7.577746E-3,1.6344192E-2,-9.81578E-3],"categories":[],"categories_nodes":[],"categories_segments":[],"categories_sizes":[],"default_left":[0,0,0,0,0,0,0,0,0,0,0,0,0,0,0,0,0,0,0,0,0,0,0,0,0,0,0,0,0,0,0],"id":10,"left_children":[1,3,5,7,9,11,13,15,17,19,21,23,25,27,29,-1,-1,-1,-1,-1,-1,-1,-1,-1,-1,-1,-1,-1,-1,-1,-1],"loss_changes":[1.2834508E2,6.1289497E1,8.50724E0,2.694725E1,3.650303E0,5.115158E0,2.752159E0,1.7501694E1,9.482484E0,3.2503319E0,2.3307042E0,3.4613037E0,4.741968E0,2.5489426E0,1.5734999E0,0E0,0E0,0E0,0E0,0E0,0E0,0E0,0E0,0E0,0E0,0E0,0E0,0E0,0E0,0E0,0E0],"parents":[2147483647,0,0,1,1,2,2,3,3,4,4,5,5,6,6,7,7,8,8,9,9,10,10,11,11,12,12,13,13,14,14],"right_children":[2,4,6,8,10,12,14,16,18,20,22,24,26,28,30,-1,-1,-1,-1,-1,-1,-1,-1,-1,-1,-1,-1,-1,-1,-1,-1],"split_conditions":[5.3945154E-1,6.66532E-1,8.284485E-1,1.6747934E-1,3.5523218E-1,3.4577703E-1,2.0848614E-1,3.070041E-1,6.666667E-1,1.05E0,5.4557955E-1,-7.199981E-2,1.6666666E0,1.6E2,3E0,5.9000547E-3,-6.689948E-4,3.7319693E-3,-2.4689499E-3,-1.4636747E-2,1.0905824E-2,1.57144E-2,-1.1576079E-2,-4.1377353E-3,-1.5461622E-2,-7.993249E-3,4.077588E-3,-1.7070482E-2,7.577746E-3,1.6344192E-2,-9.81578E-3],"split_indices":[33,35,33,33,24,43,31,35,6,17,26,42,10,23,19,0,0,0,0,0,0,0,0,0,0,0,0,0,0,0,0],"split_type":[0,0,0,0,0,0,0,0,0,0,0,0,0,0,0,0,0,0,0,0,0,0,0,0,0,0,0,0,0,0,0],"sum_hessian":[4.6363545E3,3.9807056E3,6.55649E2,3.769783E3,2.1092267E2,4.0181375E2,2.538352E2,2.66749E3,1.1022928E3,2.0299348E2,7.9291778E0,1.6217435E2,2.3963942E2,2.4931699E2,4.5182166E0,2.2316218E3,4.3586823E2,3.0538498E2,7.969079E2,1.9977199E2,3.2214978E0,5.0507693E0,2.8784084E0,3.1964212E1,1.3021013E2,2.0683246E2,3.2806953E1,2.4653583E2,2.781164E0,2.4447856E0,2.073431E0],"tree_param":{"num_deleted":"0","num_feature":"46","num_nodes":"31","size_leaf_vector":"1"}},{"base_weights":[-2.7973417E-3,-3.4122035E-1,4.2705294E-1,-6.0557985E-1,-1.4778663E-1,2.6451662E-1,7.506268E-1,-7.9218495E-1,-4.9864516E-1,-3.3475053E-1,-8.152502E-2,3.9565048E-1,1.361566E-1,6.591657E-1,8.8729143E-1,-2.3864958E-2,5.5730375E-3,-1.0904244E-2,-1.7020702E-2,-8.222656E-3,-1.6361954E-2,-4.5820195E-4,-7.4645597E-3,1.3658885E-2,6.4107985E-3,6.281005E-3,-8.383635E-4,2.2130223E-2,1.2625484E-2,2.6767962E-2,-4.5098616E-3],"categories":[],"categories_nodes":[],"categories_segments":[],"categories_sizes":[],"default_left":[0,0,0,0,0,0,0,0,0,0,0,0,0,0,0,0,0,0,0,0,0,0,0,0,0,0,0,0,0,0,0],"id":11,"left_children":[1,3,5,7,9,11,13,15,17,19,21,23,25,27,29,-1,-1,-1,-1,-1,-1,-1,-1,-1,-1,-1,-1,-1,-1,-1,-1],"loss_changes":[9.384824E2,1.8439758E2,1.4906042E2,2.9630798E1,2.5800484E1,3.1784561E1,1.06935425E1,2.0842285E0,8.638809E0,6.6711655E0,1.71003E1,9.965683E0,1.1551435E1,1.01627655E1,2.202301E0,0E0,0E0,0E0,0E0,0E0,0E0,0E0,0E0,0E0,0E0,0E0,0E0,0E0,0E0,0E0,0E0],"parents":[2147483647,0,0,1,1,2,2,3,3,4,4,5,5,6,6,7,7,8,8,9,9,10,10,11,11,12,12,13,13,14,14],"right_children":[2,4,6,8,10,12,14,16,18,20,22,24,26,28,30,-1,-1,-1,-1,-1,-1,-1,-1,-1,-1,-1,-1,-1,-1,-1,-1],"split_conditions":[1.0375936E-1,-2.7153203E-1,5.3945154E-1,-6.303769E-1,-1.4613049E-1,-4.4556573E-1,8.284485E-1,1.1E1,1.2937425E-1,1.7087793E-1,1E0,1E0,1E0,1E0,2.04E2,-2.3864958E-2,5.5730375E-3,-1.0904244E-2,-1.7020702E-2,-8.222656E-3,-1.6361954E-2,-4.5820195E-4,-7.4645597E-3,1.3658885E-2,6.4107985E-3,6.281005E-3,-8.383635E-4,2.2130223E-2,1.2625484E-2,2.6767962E-2,-4.5098616E-3],"split_indices":[33,33,33,33,33,35,33,3,35,35,44,44,44,44,23,0,0,0,0,0,0,0,0,0,0,0,0,0,0,0,0],"split_type":[0,0,0,0,0,0,0,0,0,0,0,0,0,0,0,0,0,0,0,0,0,0,0,0,0,0,0,0,0,0,0],"sum_hessian":[6.447323E3,3.6075195E3,2.8398035E3,1.5225032E3,2.0850164E3,1.8927034E3,9.4710016E2,5.499694E2,9.7253375E2,5.4346643E2,1.54155E3,9.3417566E2,9.585277E2,5.743618E2,3.7273834E2,5.4848413E2,1.4853098E0,3.3199963E2,6.405341E2,4.255265E2,1.17939926E2,1.1058098E3,4.3574014E2,7.012884E2,2.3288727E2,6.624429E2,2.9608484E2,4.2888394E2,1.4547789E2,3.7123892E2,1.4994179E0],"tree_param":{"num_deleted":"0","num_feature":"46","num_nodes":"31","size_leaf_vector":"1"}},{"base_weights":[1.6258339E-3,6.1514044E-1,-2.7172357E-1,1.0425014E0,4.072666E-1,-7.780422E-3,-4.556628E-1,1.250652E0,8.5677844E-1,5.9723496E-1,2.5200018E-1,1.357437E-1,-7.353517E-2,-2.993487E-1,-5.4157686E-1,3.8078222E-2,8.682448E-3,2.7901197E-2,1.616883E-2,1.6617527E-2,2.8668618E-2,5.097851E-3,1.29560055E-2,8.770638E-3,9.241598E-5,-5.5762904E-4,-6.6123605E-3,-4.9772714E-3,-1.1217818E-2,-1.2334E-2,-1.7694475E-2],"categories":[],"categories_nodes":[],"categories_segments":[],"categories_sizes":[],"default_left":[0,0,0,0,0,0,0,0,0,0,0,0,0,0,0,0,0,0,0,0,0,0,0,0,0,0,0,0,0,0,0],"id":12,"left_children":[1,3,5,7,9,11,13,15,17,19,21,23,25,27,29,-1,-1,-1,-1,-1,-1,-1,-1,-1,-1,-1,-1,-1,-1,-1,-1],"loss_changes":[8.8439734E2,1.4354846E2,1.7710901E2,1.8369751E1,3.204985E1,1.4178718E1,2.8547638E1,3.6661377E0,5.6744995E0,6.576462E0,8.813503E0,9.806507E0,8.306023E0,7.508835E0,8.22934E0,0E0,0E0,0E0,0E0,0E0,0E0,0E0,0E0,0E0,0E0,0E0,0E0,0E0,0E0,0E0,0E0],"parents":[2147483647,0,0,1,1,2,2,3,3,4,4,5,5,6,6,7,7,8,8,9,9,10,10,11,11,12,12,13,13,14,14],"right_children":[2,4,6,8,10,12,14,16,18,20,22,24,26,28,30,-1,-1,-1,-1,-1,-1,-1,-1,-1,-1,-1,-1,-1,-1,-1,-1],"split_conditions":[-1.9267298E-1,-5.937975E-1,1.0375936E-1,-8.5229784E-1,-3.1453755E-1,-1.5697871E-1,2.596157E-1,4.065483E-1,4.6E1,-4.7019396E-2,8.896591E-1,9E0,1.2725545E-1,3.6657915E-2,3.5332847E-1,3.8078222E-2,8.682448E-3,2.7901197E-2,1.616883E-2,1.6617527E-2,2.8668618E-2,5.097851E-3,1.29560055E-2,8.770638E-3,9.241598E-5,-5.5762904E-4,-6.6123605E-3,-4.9772714E-3,-1.1217818E-2,-1.2334E-2,-1.7694475E-2],"split_indices":[32,33,33,33,33,33,32,24,20,43,30,19,32,32,33,0,0,0,0,0,0,0,0,0,0,0,0,0,0,0,0],"split_type":[0,0,0,0,0,0,0,0,0,0,0,0,0,0,0,0,0,0,0,0,0,0,0,0,0,0,0,0,0,0,0],"sum_hessian":[5.2695723E3,1.6234178E3,3.6461545E3,5.2861847E2,1.0947994E3,1.4982823E3,2.147872E3,2.4385179E2,2.847667E2,4.8981628E2,6.0498315E2,4.700866E2,1.0281958E3,7.649934E2,1.3828788E3,2.3858865E2,5.263143E0,2.2828992E2,5.6476784E1,4.415394E2,4.827686E1,4.1809772E2,1.868854E2,2.1448102E2,2.5560558E2,7.4990485E2,2.782909E2,2.7657715E2,4.8841623E2,3.7847824E2,1.0044005E3],"tree_param":{"num_deleted":"0","num_feature":"46","num_nodes":"31","size_leaf_vector":"1"}},{"base_weights":[8.556345E-3,9.8104E-2,-2.8564557E-1,1.405897E-1,-3.6570832E-1,-1.7165689E-1,-5.022852E-1,1.7149606E-1,-9.970753E-3,-5.2856547E-1,-2.1816935E-1,-2.406542E-1,-7.820355E-4,-5.1289773E-1,8.012689E-3,5.9129517E-3,2.415408E-4,2.9514618E-3,-2.5367495E-3,-2.368961E-3,-1.6937245E-2,-7.5290627E-3,7.6915515E-3,-7.904362E-3,1.4792076E-2,1.5008785E-2,-1.1175361E-3,-1.6274173E-2,-8.44643E-3,7.1565323E-3,-1.077519E-2],"categories":[],"categories_nodes":[],"categories_segments":[],"categories_sizes":[],"default_left":[0,0,0,0,0,0,0,0,0,0,0,0,0,0,0,0,0,0,0,0,0,0,0,0,0,0,0,0,0,0,0],"id":13,"left_children":[1,3,5,7,9,11,13,15,17,19,21,23,25,27,29,-1,-1,-1,-1,-1,-1,-1,-1,-1,-1,-1,-1,-1,-1,-1,-1],"loss_changes":[1.2198299E2,7.004913E1,2.6509132E1,1.5141373E1,6.9396896E0,8.382246E0,2.0199203E0,1.1291931E1,4.5097265E0,2.1845322E0,2.6187682E0,8.741793E0,3.8111734E0,2.1845932E0,9.78687E-1,0E0,0E0,0E0,0E0,0E0,0E0,0E0,0E0,0E0,0E0,0E0,0E0,0E0,0E0,0E0,0E0],"parents":[2147483647,0,0,1,1,2,2,3,3,4,4,5,5,6,6,7,7,8,8,9,9,10,10,11,11,12,12,13,13,14,14],"right_children":[2,4,6,8,10,12,14,16,18,20,22,24,26,28,30,-1,-1,-1,-1,-1,-1,-1,-1,-1,-1,-1,-1,-1,-1,-1,-1],"split_conditions":[1.9796535E-1,5.557823E-1,5.5564135E-1,2.4386378E-2,-9.206879E-1,1E0,2.4637498E-1,2.900398E-1,1.9653611E-1,6.445213E-1,7.3333335E-1,8.7619823E-1,-1.8711203E-1,7E0,8.333333E-1,5.9129517E-3,2.415408E-4,2.9514618E-3,-2.5367495E-3,-2.368961E-3,-1.6937245E-2,-7.5290627E-3,7.6915515E-3,-7.904362E-3,1.4792076E-2,1.5008785E-2,-1.1175361E-3,-1.6274173E-2,-8.44643E-3,7.1565323E-3,-1.077519E-2],"split_indices":[34,35,34,34,32,44,35,35,32,35,17,28,42,21,18,0,0,0,0,0,0,0,0,0,0,0,0,0,0,0,0],"split_type":[0,0,0,0,0,0,0,0,0,0,0,0,0,0,0,0,0,0,0,0,0,0,0,0,0,0,0,0,0,0,0],"sum_hessian":[4.6260703E3,3.5476028E3,1.0784678E3,3.2511846E3,2.9641818E2,7.0899994E2,3.6946786E2,2.6972312E3,5.539533E2,1.3843982E2,1.5797838E2,5.0447998E2,2.0451993E2,3.6193073E2,7.5371637E0,2.3315935E3,3.6563763E2,2.2559502E2,3.2835828E2,1.0739236E1,1.2770058E2,1.4864677E2,9.331607E0,4.905033E2,1.3976673E1,1.2149748E1,1.923702E2,3.1852267E2,4.340803E1,5.060542E0,2.4766216E0],"tree_param":{"num_deleted":"0","num_feature":"46","num_nodes":"31","size_leaf_vector":"1"}},{"base_weights":[4.0365793E-3,-2.9140577E-1,4.835966E-1,-5.6890666E-1,-9.632621E-2,3.205139E-1,7.473701E-1,-7.151986E-1,-4.2226768E-1,-2.9026863E-1,-1.998739E-2,2.2580164E-2,4.078682E-1,6.0033405E-1,8.4154403E-1,-2.4184829E-2,-1.8484822E-2,-1.0998759E-2,-1.7551916E-2,-1.434031E-2,-7.2929407E-3,1.2996825E-3,-5.618424E-3,-1.6605845E-2,2.2277187E-3,6.19013E-3,1.4236211E-2,2.0284146E-2,1.0118578E-2,1.3800237E-2,2.5635865E-2],"categories":[],"categories_nodes":[],"categories_segments":[],"categories_sizes":[],"default_left":[0,0,0,0,0,0,0,0,0,0,0,0,0,0,0,0,0,0,0,0,0,0,0,0,0,0,0,0,0,0,0],"id":14,"left_children":[1,3,5,7,9,11,13,15,17,19,21,23,25,27,29,-1,-1,-1,-1,-1,-1,-1,-1,-1,-1,-1,-1,-1,-1,-1,-1],"loss_changes":[9.140133E2,2.1599042E2,1.0531085E2,3.4736816E1,3.4728516E1,3.9623856E1,1.1979065E1,6.4100037E0,7.067917E0,5.6354256E0,1.7871881E1,1.0426727E1,1.5628693E1,6.9860077E0,2.0220642E0,0E0,0E0,0E0,0E0,0E0,0E0,0E0,0E0,0E0,0E0,0E0,0E0,0E0,0E0,0E0,0E0],"parents":[2147483647,0,0,1,1,2,2,3,3,4,4,5,5,6,6,7,7,8,8,9,9,10,10,11,11,12,12,13,13,14,14],"right_children":[2,4,6,8,10,12,14,16,18,20,22,24,26,28,30,-1,-1,-1,-1,-1,-1,-1,-1,-1,-1,-1,-1,-1,-1,-1,-1],"split_conditions":[1.8249205E-3,-2.4011917E-1,5.468236E-1,-4.5010978E-1,-1.4613049E-1,1.4203814E-1,5.106939E-1,-6.4651203E-1,1E0,-4.3385023E-1,1E0,-1.686124E-1,1.9857736E-1,1E0,2.8139985E-1,-2.4184829E-2,-1.8484822E-2,-1.0998759E-2,-1.7551916E-2,-1.434031E-2,-7.2929407E-3,1.2996825E-3,-5.618424E-3,-1.6605845E-2,2.2277187E-3,6.19013E-3,1.4236211E-2,2.0284146E-2,1.0118578E-2,1.3800237E-2,2.5635865E-2],"split_indices":[34,32,33,33,33,32,34,32,44,33,44,33,33,44,32,0,0,0,0,0,0,0,0,0,0,0,0,0,0,0,0],"split_type":[0,0,0,0,0,0,0,0,0,0,0,0,0,0,0,0,0,0,0,0,0,0,0,0,0,0,0,0,0,0,0],"sum_hessian":[6.447156E3,3.9898904E3,2.4572656E3,1.6454307E3,2.3444597E3,1.5211918E3,9.360737E2,8.198084E2,8.2562225E2,6.6059125E2,1.6838684E3,3.4546234E2,1.1757294E3,3.7122324E2,5.648505E2,4.198826E2,3.999258E2,6.201607E2,2.054616E2,1.2897926E2,5.31612E2,1.2226526E3,4.6121582E2,2.6838469E1,3.186239E2,2.943089E2,8.8142053E2,2.8573923E2,8.548399E1,2.0988676E1,5.438618E2],"tree_param":{"num_deleted":"0","num_feature":"46","num_nodes":"31","size_leaf_vector":"1"}},{"base_weights":[4.545948E-3,5.906201E-1,-2.636686E-1,3.7835348E-1,9.75733E-1,-6.322424E-2,-4.910748E-1,5.552651E-1,2.3172769E-1,7.926587E-1,1.2222555E0,1.5989138E-1,-1.3373196E-1,-4.005086E-1,-5.8980685E-1,1.4609521E-2,2.4072682E-2,4.2435797E-3,1.4198115E-2,2.8588474E-2,1.9960547E-2,3.7268378E-2,7.863461E-3,2.0815243E-3,1.6200636E-2,-6.2078456E-3,1.2258841E-3,-1.2252234E-2,1.3420677E-2,-1.4195128E-2,-1.8732289E-2],"categories":[],"categories_nodes":[],"categories_segments":[],"categories_sizes":[],"default_left":[0,0,0,0,0,0,0,0,0,0,0,0,0,0,0,0,0,0,0,0,0,0,0,0,0,0,0,0,0,0,0],"id":15,"left_children":[1,3,5,7,9,11,13,15,17,19,21,23,25,27,29,-1,-1,-1,-1,-1,-1,-1,-1,-1,-1,-1,-1,-1,-1,-1,-1],"loss_changes":[8.259596E2,1.3411761E2,1.6425044E2,2.7414429E1,2.4460632E1,3.0219444E1,1.4625732E1,7.35318E0,1.2660271E1,5.697357E0,4.0700684E0,1.5804097E1,1.8658743E1,6.305374E0,2.6523743E0,0E0,0E0,0E0,0E0,0E0,0E0,0E0,0E0,0E0,0E0,0E0,0E0,0E0,0E0,0E0,0E0],"parents":[2147483647,0,0,1,1,2,2,3,3,4,4,5,5,6,6,7,7,8,8,9,9,10,10,11,11,12,12,13,13,14,14],"right_children":[2,4,6,8,10,12,14,16,18,20,22,24,26,28,30,-1,-1,-1,-1,-1,-1,-1,-1,-1,-1,-1,-1,-1,-1,-1,-1],"split_conditions":[-1.9267298E-1,4.0731692E-1,2.1292906E-1,-3.1453755E-1,6.9841975E-1,-1.5697871E-1,4.522264E-1,1E0,1E0,-6.7100334E-1,-3.4479806E-1,1.7087793E-1,1E0,1.1490333E0,4.5762885E-1,1.4609521E-2,2.4072682E-2,4.2435797E-3,1.4198115E-2,2.8588474E-2,1.9960547E-2,3.7268378E-2,7.863461E-3,2.0815243E-3,1.6200636E-2,-6.2078456E-3,1.2258841E-3,-1.2252234E-2,1.3420677E-2,-1.4195128E-2,-1.8732289E-2],"split_indices":[32,35,33,33,35,33,32,44,44,33,33,35,44,28,33,0,0,0,0,0,0,0,0,0,0,0,0,0,0,0,0],"split_type":[0,0,0,0,0,0,0,0,0,0,0,0,0,0,0,0,0,0,0,0,0,0,0,0,0,0,0,0,0,0,0],"sum_hessian":[5.2504277E3,1.6476821E3,3.6027454E3,1.064768E3,5.829142E2,1.9162483E3,1.6864972E3,4.8002225E2,5.8474567E2,3.3934106E2,2.4357315E2,4.595395E2,1.4567089E3,8.84899E2,8.015982E2,3.8076947E2,9.925276E1,4.2796707E2,1.5677861E2,1.4447008E2,1.9487099E2,2.3802148E2,5.5516653E0,3.7307663E2,8.646285E1,1.0261433E3,4.3056555E2,8.777579E2,7.141077E0,1.901172E2,6.11481E2],"tree_param":{"num_deleted":"0","num_feature":"46","num_nodes":"31","size_leaf_vector":"1"}},{"base_weights":[1.0959639E-2,1.01761796E-1,-3.0236533E-1,-3.3252966E-1,1.3823108E-1,-1.82976E-1,-5.101308E-1,-5.171876E-1,-1.8663195E-1,1.7715724E-1,-3.3543114E-2,1.0702701E-1,-2.1557769E-1,-5.2635163E-1,-2.570674E-1,-1.5960215E-2,9.087417E-3,-1.2834728E-2,-1.7010358E-3,2.4305005E-3,6.3581835E-3,-4.142695E-3,1.8007867E-3,-1.0606475E-2,7.705149E-3,-2.4706551E-3,-7.90035E-3,9.899094E-4,-1.6005063E-2,-1.1908702E-2,7.2958386E-3],"categories":[],"categories_nodes":[],"categories_segments":[],"categories_sizes":[],"default_left":[0,0,0,0,0,0,0,0,0,0,0,0,0,0,0,0,0,0,0,0,0,0,0,0,0,0,0,0,0,0,0],"id":16,"left_children":[1,3,5,7,9,11,13,15,17,19,21,23,25,27,29,-1,-1,-1,-1,-1,-1,-1,-1,-1,-1,-1,-1,-1,-1,-1,-1],"loss_changes":[1.3266338E2,5.734828E1,2.5801994E1,7.3677654E0,2.2320854E1,6.3664646E0,1.2942963E0,1.8140068E0,4.9625916E0,9.062439E0,6.0627933E0,4.9351783E0,3.7850075E0,1.460495E0,2.0737026E0,0E0,0E0,0E0,0E0,0E0,0E0,0E0,0E0,0E0,0E0,0E0,0E0,0E0,0E0,0E0,0E0],"parents":[2147483647,0,0,1,1,2,2,3,3,4,4,5,5,6,6,7,7,8,8,9,9,10,10,11,11,12,12,13,13,14,14],"right_children":[2,4,6,8,10,12,14,16,18,20,22,24,26,28,30,-1,-1,-1,-1,-1,-1,-1,-1,-1,-1,-1,-1,-1,-1,-1,-1],"split_conditions":[2.1925755E-1,-7.3346907E-1,5.5564135E-1,-9.206879E-1,2.4386378E-2,2.0359074E-1,2.1111112E0,1.8333334E0,2.3E1,-3.068393E-1,9.352721E-2,9.9345185E-3,2.4845408E-1,2.5E-1,2E0,-1.5960215E-2,9.087417E-3,-1.2834728E-2,-1.7010358E-3,2.4305005E-3,6.3581835E-3,-4.142695E-3,1.8007867E-3,-1.0606475E-2,7.705149E-3,-2.4706551E-3,-7.90035E-3,9.899094E-4,-1.6005063E-2,-1.1908702E-2,7.2958386E-3],"split_indices":[34,33,34,32,34,33,14,13,22,33,40,33,24,12,3,0,0,0,0,0,0,0,0,0,0,0,0,0,0,0,0],"split_type":[0,0,0,0,0,0,0,0,0,0,0,0,0,0,0,0,0,0,0,0,0,0,0,0,0,0,0,0,0,0,0],"sum_hessian":[4.6587773E3,3.6130574E3,1.0457202E3,2.7864154E2,3.3344158E3,6.664919E2,3.7922833E2,1.2073787E2,1.5790366E2,2.718343E3,6.1607275E2,6.689278E1,5.995991E2,3.5435504E2,2.4873276E1,1.1928493E2,1.4529471E0,5.3676945E1,1.0422671E2,7.239503E2,1.9943926E3,2.90519E2,3.2555377E2,1.5750352E1,5.114242E1,1.5968564E2,4.399135E2,4.3814964E0,3.4997354E2,1.9760588E1,5.1126895E0],"tree_param":{"num_deleted":"0","num_feature":"46","num_nodes":"31","size_leaf_vector":"1"}},{"base_weights":[-2.13799E-3,-2.876118E-1,4.7304186E-1,-5.588138E-1,-9.738287E-2,3.1976408E-1,7.233912E-1,-7.043319E-1,-4.1315496E-1,-3.0067906E-1,-1.857611E-2,4.3170523E-2,4.2472473E-1,5.7131207E-1,8.360473E-1,-1.8546144E-2,-2.3541901E-2,-1.8388811E-2,-1.1260078E-2,-7.948589E-3,-1.6258778E-2,-1.8919598E-3,3.6454531E-3,-1.7440317E-2,2.6912596E-3,8.159654E-3,1.4188206E-2,2.0740233E-2,1.4670358E-2,2.5838112E-2,1.9052152E-2],"categories":[],"categories_nodes":[],"categories_segments":[],"categories_sizes":[],"default_left":[0,0,0,0,0,0,0,0,0,0,0,0,0,0,0,0,0,0,0,0,0,0,0,0,0,0,0,0,0,0,0],"id":17,"left_children":[1,3,5,7,9,11,13,15,17,19,21,23,25,27,29,-1,-1,-1,-1,-1,-1,-1,-1,-1,-1,-1,-1,-1,-1,-1,-1],"loss_changes":[8.6479205E2,2.0535095E2,9.134808E1,3.4209167E1,3.7528076E1,4.3150024E1,1.4584045E1,4.6957703E0,5.775009E0,5.3539734E0,1.0552594E1,1.20623255E1,7.682434E0,3.1989899E0,1.5254517E0,0E0,0E0,0E0,0E0,0E0,0E0,0E0,0E0,0E0,0E0,0E0,0E0,0E0,0E0,0E0,0E0],"parents":[2147483647,0,0,1,1,2,2,3,3,4,4,5,5,6,6,7,7,8,8,9,9,10,10,11,11,12,12,13,13,14,14],"right_children":[2,4,6,8,10,12,14,16,18,20,22,24,26,28,30,-1,-1,-1,-1,-1,-1,-1,-1,-1,-1,-1,-1,-1,-1,-1,-1],"split_conditions":[1.8249205E-3,-2.4011917E-1,5.468236E-1,-4.5010978E-1,-1.4613049E-1,1.7548577E-1,5.3707755E-1,5.1846933E-1,-6.90703E-1,8.2E1,1.6747934E-1,-1.686124E-1,1.9857736E-1,3.4577703E-1,6E0,-1.8546144E-2,-2.3541901E-2,-1.8388811E-2,-1.1260078E-2,-7.948589E-3,-1.6258778E-2,-1.8919598E-3,3.6454531E-3,-1.7440317E-2,2.6912596E-3,8.159654E-3,1.4188206E-2,2.0740233E-2,1.4670358E-2,2.5838112E-2,1.9052152E-2],"split_indices":[34,32,33,33,33,32,34,35,34,20,33,33,33,43,21,0,0,0,0,0,0,0,0,0,0,0,0,0,0,0,0],"split_type":[0,0,0,0,0,0,0,0,0,0,0,0,0,0,0,0,0,0,0,0,0,0,0,0,0,0,0,0,0,0,0],"sum_hessian":[6.3711E3,3.9805151E3,2.390585E3,1.6394045E3,2.3411106E3,1.485583E3,9.050019E2,8.162613E2,8.231432E2,6.524271E2,1.6886836E3,4.0944128E2,1.0761416E3,3.9028397E2,5.1471796E2,4.0248022E2,4.1378107E2,1.2616616E2,6.96977E2,5.719372E2,8.0489914E1,1.2824967E3,4.0618692E2,2.680121E1,3.8264008E2,2.6139157E2,8.147501E2,1.5273294E2,2.3755103E2,4.5148416E2,6.323377E1],"tree_param":{"num_deleted":"0","num_feature":"46","num_nodes":"31","size_leaf_vector":"1"}},{"base_weights":[1.0572532E-2,5.939187E-1,-2.562624E-1,9.7861075E-1,4.4352496E-1,-4.510327E-2,-4.5025772E-1,1.1997935E0,8.0896443E-1,3.67828E-1,6.488309E-1,-1.22367166E-1,1.3394517E-1,-2.8813252E-1,-5.0911075E-1,3.6760624E-2,1.970039E-2,2.2105966E-2,3.302584E-2,1.4960006E-2,7.808781E-3,1.45172365E-2,2.58073E-2,-5.232415E-4,-6.8643894E-3,1.158144E-2,5.6549744E-4,-1.0844416E-2,-1.9808116E-3,-1.3723416E-2,-1.8374825E-2],"categories":[],"categories_nodes":[],"categories_segments":[],"categories_sizes":[],"default_left":[0,0,0,0,0,0,0,0,0,0,0,0,0,0,0,0,0,0,0,0,0,0,0,0,0,0,0,0,0,0,0],"id":18,"left_children":[1,3,5,7,9,11,13,15,17,19,21,23,25,27,29,-1,-1,-1,-1,-1,-1,-1,-1,-1,-1,-1,-1,-1,-1,-1,-1],"loss_changes":[8.170576E2,9.444556E1,1.4749823E2,1.5371185E1,1.798648E1,2.3920921E1,1.7615295E1,1.1134338E0,4.0020447E0,1.2018303E1,1.0235046E1,1.3476156E1,1.5116647E1,8.170807E0,6.7806396E0,0E0,0E0,0E0,0E0,0E0,0E0,0E0,0E0,0E0,0E0,0E0,0E0,0E0,0E0,0E0,0E0],"parents":[2147483647,0,0,1,1,2,2,3,3,4,4,5,5,6,6,7,7,8,8,9,9,10,10,11,11,12,12,13,13,14,14],"right_children":[2,4,6,8,10,12,14,16,18,20,22,24,26,28,30,-1,-1,-1,-1,-1,-1,-1,-1,-1,-1,-1,-1,-1,-1,-1,-1],"split_conditions":[-1.9267298E-1,-6.4651203E-1,1.6532777E-1,-9.555709E-1,1E0,1E0,8.65108E-2,4.8198783E-1,2.625E0,-5.629367E-1,1.5E0,3.429253E-3,-6.314257E-2,5.009665E-1,6.582703E-1,3.6760624E-2,1.970039E-2,2.2105966E-2,3.302584E-2,1.4960006E-2,7.808781E-3,1.45172365E-2,2.58073E-2,-5.232415E-4,-6.8643894E-3,1.158144E-2,5.6549744E-4,-1.0844416E-2,-1.9808116E-3,-1.3723416E-2,-1.8374825E-2],"split_indices":[32,32,32,32,44,44,34,26,12,34,6,43,32,28,32,0,0,0,0,0,0,0,0,0,0,0,0,0,0,0,0],"split_type":[0,0,0,0,0,0,0,0,0,0,0,0,0,0,0,0,0,0,0,0,0,0,0,0,0,0,0,0,0,0,0],"sum_hessian":[5.2451294E3,1.645449E3,3.5996807E3,4.5938202E2,1.186067E3,1.7247728E3,1.8749078E3,1.9413135E2,2.6525064E2,8.706418E2,3.154252E2,1.2052921E3,5.1948065E2,5.0248395E2,1.3724238E3,1.8300615E2,1.1125196E1,2.183634E2,4.6887253E1,3.8948206E2,4.8115976E2,1.8089038E2,1.345348E2,6.081521E2,5.971401E2,1.613512E2,3.581295E2,3.76796E2,1.2568797E2,9.2234973E2,4.5007416E2],"tree_param":{"num_deleted":"0","num_feature":"46","num_nodes":"31","size_leaf_vector":"1"}},{"base_weights":[6.9448436E-3,8.597461E-2,-3.3525285E-1,1.22695856E-1,-3.423701E-1,-2.1622215E-1,-4.8958805E-1,1.6234066E-1,-1.7650899E-2,-1.4418614E-1,-4.5472828E-1,-2.627352E-1,-6.0712073E-2,-4.9985516E-1,1.5208745E-2,5.637626E-3,-2.3835462E-5,-4.105694E-3,2.7687133E-3,-5.8719167E-3,1.4054737E-2,-1.4526803E-2,3.7733323E-3,-1.6118055E-2,-6.8693343E-3,2.447235E-2,-3.2719844E-3,-1.55213205E-2,-5.7935636E-3,1.0316072E-2,-1.1837945E-2],"categories":[],"categories_nodes":[],"categories_segments":[],"categories_sizes":[],"default_left":[0,0,0,0,0,0,0,0,0,0,0,0,0,0,0,0,0,0,0,0,0,0,0,0,0,0,0,0,0,0,0],"id":19,"left_children":[1,3,5,7,9,11,13,15,17,19,21,23,25,27,29,-1,-1,-1,-1,-1,-1,-1,-1,-1,-1,-1,-1,-1,-1,-1,-1],"loss_changes":[1.2546453E2,5.936402E1,1.5778534E1,1.9327599E1,6.506954E0,3.5485592E0,1.9713211E0,1.1300713E1,1.0073159E1,3.6820588E0,3.3637123E0,3.2796211E0,5.118132E0,1.7886047E0,1.5461122E0,0E0,0E0,0E0,0E0,0E0,0E0,0E0,0E0,0E0,0E0,0E0,0E0,0E0,0E0,0E0,0E0],"parents":[2147483647,0,0,1,1,2,2,3,3,4,4,5,5,6,6,7,7,8,8,9,9,10,10,11,11,12,12,13,13,14,14],"right_children":[2,4,6,8,10,12,14,16,18,20,22,24,26,28,30,-1,-1,-1,-1,-1,-1,-1,-1,-1,-1,-1,-1,-1,-1,-1,-1],"split_conditions":[2.8037632E-1,5.557823E-1,5.5564135E-1,2.4386378E-2,6.9841975E-1,1.6666666E0,2.4637498E-1,2.900398E-1,-4.5117247E-1,-4.089368E-1,2.25E0,2.8675258E-2,9.438263E-2,1.5606971E3,4.2222223E0,5.637626E-3,-2.3835462E-5,-4.105694E-3,2.7687133E-3,-5.8719167E-3,1.4054737E-2,-1.4526803E-2,3.7733323E-3,-1.6118055E-2,-6.8693343E-3,2.447235E-2,-3.2719844E-3,-1.55213205E-2,-5.7935636E-3,1.0316072E-2,-1.1837945E-2],"split_indices":[34,35,34,34,35,10,35,35,35,33,5,40,33,2,15,0,0,0,0,0,0,0,0,0,0,0,0,0,0,0,0],"split_type":[0,0,0,0,0,0,0,0,0,0,0,0,0,0,0,0,0,0,0,0,0,0,0,0,0,0,0,0,0,0,0],"sum_hessian":[4.635176E3,3.7667507E3,8.6842487E2,3.4706455E3,2.9610526E2,4.930009E2,3.7542398E2,2.7059595E3,7.6468616E2,1.08786964E2,1.873183E2,3.784327E2,1.14568184E2,3.679596E2,7.4643817E0,2.338906E3,3.6705347E2,3.6665033E2,3.9803583E2,1.0160041E2,7.1865554E0,1.7857565E2,8.742646E0,3.8171364E1,3.4026135E2,4.330675E0,1.102375E2,3.4677664E2,2.1182957E1,4.3208833E0,3.1434984E0],"tree_param":{"num_deleted":"0","num_feature":"46","num_nodes":"31","size_leaf_vector":"1"}},{"base_weights":[-6.183777E-4,-3.3340302E-1,3.9490587E-1,-5.8116835E-1,-1.5806249E-1,1.796771E-1,6.038016E-1,-7.569378E-1,-4.9521077E-1,-3.6104193E-1,-9.1006346E-2,1.30447615E-2,3.0319804E-1,4.684555E-1,7.703999E-1,-2.383728E-2,-1.93362E-2,-1.7026752E-2,-1.1735215E-2,-1.1421288E-2,1.8325378E-3,-5.8158985E-3,-7.802563E-4,8.688058E-3,-9.6710754E-4,1.0238588E-2,9.3982235E-4,1.0022853E-2,1.5816873E-2,1.5881363E-2,2.4387246E-2],"categories":[],"categories_nodes":[],"categories_segments":[],"categories_sizes":[],"default_left":[0,0,0,0,0,0,0,0,0,0,0,0,0,0,0,0,0,0,0,0,0,0,0,0,0,0,0,0,0,0,0],"id":20,"left_children":[1,3,5,7,9,11,13,15,17,19,21,23,25,27,29,-1,-1,-1,-1,-1,-1,-1,-1,-1,-1,-1,-1,-1,-1,-1,-1],"loss_changes":[8.4590326E2,1.51439E2,1.3180988E2,2.1091583E1,2.7789536E1,2.981997E1,3.2860413E1,9.682617E-1,6.9067993E0,4.2601166E0,1.0292212E1,7.770636E0,8.595711E0,6.177185E0,5.9473267E0,0E0,0E0,0E0,0E0,0E0,0E0,0E0,0E0,0E0,0E0,0E0,0E0,0E0,0E0,0E0,0E0],"parents":[2147483647,0,0,1,1,2,2,3,3,4,4,5,5,6,6,7,7,8,8,9,9,10,10,11,11,12,12,13,13,14,14],"right_children":[2,4,6,8,10,12,14,16,18,20,22,24,26,28,30,-1,-1,-1,-1,-1,-1,-1,-1,-1,-1,-1,-1,-1,-1,-1,-1],"split_conditions":[6.26469E-2,-2.7153203E-1,3.5332847E-1,-6.4651203E-1,-2.4011917E-1,1.0375936E-1,5.8742225E-1,-6.0644484E-1,-4.2615056E-1,4.2102313E-1,-5.2624787E-3,6.666667E-1,3.1436497E-1,-4.3459502E-1,5.113114E-1,-2.383728E-2,-1.93362E-2,-1.7026752E-2,-1.1735215E-2,-1.1421288E-2,1.8325378E-3,-5.8158985E-3,-7.802563E-4,8.688058E-3,-9.6710754E-4,1.0238588E-2,9.3982235E-4,1.0022853E-2,1.5816873E-2,1.5881363E-2,2.4387246E-2],"split_indices":[32,33,33,32,32,33,32,33,33,41,33,7,43,41,33,0,0,0,0,0,0,0,0,0,0,0,0,0,0,0,0],"split_type":[0,0,0,0,0,0,0,0,0,0,0,0,0,0,0,0,0,0,0,0,0,0,0,0,0,0,0,0,0,0,0],"sum_hessian":[6.422644E3,3.4881296E3,2.9345146E3,1.4436077E3,2.044522E3,1.4471804E3,1.4873341E3,4.6898877E2,9.7461884E2,5.0552518E2,1.5389968E3,6.170195E2,8.30161E2,8.248456E2,6.624886E2,3.4224423E2,1.26744514E2,5.6960376E2,4.050151E2,4.832078E2,2.2317366E1,5.9440485E2,9.44592E2,8.529436E1,5.317251E2,7.2770154E2,1.0245944E2,2.550814E2,5.6976416E2,1.0335802E2,5.5913055E2],"tree_param":{"num_deleted":"0","num_feature":"46","num_nodes":"31","size_leaf_vector":"1"}},{"base_weights":[-9.872728E-4,-2.2728273E-1,6.327391E-1,-1.9856015E-2,-4.6078208E-1,1.0266384E0,4.6711555E-1,-1.5928523E-1,9.231516E-2,-1.5894844E-1,-4.986393E-1,1.181886E0,8.723442E-1,3.138817E-1,6.162952E-1,-6.6877957E-3,3.2644958E-4,-2.1567044E-3,5.519452E-3,-5.9146085E-3,1.4050488E-2,-1.3416699E-2,-1.835894E-2,3.5705812E-2,4.3425113E-3,1.2534168E-3,2.6590744E-2,1.3055633E-2,5.5260956E-3,2.3401363E-2,1.5458575E-2],"categories":[],"categories_nodes":[],"categories_segments":[],"categories_sizes":[],"default_left":[0,0,0,0,0,0,0,0,0,0,0,0,0,0,0,0,0,0,0,0,0,0,0,0,0,0,0,0,0,0,0],"id":21,"left_children":[1,3,5,7,9,11,13,15,17,19,21,23,25,27,29,-1,-1,-1,-1,-1,-1,-1,-1,-1,-1,-1,-1,-1,-1,-1,-1],"loss_changes":[7.5281506E2,1.873312E2,8.915332E1,3.20995E1,2.0633484E1,7.691864E0,2.1925446E1,9.913111E0,1.7149834E1,5.1150846E0,8.868011E0,1.3557434E0,2.3918915E0,7.478035E0,7.3422394E0,0E0,0E0,0E0,0E0,0E0,0E0,0E0,0E0,0E0,0E0,0E0,0E0,0E0,0E0,0E0,0E0],"parents":[2147483647,0,0,1,1,2,2,3,3,4,4,5,5,6,6,7,7,8,8,9,9,10,10,11,11,12,12,13,13,14,14],"right_children":[2,4,6,8,10,12,14,16,18,20,22,24,26,28,30,-1,-1,-1,-1,-1,-1,-1,-1,-1,-1,-1,-1,-1,-1,-1,-1],"split_conditions":[1.1744613E-1,1.6532777E-1,-7.0590687E-1,-1.3880613E-1,5.124691E-2,-8.3238196E-1,2.900398E-1,1E0,5.6314584E-2,2.625E0,6.25599E-1,2E0,-4.9789783E-1,-3.068393E-1,-5.5783284E-1,-6.6877957E-3,3.2644958E-4,-2.1567044E-3,5.519452E-3,-5.9146085E-3,1.4050488E-2,-1.3416699E-2,-1.835894E-2,3.5705812E-2,4.3425113E-3,1.2534168E-3,2.6590744E-2,1.3055633E-2,5.5260956E-3,2.3401363E-2,1.5458575E-2],"split_indices":[35,32,33,35,33,32,35,44,39,11,33,13,38,33,33,0,0,0,0,0,0,0,0,0,0,0,0,0,0,0,0],"split_type":[0,0,0,0,0,0,0,0,0,0,0,0,0,0,0,0,0,0,0,0,0,0,0,0,0,0,0,0,0,0,0],"sum_hessian":[5.2454062E3,3.8661406E3,1.3792657E3,2.048525E3,1.8176157E3,4.0519693E2,9.7406885E2,9.129207E2,1.1356042E3,2.0372495E2,1.6138907E3,1.9533498E2,2.0986195E2,4.835676E2,4.9050122E2,6.639775E2,2.4894327E2,4.069869E2,7.286173E2,1.933222E2,1.04027405E1,1.1169987E3,4.9689206E2,1.9348991E2,1.8450629E0,3.6143374E0,2.0624762E2,2.4741483E2,2.3615277E2,1.820034E2,3.084978E2],"tree_param":{"num_deleted":"0","num_feature":"46","num_nodes":"31","size_leaf_vector":"1"}},{"base_weights":[4.15721E-3,6.4677164E-2,-3.952398E-1,-3.475074E-1,9.509214E-2,-2.7587792E-1,-5.157895E-1,-5.3676E-1,-1.9446331E-1,1.5101178E-1,-5.507295E-2,7.647684E-2,-2.9941517E-1,-5.3192455E-1,-2.76139E-1,-3.8893223E-3,-1.693163E-2,-7.693597E-3,4.3814466E-3,4.987171E-3,-3.419383E-3,4.0141237E-3,-2.4894935E-3,2.1870812E-2,-3.7632452E-3,-9.530851E-3,8.00655E-3,-1.6149772E-2,4.00677E-3,8.479376E-3,-1.128063E-2],"categories":[],"categories_nodes":[],"categories_segments":[],"categories_sizes":[],"default_left":[0,0,0,0,0,0,0,0,0,0,0,0,0,0,0,0,0,0,0,0,0,0,0,0,0,0,0,0,0,0,0],"id":22,"left_children":[1,3,5,7,9,11,13,15,17,19,21,23,25,27,29,-1,-1,-1,-1,-1,-1,-1,-1,-1,-1,-1,-1,-1,-1,-1,-1],"loss_changes":[1.1222207E2,5.0609764E1,8.50621E0,7.828274E0,3.1558205E1,2.62739E0,8.7267303E-1,1.2363281E0,3.3795013E0,1.1084038E1,5.4028482E0,2.96104E0,3.194355E0,1.3385696E0,1.5067282E0,0E0,0E0,0E0,0E0,0E0,0E0,0E0,0E0,0E0,0E0,0E0,0E0,0E0,0E0,0E0,0E0],"parents":[2147483647,0,0,1,1,2,2,3,3,4,4,5,5,6,6,7,7,8,8,9,9,10,10,11,11,12,12,13,13,14,14],"right_children":[2,4,6,8,10,12,14,16,18,20,22,24,26,28,30,-1,-1,-1,-1,-1,-1,-1,-1,-1,-1,-1,-1,-1,-1,-1,-1],"split_conditions":[3.9707112E-1,-7.3346907E-1,7.478736E-1,-9.206879E-1,2.4386378E-2,1.4619169E-1,3.6434573E-1,-3.5E1,5.1603517E-3,4.2102313E-1,6.26469E-2,-1.9848418E-1,1.3E2,6.957026E-1,1.2414709E0,-3.8893223E-3,-1.693163E-2,-7.693597E-3,4.3814466E-3,4.987171E-3,-3.419383E-3,4.0141237E-3,-2.4894935E-3,2.1870812E-2,-3.7632452E-3,-9.530851E-3,8.00655E-3,-1.6149772E-2,4.00677E-3,8.479376E-3,-1.128063E-2],"split_indices":[34,33,33,32,34,32,30,21,37,41,32,43,21,36,26,0,0,0,0,0,0,0,0,0,0,0,0,0,0,0,0],"split_type":[0,0,0,0,0,0,0,0,0,0,0,0,0,0,0,0,0,0,0,0,0,0,0,0,0,0,0,0,0,0,0],"sum_hessian":[4.6386304E3,4.0296938E3,6.089365E2,2.754835E2,3.7542102E3,3.0928046E2,2.9965607E2,1.2092927E2,1.5455423E2,2.7355234E3,1.01868677E3,1.908455E1,2.9019592E2,2.7846835E2,2.118773E1,8.408497E0,1.1252077E2,1.3116875E2,2.338548E1,2.5875784E3,1.4794527E2,1.3017337E2,8.885134E2,3.2760754E0,1.5808475E1,2.8197202E2,8.223902E0,2.7619382E2,2.27452E0,2.6580138E0,1.8529716E1],"tree_param":{"num_deleted":"0","num_feature":"46","num_nodes":"31","size_leaf_vector":"1"}},{"base_weights":[-8.144176E-4,-2.834766E-1,4.4153115E-1,-5.0772774E-1,-7.39899E-2,2.852001E-1,6.920216E-1,-6.666019E-1,-3.7485123E-1,-2.559789E-1,-9.817248E-3,-4.6179727E-2,3.5568675E-1,5.4001665E-1,7.903778E-1,-2.3585534E-2,-1.8082403E-2,-1.7625477E-2,-1.0235246E-2,-1.3626052E-2,-6.450524E-3,-2.2754679E-3,3.7804376E-3,1.307917E-3,-8.269098E-3,1.2527541E-2,5.600102E-3,1.892953E-2,1.0027822E-2,2.4247829E-2,1.6045837E-2],"categories":[],"categories_nodes":[],"categories_segments":[],"categories_sizes":[],"default_left":[0,0,0,0,0,0,0,0,0,0,0,0,0,0,0,0,0,0,0,0,0,0,0,0,0,0,0,0,0,0,0],"id":23,"left_children":[1,3,5,7,9,11,13,15,17,19,21,23,25,27,29,-1,-1,-1,-1,-1,-1,-1,-1,-1,-1,-1,-1,-1,-1,-1,-1],"loss_changes":[8.007136E2,1.8347626E2,9.737616E1,3.9330994E1,2.3614546E1,3.6020485E1,1.3469513E1,5.5943604E0,6.990143E0,4.0849304E0,1.3448599E1,5.6273756E0,1.3137894E1,6.7409134E0,1.7735596E0,0E0,0E0,0E0,0E0,0E0,0E0,0E0,0E0,0E0,0E0,0E0,0E0,0E0,0E0,0E0,0E0],"parents":[2147483647,0,0,1,1,2,2,3,3,4,4,5,5,6,6,7,7,8,8,9,9,10,10,11,11,12,12,13,13,14,14],"right_children":[2,4,6,8,10,12,14,16,18,20,22,24,26,28,30,-1,-1,-1,-1,-1,-1,-1,-1,-1,-1,-1,-1,-1,-1,-1,-1],"split_conditions":[1.6247243E-1,-1.7236713E-1,5.3945154E-1,-4.5010978E-1,-1.4613049E-1,3.131811E-2,5.5970037E-1,-8.266261E-1,-5.6995535E-1,-4.2615056E-1,1.2725545E-1,1E0,1E0,1E0,5.897714E-1,-2.3585534E-2,-1.8082403E-2,-1.7625477E-2,-1.0235246E-2,-1.3626052E-2,-6.450524E-3,-2.2754679E-3,3.7804376E-3,1.307917E-3,-8.269098E-3,1.2527541E-2,5.600102E-3,1.892953E-2,1.0027822E-2,2.4247829E-2,1.6045837E-2],"split_indices":[33,32,33,33,33,32,32,33,32,33,32,44,44,44,30,0,0,0,0,0,0,0,0,0,0,0,0,0,0,0,0],"split_type":[0,0,0,0,0,0,0,0,0,0,0,0,0,0,0,0,0,0,0,0,0,0,0,0,0,0,0,0,0,0,0],"sum_hessian":[6.399947E3,3.9052078E3,2.494739E3,1.884762E3,2.0204459E3,1.5387085E3,9.5603064E2,8.547475E2,1.0300144E3,5.2515796E2,1.495288E3,2.7000766E2,1.2687009E3,3.8068314E2,5.753475E2,2.8966437E2,5.650831E2,1.3631284E2,8.937016E2,8.648038E1,4.3867755E2,1.0067578E3,4.8853015E2,1.952388E2,7.476885E1,9.264656E2,3.422353E2,2.6110947E2,1.19573654E2,5.336702E2,4.167723E1],"tree_param":{"num_deleted":"0","num_feature":"46","num_nodes":"31","size_leaf_vector":"1"}},{"base_weights":[2.8052793E-3,-2.1377452E-1,6.345582E-1,-4.2327103E-1,1.4425113E-2,4.7909972E-1,9.8923874E-1,-3.017463E-1,-5.4373556E-1,5.514396E-2,-2.88244E-1,5.6435317E-1,2.9632482E-1,1.0163934E0,1.913855E-1,-5.6958385E-3,-1.0709855E-2,-1.4336481E-2,-1.828298E-2,1.2690179E-2,8.4750284E-4,9.442513E-3,-9.542045E-3,1.5034384E-2,2.01367E-2,1.0802942E-2,-2.5527144E-3,2.752332E-2,3.670758E-2,-3.5914534E-3,2.4658171E-2],"categories":[],"categories_nodes":[],"categories_segments":[],"categories_sizes":[],"default_left":[0,0,0,0,0,0,0,0,0,0,0,0,0,0,0,0,0,0,0,0,0,0,0,0,0,0,0,0,0,0,0],"id":24,"left_children":[1,3,5,7,9,11,13,15,17,19,21,23,25,27,29,-1,-1,-1,-1,-1,-1,-1,-1,-1,-1,-1,-1,-1,-1,-1,-1],"loss_changes":[7.1194794E2,1.8526213E2,7.22984E1,2.9248352E1,2.29134E1,1.4117645E1,8.340851E0,6.1092224E0,3.796173E0,1.6182611E1,4.1652737E0,3.5845947E0,7.3395214E0,5.734375E0,3.2817943E0,0E0,0E0,0E0,0E0,0E0,0E0,0E0,0E0,0E0,0E0,0E0,0E0,0E0,0E0,0E0,0E0],"parents":[2147483647,0,0,1,1,2,2,3,3,4,4,5,5,6,6,7,7,8,8,9,9,10,10,11,11,12,12,13,13,14,14],"right_children":[2,4,6,8,10,12,14,16,18,20,22,24,26,28,30,-1,-1,-1,-1,-1,-1,-1,-1,-1,-1,-1,-1,-1,-1,-1,-1],"split_conditions":[1.2937425E-1,-2.8773716E-1,5.557823E-1,3.8851795E-1,1.08163245E-1,-3.1453755E-1,-3.1453755E-1,-1.4447215E-1,4.316402E-1,-6.795194E-1,9.8455794E-2,-1.3762619E-1,6.2590085E-2,9.8928964E-1,-1.5249269E-1,-5.6958385E-3,-1.0709855E-2,-1.4336481E-2,-1.828298E-2,1.2690179E-2,8.4750284E-4,9.442513E-3,-9.542045E-3,1.5034384E-2,2.01367E-2,1.0802942E-2,-2.5527144E-3,2.752332E-2,3.670758E-2,-3.5914534E-3,2.4658171E-2],"split_indices":[35,35,35,33,34,33,33,34,34,34,29,42,34,35,37,0,0,0,0,0,0,0,0,0,0,0,0,0,0,0,0],"split_type":[0,0,0,0,0,0,0,0,0,0,0,0,0,0,0,0,0,0,0,0,0,0,0,0,0,0,0,0,0,0,0],"sum_hessian":[5.199368E3,3.872952E3,1.326416E3,2.0183319E3,1.85462E3,9.254762E2,4.0093985E2,1.00823425E3,1.01009766E3,1.6361414E3,2.1847864E2,6.2825684E2,2.972194E2,3.8721335E2,1.3726495E1,3.362215E2,6.7201276E2,5.127153E2,4.973824E2,1.0945991E2,1.5266815E3,9.396205E0,2.0908243E2,4.0192288E2,2.2633394E2,2.5473848E2,4.2480904E1,2.6940784E2,1.1780552E2,1.0276562E1,3.4499333E0],"tree_param":{"num_deleted":"0","num_feature":"46","num_nodes":"31","size_leaf_vector":"1"}},{"base_weights":[2.7863774E-3,6.554503E-2,-4.2035967E-1,9.6833564E-2,-3.3508262E-1,-2.8507864E-1,-5.4761046E-1,1.5566231E-1,-6.5564185E-2,-2.3474848E-1,-5.729864E-1,-2.96632E-1,2.3490643E-2,-5.711637E-1,-4.0039355E-1,5.386685E-3,-4.7072048E-5,-4.3980833E-3,7.3161424E-4,-7.9602925E-3,1.0571327E-2,-2.617339E-3,-1.7835345E-2,-9.527838E-3,2.3380355E-3,1.3157255E-3,-1.7240696E-2,-1.3050139E-2,8.396904E-3],"categories":[],"categories_nodes":[],"categories_segments":[],"categories_sizes":[],"default_left":[0,0,0,0,0,0,0,0,0,0,0,0,0,0,0,0,0,0,0,0,0,0,0,0,0,0,0,0,0],"id":25,"left_children":[1,3,5,7,9,11,13,15,17,19,21,23,-1,25,27,-1,-1,-1,-1,-1,-1,-1,-1,-1,-1,-1,-1,-1,-1],"loss_changes":[1.2350317E2,5.0830696E1,1.0028122E1,3.5923817E1,6.7446327E0,4.1088467E0,6.083374E-1,1.0366951E1,7.302213E0,3.9602156E0,7.9306984E-1,2.35491E0,0E0,6.148529E-1,1.3991365E0,0E0,0E0,0E0,0E0,0E0,0E0,0E0,0E0,0E0,0E0,0E0,0E0,0E0,0E0],"parents":[2147483647,0,0,1,1,2,2,3,3,4,4,5,5,6,6,7,7,8,8,9,9,10,10,11,11,13,13,14,14],"right_children":[2,4,6,8,10,12,14,16,18,20,22,24,-1,26,28,-1,-1,-1,-1,-1,-1,-1,-1,-1,-1,-1,-1,-1,-1],"split_conditions":[3.9707112E-1,5.557823E-1,7.1818614E-1,2.4386378E-2,9.8928964E-1,3E0,1.5458749E-1,2.900398E-1,-4.4556573E-1,2.6E0,1.18195646E-1,2.13E2,2.3490643E-2,-1.85E0,5.6163934E2,5.386685E-3,-4.7072048E-5,-4.3980833E-3,7.3161424E-4,-7.9602925E-3,1.0571327E-2,-2.617339E-3,-1.7835345E-2,-9.527838E-3,2.3380355E-3,1.3157255E-3,-1.7240696E-2,-1.3050139E-2,8.396904E-3],"split_indices":[34,35,33,34,35,13,30,35,35,5,31,22,0,17,0,0,0,0,0,0,0,0,0,0,0,0,0,0,0],"split_type":[0,0,0,0,0,0,0,0,0,0,0,0,0,0,0,0,0,0,0,0,0,0,0,0,0,0,0,0,0],"sum_hessian":[4.646581E3,4.047908E3,5.9867285E2,3.7560793E3,2.918286E2,2.9332162E2,3.0535126E2,2.75732E3,9.987592E2,2.0805605E2,8.377258E1,2.9161188E2,1.709726E0,2.5827097E2,4.7080276E1,2.3933308E3,3.6398926E2,5.247468E2,4.740124E2,1.9879323E2,9.262807E0,3.9835994E0,7.978899E1,2.764449E2,1.5167014E1,1.3419337E0,2.5692905E2,4.5487152E1,1.5931271E0],"tree_param":{"num_deleted":"0","num_feature":"46","num_nodes":"29","size_leaf_vector":"1"}},{"base_weights":[-1.8104787E-3,-2.7445197E-1,4.405034E-1,-5.286553E-1,-9.7058654E-2,2.968884E-1,6.817688E-1,-6.833598E-1,-4.0674874E-1,-2.817684E-1,-2.3552226E-2,9.864432E-2,3.82907E-1,5.4204965E-1,7.789615E-1,-2.3575207E-2,-1.8935138E-2,-1.8793885E-2,-1.1098228E-2,-6.4212163E-3,-1.3434412E-2,1.0748485E-3,-5.422557E-3,6.639803E-3,-4.0682363E-3,5.610553E-3,1.3315482E-2,1.6722448E-2,-3.1336986E-3,2.3816623E-2,9.802462E-3],"categories":[],"categories_nodes":[],"categories_segments":[],"categories_sizes":[],"default_left":[0,0,0,0,0,0,0,0,0,0,0,0,0,0,0,0,0,0,0,0,0,0,0,0,0,0,0,0,0,0,0],"id":26,"left_children":[1,3,5,7,9,11,13,15,17,19,21,23,25,27,29,-1,-1,-1,-1,-1,-1,-1,-1,-1,-1,-1,-1,-1,-1,-1,-1],"loss_changes":[7.683247E2,1.7764001E2,8.377939E1,2.9989197E1,3.1540354E1,2.595642E1,1.144577E1,2.8098145E0,6.902054E0,7.2462006E0,1.5551336E1,1.3413008E1,1.2535034E1,3.870102E0,3.052948E0,0E0,0E0,0E0,0E0,0E0,0E0,0E0,0E0,0E0,0E0,0E0,0E0,0E0,0E0,0E0,0E0],"parents":[2147483647,0,0,1,1,2,2,3,3,4,4,5,5,6,6,7,7,8,8,9,9,10,10,11,11,12,12,13,13,14,14],"right_children":[2,4,6,8,10,12,14,16,18,20,22,24,26,28,30,-1,-1,-1,-1,-1,-1,-1,-1,-1,-1,-1,-1,-1,-1,-1,-1],"split_conditions":[1.8249205E-3,-2.4011917E-1,5.468236E-1,-4.9860248E-1,-1.4613049E-1,1.9653611E-1,5.235536E-1,-8.8003695E-1,-6.213825E-1,1E0,1E0,1E0,1.9857736E-1,2.4E2,5.182659E-1,-2.3575207E-2,-1.8935138E-2,-1.8793885E-2,-1.1098228E-2,-6.4212163E-3,-1.3434412E-2,1.0748485E-3,-5.422557E-3,6.639803E-3,-4.0682363E-3,5.610553E-3,1.3315482E-2,1.6722448E-2,-3.1336986E-3,2.3816623E-2,9.802462E-3],"split_indices":[34,32,33,33,33,32,34,33,32,44,44,44,33,22,28,0,0,0,0,0,0,0,0,0,0,0,0,0,0,0,0],"split_type":[0,0,0,0,0,0,0,0,0,0,0,0,0,0,0,0,0,0,0,0,0,0,0,0,0,0,0,0,0,0,0],"sum_hessian":[6.36721E3,3.939604E3,2.427606E3,1.6176144E3,2.3219895E3,1.5245609E3,9.030451E2,7.0884686E2,9.087675E2,6.5938794E2,1.6626017E3,4.626352E2,1.0619257E3,3.7586942E2,5.2717566E2,2.296929E2,4.7915396E2,1.2579987E2,7.8296765E2,4.7160443E2,1.8778352E2,1.2078815E3,4.547202E2,3.036947E2,1.5894049E2,2.5391109E2,8.0801465E2,3.6741287E2,8.45656E0,5.088686E2,1.8307095E1],"tree_param":{"num_deleted":"0","num_feature":"46","num_nodes":"31","size_leaf_vector":"1"}},{"base_weights":[-2.6222921E-3,-2.2597593E-1,5.891205E-1,-4.3084657E-1,-1.0270783E-2,9.052725E-1,4.1720772E-1,-2.7885476E-1,-5.096303E-1,3.6912974E-2,-3.511612E-1,7.2778916E-1,1.0705714E0,4.511606E-1,-1.0303523E-1,3.184346E-3,-8.731074E-3,-1.6685069E-2,-1.1951532E-2,-1.1379065E-3,6.6158236E-3,5.8805393E-3,-1.1427259E-2,2.409646E-2,1.3280969E-2,3.2580815E-2,5.215436E-3,1.1170232E-2,1.8725963E-2,1.1810543E-2,-6.609767E-3],"categories":[],"categories_nodes":[],"categories_segments":[],"categories_sizes":[],"default_left":[0,0,0,0,0,0,0,0,0,0,0,0,0,0,0,0,0,0,0,0,0,0,0,0,0,0,0,0,0,0,0],"id":27,"left_children":[1,3,5,7,9,11,13,15,17,19,21,23,25,27,29,-1,-1,-1,-1,-1,-1,-1,-1,-1,-1,-1,-1,-1,-1,-1,-1],"loss_changes":[6.915955E2,1.678671E2,7.717645E1,2.3045532E1,2.9822859E1,1.3208862E1,1.656488E1,3.2017097E0,6.187622E0,2.2404264E1,3.8186665E0,4.6426086E0,3.1755981E0,1.1479553E1,3.5968285E0,0E0,0E0,0E0,0E0,0E0,0E0,0E0,0E0,0E0,0E0,0E0,0E0,0E0,0E0,0E0,0E0],"parents":[2147483647,0,0,1,1,2,2,3,3,4,4,5,5,6,6,7,7,8,8,9,9,10,10,11,11,12,12,13,13,14,14],"right_children":[2,4,6,8,10,12,14,16,18,20,22,24,26,28,30,-1,-1,-1,-1,-1,-1,-1,-1,-1,-1,-1,-1,-1,-1,-1,-1],"split_conditions":[1.06553055E-1,-3.0619112E-1,-6.4377683E-1,5.152757E-2,1.08163245E-1,6.9841975E-1,9.67507E-2,1.6201066E-2,-5.4945576E-1,1E0,9.737953E-2,-3.9787576E-1,4.8198783E-1,3.491326E-1,-2.4698739E-1,3.184346E-3,-8.731074E-3,-1.6685069E-2,-1.1951532E-2,-1.1379065E-3,6.6158236E-3,5.8805393E-3,-1.1427259E-2,2.409646E-2,1.3280969E-2,3.2580815E-2,5.215436E-3,1.1170232E-2,1.8725963E-2,1.1810543E-2,-6.609767E-3],"split_indices":[35,35,33,34,34,35,34,26,35,44,29,32,26,35,33,0,0,0,0,0,0,0,0,0,0,0,0,0,0,0,0],"split_type":[0,0,0,0,0,0,0,0,0,0,0,0,0,0,0,0,0,0,0,0,0,0,0,0,0,0,0,0,0,0,0],"sum_hessian":[5.228689E3,3.7968154E3,1.4318738E3,1.9462898E3,1.8505256E3,5.0134888E2,9.305249E2,6.6753705E2,1.2787527E3,1.6270973E3,2.234284E2,2.4697487E2,2.5437401E2,8.7376544E2,5.6759415E1,1.999943E1,6.4753766E2,8.9594403E2,3.8280865E2,1.1570559E3,4.700413E2,1.0943989E1,2.1248442E2,1.9242914E2,5.454572E1,2.496489E2,4.725106E0,6.046491E2,2.6911633E2,9.942084E0,4.681733E1],"tree_param":{"num_deleted":"0","num_feature":"46","num_nodes":"31","size_leaf_vector":"1"}},{"base_weights":[-1.6858743E-3,7.706144E-2,-2.8976002E-1,1.1399675E-1,-3.6017916E-1,-1.9642524E-1,-4.6873358E-1,1.5189435E-1,7.867563E-3,-5.239871E-1,-2.190241E-1,-1.200933E-2,-2.3422915E-1,-4.8268095E-1,1.312144E-1,5.977856E-3,1.431188E-3,-1.8103779E-3,3.310781E-3,-1.6120361E-2,4.3721627E-3,-1.3786008E-3,-1.0857447E-2,2.8508687E-3,-8.42623E-3,-7.656013E-3,4.3983434E-4,-1.4988926E-2,-4.683781E-3,1.5018759E-2,-1.153606E-2],"categories":[],"categories_nodes":[],"categories_segments":[],"categories_sizes":[],"default_left":[0,0,0,0,0,0,0,0,0,0,0,0,0,0,0,0,0,0,0,0,0,0,0,0,0,0,0,0,0,0,0],"id":28,"left_children":[1,3,5,7,9,11,13,15,17,19,21,23,25,27,29,-1,-1,-1,-1,-1,-1,-1,-1,-1,-1,-1,-1,-1,-1,-1,-1],"loss_changes":[1.0622195E2,5.9468925E1,1.6607239E1,1.3641865E1,6.404686E0,4.624304E0,2.997589E0,1.2316998E1,6.2687335E0,1.3318787E0,3.863031E0,3.3654222E0,2.8835735E0,1.7022781E0,2.1697383E0,0E0,0E0,0E0,0E0,0E0,0E0,0E0,0E0,0E0,0E0,0E0,0E0,0E0,0E0,0E0,0E0],"parents":[2147483647,0,0,1,1,2,2,3,3,4,4,5,5,6,6,7,7,8,8,9,9,10,10,11,11,12,12,13,13,14,14],"right_children":[2,4,6,8,10,12,14,16,18,20,22,24,26,28,30,-1,-1,-1,-1,-1,-1,-1,-1,-1,-1,-1,-1,-1,-1,-1,-1],"split_conditions":[2.1925755E-1,5.557823E-1,5.744215E-1,-3.6304905E-3,-9.206879E-1,2.7468714E-1,2.4637498E-1,1.1744613E-1,1.4E0,-3.9437106E-1,-2.438951E-1,1.347725E-1,2.04E2,5.260459E-1,4.2222223E0,5.977856E-3,1.431188E-3,-1.8103779E-3,3.310781E-3,-1.6120361E-2,4.3721627E-3,-1.3786008E-3,-1.0857447E-2,2.8508687E-3,-8.42623E-3,-7.656013E-3,4.3983434E-4,-1.4988926E-2,-4.683781E-3,1.5018759E-2,-1.153606E-2],"split_indices":[34,35,34,34,32,33,35,35,14,33,42,41,22,30,15,0,0,0,0,0,0,0,0,0,0,0,0,0,0,0,0],"split_type":[0,0,0,0,0,0,0,0,0,0,0,0,0,0,0,0,0,0,0,0,0,0,0,0,0,0,0,0,0,0,0],"sum_hessian":[4.678493E3,3.675289E3,1.0032039E3,3.3903706E3,2.849185E2,6.621089E2,3.4109503E2,2.497631E3,8.9273956E2,1.2936655E2,1.5555194E2,1.130859E2,5.49023E2,3.3372757E2,7.3674603E0,1.7157611E3,7.818699E2,5.364964E2,3.5624313E2,1.27224266E2,2.1422715E0,7.154234E1,8.40096E1,8.180964E1,3.127626E1,5.0631094E2,4.271205E1,3.1625235E2,1.7475204E1,4.3269143E0,3.0405455E0],"tree_param":{"num_deleted":"0","num_feature":"46","num_nodes":"31","size_leaf_vector":"1"}},{"base_weights":[-4.0552076E-3,-2.682353E-1,4.2723513E-1,-5.2918667E-1,-8.937851E-2,2.9609755E-1,6.421222E-1,-6.4849746E-1,-3.9606333E-1,-3.0221751E-2,-2.3811883E-1,3.768956E-1,9.514487E-2,5.5508846E-1,7.77026E-1,-2.1822985E-2,-1.6736502E-2,-1.0221144E-2,-1.6050491E-2,3.3418497E-4,-7.376879E-3,-1.1758753E-2,-4.3372093E-3,5.4157153E-3,1.3357634E-2,-1.624713E-2,4.1920342E-3,6.373429E-3,1.7383786E-2,-8.76562E-3,2.3542156E-2],"categories":[],"categories_nodes":[],"categories_segments":[],"categories_sizes":[],"default_left":[0,0,0,0,0,0,0,0,0,0,0,0,0,0,0,0,0,0,0,0,0,0,0,0,0,0,0,0,0,0,0],"id":29,"left_children":[1,3,5,7,9,11,13,15,17,19,21,23,25,27,29,-1,-1,-1,-1,-1,-1,-1,-1,-1,-1,-1,-1,-1,-1,-1,-1],"loss_changes":[7.2197797E2,1.8330908E2,6.744864E1,2.486148E1,2.0521822E1,2.4258835E1,9.827759E0,5.192169E0,5.483391E0,1.4921567E1,9.439735E0,1.4177124E1,1.2427661E1,4.4338226E0,3.3617554E0,0E0,0E0,0E0,0E0,0E0,0E0,0E0,0E0,0E0,0E0,0E0,0E0,0E0,0E0,0E0,0E0],"parents":[2147483647,0,0,1,1,2,2,3,3,4,4,5,5,6,6,7,7,8,8,9,9,10,10,11,11,12,12,13,13,14,14],"right_children":[2,4,6,8,10,12,14,16,18,20,22,24,26,28,30,-1,-1,-1,-1,-1,-1,-1,-1,-1,-1,-1,-1,-1,-1,-1,-1],"split_conditions":[1.8249205E-3,-2.4011917E-1,3.8990003E-1,-6.2978315E-1,1E0,1E0,7.961544E-1,-6.4651203E-1,1E0,9.833762E-1,-4.1427292E-2,1.7548577E-1,-1.15172975E-1,1.6532777E-1,-8.221164E-1,-2.1822985E-2,-1.6736502E-2,-1.0221144E-2,-1.6050491E-2,3.3418497E-4,-7.376879E-3,-1.1758753E-2,-4.3372093E-3,5.4157153E-3,1.3357634E-2,-1.624713E-2,4.1920342E-3,6.373429E-3,1.7383786E-2,-8.76562E-3,2.3542156E-2],"split_indices":[34,32,34,34,44,44,32,32,44,30,32,32,32,32,26,0,0,0,0,0,0,0,0,0,0,0,0,0,0,0,0],"split_type":[0,0,0,0,0,0,0,0,0,0,0,0,0,0,0,0,0,0,0,0,0,0,0,0,0,0,0,0,0,0,0],"sum_hessian":[6.3325566E3,3.9275525E3,2.4050044E3,1.5956248E3,2.3319277E3,1.4965012E3,9.0850305E2,8.3738336E2,7.582414E2,1.6701031E3,6.6182446E2,1.0660985E3,4.3040274E2,5.5844763E2,3.5005542E2,4.400194E2,3.9736398E2,5.471587E2,2.1108273E2,1.4029475E3,2.671557E2,2.4784735E2,4.139771E2,2.771688E2,7.8892975E2,2.6709791E1,4.0369293E2,3.837372E1,5.200739E2,1.9786627E0,3.4807675E2],"tree_param":{"num_deleted":"0","num_feature":"46","num_nodes":"31","size_leaf_vector":"1"}},{"base_weights":[2.559175E-4,-2.1874943E-1,5.750827E-1,-4.3522453E-1,-1.7762154E-2,4.541085E-1,9.9696493E-1,-3.089267E-1,-5.264001E-1,2.7674718E-2,-3.1437868E-1,5.424938E-1,2.513837E-1,1.0176897E0,-2.1882634E-1,-5.631231E-3,-1.0918993E-2,-1.31784985E-2,-1.7436292E-2,6.797802E-3,-6.037274E-4,7.7187135E-3,-1.0418385E-2,2.0372184E-2,1.4643496E-2,9.669872E-3,-5.5135493E-3,3.1101933E-2,1.303116E-2,-1.3297554E-2,6.8489434E-3],"categories":[],"categories_nodes":[],"categories_segments":[],"categories_sizes":[],"default_left":[0,0,0,0,0,0,0,0,0,0,0,0,0,0,0,0,0,0,0,0,0,0,0,0,0,0,0,0,0,0,0],"id":30,"left_children":[1,3,5,7,9,11,13,15,17,19,21,23,25,27,29,-1,-1,-1,-1,-1,-1,-1,-1,-1,-1,-1,-1,-1,-1,-1,-1],"loss_changes":[6.5474023E2,1.638405E2,7.232422E1,2.0552856E1,2.6365156E1,1.9773117E1,8.459991E0,4.9671555E0,4.5034485E0,1.6145498E1,5.0660896E0,5.110367E0,1.0720327E1,2.5769958E0,9.025264E-1,0E0,0E0,0E0,0E0,0E0,0E0,0E0,0E0,0E0,0E0,0E0,0E0,0E0,0E0,0E0,0E0],"parents":[2147483647,0,0,1,1,2,2,3,3,4,4,5,5,6,6,7,7,8,8,9,9,10,10,11,11,12,12,13,13,14,14],"right_children":[2,4,6,8,10,12,14,16,18,20,22,24,26,28,30,-1,-1,-1,-1,-1,-1,-1,-1,-1,-1,-1,-1,-1,-1,-1,-1],"split_conditions":[1.06553055E-1,-3.352014E-1,6.445213E-1,3.5332847E-1,9.67507E-2,-3.068393E-1,4.24199E-1,1.7548577E-1,4.522264E-1,-2.460302E-1,9.8455794E-2,-6.4377683E-1,9.67507E-2,4.8198783E-1,1.8313238E-1,-5.631231E-3,-1.0918993E-2,-1.31784985E-2,-1.7436292E-2,6.797802E-3,-6.037274E-4,7.7187135E-3,-1.0418385E-2,2.0372184E-2,1.4643496E-2,9.669872E-3,-5.5135493E-3,3.1101933E-2,1.303116E-2,-1.3297554E-2,6.8489434E-3],"split_indices":[35,35,35,33,34,33,34,32,32,32,29,33,34,26,33,0,0,0,0,0,0,0,0,0,0,0,0,0,0,0,0],"split_type":[0,0,0,0,0,0,0,0,0,0,0,0,0,0,0,0,0,0,0,0,0,0,0,0,0,0,0,0,0,0,0],"sum_hessian":[5.1968867E3,3.7640476E3,1.4328392E3,1.8110787E3,1.9529689E3,1.1167618E3,3.1607742E2,7.6297296E2,1.0481057E3,1.6951176E3,2.578513E2,7.753622E2,3.413996E2,3.111002E2,4.977242E0,2.4100546E2,5.2196747E2,4.117236E2,6.3638214E2,3.269619E2,1.3681556E3,1.3290013E1,2.4456128E2,2.142517E2,5.6111053E2,2.9398923E2,4.741035E1,2.997604E2,1.1339775E1,3.3254292E0,1.6518127E0],"tree_param":{"num_deleted":"0","num_feature":"46","num_nodes":"31","size_leaf_vector":"1"}},{"base_weights":[-3.2325943E-3,7.6014295E-2,-2.844139E-1,1.09818004E-1,-3.2735723E-1,-1.8239698E-1,-4.9861717E-1,1.3833256E-1,-1.3316975E-2,-2.2741988E-1,-5.6424826E-1,-2.7930772E-1,-1.2311802E-1,-5.1071596E-1,1.958268E-2,6.7122215E-3,2.4922763E-3,5.937427E-3,-1.2288594E-3,-7.3973984E-3,1.9443622E-2,-1.727192E-2,3.628463E-3,1.5587743E-2,-8.979428E-3,-4.7702873E-3,4.322857E-3,-1.54896015E-2,6.311407E-3,8.59734E-3,-1.1036506E-2],"categories":[],"categories_nodes":[],"categories_segments":[],"categories_sizes":[],"default_left":[0,0,0,0,0,0,0,0,0,0,0,0,0,0,0,0,0,0,0,0,0,0,0,0,0,0,0,0,0,0,0],"id":31,"left_children":[1,3,5,7,9,11,13,15,17,19,21,23,25,27,29,-1,-1,-1,-1,-1,-1,-1,-1,-1,-1,-1,-1,-1,-1,-1,-1],"loss_changes":[1.03503914E2,4.948396E1,2.2135727E1,1.1748753E1,6.3888416E0,3.9236202E0,2.0784836E0,1.27820015E1,3.6997569E0,3.687626E0,7.83905E-1,4.5015755E0,4.215655E0,1.5140762E0,1.1850566E0,0E0,0E0,0E0,0E0,0E0,0E0,0E0,0E0,0E0,0E0,0E0,0E0,0E0,0E0,0E0,0E0],"parents":[2147483647,0,0,1,1,2,2,3,3,4,4,5,5,6,6,7,7,8,8,9,9,10,10,11,11,12,12,13,13,14,14],"right_children":[2,4,6,8,10,12,14,16,18,20,22,24,26,28,30,-1,-1,-1,-1,-1,-1,-1,-1,-1,-1,-1,-1,-1,-1,-1,-1],"split_conditions":[1.9796535E-1,5.557823E-1,5.744215E-1,1.8249205E-3,9.8928964E-1,1E0,2.4637498E-1,-1.19490355E-1,1.1920053E-1,1.25E0,5E0,-1.3424826E0,1.86E2,2.8E0,4.2222223E0,6.7122215E-3,2.4922763E-3,5.937427E-3,-1.2288594E-3,-7.3973984E-3,1.9443622E-2,-1.727192E-2,3.628463E-3,1.5587743E-2,-8.979428E-3,-4.7702873E-3,4.322857E-3,-1.54896015E-2,6.311407E-3,8.59734E-3,-1.1036506E-2],"split_indices":[34,35,34,34,35,8,35,35,27,17,9,30,22,17,15,0,0,0,0,0,0,0,0,0,0,0,0,0,0,0,0],"split_type":[0,0,0,0,0,0,0,0,0,0,0,0,0,0,0,0,0,0,0,0,0,0,0,0,0,0,0,0,0,0,0],"sum_hessian":[4.6410845E3,3.6217935E3,1.0192909E3,3.3430884E3,2.7870502E2,6.929622E2,3.2632867E2,2.7142896E3,6.28799E2,1.9876991E2,7.993511E1,2.6018375E2,4.327785E2,3.189117E2,7.416976E0,1.0638455E3,1.650444E3,7.134496E1,5.574541E2,1.959192E2,2.8506994E0,7.893191E1,1.0031998E0,5.136374E0,2.5504736E2,3.8224588E2,5.0532635E1,3.1701593E2,1.8957616E0,4.699442E0,2.717534E0],"tree_param":{"num_deleted":"0","num_feature":"46","num_nodes":"31","size_leaf_vector":"1"}},{"base_weights":[1.8297495E-4,-2.5759116E-1,4.260192E-1,-5.6069714E-1,-1.2277455E-1,2.838104E-1,6.4577E-1,-6.9463706E-1,-4.6466854E-1,-2.755015E-1,-5.6633357E-2,3.5308748E-1,9.8808244E-2,5.1980096E-1,7.496461E-1,-1.8995507E-2,-2.2688085E-2,-2.458138E-3,-1.4508695E-2,-5.3890552E-3,-1.1231868E-2,-3.4577602E-5,-5.880784E-3,7.807409E-3,1.3808468E-2,-3.4013155E-3,5.566155E-3,1.8246891E-2,8.20606E-3,2.284427E-2,1.3818185E-2],"categories":[],"categories_nodes":[],"categories_segments":[],"categories_sizes":[],"default_left":[0,0,0,0,0,0,0,0,0,0,0,0,0,0,0,0,0,0,0,0,0,0,0,0,0,0,0,0,0,0,0],"id":32,"left_children":[1,3,5,7,9,11,13,15,17,19,21,23,25,27,29,-1,-1,-1,-1,-1,-1,-1,-1,-1,-1,-1,-1,-1,-1,-1,-1],"loss_changes":[6.963564E2,1.6134341E2,7.438791E1,1.4994598E1,2.7623875E1,1.8588974E1,1.1497894E1,9.5014954E-1,5.1024017E0,7.7041473E0,1.4793188E1,1.0293991E1,7.3924785E0,9.043495E0,1.0413208E0,0E0,0E0,0E0,0E0,0E0,0E0,0E0,0E0,0E0,0E0,0E0,0E0,0E0,0E0,0E0,0E0],"parents":[2147483647,0,0,1,1,2,2,3,3,4,4,5,5,6,6,7,7,8,8,9,9,10,10,11,11,12,12,13,13,14,14],"right_children":[2,4,6,8,10,12,14,16,18,20,22,24,26,28,30,-1,-1,-1,-1,-1,-1,-1,-1,-1,-1,-1,-1,-1,-1,-1,-1],"split_conditions":[1.7720206E-1,-3.5228357E-1,5.3945154E-1,-6.4377683E-1,-1.4613049E-1,1E0,7.1818614E-1,6.9841975E-1,-7.232814E-2,-1.5537201E-1,1E0,3.4617728E-1,1.1641228E-2,1E0,2.3333333E0,-1.8995507E-2,-2.2688085E-2,-2.458138E-3,-1.4508695E-2,-5.3890552E-3,-1.1231868E-2,-3.4577602E-5,-5.880784E-3,7.807409E-3,1.3808468E-2,-3.4013155E-3,5.566155E-3,1.8246891E-2,8.20606E-3,2.284427E-2,1.3818185E-2],"split_indices":[33,33,33,33,33,44,33,35,35,43,44,33,42,44,14,0,0,0,0,0,0,0,0,0,0,0,0,0,0,0,0],"split_type":[0,0,0,0,0,0,0,0,0,0,0,0,0,0,0,0,0,0,0,0,0,0,0,0,0,0,0,0,0,0,0],"sum_hessian":[6.3398027E3,3.9496975E3,2.3901052E3,1.2139886E3,2.735709E3,1.4538492E3,9.36256E2,5.017226E2,7.122661E2,8.248086E2,1.9109003E3,1.0564335E3,3.974158E2,4.2855786E2,5.076981E2,2.6251602E2,2.3920659E2,3.411258E1,6.781535E2,4.2167584E2,4.0313275E2,1.3683068E3,5.4259357E2,5.6979474E2,4.866387E2,1.1513173E2,2.822841E2,3.1316675E2,1.1539111E2,4.8459595E2,2.3102133E1],"tree_param":{"num_deleted":"0","num_feature":"46","num_nodes":"31","size_leaf_vector":"1"}},{"base_weights":[-5.7974737E-3,4.859043E-1,-2.4812955E-1,7.992542E-1,3.149891E-1,-1.0754721E-2,-4.2180344E-1,1.0005463E0,6.3430864E-1,4.5053554E-1,1.9833395E-1,-8.676428E-2,1.6581674E-1,-2.3785295E-1,-4.8956856E-1,-3.8511397E-3,3.0282812E-2,8.506618E-3,2.0706646E-2,1.0207264E-2,1.6932193E-2,3.292978E-3,1.2934286E-2,-6.348146E-3,-1.3378855E-4,1.1670413E-2,8.2084344E-4,-7.846569E-3,6.6252365E-3,-1.6185675E-2,-1.1690522E-2],"categories":[],"categories_nodes":[],"categories_segments":[],"categories_sizes":[],"default_left":[0,0,0,0,0,0,0,0,0,0,0,0,0,0,0,0,0,0,0,0,0,0,0,0,0,0,0,0,0,0,0],"id":33,"left_children":[1,3,5,7,9,11,13,15,17,19,21,23,25,27,29,-1,-1,-1,-1,-1,-1,-1,-1,-1,-1,-1,-1,-1,-1,-1,-1],"loss_changes":[6.1955896E2,9.1430725E1,1.4357986E2,1.880307E1,1.7436737E1,1.9806982E1,2.4839111E1,2.954193E0,6.2321625E0,6.0679245E0,1.2324806E1,1.0596782E1,1.370446E1,6.044039E0,6.9040833E0,0E0,0E0,0E0,0E0,0E0,0E0,0E0,0E0,0E0,0E0,0E0,0E0,0E0,0E0,0E0,0E0],"parents":[2147483647,0,0,1,1,2,2,3,3,4,4,5,5,6,6,7,7,8,8,9,9,10,10,11,11,12,12,13,13,14,14],"right_children":[2,4,6,8,10,12,14,16,18,20,22,24,26,28,30,-1,-1,-1,-1,-1,-1,-1,-1,-1,-1,-1,-1,-1,-1,-1,-1],"split_conditions":[-1.9267298E-1,-5.713047E-1,9.8647125E-2,-7.802349E-1,-2.9303005E-1,1E0,1.7548577E-1,6.25E-1,2.7011076E-1,6.455493E-1,1E0,-1.4878522E-1,-1.3301439E-2,2.3082629E-2,-5.553034E-1,-3.8511397E-3,3.0282812E-2,8.506618E-3,2.0706646E-2,1.0207264E-2,1.6932193E-2,3.292978E-3,1.2934286E-2,-6.348146E-3,-1.3378855E-4,1.1670413E-2,8.2084344E-4,-7.846569E-3,6.6252365E-3,-1.6185675E-2,-1.1690522E-2],"split_indices":[32,33,33,32,33,44,32,12,35,28,44,35,32,35,35,0,0,0,0,0,0,0,0,0,0,0,0,0,0,0,0],"split_type":[0,0,0,0,0,0,0,0,0,0,0,0,0,0,0,0,0,0,0,0,0,0,0,0,0,0,0,0,0,0,0],"sum_hessian":[5.195576E3,1.7145907E3,3.4809856E3,6.0254803E2,1.1120426E3,1.471663E3,2.0093225E3,2.668115E2,3.3573657E2,5.1172446E2,6.003182E2,1.0295045E3,4.421585E2,5.43364E2,1.4659585E3,1.8724866E0,2.64939E2,4.78301E1,2.8790646E2,2.639972E2,2.4772725E2,4.3700894E2,1.6330927E2,4.0780283E2,6.2170166E2,1.678907E2,2.7426782E2,5.1748663E2,2.5877403E1,9.713613E2,4.945972E2],"tree_param":{"num_deleted":"0","num_feature":"46","num_nodes":"31","size_leaf_vector":"1"}},{"base_weights":[3.17456E-3,7.534351E-2,-2.7071658E-1,1.0413574E-1,-4.2807466E-1,-1.6725253E-1,-4.7100186E-1,1.2003137E-1,-7.267733E-2,-4.611517E-1,3.1006077E-1,1.0991291E-1,-1.9713178E-1,-4.8248392E-1,1.9819599E-2,4.4483403E-3,-2.3937482E-5,-8.767695E-3,-5.883354E-4,1.0488167E-2,-1.4247505E-2,-6.8639624E-3,2.0595659E-2,-1.1635548E-2,6.7340354E-3,-7.6477565E-3,-1.2315065E-3,-1.5238578E-2,-7.5290482E-3,1.6060203E-2,-9.541878E-3],"categories":[],"categories_nodes":[],"categories_segments":[],"categories_sizes":[],"default_left":[0,0,0,0,0,0,0,0,0,0,0,0,0,0,0,0,0,0,0,0,0,0,0,0,0,0,0,0,0,0,0],"id":34,"left_children":[1,3,5,7,9,11,13,15,17,19,21,23,25,27,29,-1,-1,-1,-1,-1,-1,-1,-1,-1,-1,-1,-1,-1,-1,-1,-1],"loss_changes":[9.14727E1,5.3175842E1,1.9841194E1,9.758839E0,5.13319E0,5.33897E0,1.8655319E0,1.0856583E1,3.3343549E0,2.46167E0,2.2840953E0,3.7955978E0,5.1924E0,1.6331787E0,1.9796745E0,0E0,0E0,0E0,0E0,0E0,0E0,0E0,0E0,0E0,0E0,0E0,0E0,0E0,0E0,0E0,0E0],"parents":[2147483647,0,0,1,1,2,2,3,3,4,4,5,5,6,6,7,7,8,8,9,9,10,10,11,11,12,12,13,13,14,14],"right_children":[2,4,6,8,10,12,14,16,18,20,22,24,26,28,30,-1,-1,-1,-1,-1,-1,-1,-1,-1,-1,-1,-1,-1,-1,-1,-1],"split_conditions":[2.1925755E-1,6.66532E-1,5.744215E-1,3.9528224E-1,3.347451E-1,1.9857736E-1,2.4637498E-1,2.4386378E-2,9.9864915E-2,-1.2163404E0,6E0,7.1428573E-1,1E0,6.003042E-1,3.7346798E-1,4.4483403E-3,-2.3937482E-5,-8.767695E-3,-5.883354E-4,1.0488167E-2,-1.4247505E-2,-6.8639624E-3,2.0595659E-2,-1.1635548E-2,6.7340354E-3,-7.6477565E-3,-1.2315065E-3,-1.5238578E-2,-7.5290482E-3,1.6060203E-2,-9.541878E-3],"split_indices":[34,35,34,35,24,33,35,34,29,28,20,13,44,36,35,0,0,0,0,0,0,0,0,0,0,0,0,0,0,0,0],"split_type":[0,0,0,0,0,0,0,0,0,0,0,0,0,0,0,0,0,0,0,0,0,0,0,0,0,0,0,0,0,0,0],"sum_hessian":[4.6236143E3,3.6605322E3,9.630821E2,3.4640002E3,1.9653186E2,6.3745404E2,3.2562808E2,3.1788604E3,2.851399E2,1.88821E2,7.7108727E0,6.151086E1,5.759432E2,3.182178E2,7.410277E0,2.5761672E3,6.026931E2,5.3743427E1,2.3139647E2,2.3376822E0,1.864833E2,3.4940424E0,4.2168307E0,1.0615013E1,5.0895847E1,4.1938712E2,1.5655608E2,2.845291E2,3.3688683E1,2.4711485E0,4.9391284E0],"tree_param":{"num_deleted":"0","num_feature":"46","num_nodes":"31","size_leaf_vector":"1"}},{"base_weights":[4.4508562E-3,-2.4280213E-1,4.139043E-1,-5.740543E-1,-1.1454983E-1,2.6801792E-1,6.400017E-1,-6.9034654E-1,-4.776649E-1,-2.5611556E-1,-2.5910169E-2,3.3880484E-1,8.8214256E-2,5.3701484E-1,7.235376E-1,3.9209267E-3,-2.0868892E-2,-1.2183299E-2,-1.7149253E-2,-6.11519E-3,-1.1874582E-2,9.037734E-4,-4.886355E-3,1.236694E-2,5.9026545E-3,-3.619066E-3,5.251096E-3,1.804977E-2,1.0675958E-2,2.2076704E-2,9.897023E-3],"categories":[],"categories_nodes":[],"categories_segments":[],"categories_sizes":[],"default_left":[0,0,0,0,0,0,0,0,0,0,0,0,0,0,0,0,0,0,0,0,0,0,0,0,0,0,0,0,0,0,0],"id":35,"left_children":[1,3,5,7,9,11,13,15,17,19,21,23,25,27,29,-1,-1,-1,-1,-1,-1,-1,-1,-1,-1,-1,-1,-1,-1,-1,-1],"loss_changes":[6.444451E2,1.6848473E2,7.871005E1,1.1752319E1,3.592108E1,1.8524956E1,7.296875E0,2.3391418E0,3.6506805E0,7.889778E0,1.3543048E1,1.07582245E1,7.5705166E0,4.5846252E0,2.0060425E0,0E0,0E0,0E0,0E0,0E0,0E0,0E0,0E0,0E0,0E0,0E0,0E0,0E0,0E0,0E0,0E0],"parents":[2147483647,0,0,1,1,2,2,3,3,4,4,5,5,6,6,7,7,8,8,9,9,10,10,11,11,12,12,13,13,14,14],"right_children":[2,4,6,8,10,12,14,16,18,20,22,24,26,28,30,-1,-1,-1,-1,-1,-1,-1,-1,-1,-1,-1,-1,-1,-1,-1,-1],"split_conditions":[1.7720206E-1,-3.8529924E-1,5.3945154E-1,-6.4377683E-1,-1.09216064E-1,1E0,7.1818614E-1,-5.3492075E-1,6.380221E-1,1.7087793E-1,1E0,-4.0621337E-1,9.37157E-3,4.9241862E-1,5.182659E-1,3.9209267E-3,-2.0868892E-2,-1.2183299E-2,-1.7149253E-2,-6.11519E-3,-1.1874582E-2,9.037734E-4,-4.886355E-3,1.236694E-2,5.9026545E-3,-3.619066E-3,5.251096E-3,1.804977E-2,1.0675958E-2,2.2076704E-2,9.897023E-3],"split_indices":[33,33,33,33,33,44,33,39,28,35,44,35,42,43,28,0,0,0,0,0,0,0,0,0,0,0,0,0,0,0,0],"split_type":[0,0,0,0,0,0,0,0,0,0,0,0,0,0,0,0,0,0,0,0,0,0,0,0,0,0,0,0,0,0,0],"sum_hessian":[6.361622E3,3.9669495E3,2.3946724E3,1.1052751E3,2.8616746E3,1.4581749E3,9.364974E2,4.9533603E2,6.099391E2,1.1004213E3,1.7612532E3,1.0450002E3,4.131747E2,4.2607257E2,5.104248E2,2.8634434E0,4.9247256E2,3.523211E2,2.57618E2,8.043566E2,2.9606464E2,1.2510065E3,5.1024677E2,6.8639404E2,3.5860617E2,1.2109747E2,2.9207724E2,3.105931E2,1.15479454E2,4.9320874E2,1.7216064E1],"tree_param":{"num_deleted":"0","num_feature":"46","num_nodes":"31","size_leaf_vector":"1"}},{"base_weights":[5.1298616E-3,4.8959237E-1,-2.3260008E-1,2.9363593E-1,7.5805014E-1,-5.437382E-2,-4.498999E-1,-2.062387E-2,3.4173104E-1,6.256137E-1,9.525593E-1,-1.2870263E-1,1.16205506E-1,-5.288964E-1,-3.440954E-1,-1.7487875E-3,1.7679282E-2,1.4969979E-2,8.15571E-3,1.6714415E-2,2.4914969E-2,2.8777516E-2,-2.1740813E-3,-6.075602E-3,6.9001503E-4,6.747246E-3,-2.4212473E-3,-1.7513568E-2,-1.3689937E-2,-1.0612121E-2,1.2371887E-2],"categories":[],"categories_nodes":[],"categories_segments":[],"categories_sizes":[],"default_left":[0,0,0,0,0,0,0,0,0,0,0,0,0,0,0,0,0,0,0,0,0,0,0,0,0,0,0,0,0,0,0],"id":36,"left_children":[1,3,5,7,9,11,13,15,17,19,21,23,25,27,29,-1,-1,-1,-1,-1,-1,-1,-1,-1,-1,-1,-1,-1,-1,-1,-1],"loss_changes":[5.994183E2,8.968088E1,1.3516699E2,1.5031845E1,1.7397156E1,2.4378815E1,1.2783112E1,3.142082E0,9.1994095E0,5.1786194E0,2.1176758E0,1.4998592E1,1.2534536E1,3.039383E0,5.2379684E0,0E0,0E0,0E0,0E0,0E0,0E0,0E0,0E0,0E0,0E0,0E0,0E0,0E0,0E0,0E0,0E0],"parents":[2147483647,0,0,1,1,2,2,3,3,4,4,5,5,6,6,7,7,8,8,9,9,10,10,11,11,12,12,13,13,14,14],"right_children":[2,4,6,8,10,12,14,16,18,20,22,24,26,28,30,-1,-1,-1,-1,-1,-1,-1,-1,-1,-1,-1,-1,-1,-1,-1,-1],"split_conditions":[-1.9267298E-1,3.491326E-1,2.1292906E-1,-9.945737E-2,6.66532E-1,1E0,-5.8737177E-1,2.25E0,-4.089368E-1,1E0,-9.426083E-2,-2.6217826E-2,7.21831E-2,-1.857811E-2,1.1490333E0,-1.7487875E-3,1.7679282E-2,1.4969979E-2,8.15571E-3,1.6714415E-2,2.4914969E-2,2.8777516E-2,-2.1740813E-3,-6.075602E-3,6.9001503E-4,6.747246E-3,-2.4212473E-3,-1.7513568E-2,-1.3689937E-2,-1.0612121E-2,1.2371887E-2],"split_indices":[32,35,33,35,35,44,35,6,33,44,33,35,32,39,28,0,0,0,0,0,0,0,0,0,0,0,0,0,0,0,0],"split_type":[0,0,0,0,0,0,0,0,0,0,0,0,0,0,0,0,0,0,0,0,0,0,0,0,0,0,0,0,0,0,0],"sum_hessian":[5.200605E3,1.7112279E3,3.4893772E3,9.916075E2,7.196204E2,1.9184181E3,1.5709592E3,1.3176695E2,8.598405E2,4.3313934E2,2.8648108E2,1.3365265E3,5.818916E2,8.9484576E2,6.761134E2,1.25806114E2,5.9608417E0,2.6072757E2,5.99113E2,3.302263E2,1.0291303E2,2.8475058E2,1.7304804E0,8.986037E2,4.3792282E2,3.747392E2,2.0715239E2,5.0145123E2,3.933945E2,6.6865576E2,7.4576526E0],"tree_param":{"num_deleted":"0","num_feature":"46","num_nodes":"31","size_leaf_vector":"1"}},{"base_weights":[5.0845165E-3,5.8330894E-2,-3.6058605E-1,-3.6643285E-1,8.288946E-2,-2.2876662E-1,-5.112263E-1,-5.1255244E-1,-2.1871875E-1,1.304508E-1,-5.5118084E-2,-2.5259173E-1,1.7754145E-1,-5.1773053E-1,5.910954E-3,-1.1943267E-3,-1.5824964E-2,1.607218E-2,-7.3512476E-3,4.300751E-3,-2.5153386E-3,-4.009483E-3,-9.08277E-5,-3.3772672E-3,-9.625058E-3,2.4488548E-2,-8.575901E-3,-5.1046517E-3,-1.5879981E-2],"categories":[],"categories_nodes":[],"categories_segments":[],"categories_sizes":[],"default_left":[0,0,0,0,0,0,0,0,0,0,0,0,0,0,0,0,0,0,0,0,0,0,0,0,0,0,0,0,0],"id":37,"left_children":[1,3,5,7,9,11,13,15,17,19,21,23,25,27,-1,-1,-1,-1,-1,-1,-1,-1,-1,-1,-1,-1,-1,-1,-1],"loss_changes":[9.05653E1,4.2413013E1,1.1506065E1,4.5733833E0,2.5217667E1,3.1769924E0,1.467598E0,7.370167E-1,2.5270085E0,7.924385E0,4.0307283E0,2.814249E0,6.0432057E0,9.1812134E-1,0E0,0E0,0E0,0E0,0E0,0E0,0E0,0E0,0E0,0E0,0E0,0E0,0E0,0E0,0E0],"parents":[2147483647,0,0,1,1,2,2,3,3,4,4,5,5,6,6,7,7,8,8,9,9,10,10,11,11,12,12,13,13],"right_children":[2,4,6,8,10,12,14,16,18,20,22,24,26,28,-1,-1,-1,-1,-1,-1,-1,-1,-1,-1,-1,-1,-1,-1,-1],"split_conditions":[3.8990003E-1,-8.006751E-1,7.478736E-1,-9.206879E-1,2.4386378E-2,2.13E2,2.03E2,5E-1,7.1428573E-1,4.2102313E-1,9.663644E-2,2.811885E-1,6.249187E-1,2E0,5.910954E-3,-1.1943267E-3,-1.5824964E-2,1.607218E-2,-7.3512476E-3,4.300751E-3,-2.5153386E-3,-4.009483E-3,-9.08277E-5,-3.3772672E-3,-9.625058E-3,2.4488548E-2,-8.575901E-3,-5.1046517E-3,-1.5879981E-2],"split_indices":[34,33,33,32,34,22,23,8,12,41,40,26,32,19,0,0,0,0,0,0,0,0,0,0,0,0,0,0,0],"split_type":[0,0,0,0,0,0,0,0,0,0,0,0,0,0,0,0,0,0,0,0,0,0,0,0,0,0,0,0,0],"sum_hessian":[4.6472188E3,4.058002E3,5.892167E2,2.2027608E2,3.8377258E3,3.1692508E2,2.7229163E2,1.0825241E2,1.1202367E2,2.8541973E3,9.8352844E2,3.000853E2,1.6839775E1,2.7034692E2,1.9447056E0,3.5422206E0,1.047102E2,2.4718194E0,1.0955184E2,2.6926726E3,1.6152463E2,3.909711E2,5.925574E2,1.0006984E2,2.0001546E2,6.4400344E0,1.039974E1,9.744798E0,2.6060214E2],"tree_param":{"num_deleted":"0","num_feature":"46","num_nodes":"29","size_leaf_vector":"1"}},{"base_weights":[2.1094261E-4,-2.5268123E-1,4.1060844E-1,-5.021813E-1,-1.04340315E-1,2.808803E-1,6.259755E-1,-5.979651E-1,-3.4702805E-1,-4.314979E-2,-2.6236045E-1,3.6634904E-1,7.153375E-2,5.117454E-1,7.3173136E-1,-2.0521546E-2,-1.586434E-2,-4.9685515E-3,-1.2312879E-2,-4.7508767E-3,1.690116E-3,-1.0166778E-2,-3.199087E-3,5.2223513E-3,1.3300363E-2,-6.711107E-3,4.204049E-3,-6.7504966E-3,1.589539E-2,2.2148414E-2,7.6243174E-3],"categories":[],"categories_nodes":[],"categories_segments":[],"categories_sizes":[],"default_left":[0,0,0,0,0,0,0,0,0,0,0,0,0,0,0,0,0,0,0,0,0,0,0,0,0,0,0,0,0,0,0],"id":38,"left_children":[1,3,5,7,9,11,13,15,17,19,21,23,25,27,29,-1,-1,-1,-1,-1,-1,-1,-1,-1,-1,-1,-1,-1,-1,-1,-1],"loss_changes":[6.545113E2,1.4430957E2,6.682568E1,2.1198517E1,2.3662949E1,2.6861183E1,1.0150604E1,4.6133423E0,6.3038483E0,2.0285038E1,8.072147E0,1.5650864E1,8.945027E0,6.111595E0,1.075531E0,0E0,0E0,0E0,0E0,0E0,0E0,0E0,0E0,0E0,0E0,0E0,0E0,0E0,0E0,0E0,0E0],"parents":[2147483647,0,0,1,1,2,2,3,3,4,4,5,5,6,6,7,7,8,8,9,9,10,10,11,11,12,12,13,13,14,14],"right_children":[2,4,6,8,10,12,14,16,18,20,22,24,26,28,30,-1,-1,-1,-1,-1,-1,-1,-1,-1,-1,-1,-1,-1,-1,-1,-1],"split_conditions":[1.8249205E-3,-2.7153203E-1,3.8990003E-1,-4.5010978E-1,1E0,1E0,7.1818614E-1,-8.618609E-1,-2.7245379E-3,-1.0682248E-2,-1.0273393E-1,2.0359074E-1,3E0,5.6720614E-2,5.430483E-1,-2.0521546E-2,-1.586434E-2,-4.9685515E-3,-1.2312879E-2,-4.7508767E-3,1.690116E-3,-1.0166778E-2,-3.199087E-3,5.2223513E-3,1.3300363E-2,-6.711107E-3,4.204049E-3,-6.7504966E-3,1.589539E-2,2.2148414E-2,7.6243174E-3],"split_indices":[34,33,34,33,44,44,33,34,38,33,34,33,19,33,28,0,0,0,0,0,0,0,0,0,0,0,0,0,0,0,0],"split_type":[0,0,0,0,0,0,0,0,0,0,0,0,0,0,0,0,0,0,0,0,0,0,0,0,0,0,0,0,0,0,0],"sum_hessian":[6.302337E3,3.899923E3,2.4024138E3,1.4523654E3,2.4475576E3,1.5021748E3,9.0023895E2,8.944617E2,5.5790375E2,1.7661812E3,6.813766E2,1.0656201E3,4.3655478E2,4.3839392E2,4.6184503E2,3.9052737E2,5.0393427E2,1.4635721E2,4.1154654E2,8.178598E2,9.483213E2,4.5527487E2,2.2610172E2,3.065768E2,7.590433E2,8.145916E1,3.550956E2,9.964097E0,4.284298E2,4.545205E2,7.324543E0],"tree_param":{"num_deleted":"0","num_feature":"46","num_nodes":"31","size_leaf_vector":"1"}},{"base_weights":[8.480144E-3,4.9763548E-1,-2.0586562E-1,8.761149E-1,3.7406048E-1,-1.5435697E-2,-4.2496955E-1,1.0301555E0,7.6265734E-1,4.9801517E-1,2.1271978E-1,1.5802447E-1,-7.917664E-2,-2.5424224E-1,-4.9589404E-1,3.1061867E-2,5.988321E-3,-6.0528563E-3,2.3421042E-2,1.406831E-2,2.2215143E-2,2.8465174E-3,1.0247883E-2,1.5501752E-2,3.7665446E-3,-1.0467866E-3,-6.8918704E-3,1.0880537E-3,-9.079694E-3,-1.2311943E-2,-1.6682427E-2],"categories":[],"categories_nodes":[],"categories_segments":[],"categories_sizes":[],"default_left":[0,0,0,0,0,0,0,0,0,0,0,0,0,0,0,0,0,0,0,0,0,0,0,0,0,0,0,0,0,0,0],"id":39,"left_children":[1,3,5,7,9,11,13,15,17,19,21,23,25,27,29,-1,-1,-1,-1,-1,-1,-1,-1,-1,-1,-1,-1,-1,-1,-1,-1],"loss_changes":[5.434504E2,7.3206085E1,1.5036075E2,5.196167E0,2.3667068E1,2.1366905E1,2.0039215E1,2.7661133E-1,4.329422E0,4.055084E0,7.866398E0,5.919883E0,9.403715E0,6.997257E0,5.624939E0,0E0,0E0,0E0,0E0,0E0,0E0,0E0,0E0,0E0,0E0,0E0,0E0,0E0,0E0,0E0,0E0],"parents":[2147483647,0,0,1,1,2,2,3,3,4,4,5,5,6,6,7,7,8,8,9,9,10,10,11,11,12,12,13,13,14,14],"right_children":[2,4,6,8,10,12,14,16,18,20,22,24,26,28,30,-1,-1,-1,-1,-1,-1,-1,-1,-1,-1,-1,-1,-1,-1,-1,-1],"split_conditions":[-2.4011917E-1,-7.3346907E-1,1.7548577E-1,-1.1480979E0,-3.1453755E-1,-1.5697871E-1,2.4626479E-1,2.6744267E-1,7.1428573E-1,-2.6340397E-2,6.626322E-1,-5.0496274E-1,2.0359074E-1,-1.09216064E-1,4.522264E-1,3.1061867E-2,5.988321E-3,-6.0528563E-3,2.3421042E-2,1.406831E-2,2.2215143E-2,2.8465174E-3,1.0247883E-2,1.5501752E-2,3.7665446E-3,-1.0467866E-3,-6.8918704E-3,1.0880537E-3,-9.079694E-3,-1.2311943E-2,-1.6682427E-2],"split_indices":[32,33,32,34,33,33,33,31,12,40,28,26,33,33,32,0,0,0,0,0,0,0,0,0,0,0,0,0,0,0,0],"split_type":[0,0,0,0,0,0,0,0,0,0,0,0,0,0,0,0,0,0,0,0,0,0,0,0,0,0,0,0,0,0,0],"sum_hessian":[5.1792485E3,1.5772306E3,3.602018E3,3.8521954E2,1.1920111E3,1.9282543E3,1.6737639E3,1.5653444E2,2.286851E2,6.7174786E2,5.202632E2,5.173677E2,1.4108866E3,4.939387E2,1.1798252E3,1.5506282E2,1.4716232E0,3.8260639E0,2.2485904E2,6.0507477E2,6.6673134E1,2.7358655E2,2.4667667E2,4.0472984E1,4.7689465E2,1.0921138E3,3.1877286E2,7.0629074E1,4.2330963E2,4.938892E2,6.85936E2],"tree_param":{"num_deleted":"0","num_feature":"46","num_nodes":"31","size_leaf_vector":"1"}},{"base_weights":[1.6244656E-3,5.6528863E-2,-3.660881E-1,8.107299E-2,-4.1136944E-1,-2.4567543E-1,-4.7088456E-1,1.3073656E-1,-1.8199243E-2,-5.1587695E-1,-2.3288992E-1,-1.544832E-1,-3.7515426E-1,-4.8265338E-1,6.539737E-3,5.0300355E-3,-1.1766677E-3,8.600781E-4,-3.2389367E-3,-1.5890373E-2,1.262968E-3,-9.630932E-3,9.574323E-3,-6.0050003E-3,1.9993385E-2,7.971841E-3,-1.2063574E-2,-1.4646091E-2,4.9768942E-3,1.3672376E-2,-9.304243E-3],"categories":[],"categories_nodes":[],"categories_segments":[],"categories_sizes":[],"default_left":[0,0,0,0,0,0,0,0,0,0,0,0,0,0,0,0,0,0,0,0,0,0,0,0,0,0,0,0,0,0,0],"id":40,"left_children":[1,3,5,7,9,11,13,15,17,19,21,23,25,27,29,-1,-1,-1,-1,-1,-1,-1,-1,-1,-1,-1,-1,-1,-1,-1,-1],"loss_changes":[9.3335464E1,4.6260773E1,7.347618E0,1.8855946E1,3.505371E0,3.2334309E0,1.7983856E0,1.6011726E1,5.3777337E0,1.007309E0,3.990734E0,6.6362786E0,2.215292E0,1.2824097E0,1.6549357E0,0E0,0E0,0E0,0E0,0E0,0E0,0E0,0E0,0E0,0E0,0E0,0E0,0E0,0E0,0E0,0E0],"parents":[2147483647,0,0,1,1,2,2,3,3,4,4,5,5,6,6,7,7,8,8,9,9,10,10,11,11,12,12,13,13,14,14],"right_children":[2,4,6,8,10,12,14,16,18,20,22,24,26,28,30,-1,-1,-1,-1,-1,-1,-1,-1,-1,-1,-1,-1,-1,-1,-1,-1],"split_conditions":[3.8059616E-1,6.66532E-1,5.744215E-1,-1.3465684E-2,-8.3238196E-1,5.8742225E-1,2.4637498E-1,2.900398E-1,3.4874E-1,2.32E2,1.7026277E3,2.13E2,-1.3E2,2.8E0,3.7346798E-1,5.0300355E-3,-1.1766677E-3,8.600781E-4,-3.2389367E-3,-1.5890373E-2,1.262968E-3,-9.630932E-3,9.574323E-3,-6.0050003E-3,1.9993385E-2,7.971841E-3,-1.2063574E-2,-1.4646091E-2,4.9768942E-3,1.3672376E-2,-9.304243E-3],"split_indices":[34,35,34,34,32,32,35,35,32,23,2,22,21,17,35,0,0,0,0,0,0,0,0,0,0,0,0,0,0,0,0],"split_type":[0,0,0,0,0,0,0,0,0,0,0,0,0,0,0,0,0,0,0,0,0,0,0,0,0,0,0,0,0,0,0],"sum_hessian":[4.6190264E3,4.020417E3,5.986094E2,3.8216038E3,1.9881305E2,2.8166306E2,3.1694635E2,2.5468438E3,1.27476E3,1.2300656E2,7.580649E1,1.6783952E2,1.1382353E2,3.093E2,7.646361E0,2.092237E3,4.5460678E2,8.383826E2,4.3637738E2,1.20136284E2,2.870279E0,6.609092E1,9.715566E0,1.6042448E2,7.415041E0,3.880694E0,1.0994284E2,3.0716605E2,2.133944E0,2.7984917E0,4.847869E0],"tree_param":{"num_deleted":"0","num_feature":"46","num_nodes":"31","size_leaf_vector":"1"}},{"base_weights":[-4.035974E-3,-2.4090724E-1,4.0783653E-1,-5.302824E-1,-1.18448734E-1,2.6759902E-1,6.2739015E-1,-6.533753E-1,-4.36496E-1,-2.2548042E-1,-1.063324E-2,-1.8933013E-1,2.9172045E-1,5.110909E-1,7.1264404E-1,-1.7427194E-3,-1.9742697E-2,-8.384276E-3,-1.4472534E-2,-9.888685E-3,-4.882411E-3,2.1730645E-3,-2.8733439E-3,-1.7473573E-3,-1.6616618E-2,1.0830712E-2,6.0395077E-3,1.6425919E-2,7.4100387E-3,2.1830974E-2,8.056821E-3],"categories":[],"categories_nodes":[],"categories_segments":[],"categories_sizes":[],"default_left":[0,0,0,0,0,0,0,0,0,0,0,0,0,0,0,0,0,0,0,0,0,0,0,0,0,0,0,0,0,0,0],"id":41,"left_children":[1,3,5,7,9,11,13,15,17,19,21,23,25,27,29,-1,-1,-1,-1,-1,-1,-1,-1,-1,-1,-1,-1,-1,-1,-1,-1],"loss_changes":[6.154808E2,1.4180522E2,7.058682E1,1.3171814E1,3.2500698E1,1.5641418E1,8.158752E0,1.3569336E0,4.6454163E0,9.127159E0,9.953985E0,3.3700159E0,8.245346E0,3.4461594E0,3.0331116E0,0E0,0E0,0E0,0E0,0E0,0E0,0E0,0E0,0E0,0E0,0E0,0E0,0E0,0E0,0E0,0E0],"parents":[2147483647,0,0,1,1,2,2,3,3,4,4,5,5,6,6,7,7,8,8,9,9,10,10,11,11,12,12,13,13,14,14],"right_children":[2,4,6,8,10,12,14,16,18,20,22,24,26,28,30,-1,-1,-1,-1,-1,-1,-1,-1,-1,-1,-1,-1,-1,-1,-1,-1],"split_conditions":[2.4386378E-2,-3.5228357E-1,5.468236E-1,-6.303769E-1,-1.0682248E-2,-5.9765756E-2,5.235536E-1,-4.3121895E-1,-3.07835E-2,-3.9353293E-1,1.3930915E-2,2.2E0,3.4220137E-2,5.897714E-1,5.182659E-1,-1.7427194E-3,-1.9742697E-2,-8.384276E-3,-1.4472534E-2,-9.888685E-3,-4.882411E-3,2.1730645E-3,-2.8733439E-3,-1.7473573E-3,-1.6616618E-2,1.0830712E-2,6.0395077E-3,1.6425919E-2,7.4100387E-3,2.1830974E-2,8.056821E-3],"split_indices":[34,33,33,33,33,33,34,39,38,34,38,8,38,30,28,0,0,0,0,0,0,0,0,0,0,0,0,0,0,0,0],"split_type":[0,0,0,0,0,0,0,0,0,0,0,0,0,0,0,0,0,0,0,0,0,0,0,0,0,0,0,0,0,0,0],"sum_hessian":[6.3046777E3,4.0032222E3,2.3014558E3,1.1883754E3,2.8148467E3,1.4071144E3,8.943415E2,5.087357E2,6.7963965E2,1.4114625E3,1.4033842E3,6.98704E1,1.3372439E3,3.842102E2,5.1013126E2,4.206819E0,5.0452887E2,1.5699611E2,5.2264355E2,5.274104E2,8.840522E2,7.105038E2,6.928804E2,5.309751E1,1.6772886E1,7.5357056E2,5.836734E2,3.357377E2,4.8472485E1,4.9216867E2,1.7962597E1],"tree_param":{"num_deleted":"0","num_feature":"46","num_nodes":"31","size_leaf_vector":"1"}},{"base_weights":[-1.4125648E-3,-3.1588364E-1,3.2138807E-1,-1.5251988E-1,-4.5857468E-1,1.7802195E-1,6.894562E-1,-2.3927991E-1,-5.0349772E-2,-3.6661965E-1,-5.457661E-1,3.3342135E-1,4.475485E-2,5.347844E-1,8.716828E-1,-4.144996E-3,-9.427417E-3,-1.9356546E-3,2.7074402E-2,-4.287351E-3,-1.1756644E-2,-1.43807E-2,-1.8143114E-2,8.097419E-3,1.565798E-2,2.277381E-3,-7.6887086E-3,1.6969359E-2,4.20224E-3,2.6736006E-2,-1.0286262E-2],"categories":[],"categories_nodes":[],"categories_segments":[],"categories_sizes":[],"default_left":[0,0,0,0,0,0,0,0,0,0,0,0,0,0,0,0,0,0,0,0,0,0,0,0,0,0,0,0,0,0,0],"id":42,"left_children":[1,3,5,7,9,11,13,15,17,19,21,23,25,27,29,-1,-1,-1,-1,-1,-1,-1,-1,-1,-1,-1,-1,-1,-1,-1,-1],"loss_changes":[5.238023E2,6.078769E1,1.341188E2,1.0804426E1,1.0777649E1,3.797669E1,1.916623E1,4.91671E0,7.725827E0,3.7580261E0,2.2082214E0,9.857712E0,9.327557E0,4.602867E0,8.296478E0,0E0,0E0,0E0,0E0,0E0,0E0,0E0,0E0,0E0,0E0,0E0,0E0,0E0,0E0,0E0,0E0],"parents":[2147483647,0,0,1,1,2,2,3,3,4,4,5,5,6,6,7,7,8,8,9,9,10,10,11,11,12,12,13,13,14,14],"right_children":[2,4,6,8,10,12,14,16,18,20,22,24,26,28,30,-1,-1,-1,-1,-1,-1,-1,-1,-1,-1,-1,-1,-1,-1,-1,-1],"split_conditions":[-1.19490355E-1,2.5117373E-1,3.8467753E-1,-2.7822933E-1,4.32733E-1,-2.2879153E-1,6.445213E-1,-1.6761191E-1,2.625E0,-1.0693269E-1,6.25599E-1,1E0,1.3127281E-1,-1.6121611E-1,-1.7264958E-1,-4.144996E-3,-9.427417E-3,-1.9356546E-3,2.7074402E-2,-4.287351E-3,-1.1756644E-2,-1.43807E-2,-1.8143114E-2,8.097419E-3,1.565798E-2,2.277381E-3,-7.6887086E-3,1.6969359E-2,4.20224E-3,2.6736006E-2,-1.0286262E-2],"split_indices":[35,33,35,35,32,32,35,34,12,34,33,44,34,34,33,0,0,0,0,0,0,0,0,0,0,0,0,0,0,0,0],"split_type":[0,0,0,0,0,0,0,0,0,0,0,0,0,0,0,0,0,0,0,0,0,0,0,0,0,0,0,0,0,0,0],"sum_hessian":[5.1560312E3,2.611734E3,2.5442976E3,1.2195903E3,1.3921436E3,1.8332112E3,7.110863E2,6.580816E2,5.615087E2,6.826292E2,7.095143E2,8.4494196E2,9.882693E2,3.8887933E2,3.2220694E2,2.826027E2,3.754789E2,5.551167E2,6.392036E0,7.0630646E1,6.119986E2,3.4239578E2,3.671185E2,6.3565906E2,2.0928288E2,8.969333E2,9.133597E1,3.5987585E2,2.9003494E1,3.1763516E2,4.5717864E0],"tree_param":{"num_deleted":"0","num_feature":"46","num_nodes":"31","size_leaf_vector":"1"}},{"base_weights":[3.7350978E-3,5.5933423E-2,-3.538439E-1,7.878649E-2,-3.86998E-1,-2.4060705E-1,-4.7809392E-1,1.1885307E-1,-4.0761106E-2,-4.1919747E-1,3.8228336E-1,-2.6369986E-1,1.17782086E-1,-4.922411E-1,-6.111312E-3,4.3800077E-3,-7.755262E-4,9.821376E-3,-1.7521012E-3,-1.600631E-2,-6.6327006E-3,2.294072E-2,-1.06625E-2,-5.8538294E-3,-1.1702037E-2,1.8228382E-2,-1.0572804E-2,-1.4964698E-2,6.7979265E-3,2.5432147E-2,-1.0792452E-2],"categories":[],"categories_nodes":[],"categories_segments":[],"categories_sizes":[],"default_left":[0,0,0,0,0,0,0,0,0,0,0,0,0,0,0,0,0,0,0,0,0,0,0,0,0,0,0,0,0,0,0],"id":43,"left_children":[1,3,5,7,9,11,13,15,17,19,21,23,25,27,29,-1,-1,-1,-1,-1,-1,-1,-1,-1,-1,-1,-1,-1,-1,-1,-1],"loss_changes":[8.643329E1,4.0962955E1,8.069359E0,1.8422735E1,5.2397346E0,2.649622E0,1.8585091E0,1.1319939E1,6.3152223E0,4.1036415E0,3.0893993E0,2.3982887E0,5.105718E0,1.5086975E0,3.6751814E0,0E0,0E0,0E0,0E0,0E0,0E0,0E0,0E0,0E0,0E0,0E0,