{"learner":{"attributes":{"best_iteration":"453","best_score":"1.4388806373743022","scikit_learn":"{\"_estimator_type\": \"regressor\"}"},"feature_names":["elo_diff","elo_home_pre","elo_away_pre","h2h_matches","h2h_home_win_rate","home_form_goals_for_5","home_form_goals_against_5","home_form_points_5","away_form_goals_for_5","away_form_goals_against_5","away_form_points_5","home_form_goals_for_10","home_form_goals_against_10","home_form_points_10","away_form_goals_for_10","away_form_goals_against_10","away_form_points_10","form_points_diff_5","form_goal_diff_5","home_rest_days","away_rest_days","rest_days_diff","home_matches_played","away_matches_played","home_mcmc_attack_mean","home_mcmc_attack_sd","home_mcmc_defense_mean","home_mcmc_defense_sd","away_mcmc_attack_mean","away_mcmc_attack_sd","away_mcmc_defense_mean","away_mcmc_defense_sd","mcmc_attack_diff","mcmc_defense_diff","mcmc_net_strength_home","mcmc_net_strength_away","online_att_home","online_def_home","online_att_away","online_def_away","online_net_home","online_net_away","online_att_diff","online_def_diff","neutral","tournament_tier_enc"],"feature_types":["float","float","float","float","float","float","float","float","float","float","float","float","float","float","float","float","float","float","float","float","float","float","int","int","float","float","float","float","float","float","float","float","float","float","float","float","float","float","float","float","float","float","float","float","int","int"],"gradient_booster":{"model":{"cats":{"enc":[],"feature_segments":[],"sorted_idx":[]},"gbtree_model_param":{"num_parallel_tree":"1","num_trees":"504"},"iteration_indptr":[0,1,2,3,4,5,6,7,8,9,10,11,12,13,14,15,16,17,18,19,20,21,22,23,24,25,26,27,28,29,30,31,32,33,34,35,36,37,38,39,40,41,42,43,44,45,46,47,48,49,50,51,52,53,54,55,56,57,58,59,60,61,62,63,64,65,66,67,68,69,70,71,72,73,74,75,76,77,78,79,80,81,82,83,84,85,86,87,88,89,90,91,92,93,94,95,96,97,98,99,100,101,102,103,104,105,106,107,108,109,110,111,112,113,114,115,116,117,118,119,120,121,122,123,124,125,126,127,128,129,130,131,132,133,134,135,136,137,138,139,140,141,142,143,144,145,146,147,148,149,150,151,152,153,154,155,156,157,158,159,160,161,162,163,164,165,166,167,168,169,170,171,172,173,174,175,176,177,178,179,180,181,182,183,184,185,186,187,188,189,190,191,192,193,194,195,196,197,198,199,200,201,202,203,204,205,206,207,208,209,210,211,212,213,214,215,216,217,218,219,220,221,222,223,224,225,226,227,228,229,230,231,232,233,234,235,236,237,238,239,240,241,242,243,244,245,246,247,248,249,250,251,252,253,254,255,256,257,258,259,260,261,262,263,264,265,266,267,268,269,270,271,272,273,274,275,276,277,278,279,280,281,282,283,284,285,286,287,288,289,290,291,292,293,294,295,296,297,298,299,300,301,302,303,304,305,306,307,308,309,310,311,312,313,314,315,316,317,318,319,320,321,322,323,324,325,326,327,328,329,330,331,332,333,334,335,336,337,338,339,340,341,342,343,344,345,346,347,348,349,350,351,352,353,354,355,356,357,358,359,360,361,362,363,364,365,366,367,368,369,370,371,372,373,374,375,376,377,378,379,380,381,382,383,384,385,386,387,388,389,390,391,392,393,394,395,396,397,398,399,400,401,402,403,404,405,406,407,408,409,410,411,412,413,414,415,416,417,418,419,420,421,422,423,424,425,426,427,428,429,430,431,432,433,434,435,436,437,438,439,440,441,442,443,444,445,446,447,448,449,450,451,452,453,454,455,456,457,458,459,460,461,462,463,464,465,466,467,468,469,470,471,472,473,474,475,476,477,478,479,480,481,482,483,484,485,486,487,488,489,490,491,492,493,494,495,496,497,498,499,500,501,502,503,504],"tree_info":[0,0,0,0,0,0,0,0,0,0,0,0,0,0,0,0,0,0,0,0,0,0,0,0,0,0,0,0,0,0,0,0,0,0,0,0,0,0,0,0,0,0,0,0,0,0,0,0,0,0,0,0,0,0,0,0,0,0,0,0,0,0,0,0,0,0,0,0,0,0,0,0,0,0,0,0,0,0,0,0,0,0,0,0,0,0,0,0,0,0,0,0,0,0,0,0,0,0,0,0,0,0,0,0,0,0,0,0,0,0,0,0,0,0,0,0,0,0,0,0,0,0,0,0,0,0,0,0,0,0,0,0,0,0,0,0,0,0,0,0,0,0,0,0,0,0,0,0,0,0,0,0,0,0,0,0,0,0,0,0,0,0,0,0,0,0,0,0,0,0,0,0,0,0,0,0,0,0,0,0,0,0,0,0,0,0,0,0,0,0,0,0,0,0,0,0,0,0,0,0,0,0,0,0,0,0,0,0,0,0,0,0,0,0,0,0,0,0,0,0,0,0,0,0,0,0,0,0,0,0,0,0,0,0,0,0,0,0,0,0,0,0,0,0,0,0,0,0,0,0,0,0,0,0,0,0,0,0,0,0,0,0,0,0,0,0,0,0,0,0,0,0,0,0,0,0,0,0,0,0,0,0,0,0,0,0,0,0,0,0,0,0,0,0,0,0,0,0,0,0,0,0,0,0,0,0,0,0,0,0,0,0,0,0,0,0,0,0,0,0,0,0,0,0,0,0,0,0,0,0,0,0,0,0,0,0,0,0,0,0,0,0,0,0,0,0,0,0,0,0,0,0,0,0,0,0,0,0,0,0,0,0,0,0,0,0,0,0,0,0,0,0,0,0,0,0,0,0,0,0,0,0,0,0,0,0,0,0,0,0,0,0,0,0,0,0,0,0,0,0,0,0,0,0,0,0,0,0,0,0,0,0,0,0,0,0,0,0,0,0,0,0,0,0,0,0,0,0,0,0,0,0,0,0,0,0,0,0,0,0,0,0,0,0,0,0,0,0,0,0,0,0,0,0,0,0,0,0,0,0,0,0,0,0,0,0,0,0,0,0,0,0,0,0,0,0,0,0,0,0,0,0,0,0,0,0,0,0,0,0,0,0,0,0,0,0,0,0,0,0,0,0,0,0],"trees":[{"base_weights":[-5.509125E-4,-8.0197625E-2,7E-1,-2.043035E-1,7.1139924E-2,4.566267E-1,7E-1,-2.9720092E-1,-1.4817537E-1,-1.032123E-3,1.9439529E-1,5.7029516E-1,4.0051427E-1,7E-1,1.5223846E-1,-1.089669E-2,-7.778117E-3,-5.8843843E-3,-3.7392462E-3,-6.856973E-4,2.2199317E-3,4.778907E-3,8.492315E-3,3.3632729E-3,1.7982611E-2,1.0179806E-2,1.5401144E-2,2.1E-2,-3.5321808E-3,-9.234341E-3,8.034773E-3],"categories":[],"categories_nodes":[],"categories_segments":[],"categories_sizes":[],"default_left":[0,0,0,0,0,0,0,0,0,0,0,0,0,0,0,0,0,0,0,0,0,0,0,0,0,0,0,0,0,0,0],"id":0,"left_children":[1,3,5,7,9,11,13,15,17,19,21,23,25,27,29,-1,-1,-1,-1,-1,-1,-1,-1,-1,-1,-1,-1,-1,-1,-1,-1],"loss_changes":[2.483225E3,7.15782E2,1.4516772E2,1.0908954E2,1.5275572E2,1.5280945E1,5.490967E0,1.9555664E1,1.4690979E1,1.7741156E1,1.9648926E1,1.068512E1,1.1105438E1,2.538086E0,1.3117241E0,0E0,0E0,0E0,0E0,0E0,0E0,0E0,0E0,0E0,0E0,0E0,0E0,0E0,0E0,0E0,0E0],"parents":[2147483647,0,0,1,1,2,2,3,3,4,4,5,5,6,6,7,7,8,8,9,9,10,10,11,11,12,12,13,13,14,14],"right_children":[2,4,6,8,10,12,14,16,18,20,22,24,26,28,30,-1,-1,-1,-1,-1,-1,-1,-1,-1,-1,-1,-1,-1,-1,-1,-1],"split_conditions":[5.106939E-1,-1.1212212E-1,8.401581E-1,-5.458773E-1,1.8489191E-1,3.345715E-1,1.5E2,-8.7590206E-1,-3.7717587E-1,9.67507E-2,3.9707112E-1,2E0,2.25E0,4.4318655E-1,1.8349071E3,-1.089669E-2,-7.778117E-3,-5.8843843E-3,-3.7392462E-3,-6.856973E-4,2.2199317E-3,4.778907E-3,8.492315E-3,3.3632729E-3,1.7982611E-2,1.0179806E-2,1.5401144E-2,2.1E-2,-3.5321808E-3,-9.234341E-3,8.034773E-3],"split_indices":[34,34,34,34,34,40,23,34,34,34,34,20,9,35,1,0,0,0,0,0,0,0,0,0,0,0,0,0,0,0,0],"split_type":[0,0,0,0,0,0,0,0,0,0,0,0,0,0,0,0,0,0,0,0,0,0,0,0,0,0,0,0,0,0,0],"sum_hessian":[4.2202715E4,3.8106695E4,4.0960215E3,2.093667E4,1.7170025E4,2.4654397E3,1.6305818E3,7.882232E3,1.30544375E4,1.0830324E4,6.3397017E3,8.0876855E2,1.656671E3,1.6110148E3,1.956698E1,2.869824E3,5.012408E3,4.291691E3,8.762746E3,8.390974E3,2.4393503E3,4.546062E3,1.7936399E3,4.8917454E1,7.598511E2,1.0794451E3,5.7722595E2,1.6077535E3,3.2611635E0,3.2611635E0,1.6305817E1],"tree_param":{"num_deleted":"0","num_feature":"46","num_nodes":"31","size_leaf_vector":"1"}},{"base_weights":[1.8556943E-3,-7.740182E-2,7E-1,-2.0287053E-1,7.0811056E-2,4.587685E-1,7E-1,-2.8747547E-1,-1.3920322E-1,-9.620412E-3,1.6192347E-1,6.436775E-1,4.2262238E-1,-9.201889E-3,7E-1,-1.0907114E-2,-7.5682173E-3,-5.292298E-3,-3.426048E-3,-5.097226E-4,9.850481E-3,3.9448193E-3,8.020361E-3,2.1E-2,1.3219618E-2,1.0638904E-2,1.531527E-2,2.1E-2,-3.5072868E-3],"categories":[],"categories_nodes":[],"categories_segments":[],"categories_sizes":[],"default_left":[0,0,0,0,0,0,0,0,0,0,0,0,0,0,0,0,0,0,0,0,0,0,0,0,0,0,0,0,0],"id":1,"left_children":[1,3,5,7,9,11,13,15,17,19,21,23,25,-1,27,-1,-1,-1,-1,-1,-1,-1,-1,-1,-1,-1,-1,-1,-1],"loss_changes":[2.3816194E3,7.065032E2,1.5580737E2,1.1074524E2,1.2764859E2,1.7463806E1,4.3217773E0,2.3476196E1,1.0884033E1,2.3060492E1,2.6128677E1,8.255203E0,1.3140076E1,0E0,2.5233154E0,0E0,0E0,0E0,0E0,0E0,0E0,0E0,0E0,0E0,0E0,0E0,0E0,0E0,0E0],"parents":[2147483647,0,0,1,1,2,2,3,3,4,4,5,5,6,6,7,7,8,8,9,9,10,10,11,11,12,12,14,14],"right_children":[2,4,6,8,10,12,14,16,18,20,22,24,26,-1,28,-1,-1,-1,-1,-1,-1,-1,-1,-1,-1,-1,-1,-1,-1],"split_conditions":[5.106939E-1,-1.1212212E-1,8.781309E-1,-4.9651775E-1,1.2439351E-1,1.9032867E-1,1.0579195E-1,-8.7590206E-1,-3.187484E-1,3.25E0,3.9707112E-1,1.730298E-1,6.6662174E-1,-9.201889E-3,5.0966036E-1,-1.0907114E-2,-7.5682173E-3,-5.292298E-3,-3.426048E-3,-5.097226E-4,9.850481E-3,3.9448193E-3,8.020361E-3,2.1E-2,1.3219618E-2,1.0638904E-2,1.531527E-2,2.1E-2,-3.5072868E-3],"split_indices":[34,34,34,34,34,40,29,34,34,18,34,29,34,0,28,0,0,0,0,0,0,0,0,0,0,0,0,0,0],"split_type":[0,0,0,0,0,0,0,0,0,0,0,0,0,0,0,0,0,0,0,0,0,0,0,0,0,0,0,0,0],"sum_hessian":[4.221562E4,3.7988504E4,4.2271143E3,2.057236E4,1.7416145E4,2.6922827E3,1.5348318E3,8.830644E3,1.1741716E4,9.251219E3,8.164927E3,4.3473544E2,2.257547E3,3.2311878E0,1.5316006E3,2.787109E3,6.043535E3,4.7141445E3,7.0275713E3,9.055636E3,1.9558311E2,6.339545E3,1.825382E3,2.7883215E2,1.559033E2,1.2785138E3,9.790334E2,1.528351E3,3.249665E0],"tree_param":{"num_deleted":"0","num_feature":"46","num_nodes":"29","size_leaf_vector":"1"}},{"base_weights":[7.994038E-4,-7.664743E-2,6.1172897E-1,-2.0403375E-1,3.750723E-2,3.6983392E-1,7E-1,-2.7366182E-1,-1.4353734E-1,-3.647704E-2,1.2717845E-1,3.5279778E-1,7E-1,7E-1,1.4773183E-1,-1.1008696E-2,-7.2577046E-3,-4.6785744E-3,-2.0682574E-3,-2.786115E-3,3.428789E-4,6.1176987E-3,2.4442335E-3,8.682407E-3,1.3261247E-2,-3.7658066E-3,2.1E-2,1.735167E-2,2.1E-2,1.2348221E-2,-7.226074E-4],"categories":[],"categories_nodes":[],"categories_segments":[],"categories_sizes":[],"default_left":[0,0,0,0,0,0,0,0,0,0,0,0,0,0,0,0,0,0,0,0,0,0,0,0,0,0,0,0,0,0,0],"id":2,"left_children":[1,3,5,7,9,11,13,15,17,19,21,23,25,27,29,-1,-1,-1,-1,-1,-1,-1,-1,-1,-1,-1,-1,-1,-1,-1,-1],"loss_changes":[1.9803456E3,5.4018225E2,2.729685E2,7.387109E1,1.2998834E2,2.5027557E1,1.0850952E1,2.398352E1,8.682236E0,2.9008125E1,3.1034897E1,1.5540924E1,2.6807098E0,5.88501E0,1.778527E0,0E0,0E0,0E0,0E0,0E0,0E0,0E0,0E0,0E0,0E0,0E0,0E0,0E0,0E0,0E0,0E0],"parents":[2147483647,0,0,1,1,2,2,3,3,4,4,5,5,6,6,7,7,8,8,9,9,10,10,11,11,12,12,13,13,14,14],"right_children":[2,4,6,8,10,12,14,16,18,20,22,24,26,28,30,-1,-1,-1,-1,-1,-1,-1,-1,-1,-1,-1,-1,-1,-1,-1,-1],"split_conditions":[6.25599E-1,-2.091182E-2,9.220009E-1,-3.4479806E-1,2.5117373E-1,4E0,3.377749E-1,-8.006751E-1,1.9E0,-5.0075572E-2,2.108432E-1,7.6978E-1,1.5308141E3,1.0256368E0,2.5E-1,-1.1008696E-2,-7.2577046E-3,-4.6785744E-3,-2.0682574E-3,-2.786115E-3,3.428789E-4,6.1176987E-3,2.4442335E-3,8.682407E-3,1.3261247E-2,-3.7658066E-3,2.1E-2,1.735167E-2,2.1E-2,1.2348221E-2,-7.226074E-4],"split_indices":[33,33,33,33,33,5,28,33,12,40,37,33,1,33,10,0,0,0,0,0,0,0,0,0,0,0,0,0,0,0,0],"split_type":[0,0,0,0,0,0,0,0,0,0,0,0,0,0,0,0,0,0,0,0,0,0,0,0,0,0,0,0,0,0,0],"sum_hessian":[4.1850902E4,3.7143953E4,4.706947E3,1.7553855E4,1.9590098E4,2.8476519E3,1.8592949E3,8.1577188E3,9.396137E3,1.0734589E4,8.855509E3,2.790607E3,5.7044838E1,1.8225048E3,3.679017E1,2.0653892E3,6.0923296E3,8.0535747E3,1.3425623E3,4.9296826E3,5.8049062E3,3.302732E3,5.5527773E3,1.6366704E3,1.1539366E3,3.371582E0,5.3673256E1,4.621908E2,1.360314E3,1.3407711E1,2.3382458E1],"tree_param":{"num_deleted":"0","num_feature":"46","num_nodes":"31","size_leaf_vector":"1"}},{"base_weights":[2.2400804E-3,-8.6187415E-2,4.990222E-1,-1.9956787E-1,2.2701161E-2,3.0791602E-1,7E-1,-3.0137607E-1,-1.535151E-1,-3.595168E-2,1.05096176E-1,4.8628902E-1,2.7153778E-1,7E-1,4.1058215E-1,-1.0637674E-2,-8.0339275E-3,-5.7697096E-3,-3.8567483E-3,-1.2345349E-3,7.110543E-3,7.267822E-3,2.392787E-3,1.2069633E-2,2.1E-2,6.117773E-3,1.0246985E-2,2.1E-2,-1.4264989E-3,6.3549536E-3,1.7021025E-2],"categories":[],"categories_nodes":[],"categories_segments":[],"categories_sizes":[],"default_left":[0,0,0,0,0,0,0,0,0,0,0,0,0,0,0,0,0,0,0,0,0,0,0,0,0,0,0,0,0,0,0],"id":3,"left_children":[1,3,5,7,9,11,13,15,17,19,21,23,25,27,29,-1,-1,-1,-1,-1,-1,-1,-1,-1,-1,-1,-1,-1,-1,-1,-1],"loss_changes":[1.8457573E3,4.40358E2,4.041178E2,8.18338E1,8.7943924E1,2.7659454E1,2.4688354E1,9.530914E0,1.16073E1,1.51081E1,2.625924E1,1.3651871E1,1.6805664E1,7.7229004E0,9.30867E0,0E0,0E0,0E0,0E0,0E0,0E0,0E0,0E0,0E0,0E0,0E0,0E0,0E0,0E0,0E0,0E0],"parents":[2147483647,0,0,1,1,2,2,3,3,4,4,5,5,6,6,7,7,8,8,9,9,10,10,11,11,12,12,13,13,14,14],"right_children":[2,4,6,8,10,12,14,16,18,20,22,24,26,28,30,-1,-1,-1,-1,-1,-1,-1,-1,-1,-1,-1,-1,-1,-1,-1,-1],"split_conditions":[5.468236E-1,-2.091182E-2,8.959319E-1,-4.8758584E-1,2.5117373E-1,3.1E1,-8.612721E-3,-8.006751E-1,-2.5898036E-1,3.25E0,-1.3675971E-1,2.4666667E0,1.15E0,1.36E2,1.5E0,-1.0637674E-2,-8.0339275E-3,-5.7697096E-3,-3.8567483E-3,-1.2345349E-3,7.110543E-3,7.267822E-3,2.392787E-3,1.2069633E-2,2.1E-2,6.117773E-3,1.0246985E-2,2.1E-2,-1.4264989E-3,6.3549536E-3,1.7021025E-2],"split_indices":[33,33,33,33,33,22,30,33,33,18,30,18,18,23,5,0,0,0,0,0,0,0,0,0,0,0,0,0,0,0,0],"split_type":[0,0,0,0,0,0,0,0,0,0,0,0,0,0,0,0,0,0,0,0,0,0,0,0,0,0,0,0,0,0,0],"sum_hessian":[4.2012688E4,3.566581E4,6.346881E3,1.7471697E4,1.819411E4,4.3012783E3,2.0456023E3,5.438281E3,1.2033417E4,1.0628993E4,7.565115E3,7.2443384E2,3.5768445E3,1.7411614E3,3.0444086E2,2.0965999E3,3.341681E3,4.7044526E3,7.3289644E3,1.0431985E4,1.970083E2,1.1768561E3,6.3882593E3,5.3753687E2,1.8689696E2,1.8238E3,1.7530446E3,1.7275876E3,1.3573764E1,1.3632693E2,1.681139E2],"tree_param":{"num_deleted":"0","num_feature":"46","num_nodes":"31","size_leaf_vector":"1"}},{"base_weights":[2.7466114E-3,-8.996093E-2,5.266526E-1,-2.0615149E-1,4.230826E-2,3.4451774E-1,7E-1,-3.1238002E-1,-1.6062279E-1,-1.7836507E-2,1.2291516E-1,2.8983113E-1,4.5630318E-1,-1.494278E-1,7E-1,-1.18806595E-2,-8.5366E-3,-5.9163095E-3,-4.0914486E-3,-7.310793E-4,9.331525E-3,4.989226E-3,2.3060585E-3,1.1408266E-2,6.9394857E-3,1.7212259E-2,1.0573004E-2,-9.2383325E-3,1.8644457E-3,1.6769199E-2,2.1E-2],"categories":[],"categories_nodes":[],"categories_segments":[],"categories_sizes":[],"default_left":[0,0,0,0,0,0,0,0,0,0,0,0,0,0,0,0,0,0,0,0,0,0,0,0,0,0,0,0,0,0,0],"id":4,"left_children":[1,3,5,7,9,11,13,15,17,19,21,23,25,27,29,-1,-1,-1,-1,-1,-1,-1,-1,-1,-1,-1,-1,-1,-1,-1,-1],"loss_changes":[2.0467529E3,5.5027686E2,3.876598E2,9.208783E1,8.1187515E1,2.774646E1,5.241089E0,1.3079407E1,1.1783722E1,2.062337E1,1.4272118E1,1.613684E1,1.7914368E1,3.2744163E-1,2.6564941E0,0E0,0E0,0E0,0E0,0E0,0E0,0E0,0E0,0E0,0E0,0E0,0E0,0E0,0E0,0E0,0E0],"parents":[2147483647,0,0,1,1,2,2,3,3,4,4,5,5,6,6,7,7,8,8,9,9,10,10,11,11,12,12,13,13,14,14],"right_children":[2,4,6,8,10,12,14,16,18,20,22,24,26,28,30,-1,-1,-1,-1,-1,-1,-1,-1,-1,-1,-1,-1,-1,-1,-1,-1],"split_conditions":[3.8990003E-1,-1.4807336E-1,8.401581E-1,-6.403552E-1,9.67507E-2,6.0824865E-1,1.0579195E-1,-1.0794208E0,-3.9885765E-1,3.25E0,1.740315E-1,2.9181463E-1,4.2713997E-1,1.8349071E3,8.781309E-1,-1.18806595E-2,-8.5366E-3,-5.9163095E-3,-4.0914486E-3,-7.310793E-4,9.331525E-3,4.989226E-3,2.3060585E-3,1.1408266E-2,6.9394857E-3,1.7212259E-2,1.0573004E-2,-9.2383325E-3,1.8644457E-3,1.6769199E-2,2.1E-2],"split_indices":[34,34,34,34,34,34,29,34,34,18,40,40,43,1,34,0,0,0,0,0,0,0,0,0,0,0,0,0,0,0,0],"split_type":[0,0,0,0,0,0,0,0,0,0,0,0,0,0,0,0,0,0,0,0,0,0,0,0,0,0,0,0,0,0,0],"sum_hessian":[4.213629E4,3.5802527E4,6.333763E3,1.9059117E4,1.6743408E4,4.5800703E3,1.7536931E3,5.7144106E3,1.3344706E4,9.589654E3,7.1537544E3,3.0803276E3,1.4997426E3,6.6219378E0,1.7470712E3,1.4199214E3,4.2944893E3,5.3123823E3,8.032324E3,9.404697E3,1.8495692E2,3.6803345E3,3.47342E3,1.2057095E3,1.874618E3,6.996482E2,8.0009436E2,3.264875E0,3.3570628E0,1.808351E2,1.5662361E3],"tree_param":{"num_deleted":"0","num_feature":"46","num_nodes":"31","size_leaf_vector":"1"}},{"base_weights":[3.9387518E-3,-8.982478E-2,5.2417123E-1,-2.0087013E-1,4.1070323E-2,3.4574708E-1,7E-1,-2.9294768E-1,-1.4686063E-1,-2.0091567E-2,1.1817557E-1,2.944835E-1,4.4666186E-1,-1.0983445E-2,7E-1,-1.0812501E-2,-7.5791203E-3,-5.489476E-3,-3.6191293E-3,3.3325693E-4,-2.7782058E-3,7.032744E-3,3.0241695E-3,1.2548944E-2,7.477554E-3,1.2216016E-2,1.8885965E-2,7.0022997E-3,-4.775928E-3,-9.205877E-3,2.1E-2],"categories":[],"categories_nodes":[],"categories_segments":[],"categories_sizes":[],"default_left":[0,0,0,0,0,0,0,0,0,0,0,0,0,0,0,0,0,0,0,0,0,0,0,0,0,0,0,0,0,0,0],"id":5,"left_children":[1,3,5,7,9,11,13,15,17,19,21,23,25,27,29,-1,-1,-1,-1,-1,-1,-1,-1,-1,-1,-1,-1,-1,-1,-1,-1],"loss_changes":[2.0499731E3,5.1759143E2,3.9684766E2,9.57207E1,7.708627E1,2.431549E1,5.258667E0,1.918341E1,1.1461487E1,2.0628197E1,1.455275E1,1.7468842E1,1.1008881E1,5.21366E-1,4.3269043E0,0E0,0E0,0E0,0E0,0E0,0E0,0E0,0E0,0E0,0E0,0E0,0E0,0E0,0E0,0E0,0E0],"parents":[2147483647,0,0,1,1,2,2,3,3,4,4,5,5,6,6,7,7,8,8,9,9,10,10,11,11,12,12,13,13,14,14],"right_children":[2,4,6,8,10,12,14,16,18,20,22,24,26,28,30,-1,-1,-1,-1,-1,-1,-1,-1,-1,-1,-1,-1,-1,-1,-1,-1],"split_conditions":[3.9707112E-1,-1.358879E-1,8.781309E-1,-5.629367E-1,9.67507E-2,6.243269E-1,2.9172E-1,-8.7590206E-1,-3.5519242E-1,1E0,-7.731653E-2,2.173884E-1,3.1666667E0,1E0,1.0579195E-1,-1.0812501E-2,-7.5791203E-3,-5.489476E-3,-3.6191293E-3,3.3325693E-4,-2.7782058E-3,7.032744E-3,3.0241695E-3,1.2548944E-2,7.477554E-3,1.2216016E-2,1.8885965E-2,7.0022997E-3,-4.775928E-3,-9.205877E-3,2.1E-2],"split_indices":[34,34,34,34,34,34,33,34,34,44,36,40,18,5,29,0,0,0,0,0,0,0,0,0,0,0,0,0,0,0,0],"split_type":[0,0,0,0,0,0,0,0,0,0,0,0,0,0,0,0,0,0,0,0,0,0,0,0,0,0,0,0,0,0,0],"sum_hessian":[4.2021938E4,3.5606156E4,6.415782E3,1.9263135E4,1.6343021E4,4.7490854E3,1.6666969E3,7.1184575E3,1.2144678E4,9.114579E3,7.2284424E3,3.1544802E3,1.594605E3,1.0341738E1,1.6563551E3,2.6564192E3,4.4620386E3,5.1031626E3,7.041515E3,6.3738755E3,2.7407036E3,9.3641815E2,6.292024E3,8.396298E2,2.3148506E3,1.3168889E3,2.777161E2,3.4701319E0,6.8716054E0,3.2348518E0,1.6531202E3],"tree_param":{"num_deleted":"0","num_feature":"46","num_nodes":"31","size_leaf_vector":"1"}},{"base_weights":[9.163246E-4,-8.96687E-2,5.1096684E-1,-1.949676E-1,4.1516554E-2,3.3166602E-1,7E-1,-2.8943306E-1,-1.388457E-1,-1.971549E-2,1.1459951E-1,4.845084E-1,2.9295284E-1,5.9189093E-1,7E-1,-1.0727541E-2,-7.5168144E-3,-5.3249206E-3,-3.4285623E-3,-7.481329E-4,1.2120612E-2,4.3138447E-3,1.1424882E-3,1.2003356E-2,1.9202594E-2,6.6613555E-3,1.1329115E-2,2.1E-2,1.5156802E-2,2.1E-2,-9.173461E-3],"categories":[],"categories_nodes":[],"categories_segments":[],"categories_sizes":[],"default_left":[0,0,0,0,0,0,0,0,0,0,0,0,0,0,0,0,0,0,0,0,0,0,0,0,0,0,0,0,0,0,0],"id":6,"left_children":[1,3,5,7,9,11,13,15,17,19,21,23,25,27,29,-1,-1,-1,-1,-1,-1,-1,-1,-1,-1,-1,-1,-1,-1,-1,-1],"loss_changes":[1.9429297E3,4.9330215E2,3.786277E2,1.0494299E2,7.116707E1,2.6155914E1,7.749634E0,1.9374817E1,1.1759949E1,1.917104E1,1.6184662E1,1.1305115E1,2.1271942E1,7.141449E0,4.2857666E0,0E0,0E0,0E0,0E0,0E0,0E0,0E0,0E0,0E0,0E0,0E0,0E0,0E0,0E0,0E0,0E0],"parents":[2147483647,0,0,1,1,2,2,3,3,4,4,5,5,6,6,7,7,8,8,9,9,10,10,11,11,12,12,13,13,14,14],"right_children":[2,4,6,8,10,12,14,16,18,20,22,24,26,28,30,-1,-1,-1,-1,-1,-1,-1,-1,-1,-1,-1,-1,-1,-1,-1,-1],"split_conditions":[3.9707112E-1,-1.21110596E-1,8.401581E-1,-5.458773E-1,9.67507E-2,1.9032867E-1,1.0116144E0,-8.7590206E-1,-3.5519242E-1,3.9E0,1E0,1.1322096E-1,5.744215E-1,1.25E0,1.5E2,-1.0727541E-2,-7.5168144E-3,-5.3249206E-3,-3.4285623E-3,-7.481329E-4,1.2120612E-2,4.3138447E-3,1.1424882E-3,1.2003356E-2,1.9202594E-2,6.6613555E-3,1.1329115E-2,2.1E-2,1.5156802E-2,2.1E-2,-9.173461E-3],"split_indices":[34,34,34,34,34,40,34,34,34,18,44,42,34,5,23,0,0,0,0,0,0,0,0,0,0,0,0,0,0,0,0],"split_type":[0,0,0,0,0,0,0,0,0,0,0,0,0,0,0,0,0,0,0,0,0,0,0,0,0,0,0,0,0,0,0],"sum_hessian":[4.2048098E4,3.5708004E4,6.3400967E3,1.980782E4,1.5900181E4,4.466442E3,1.8736545E3,7.3790117E3,1.242881E4,8.65234E3,7.247842E3,8.9800903E2,3.568433E3,7.449094E2,1.1287451E3,2.674198E3,4.7048135E3,4.8242344E3,7.604575E3,8.548862E3,1.0347698E2,5.244873E3,2.0029689E3,5.8681995E2,3.1118906E2,1.9461405E3,1.6222926E3,3.0272113E2,4.4218826E2,1.1255399E3,3.205209E0],"tree_param":{"num_deleted":"0","num_feature":"46","num_nodes":"31","size_leaf_vector":"1"}},{"base_weights":[9.4171835E-4,-7.224645E-2,6.138771E-1,-1.9245787E-1,6.0214948E-2,3.98318E-1,7E-1,-2.8511775E-1,-1.4083712E-1,-1.4669358E-2,1.462806E-1,4.1183302E-1,5.410222E-2,2.3833795E-1,7E-1,-1.0664505E-2,-7.3402575E-3,-5.49079E-3,-3.3761591E-3,3.6218722E-4,-2.3244596E-3,3.5585759E-3,6.9038915E-3,1.1370201E-2,1.6318785E-2,-1.0084084E-2,3.0933816E-3,-4.483733E-3,8.620374E-3,2.1E-2,1.2329876E-2],"categories":[],"categories_nodes":[],"categories_segments":[],"categories_sizes":[],"default_left":[0,0,0,0,0,0,0,0,0,0,0,0,0,0,0,0,0,0,0,0,0,0,0,0,0,0,0,0,0,0,0],"id":7,"left_children":[1,3,5,7,9,11,13,15,17,19,21,23,25,27,29,-1,-1,-1,-1,-1,-1,-1,-1,-1,-1,-1,-1,-1,-1,-1,-1],"loss_changes":[1.8856226E3,5.979484E2,2.1828516E2,9.408026E1,1.1515237E2,1.2863159E1,7.4281006E0,1.9863708E1,1.5057419E1,1.60529E1,1.9225891E1,1.11657715E1,2.118196E0,8.3565235E-1,6.0134277E0,0E0,0E0,0E0,0E0,0E0,0E0,0E0,0E0,0E0,0E0,0E0,0E0,0E0,0E0,0E0,0E0],"parents":[2147483647,0,0,1,1,2,2,3,3,4,4,5,5,6,6,7,7,8,8,9,9,10,10,11,11,12,12,13,13,14,14],"right_children":[2,4,6,8,10,12,14,16,18,20,22,24,26,28,30,-1,-1,-1,-1,-1,-1,-1,-1,-1,-1,-1,-1,-1,-1,-1,-1],"split_conditions":[5.106939E-1,-1.21110596E-1,8.781309E-1,-5.629367E-1,1.2439351E-1,2.01685E-1,2.5413263E-1,-8.7590206E-1,-3.5519242E-1,1E0,3.8990003E-1,3E0,-2.1323211E-4,-2.9634941E-2,5.4399733E-2,-1.0664505E-2,-7.3402575E-3,-5.49079E-3,-3.3761591E-3,3.6218722E-4,-2.3244596E-3,3.5585759E-3,6.9038915E-3,1.1370201E-2,1.6318785E-2,-1.0084084E-2,3.0933816E-3,-4.483733E-3,8.620374E-3,2.1E-2,1.2329876E-2],"split_indices":[34,34,34,34,34,31,32,34,34,44,34,9,33,40,30,0,0,0,0,0,0,0,0,0,0,0,0,0,0,0,0],"split_type":[0,0,0,0,0,0,0,0,0,0,0,0,0,0,0,0,0,0,0,0,0,0,0,0,0,0,0,0,0,0,0],"sum_hessian":[4.2029875E4,3.754816E4,4.4817114E3,1.9683803E4,1.786436E4,2.7725938E3,1.7091176E3,7.039237E3,1.2644566E4,9.553594E3,8.310765E3,2.6674675E3,1.05126396E2,3.745061E1,1.671667E3,2.5634753E3,4.4757617E3,5.071984E3,7.572582E3,6.701899E3,2.8516953E3,6.2528193E3,2.0579453E3,2.142827E3,5.246406E2,1.0422443E1,9.470395E1,3.741897E0,3.3708714E1,1.5899354E3,8.173154E1],"tree_param":{"num_deleted":"0","num_feature":"46","num_nodes":"31","size_leaf_vector":"1"}},{"base_weights":[6.3452445E-4,-9.1674864E-2,4.7981974E-1,-2.002815E-1,2.7094698E-2,3.2781518E-1,7E-1,-3.160303E-1,-1.5943992E-1,-1.8829675E-2,1.08543456E-1,2.659108E-1,4.357392E-1,5.839866E-1,7E-1,-1.218608E-2,-8.722863E-3,-6.03419E-3,-3.7803347E-3,-7.190128E-4,1.23122055E-2,7.09552E-3,2.5933615E-3,1.1352617E-2,6.6687786E-3,1.4116471E-2,8.0366675E-3,2.1E-2,1.4313815E-2,-9.2150895E-3,2.1E-2],"categories":[],"categories_nodes":[],"categories_segments":[],"categories_sizes":[],"default_left":[0,0,0,0,0,0,0,0,0,0,0,0,0,0,0,0,0,0,0,0,0,0,0,0,0,0,0,0,0,0,0],"id":8,"left_children":[1,3,5,7,9,11,13,15,17,19,21,23,25,27,29,-1,-1,-1,-1,-1,-1,-1,-1,-1,-1,-1,-1,-1,-1,-1,-1],"loss_changes":[1.8494136E3,4.5221832E2,3.6288464E2,8.6467896E1,6.264541E1,3.3108215E1,6.630249E0,1.0641571E1,1.8823883E1,2.363809E1,1.7035484E1,1.5419861E1,1.0357819E1,6.662369E0,4.338745E0,0E0,0E0,0E0,0E0,0E0,0E0,0E0,0E0,0E0,0E0,0E0,0E0,0E0,0E0,0E0,0E0],"parents":[2147483647,0,0,1,1,2,2,3,3,4,4,5,5,6,6,7,7,8,8,9,9,10,10,11,11,12,12,13,13,14,14],"right_children":[2,4,6,8,10,12,14,16,18,20,22,24,26,28,30,-1,-1,-1,-1,-1,-1,-1,-1,-1,-1,-1,-1,-1,-1,-1,-1],"split_conditions":[3.8990003E-1,-1.5321432E-1,8.781309E-1,-6.90703E-1,1.2439351E-1,6.0824865E-1,1.0116144E0,-1.1480979E0,-3.9885765E-1,3.9E0,-5.6591757E-2,2.173884E-1,7.116754E-1,7E-1,1.0579195E-1,-1.218608E-2,-8.722863E-3,-6.03419E-3,-3.7803347E-3,-7.190128E-4,1.23122055E-2,7.09552E-3,2.5933615E-3,1.1352617E-2,6.6687786E-3,1.4116471E-2,8.0366675E-3,2.1E-2,1.4313815E-2,-9.2150895E-3,2.1E-2],"split_indices":[34,34,34,34,34,34,34,34,34,18,36,40,40,17,29,0,0,0,0,0,0,0,0,0,0,0,0,0,0,0,0],"split_type":[0,0,0,0,0,0,0,0,0,0,0,0,0,0,0,0,0,0,0,0,0,0,0,0,0,0,0,0,0,0,0],"sum_hessian":[4.1806453E4,3.5055117E4,6.751338E3,1.8310262E4,1.6744855E4,4.9882847E3,1.7630531E3,4.7721294E3,1.3538133E4,1.0708481E4,6.036373E3,3.1744006E3,1.813884E3,5.63435E2,1.199618E3,1.0379465E3,3.7341829E3,6.0193887E3,7.5187437E3,1.0583696E4,1.2478519E2,8.859973E2,5.1503755E3,8.825576E2,2.291843E3,1.4993356E3,3.145485E2,2.5836987E2,3.0506516E2,3.2433405E0,1.1963746E3],"tree_param":{"num_deleted":"0","num_feature":"46","num_nodes":"31","size_leaf_vector":"1"}},{"base_weights":[-4.8719183E-5,-8.989605E-2,4.8040715E-1,-1.9354974E-1,3.7503775E-2,3.2038406E-1,7E-1,-3.0456498E-1,-1.4940055E-1,-1.4456591E-2,1.0915803E-1,2.5714034E-1,4.0794092E-1,5.645852E-1,7E-1,-1.1880575E-2,-8.466812E-3,-5.756604E-3,-3.7168271E-3,-6.100866E-4,1.2753708E-2,5.0364602E-3,2.1856555E-3,1.0314215E-2,5.9154243E-3,1.3373438E-2,7.673233E-3,1.7990978E-2,2.8546974E-3,2.1E-2,-1.9358852E-3],"categories":[],"categories_nodes":[],"categories_segments":[],"categories_sizes":[],"default_left":[0,0,0,0,0,0,0,0,0,0,0,0,0,0,0,0,0,0,0,0,0,0,0,0,0,0,0,0,0,0,0],"id":9,"left_children":[1,3,5,7,9,11,13,15,17,19,21,23,25,27,29,-1,-1,-1,-1,-1,-1,-1,-1,-1,-1,-1,-1,-1,-1,-1,-1],"loss_changes":[1.8120385E3,4.670071E2,3.7952734E2,9.547986E1,5.9076096E1,2.6664948E1,9.076904E0,1.1106934E1,1.5075134E1,2.3792152E1,1.4193848E1,1.4535721E1,1.1472321E1,8.9262085E0,4.422119E0,0E0,0E0,0E0,0E0,0E0,0E0,0E0,0E0,0E0,0E0,0E0,0E0,0E0,0E0,0E0,0E0],"parents":[2147483647,0,0,1,1,2,2,3,3,4,4,5,5,6,6,7,7,8,8,9,9,10,10,11,11,12,12,13,13,14,14],"right_children":[2,4,6,8,10,12,14,16,18,20,22,24,26,28,30,-1,-1,-1,-1,-1,-1,-1,-1,-1,-1,-1,-1,-1,-1,-1,-1],"split_conditions":[3.9707112E-1,-1.21110596E-1,8.781309E-1,-6.403552E-1,1.1923916E-1,5.890745E-1,1.0116144E0,-1.1480979E0,-3.9885765E-1,3.9E0,1.2397204E-1,2.9181463E-1,6.806021E-1,2.5555556E0,4.4318655E-1,-1.1880575E-2,-8.466812E-3,-5.756604E-3,-3.7168271E-3,-6.100866E-4,1.2753708E-2,5.0364602E-3,2.1856555E-3,1.0314215E-2,5.9154243E-3,1.3373438E-2,7.673233E-3,1.7990978E-2,2.8546974E-3,2.1E-2,-1.9358852E-3],"split_indices":[34,34,34,34,34,34,34,34,34,18,40,40,40,11,35,0,0,0,0,0,0,0,0,0,0,0,0,0,0,0,0],"split_type":[0,0,0,0,0,0,0,0,0,0,0,0,0,0,0,0,0,0,0,0,0,0,0,0,0,0,0,0,0,0,0],"sum_hessian":[4.197274E4,3.5361594E4,6.6111455E3,1.9497338E4,1.5864254E4,4.851295E3,1.7598506E3,5.5442524E3,1.3953086E4,9.196774E3,6.66748E3,2.8212993E3,2.0299954E3,5.464445E2,1.213406E3,1.0817954E3,4.462457E3,5.2293784E3,8.723707E3,9.077269E3,1.19506004E2,2.5443904E3,4.12309E3,1.1498347E3,1.6714647E3,1.6226259E3,4.0736954E2,5.0789783E2,3.854668E1,1.2061637E3,7.242257E0],"tree_param":{"num_deleted":"0","num_feature":"46","num_nodes":"31","size_leaf_vector":"1"}},{"base_weights":[1.6415335E-3,-8.015999E-2,4.1694975E-1,-1.8723261E-1,2.0754404E-2,2.850952E-1,7E-1,-2.809705E-1,-1.3929509E-1,-3.1140532E-2,8.320986E-2,2.7357852E-1,7E-1,7E-1,1.456165E-1,-1.0449424E-2,-7.266734E-3,-5.395455E-3,-3.5044006E-3,-1.1283159E-3,1.2945027E-2,5.681764E-3,1.865923E-3,7.0397365E-3,1.1893493E-2,2.1E-2,5.901821E-3,2.1E-2,-5.1893047E-3,1.1649797E-2,-1.0280224E-2],"categories":[],"categories_nodes":[],"categories_segments":[],"categories_sizes":[],"default_left":[0,0,0,0,0,0,0,0,0,0,0,0,0,0,0,0,0,0,0,0,0,0,0,0,0,0,0,0,0,0,0],"id":10,"left_children":[1,3,5,7,9,11,13,15,17,19,21,23,25,27,29,-1,-1,-1,-1,-1,-1,-1,-1,-1,-1,-1,-1,-1,-1,-1,-1],"loss_changes":[1.4215032E3,3.7772443E2,3.6880664E2,7.613788E1,5.8338356E1,3.2854828E1,1.0024048E1,1.4800934E1,1.0192963E1,2.9460815E1,1.8201313E1,2.4937012E1,7.054619E0,6.0687256E0,4.5093384E0,0E0,0E0,0E0,0E0,0E0,0E0,0E0,0E0,0E0,0E0,0E0,0E0,0E0,0E0,0E0,0E0],"parents":[2147483647,0,0,1,1,2,2,3,3,4,4,5,5,6,6,7,7,8,8,9,9,10,10,11,11,12,12,13,13,14,14],"right_children":[2,4,6,8,10,12,14,16,18,20,22,24,26,28,30,-1,-1,-1,-1,-1,-1,-1,-1,-1,-1,-1,-1,-1,-1,-1,-1],"split_conditions":[5.3945154E-1,-1.0682248E-2,1.0256368E0,-4.5010978E-1,2.3082279E-1,4E0,1.36E2,-7.7915645E-1,-1.7279442E-1,3.95E0,-1.2303139E-1,8.284485E-1,2E0,2.6744267E-1,2E0,-1.0449424E-2,-7.266734E-3,-5.395455E-3,-3.5044006E-3,-1.1283159E-3,1.2945027E-2,5.681764E-3,1.865923E-3,7.0397365E-3,1.1893493E-2,2.1E-2,5.901821E-3,2.1E-2,-5.1893047E-3,1.1649797E-2,-1.0280224E-2],"split_indices":[33,33,33,33,33,5,23,33,42,18,30,33,3,31,5,0,0,0,0,0,0,0,0,0,0,0,0,0,0,0,0],"split_type":[0,0,0,0,0,0,0,0,0,0,0,0,0,0,0,0,0,0,0,0,0,0,0,0,0,0,0,0,0,0,0],"sum_hessian":[4.1838363E4,3.495503E4,6.883333E3,1.69592E4,1.7995832E4,5.3505615E3,1.5327715E3,5.735052E3,1.1224148E4,9.829441E3,8.16639E3,5.251419E3,9.914285E1,1.4989678E3,3.3803654E1,2.0887183E3,3.6463335E3,3.9981448E3,7.2260034E3,9.695686E3,1.3375589E2,1.3464309E3,6.8199595E3,3.9925576E3,1.2588611E3,6.942099E1,2.9721865E1,1.4917185E3,7.2493577E0,2.2853516E1,1.0950138E1],"tree_param":{"num_deleted":"0","num_feature":"46","num_nodes":"31","size_leaf_vector":"1"}},{"base_weights":[2.3524654E-3,-7.62141E-2,4.3394893E-1,-1.9724111E-1,1.6892867E-2,2.9572847E-1,7E-1,-2.8735018E-1,-1.5541692E-1,-3.4760274E-2,9.3310334E-2,4.720098E-1,2.5490704E-1,7E-1,3.4947905E-1,-1.0808364E-2,-7.680559E-3,-5.1679066E-3,-3.048822E-3,-2.4764854E-3,3.1332768E-4,4.903298E-3,1.7682086E-3,1.863801E-2,9.824081E-3,6.203443E-3,1.0165395E-2,2.1E-2,9.935004E-3,2.1E-2,6.773379E-3],"categories":[],"categories_nodes":[],"categories_segments":[],"categories_sizes":[],"default_left":[0,0,0,0,0,0,0,0,0,0,0,0,0,0,0,0,0,0,0,0,0,0,0,0,0,0,0,0,0,0,0],"id":11,"left_children":[1,3,5,7,9,11,13,15,17,19,21,23,25,27,29,-1,-1,-1,-1,-1,-1,-1,-1,-1,-1,-1,-1,-1,-1,-1,-1],"loss_changes":[1.4251709E3,4.0067535E2,3.3709216E2,5.8177002E1,7.93382E1,3.481714E1,1.4557373E1,1.1009003E1,9.537491E0,2.5911612E1,1.9521255E1,1.9304703E1,1.5857269E1,7.8934326E0,7.4518976E0,0E0,0E0,0E0,0E0,0E0,0E0,0E0,0E0,0E0,0E0,0E0,0E0,0E0,0E0,0E0,0E0],"parents":[2147483647,0,0,1,1,2,2,3,3,4,4,5,5,6,6,7,7,8,8,9,9,10,10,11,11,12,12,13,13,14,14],"right_children":[2,4,6,8,10,12,14,16,18,20,22,24,26,28,30,-1,-1,-1,-1,-1,-1,-1,-1,-1,-1,-1,-1,-1,-1,-1,-1],"split_conditions":[5.635245E-1,-5.4299492E-2,1.0256368E0,-4.9860248E-1,2.5117373E-1,1.9E1,-9.674754E-2,-8.8003695E-1,-1.350674E-1,-4.1139204E-2,1.7719507E-1,-3.5199872E-1,7.6978E-1,2.6654845E-2,1.3333334E0,-1.0808364E-2,-7.680559E-3,-5.1679066E-3,-3.048822E-3,-2.4764854E-3,3.1332768E-4,4.903298E-3,1.7682086E-3,1.863801E-2,9.824081E-3,6.203443E-3,1.0165395E-2,2.1E-2,9.935004E-3,2.1E-2,6.773379E-3],"split_indices":[33,33,33,33,33,23,28,33,33,40,37,30,33,30,15,0,0,0,0,0,0,0,0,0,0,0,0,0,0,0,0],"split_type":[0,0,0,0,0,0,0,0,0,0,0,0,0,0,0,0,0,0,0,0,0,0,0,0,0,0,0,0,0,0,0],"sum_hessian":[4.202527E4,3.5554652E4,6.4706187E3,1.545844E4,2.009621E4,4.8697983E3,1.6008201E3,4.896762E3,1.0561679E4,1.1991705E4,8.104507E3,9.1168744E2,3.958111E3,1.4763602E3,1.2445985E2,1.4652311E3,3.4315312E3,8.039376E3,2.5223022E3,5.8283975E3,6.1633076E3,2.6630256E3,5.4414814E3,4.4528018E2,4.6640723E2,2.5201453E3,1.4379657E3,1.4131316E3,6.322867E1,1.9874931E1,1.04584915E2],"tree_param":{"num_deleted":"0","num_feature":"46","num_nodes":"31","size_leaf_vector":"1"}},{"base_weights":[2.9938095E-4,-9.0120874E-2,4.2637226E-1,-1.9273382E-1,2.2411736E-2,3.0889523E-1,7E-1,-3.0481964E-1,-1.5104163E-1,-2.767062E-2,9.329411E-2,2.4098884E-1,4.058843E-1,4.0594536E-1,7E-1,-1.2230204E-2,-8.353859E-3,-5.5913106E-3,-3.6217002E-3,-9.089115E-4,1.8532967E-2,4.2700362E-3,1.4518523E-3,9.29231E-3,5.61813E-3,1.575287E-2,1.0682305E-2,6.998871E-3,2.0178214E-2,1.1726817E-2,2.1E-2],"categories":[],"categories_nodes":[],"categories_segments":[],"categories_sizes":[],"default_left":[0,0,0,0,0,0,0,0,0,0,0,0,0,0,0,0,0,0,0,0,0,0,0,0,0,0,0,0,0,0,0],"id":12,"left_children":[1,3,5,7,9,11,13,15,17,19,21,23,25,27,29,-1,-1,-1,-1,-1,-1,-1,-1,-1,-1,-1,-1,-1,-1,-1,-1],"loss_changes":[1.6234901E3,4.0142957E2,3.8326E2,8.4879944E1,5.8870422E1,4.0131836E1,6.779663E0,1.3132263E1,1.4157654E1,1.6511612E1,1.5103806E1,1.3203751E1,1.4580719E1,3.8177156E0,4.7252197E0,0E0,0E0,0E0,0E0,0E0,0E0,0E0,0E0,0E0,0E0,0E0,0E0,0E0,0E0,0E0,0E0],"parents":[2147483647,0,0,1,1,2,2,3,3,4,4,5,5,6,6,7,7,8,8,9,9,10,10,11,11,12,12,13,13,14,14],"right_children":[2,4,6,8,10,12,14,16,18,20,22,24,26,28,30,-1,-1,-1,-1,-1,-1,-1,-1,-1,-1,-1,-1,-1,-1,-1,-1],"split_conditions":[3.7227413E-1,-1.4807336E-1,1.0116144E0,-6.6925555E-1,9.67507E-2,6.0824865E-1,8.284485E-1,-1.1480979E0,-3.7717587E-1,4.6E0,1.522375E-1,3.0473933E-1,3.345715E-1,1.8167773E-1,1.2476917E-1,-1.2230204E-2,-8.353859E-3,-5.5913106E-3,-3.6217002E-3,-9.089115E-4,1.8532967E-2,4.2700362E-3,1.4518523E-3,9.29231E-3,5.61813E-3,1.575287E-2,1.0682305E-2,6.998871E-3,2.0178214E-2,1.1726817E-2,2.1E-2],"split_indices":[34,34,34,34,34,34,33,34,34,15,40,40,40,31,29,0,0,0,0,0,0,0,0,0,0,0,0,0,0,0,0],"split_type":[0,0,0,0,0,0,0,0,0,0,0,0,0,0,0,0,0,0,0,0,0,0,0,0,0,0,0,0,0,0,0],"sum_hessian":[4.2136535E4,3.476117E4,7.375363E3,1.8181203E4,1.6579969E4,6.1210444E3,1.2543185E3,4.925854E3,1.3255349E4,9.716171E3,6.8637983E3,3.6044077E3,2.5166367E3,8.7740074E1,1.1665784E3,9.989151E2,3.9269387E3,6.1164478E3,7.1389014E3,9.678692E3,3.747874E1,3.278526E3,3.5852725E3,1.5767516E3,2.0276561E3,7.3599274E2,1.780644E3,5.553427E1,3.2205807E1,5.771201E1,1.1088665E3],"tree_param":{"num_deleted":"0","num_feature":"46","num_nodes":"31","size_leaf_vector":"1"}},{"base_weights":[-1.0467118E-3,-8.371423E-2,4.2402464E-1,-1.9178402E-1,3.0667935E-2,2.91961E-1,7E-1,-2.775588E-1,-1.3659795E-1,-2.3521293E-2,1.0088187E-1,2.4345493E-1,4.0477318E-1,5.498597E-1,7E-1,-1.1678179E-2,-7.5398316E-3,-5.5376943E-3,-3.6671516E-3,-8.9688477E-4,8.1190085E-3,3.9029291E-3,7.284903E-4,1.0664166E-2,6.343491E-3,3.4283865E-3,1.2973256E-2,2.018268E-2,1.3022497E-2,2.1E-2,-4.2361123E-3],"categories":[],"categories_nodes":[],"categories_segments":[],"categories_sizes":[],"default_left":[0,0,0,0,0,0,0,0,0,0,0,0,0,0,0,0,0,0,0,0,0,0,0,0,0,0,0,0,0,0,0],"id":13,"left_children":[1,3,5,7,9,11,13,15,17,19,21,23,25,27,29,-1,-1,-1,-1,-1,-1,-1,-1,-1,-1,-1,-1,-1,-1,-1,-1],"loss_changes":[1.4654655E3,4.3159302E2,3.3129883E2,8.490442E1,6.454764E1,2.7720276E1,1.7588623E1,2.0394592E1,7.485901E0,1.7972809E1,1.6530647E1,1.2658554E1,1.2206818E1,1.1136475E1,2.9887085E0,0E0,0E0,0E0,0E0,0E0,0E0,0E0,0E0,0E0,0E0,0E0,0E0,0E0,0E0,0E0,0E0],"parents":[2147483647,0,0,1,1,2,2,3,3,4,4,5,5,6,6,7,7,8,8,9,9,10,10,11,11,12,12,13,13,14,14],"right_children":[2,4,6,8,10,12,14,16,18,20,22,24,26,28,30,-1,-1,-1,-1,-1,-1,-1,-1,-1,-1,-1,-1,-1,-1,-1,-1],"split_conditions":[3.9707112E-1,-1.4807336E-1,9.1865575E-1,-5.458773E-1,9.67507E-2,6.6662174E-1,1.1671584E0,-1.0794208E0,-4.2880586E-1,3.25E0,1E0,1.9032867E-1,-1.9915317E-1,1.5555556E0,4.4318655E-1,-1.1678179E-2,-7.5398316E-3,-5.5376943E-3,-3.6671516E-3,-8.9688477E-4,8.1190085E-3,3.9029291E-3,7.284903E-4,1.0664166E-2,6.343491E-3,3.4283865E-3,1.2973256E-2,2.018268E-2,1.3022497E-2,2.1E-2,-4.2361123E-3],"split_indices":[34,34,34,34,34,34,34,34,34,18,44,40,37,11,35,0,0,0,0,0,0,0,0,0,0,0,0,0,0,0,0],"split_type":[0,0,0,0,0,0,0,0,0,0,0,0,0,0,0,0,0,0,0,0,0,0,0,0,0,0,0,0,0,0,0],"sum_hessian":[4.1700086E4,3.491203E4,6.788056E3,1.7950656E4,1.6961373E4,5.099784E3,1.6882719E3,7.0245146E3,1.0926143E4,9.573856E3,7.3875156E3,3.5707693E3,1.5290148E3,8.217348E2,8.6653705E2,1.330491E3,5.694024E3,2.510835E3,8.415308E3,9.372533E3,2.0132288E2,5.346786E3,2.0407296E3,7.890184E2,2.781751E3,1.3386176E2,1.395153E3,3.9394357E2,4.2779123E2,8.629285E2,3.608537E0],"tree_param":{"num_deleted":"0","num_feature":"46","num_nodes":"31","size_leaf_vector":"1"}},{"base_weights":[4.956222E-3,-9.239884E-2,3.680428E-1,-2.0617683E-1,-4.6592514E-4,2.5320596E-1,7E-1,-3.1215635E-1,-1.5938482E-1,-4.039174E-2,8.843983E-2,1.8493384E-1,3.349441E-1,5.050671E-1,7E-1,-1.06604155E-2,-7.856411E-3,-5.609099E-3,-3.7302955E-3,-4.6893774E-4,-2.9968256E-3,5.460183E-3,1.9526642E-3,6.051104E-3,2.0633123E-3,1.1541478E-2,8.379979E-3,1.709153E-2,1.1598076E-2,2.1E-2,4.6640765E-3],"categories":[],"categories_nodes":[],"categories_segments":[],"categories_sizes":[],"default_left":[0,0,0,0,0,0,0,0,0,0,0,0,0,0,0,0,0,0,0,0,0,0,0,0,0,0,0,0,0,0,0],"id":14,"left_children":[1,3,5,7,9,11,13,15,17,19,21,23,25,27,29,-1,-1,-1,-1,-1,-1,-1,-1,-1,-1,-1,-1,-1,-1,-1,-1],"loss_changes":[1.4868997E3,3.4695935E2,4.0046265E2,7.341229E1,6.513723E1,3.849597E1,4.0635742E1,9.66864E0,9.897827E0,1.8654087E1,1.2401482E1,7.326309E0,8.496155E0,7.947296E0,3.109497E0,0E0,0E0,0E0,0E0,0E0,0E0,0E0,0E0,0E0,0E0,0E0,0E0,0E0,0E0,0E0,0E0],"parents":[2147483647,0,0,1,1,2,2,3,3,4,4,5,5,6,6,7,7,8,8,9,9,10,10,11,11,12,12,13,13,14,14],"right_children":[2,4,6,8,10,12,14,16,18,20,22,24,26,28,30,-1,-1,-1,-1,-1,-1,-1,-1,-1,-1,-1,-1,-1,-1,-1,-1],"split_conditions":[3.135971E-1,-2.4230038E-1,8.781309E-1,-6.90703E-1,9.67507E-2,5.106939E-1,1.1671584E0,-8.7590206E-1,-3.9885765E-1,1E0,-2.238947E-2,5E0,2.1376713E-1,1E0,5.6666665E0,-1.06604155E-2,-7.856411E-3,-5.609099E-3,-3.7302955E-3,-4.6893774E-4,-2.9968256E-3,5.460183E-3,1.9526642E-3,6.051104E-3,2.0633123E-3,1.1541478E-2,8.379979E-3,1.709153E-2,1.1598076E-2,2.1E-2,4.6640765E-3],"split_indices":[34,34,34,34,34,34,34,34,34,44,36,3,36,44,11,0,0,0,0,0,0,0,0,0,0,0,0,0,0,0,0],"split_type":[0,0,0,0,0,0,0,0,0,0,0,0,0,0,0,0,0,0,0,0,0,0,0,0,0,0,0,0,0,0,0],"sum_hessian":[4.2060305E4,3.3168316E4,8.891989E3,1.4821924E4,1.8346393E4,6.9185835E3,1.9734056E3,4.536296E3,1.0285628E4,1.2661469E4,5.6849233E3,3.7733792E3,3.1452046E3,1.0931835E3,8.8022217E2,2.4335547E3,2.1027412E3,5.750277E3,4.535351E3,8.942707E3,3.7187617E3,1.1326934E3,4.55223E3,3.2960527E3,4.7732648E2,1.6534988E3,1.4917058E3,7.0229626E2,3.9088718E2,8.684301E2,1.1792053E1],"tree_param":{"num_deleted":"0","num_feature":"46","num_nodes":"31","size_leaf_vector":"1"}},{"base_weights":[4.2285983E-4,-8.733821E-2,3.9202264E-1,-1.8849559E-1,2.1181878E-2,2.8881252E-1,7E-1,-2.706834E-1,-1.3463396E-1,-2.4449399E-2,8.5507244E-2,2.1505488E-1,3.7748954E-1,5.4072374E-1,7E-1,-1.1774771E-2,-7.5194067E-3,-5.0237468E-3,-3.3418825E-3,2.295625E-4,-2.9557326E-3,6.3124965E-3,2.010297E-3,6.861007E-3,1.2061142E-3,1.2436257E-2,8.391358E-3,6.789961E-3,1.8304208E-2,8.7091755E-3,2.1E-2],"categories":[],"categories_nodes":[],"categories_segments":[],"categories_sizes":[],"default_left":[0,0,0,0,0,0,0,0,0,0,0,0,0,0,0,0,0,0,0,0,0,0,0,0,0,0,0,0,0,0,0],"id":15,"left_children":[1,3,5,7,9,11,13,15,17,19,21,23,25,27,29,-1,-1,-1,-1,-1,-1,-1,-1,-1,-1,-1,-1,-1,-1,-1,-1],"loss_changes":[1.4436746E3,3.767228E2,3.4958362E2,7.855115E1,4.8604908E1,4.1618042E1,9.438293E0,1.6959778E1,8.149811E0,2.3038483E1,1.5848911E1,8.313019E0,1.0266937E1,8.686272E0,3.07135E0,0E0,0E0,0E0,0E0,0E0,0E0,0E0,0E0,0E0,0E0,0E0,0E0,0E0,0E0,0E0,0E0],"parents":[2147483647,0,0,1,1,2,2,3,3,4,4,5,5,6,6,7,7,8,8,9,9,10,10,11,11,12,12,13,13,14,14],"right_children":[2,4,6,8,10,12,14,16,18,20,22,24,26,28,30,-1,-1,-1,-1,-1,-1,-1,-1,-1,-1,-1,-1,-1,-1,-1,-1],"split_conditions":[3.7227413E-1,-1.5321432E-1,1.0116144E0,-5.3958195E-1,9.67507E-2,5.890745E-1,1.1671584E0,-1.1480979E0,-3.5519242E-1,1E0,-8.0310814E-2,1.29E2,1E0,9.220009E-1,1.2377216E-1,-1.1774771E-2,-7.5194067E-3,-5.0237468E-3,-3.3418825E-3,2.295625E-4,-2.9557326E-3,6.3124965E-3,2.010297E-3,6.861007E-3,1.2061142E-3,1.2436257E-2,8.391358E-3,6.789961E-3,1.8304208E-2,8.7091755E-3,2.1E-2],"split_indices":[34,34,34,34,34,34,34,34,34,44,36,19,44,33,29,0,0,0,0,0,0,0,0,0,0,0,0,0,0,0,0],"split_type":[0,0,0,0,0,0,0,0,0,0,0,0,0,0,0,0,0,0,0,0,0,0,0,0,0,0,0,0,0,0,0],"sum_hessian":[4.2003332E4,3.431466E4,7.688673E3,1.7759037E4,1.6555621E4,6.385837E3,1.3028362E3,7.0275693E3,1.0731468E4,9.685874E3,6.8697476E3,3.4899236E3,2.8959133E3,4.0867142E2,8.9416473E2,9.8743463E2,6.040135E3,4.443071E3,6.288397E3,6.758691E3,2.9271829E3,8.8341943E2,5.986328E3,3.236715E3,2.5320854E2,2.0953945E3,8.0051886E2,7.545446E1,3.3321695E2,2.2136974E1,8.720277E2],"tree_param":{"num_deleted":"0","num_feature":"46","num_nodes":"31","size_leaf_vector":"1"}},{"base_weights":[2.9872507E-3,-8.427134E-2,3.8432872E-1,-1.8562067E-1,2.3667669E-2,2.9864004E-1,7E-1,-3.016976E-1,-1.4385928E-1,-3.3541884E-2,8.4476456E-2,2.4281465E-1,4.6418566E-1,-4.3826434E-3,7E-1,-1.1989602E-2,-8.276222E-3,-5.3784708E-3,-3.2306972E-3,-1.1445903E-3,1.1048233E-2,3.3335246E-3,4.902605E-4,1.0303938E-2,6.396238E-3,1.2926729E-2,2.001271E-2,-1.2165278E-3,2.1E-2],"categories":[],"categories_nodes":[],"categories_segments":[],"categories_sizes":[],"default_left":[0,0,0,0,0,0,0,0,0,0,0,0,0,0,0,0,0,0,0,0,0,0,0,0,0,0,0,0,0],"id":16,"left_children":[1,3,5,7,9,11,13,15,17,19,21,23,25,-1,27,-1,-1,-1,-1,-1,-1,-1,-1,-1,-1,-1,-1,-1,-1],"loss_changes":[1.3996893E3,3.744823E2,3.229148E2,8.549512E1,5.7679527E1,6.313452E1,3.0908813E0,1.1590912E1,1.6601227E1,1.5857652E1,1.45849E1,1.5144012E1,1.10903015E1,0E0,2.6195679E0,0E0,0E0,0E0,0E0,0E0,0E0,0E0,0E0,0E0,0E0,0E0,0E0,0E0,0E0],"parents":[2147483647,0,0,1,1,2,2,3,3,4,4,5,5,6,6,7,7,8,8,9,9,10,10,11,11,12,12,14,14],"right_children":[2,4,6,8,10,12,14,16,18,20,22,24,26,-1,28,-1,-1,-1,-1,-1,-1,-1,-1,-1,-1,-1,-1,-1,-1],"split_conditions":[3.7227413E-1,-1.4807336E-1,1.1671584E0,-6.6925555E-1,6.750534E-2,7.7117956E-1,2.9172E-1,-1.1480979E0,-3.5519242E-1,3.9E0,1E0,1.9032867E-1,-4.452389E-2,-4.3826434E-3,7.1428573E-1,-1.1989602E-2,-8.276222E-3,-5.3784708E-3,-3.2306972E-3,-1.1445903E-3,1.1048233E-2,3.3335246E-3,4.902605E-4,1.0303938E-2,6.396238E-3,1.2926729E-2,2.001271E-2,-1.2165278E-3,2.1E-2],"split_indices":[34,34,34,34,34,34,33,34,34,18,44,40,39,0,15,0,0,0,0,0,0,0,0,0,0,0,0,0,0],"split_type":[0,0,0,0,0,0,0,0,0,0,0,0,0,0,0,0,0,0,0,0,0,0,0,0,0,0,0,0,0],"sum_hessian":[4.2059945E4,3.422918E4,7.8307656E3,1.7652719E4,1.6576459E4,6.8539097E3,9.768561E2,4.667321E3,1.2985397E4,8.54146E3,8.0349995E3,5.1291787E3,1.7247311E3,3.6866949E0,9.731694E2,9.6768256E2,3.6996384E3,6.55638E3,6.4290176E3,8.446343E3,9.5117676E1,5.775484E3,2.2595156E3,1.161018E3,3.9681604E3,1.4869795E3,2.3775166E2,4.5634756E0,9.686059E2],"tree_param":{"num_deleted":"0","num_feature":"46","num_nodes":"29","size_leaf_vector":"1"}},{"base_weights":[1.2953865E-3,-9.5131055E-2,3.224333E-1,-2.043865E-1,-1.0663808E-2,2.3765096E-1,7E-1,-3.020329E-1,-1.5991227E-1,-5.7825398E-2,5.253407E-2,1.6234696E-1,3.252449E-1,4.9930844E-1,7E-1,-1.144052E-2,-8.127161E-3,-5.4846806E-3,-3.6965383E-3,-1.8880067E-3,5.2665537E-3,2.533268E-3,4.0505303E-4,8.540316E-3,3.908833E-3,8.51295E-3,1.2906351E-2,1.2380726E-2,2.1E-2,-4.352748E-3,2.1E-2],"categories":[],"categories_nodes":[],"categories_segments":[],"categories_sizes":[],"default_left":[0,0,0,0,0,0,0,0,0,0,0,0,0,0,0,0,0,0,0,0,0,0,0,0,0,0,0,0,0,0,0],"id":17,"left_children":[1,3,5,7,9,11,13,15,17,19,21,23,25,27,29,-1,-1,-1,-1,-1,-1,-1,-1,-1,-1,-1,-1,-1,-1,-1,-1],"loss_changes":[1.2868961E3,2.949506E2,3.8738092E2,6.042267E1,5.3737526E1,5.409317E1,1.7502197E1,1.055481E1,8.007874E0,1.2330265E1,9.593981E0,1.7265587E1,1.628543E1,9.133667E0,3.0698242E0,0E0,0E0,0E0,0E0,0E0,0E0,0E0,0E0,0E0,0E0,0E0,0E0,0E0,0E0,0E0,0E0],"parents":[2147483647,0,0,1,1,2,2,3,3,4,4,5,5,6,6,7,7,8,8,9,9,10,10,11,11,12,12,13,13,14,14],"right_children":[2,4,6,8,10,12,14,16,18,20,22,24,26,28,30,-1,-1,-1,-1,-1,-1,-1,-1,-1,-1,-1,-1,-1,-1,-1,-1],"split_conditions":[2.8037632E-1,-2.6371816E-1,1.0116144E0,-6.90703E-1,1.8249205E-3,5.106939E-1,1.1671584E0,-1.0794208E0,-3.9353293E-1,3.3333333E0,1.3266268E-1,1.1258792E-1,8.04287E-1,-2.0053723E-1,2.9172E-1,-1.144052E-2,-8.127161E-3,-5.4846806E-3,-3.6965383E-3,-1.8880067E-3,5.2665537E-3,2.533268E-3,4.0505303E-4,8.540316E-3,3.908833E-3,8.51295E-3,1.2906351E-2,1.2380726E-2,2.1E-2,-4.352748E-3,2.1E-2],"split_indices":[34,34,34,34,34,34,34,34,34,11,40,40,34,39,33,0,0,0,0,0,0,0,0,0,0,0,0,0,0,0,0],"split_type":[0,0,0,0,0,0,0,0,0,0,0,0,0,0,0,0,0,0,0,0,0,0,0,0,0,0,0,0,0,0,0],"sum_hessian":[4.1554125E4,3.1959283E4,9.594844E3,1.3933694E4,1.8025588E4,8.214691E3,1.3801516E3,4.3566875E3,9.577007E3,1.0322537E4,7.703052E3,4.4202954E3,3.7943962E3,4.5687744E2,9.232742E2,1.2215316E3,3.1351558E3,5.8909683E3,3.6860383E3,1.0102866E4,2.196708E2,4.23703E3,3.4660217E3,9.144566E2,3.5058389E3,2.7249717E3,1.0694246E3,3.444219E2,1.1245554E2,3.6705732E0,9.196036E2],"tree_param":{"num_deleted":"0","num_feature":"46","num_nodes":"31","size_leaf_vector":"1"}},{"base_weights":[9.830737E-4,-7.945839E-2,3.701376E-1,-1.7726392E-1,3.4176327E-2,2.7027875E-1,7E-1,-2.7755108E-1,-1.3155296E-1,-1.2440824E-2,8.953396E-2,2.0631833E-1,3.4962365E-1,5.32257E-1,7E-1,-1.1508177E-2,-7.435704E-3,-5.140104E-3,-3.0652161E-3,5.8480096E-4,-2.550119E-3,3.864347E-3,1.2544873E-3,6.596124E-3,1.8436916E-3,1.2283833E-2,9.050045E-3,1.7671948E-2,8.890451E-3,2.1E-2,6.2314994E-3],"categories":[],"categories_nodes":[],"categories_segments":[],"categories_sizes":[],"default_left":[0,0,0,0,0,0,0,0,0,0,0,0,0,0,0,0,0,0,0,0,0,0,0,0,0,0,0,0,0,0,0],"id":18,"left_children":[1,3,5,7,9,11,13,15,17,19,21,23,25,27,29,-1,-1,-1,-1,-1,-1,-1,-1,-1,-1,-1,-1,-1,-1,-1,-1],"loss_changes":[1.2475682E3,3.8339844E2,3.073385E2,8.491522E1,4.118417E1,3.0807007E1,1.8E1,1.8083893E1,1.4853989E1,2.0081676E1,1.3662586E1,6.612015E0,7.5557556E0,8.690643E0,1.7703247E0,0E0,0E0,0E0,0E0,0E0,0E0,0E0,0E0,0E0,0E0,0E0,0E0,0E0,0E0,0E0,0E0],"parents":[2147483647,0,0,1,1,2,2,3,3,4,4,5,5,6,6,7,7,8,8,9,9,10,10,11,11,12,12,13,13,14,14],"right_children":[2,4,6,8,10,12,14,16,18,20,22,24,26,28,30,-1,-1,-1,-1,-1,-1,-1,-1,-1,-1,-1,-1,-1,-1,-1,-1],"split_conditions":[3.8990003E-1,-1.21110596E-1,1.0116144E0,-5.9573114E-1,9.67507E-2,6.0824865E-1,1.258064E0,-1.0794208E0,-3.5519242E-1,1E0,1.8625112E-1,1.8459895E-1,4.4634444E-1,1E0,1.3615925E0,-1.1508177E-2,-7.435704E-3,-5.140104E-3,-3.0652161E-3,5.8480096E-4,-2.550119E-3,3.864347E-3,1.2544873E-3,6.596124E-3,1.8436916E-3,1.2283833E-2,9.050045E-3,1.7671948E-2,8.890451E-3,2.1E-2,6.2314994E-3],"split_indices":[34,34,34,34,34,34,34,34,34,44,40,29,43,21,24,0,0,0,0,0,0,0,0,0,0,0,0,0,0,0,0],"split_type":[0,0,0,0,0,0,0,0,0,0,0,0,0,0,0,0,0,0,0,0,0,0,0,0,0,0,0,0,0,0,0],"sum_hessian":[4.2008293E4,3.449348E4,7.514812E3,1.8537293E4,1.5956187E4,6.0968555E3,1.4179564E3,5.800715E3,1.2736578E4,8.662754E3,7.2934316E3,3.379677E3,2.7171785E3,6.725379E2,7.454186E2,1.2636565E3,4.5370586E3,5.4061514E3,7.3304272E3,6.0164487E3,2.6463057E3,3.9986487E3,3.294783E3,3.0895964E3,2.9008063E2,1.202125E3,1.5150535E3,5.396046E2,1.3293332E2,7.360695E2,9.349068E0],"tree_param":{"num_deleted":"0","num_feature":"46","num_nodes":"31","size_leaf_vector":"1"}},{"base_weights":[3.2305864E-3,-8.834188E-2,3.2599026E-1,-1.802454E-1,1.3922139E-2,2.4319331E-1,7E-1,-2.6684362E-1,-1.2785833E-1,-2.4884084E-2,7.4274346E-2,1.7903441E-1,3.264067E-1,5.1177293E-1,7E-1,-1.014052E-2,-6.7713917E-3,-4.980762E-3,-3.282412E-3,-8.943917E-4,1.14348745E-2,4.312178E-3,1.2519066E-3,6.9242246E-3,3.8698933E-3,1.15105845E-2,8.463951E-3,1.3350254E-2,2.1E-2,5.6900764E-3,2.1E-2],"categories":[],"categories_nodes":[],"categories_segments":[],"categories_sizes":[],"default_left":[0,0,0,0,0,0,0,0,0,0,0,0,0,0,0,0,0,0,0,0,0,0,0,0,0,0,0,0,0,0,0],"id":19,"left_children":[1,3,5,7,9,11,13,15,17,19,21,23,25,27,29,-1,-1,-1,-1,-1,-1,-1,-1,-1,-1,-1,-1,-1,-1,-1,-1],"loss_changes":[1.2365402E3,3.0630743E2,3.3399243E2,7.780328E1,3.6136177E1,4.154599E1,2.393103E1,1.8782227E1,7.495468E0,1.881885E1,1.3638527E1,1.136705E1,8.393158E0,1.2157211E1,2.0534668E0,0E0,0E0,0E0,0E0,0E0,0E0,0E0,0E0,0E0,0E0,0E0,0E0,0E0,0E0,0E0,0E0],"parents":[2147483647,0,0,1,1,2,2,3,3,4,4,5,5,6,6,7,7,8,8,9,9,10,10,11,11,12,12,13,13,14,14],"right_children":[2,4,6,8,10,12,14,16,18,20,22,24,26,28,30,-1,-1,-1,-1,-1,-1,-1,-1,-1,-1,-1,-1,-1,-1,-1,-1],"split_conditions":[3.135971E-1,-1.5321432E-1,1.0116144E0,-5.5536604E-1,8.65108E-2,5.5564135E-1,1.258064E0,-8.7590206E-1,-3.9353293E-1,3.9E0,6.49777E-2,2.9181463E-1,4.3904313E-1,-1.18453786E-1,-5.836397E-1,-1.014052E-2,-6.7713917E-3,-4.980762E-3,-3.282412E-3,-8.943917E-4,1.14348745E-2,4.312178E-3,1.2519066E-3,6.9242246E-3,3.8698933E-3,1.15105845E-2,8.463951E-3,1.3350254E-2,2.1E-2,5.6900764E-3,2.1E-2],"split_indices":[34,34,34,34,34,34,34,34,34,18,40,40,40,39,37,0,0,0,0,0,0,0,0,0,0,0,0,0,0,0,0],"split_type":[0,0,0,0,0,0,0,0,0,0,0,0,0,0,0,0,0,0,0,0,0,0,0,0,0,0,0,0,0,0,0],"sum_hessian":[4.183339E4,3.2588832E4,9.244559E3,1.7163059E4,1.5425773E4,7.801677E3,1.442882E3,6.4661045E3,1.0696954E4,9.389523E3,6.0362495E3,4.4087554E3,3.3929214E3,7.0111633E2,7.417657E2,2.362873E3,4.103231E3,3.4799502E3,7.217004E3,9.278742E3,1.1078088E2,1.9235753E3,4.1126743E3,2.163258E3,2.245497E3,1.4725374E3,1.920384E3,5.831708E2,1.17945564E2,9.647531E0,7.321181E2],"tree_param":{"num_deleted":"0","num_feature":"46","num_nodes":"31","size_leaf_vector":"1"}},{"base_weights":[2.246774E-3,-7.077008E-2,3.3935395E-1,-1.6984378E-1,2.069109E-2,2.2696348E-1,6.674204E-1,-2.9581752E-1,-1.3620427E-1,-4.5396958E-2,6.337092E-2,1.0885504E-1,2.709218E-1,7E-1,4.922639E-1,-1.1575277E-2,-7.872813E-3,-5.2220128E-3,-2.6269294E-3,-1.4660117E-3,1.9811213E-2,7.8886724E-4,3.3684801E-3,6.2991474E-3,2.9312563E-4,7.747242E-3,2.1E-2,8.459839E-3,2.1E-2,1.3229077E-2,2.1E-2],"categories":[],"categories_nodes":[],"categories_segments":[],"categories_sizes":[],"default_left":[0,0,0,0,0,0,0,0,0,0,0,0,0,0,0,0,0,0,0,0,0,0,0,0,0,0,0,0,0,0,0],"id":20,"left_children":[1,3,5,7,9,11,13,15,17,19,21,23,25,27,29,-1,-1,-1,-1,-1,-1,-1,-1,-1,-1,-1,-1,-1,-1,-1,-1],"loss_changes":[1.0325271E3,3.1244147E2,2.7506232E2,7.0058685E1,5.0580837E1,2.8836853E1,5.028369E1,1.0278015E1,2.4033752E1,1.7298717E1,1.9752182E1,1.5154091E1,2.6837677E1,7.5464478E0,1.4079681E1,0E0,0E0,0E0,0E0,0E0,0E0,0E0,0E0,0E0,0E0,0E0,0E0,0E0,0E0,0E0,0E0],"parents":[2147483647,0,0,1,1,2,2,3,3,4,4,5,5,6,6,7,7,8,8,9,9,10,10,11,11,12,12,13,13,14,14],"right_children":[2,4,6,8,10,12,14,16,18,20,22,24,26,28,30,-1,-1,-1,-1,-1,-1,-1,-1,-1,-1,-1,-1,-1,-1,-1,-1],"split_conditions":[5.468236E-1,-1.3301439E-2,1.0256368E0,-5.79669E-1,9.8647125E-2,4.1788235E-1,-1.2054625E0,-9.972357E-1,-1.350674E-1,4.857143E0,3.5478464E-1,2.438506E-1,3.6666667E0,1.4807954E-1,1.4593383E0,-1.1575277E-2,-7.872813E-3,-5.2220128E-3,-2.6269294E-3,-1.4660117E-3,1.9811213E-2,7.8886724E-4,3.3684801E-3,6.2991474E-3,2.9312563E-4,7.747242E-3,2.1E-2,8.459839E-3,2.1E-2,1.3229077E-2,2.1E-2],"split_indices":[33,32,33,32,33,32,30,32,33,15,32,37,5,29,33,0,0,0,0,0,0,0,0,0,0,0,0,0,0,0,0],"split_type":[0,0,0,0,0,0,0,0,0,0,0,0,0,0,0,0,0,0,0,0,0,0,0,0,0,0,0,0,0,0,0],"sum_hessian":[4.1943965E4,3.4477727E4,7.466238E3,1.6549287E4,1.792844E4,5.563614E3,1.902624E3,3.4845813E3,1.3064707E4,7.0349575E3,1.0893482E4,1.5109371E3,4.0526768E3,6.6986224E2,1.2327617E3,9.3705164E2,2.5475295E3,7.343301E3,5.721406E3,7.0023896E3,3.2567486E1,6.198252E3,4.6952305E3,7.466915E2,7.642456E2,3.965789E3,8.688777E1,4.6798035E1,6.230642E2,1.0166001E3,2.1616162E2],"tree_param":{"num_deleted":"0","num_feature":"46","num_nodes":"31","size_leaf_vector":"1"}},{"base_weights":[-3.3747178E-4,-7.331896E-2,3.33928E-1,-1.9640653E-1,-4.486117E-3,2.3481497E-1,6.5790975E-1,-3.1793556E-1,-1.6314101E-1,-5.650317E-2,6.2433872E-2,2.2542094E-1,7E-1,7E-1,4.967734E-1,-1.1573099E-2,-8.414541E-3,-6.021238E-3,-3.700581E-3,-1.8626392E-3,6.423998E-3,2.6780455E-3,-2.1717041E-4,2.975565E-3,7.685706E-3,1.6715431E-3,2.1E-2,1.236E-2,2.1E-2,1.2174846E-2,1.9555844E-2],"categories":[],"categories_nodes":[],"categories_segments":[],"categories_sizes":[],"default_left":[0,0,0,0,0,0,0,0,0,0,0,0,0,0,0,0,0,0,0,0,0,0,0,0,0,0,0,0,0,0,0],"id":21,"left_children":[1,3,5,7,9,11,13,15,17,19,21,23,25,27,29,-1,-1,-1,-1,-1,-1,-1,-1,-1,-1,-1,-1,-1,-1,-1,-1],"loss_changes":[1.02393823E3,2.918841E2,2.412237E2,4.9848022E1,7.692683E1,2.9038483E1,4.238336E1,6.523926E0,1.4456421E1,1.8820023E1,1.8071453E1,2.1973633E1,6.530651E0,7.6918335E0,1.5345093E1,0E0,0E0,0E0,0E0,0E0,0E0,0E0,0E0,0E0,0E0,0E0,0E0,0E0,0E0,0E0,0E0],"parents":[2147483647,0,0,1,1,2,2,3,3,4,4,5,5,6,6,7,7,8,8,9,9,10,10,11,11,12,12,13,13,14,14],"right_children":[2,4,6,8,10,12,14,16,18,20,22,24,26,28,30,-1,-1,-1,-1,-1,-1,-1,-1,-1,-1,-1,-1,-1,-1,-1,-1],"split_conditions":[5.468236E-1,-1.350674E-1,1.0629272E0,-6.4651203E-1,1.7548577E-1,4E0,-1.2054625E0,-9.972357E-1,-2.655676E-1,3.25E0,1E0,3.6248136E-1,2.9759863E-1,-4.273161E-1,1.211476E0,-1.1573099E-2,-8.414541E-3,-6.021238E-3,-3.700581E-3,-1.8626392E-3,6.423998E-3,2.6780455E-3,-2.1717041E-4,2.975565E-3,7.685706E-3,1.6715431E-3,2.1E-2,1.236E-2,2.1E-2,1.2174846E-2,1.9555844E-2],"split_indices":[33,33,33,32,32,5,30,32,32,18,44,32,32,24,32,0,0,0,0,0,0,0,0,0,0,0,0,0,0,0,0],"split_type":[0,0,0,0,0,0,0,0,0,0,0,0,0,0,0,0,0,0,0,0,0,0,0,0,0,0,0,0,0,0,0],"sum_hessian":[4.196895E4,3.4449105E4,7.5198457E3,1.2353947E4,2.2095156E4,5.7609087E3,1.758937E3,2.6511978E3,9.702749E3,1.2432026E4,9.66313E3,5.668302E3,9.260729E1,6.354693E2,1.1234678E3,9.3643646E2,1.7147614E3,4.9865303E3,4.7162188E3,1.2182179E4,2.4984816E2,6.9758423E3,2.687288E3,1.1125111E3,4.5557905E3,1.6093624E1,7.651367E1,1.0255064E2,5.329187E2,7.127424E2,4.107254E2],"tree_param":{"num_deleted":"0","num_feature":"46","num_nodes":"31","size_leaf_vector":"1"}},{"base_weights":[5.0283815E-3,-1.044565E-1,2.60131E-1,-2.1185546E-1,-3.3619206E-2,2.0102666E-1,7E-1,-3.2548347E-1,-1.7516385E-1,-6.4751565E-2,3.3336382E-2,1.3429609E-1,3.0602637E-1,4.6759483E-1,7E-1,-1.1444443E-2,-8.542535E-3,-6.317171E-3,-4.5689093E-3,1.0528011E-3,-2.23001E-3,1.9440901E-3,-1.2999959E-3,4.69224E-3,2.2472024E-3,7.7507026E-3,1.1693881E-2,2.1E-2,1.1891773E-2,5.1802755E-3,2.1E-2],"categories":[],"categories_nodes":[],"categories_segments":[],"categories_sizes":[],"default_left":[0,0,0,0,0,0,0,0,0,0,0,0,0,0,0,0,0,0,0,0,0,0,0,0,0,0,0,0,0,0,0],"id":22,"left_children":[1,3,5,7,9,11,13,15,17,19,21,23,25,27,29,-1,-1,-1,-1,-1,-1,-1,-1,-1,-1,-1,-1,-1,-1,-1,-1],"loss_changes":[1.1697251E3,2.2292715E2,4.1578375E2,4.8440796E1,3.6816372E1,8.012775E1,1.4032654E1,6.2614136E0,7.067322E0,1.1539059E1,1.3531425E1,9.172852E0,1.7555511E1,6.4064636E0,2.3410645E0,0E0,0E0,0E0,0E0,0E0,0E0,0E0,0E0,0E0,0E0,0E0,0E0,0E0,0E0,0E0,0E0],"parents":[2147483647,0,0,1,1,2,2,3,3,4,4,5,5,6,6,7,7,8,8,9,9,10,10,11,11,12,12,13,13,14,14],"right_children":[2,4,6,8,10,12,14,16,18,20,22,24,26,28,30,-1,-1,-1,-1,-1,-1,-1,-1,-1,-1,-1,-1,-1,-1,-1,-1],"split_conditions":[1.8489191E-1,-3.2488248E-1,1.1671584E0,-8.1273085E-1,1.8249205E-3,5.106939E-1,1.258064E0,-1.0794208E0,-5.5536604E-1,6E0,1E0,1E0,8.04287E-1,7.5209536E-2,-5.836397E-1,-1.1444443E-2,-8.542535E-3,-6.317171E-3,-4.5689093E-3,1.0528011E-3,-2.23001E-3,1.9440901E-3,-1.2999959E-3,4.69224E-3,2.2472024E-3,7.7507026E-3,1.1693881E-2,2.1E-2,1.1891773E-2,5.1802755E-3,2.1E-2],"split_indices":[34,34,34,34,34,34,34,34,34,23,44,44,34,43,37,0,0,0,0,0,0,0,0,0,0,0,0,0,0,0,0],"split_type":[0,0,0,0,0,0,0,0,0,0,0,0,0,0,0,0,0,0,0,0,0,0,0,0,0,0,0,0,0,0,0],"sum_hessian":[4.187683E4,2.9302129E4,1.2574698E4,1.1644104E4,1.7658025E4,1.1445615E4,1.129084E3,2.838374E3,8.8057295E3,1.205355E4,5.6044756E3,7.00089E3,4.4447246E3,2.7594928E2,8.5313464E2,1.1881699E3,1.6502041E3,3.448869E3,5.3568604E3,1.0550166E3,1.0998533E4,3.9738455E3,1.6306304E3,5.099114E3,1.9017765E3,2.837944E3,1.6067806E3,3.494974E1,2.4099954E2,9.943275E0,8.431914E2],"tree_param":{"num_deleted":"0","num_feature":"46","num_nodes":"31","size_leaf_vector":"1"}},{"base_weights":[2.910351E-3,-6.846808E-2,3.1437656E-1,-2.0043041E-1,-3.4672234E-3,2.1483885E-1,5.9659743E-1,-2.9787436E-1,-1.5876223E-1,-5.424781E-2,6.191439E-2,1.0161175E-1,2.5689775E-1,4.8401305E-1,7E-1,-1.1645959E-2,-7.948775E-3,-5.4376624E-3,-2.9634906E-3,-2.9465905E-3,-7.4802537E-4,7.5567556E-3,1.5854307E-3,1.3157905E-3,7.363913E-3,7.009338E-3,1.4307215E-2,1.0592418E-2,1.7765526E-2,2.5636763E-3,2.1E-2],"categories":[],"categories_nodes":[],"categories_segments":[],"categories_sizes":[],"default_left":[0,0,0,0,0,0,0,0,0,0,0,0,0,0,0,0,0,0,0,0,0,0,0,0,0,0,0,0,0,0,0],"id":23,"left_children":[1,3,5,7,9,11,13,15,17,19,21,23,25,27,29,-1,-1,-1,-1,-1,-1,-1,-1,-1,-1,-1,-1,-1,-1,-1,-1],"loss_changes":[9.3134564E2,2.9234058E2,2.1915234E2,4.557367E1,7.5825905E1,2.7459656E1,4.628662E1,9.803528E0,1.059906E1,1.6564129E1,1.7170288E1,1.3005304E1,2.132074E1,2.0539001E1,7.450775E0,0E0,0E0,0E0,0E0,0E0,0E0,0E0,0E0,0E0,0E0,0E0,0E0,0E0,0E0,0E0,0E0],"parents":[2147483647,0,0,1,1,2,2,3,3,4,4,5,5,6,6,7,7,8,8,9,9,10,10,11,11,12,12,13,13,14,14],"right_children":[2,4,6,8,10,12,14,16,18,20,22,24,26,28,30,-1,-1,-1,-1,-1,-1,-1,-1,-1,-1,-1,-1,-1,-1,-1,-1],"split_conditions":[5.468236E-1,-1.7236713E-1,1.0256368E0,-5.79669E-1,1.811022E-1,4.1788235E-1,1.4593383E0,-9.972357E-1,-1.09216064E-1,-5.2624787E-3,-6.2797713E-1,1.4933206E-1,1.3537541E-1,1.1E0,3.6248136E-1,-1.1645959E-2,-7.948775E-3,-5.4376624E-3,-2.9634906E-3,-2.9465905E-3,-7.4802537E-4,7.5567556E-3,1.5854307E-3,1.3157905E-3,7.363913E-3,7.009338E-3,1.4307215E-2,1.0592418E-2,1.7765526E-2,2.5636763E-3,2.1E-2],"split_indices":[33,32,33,32,32,32,33,32,33,33,30,31,25,12,32,0,0,0,0,0,0,0,0,0,0,0,0,0,0,0,0],"split_type":[0,0,0,0,0,0,0,0,0,0,0,0,0,0,0,0,0,0,0,0,0,0,0,0,0,0,0,0,0,0,0],"sum_hessian":[4.188824E4,3.407977E4,7.8084697E3,1.1245469E4,2.28343E4,5.775135E3,2.0333351E3,3.364665E3,7.880804E3,1.2852423E4,9.981879E3,1.5660337E3,4.209101E3,1.4777018E3,5.556333E2,8.928806E2,2.4717844E3,5.728485E3,2.1523193E3,5.138989E3,7.713434E3,4.5224655E2,9.529632E3,1.1192855E3,4.4674817E2,3.8104885E3,3.9861243E2,6.723747E2,8.0532715E2,2.0323456E1,5.353099E2],"tree_param":{"num_deleted":"0","num_feature":"46","num_nodes":"31","size_leaf_vector":"1"}},{"base_weights":[2.1158296E-3,-1.01466425E-1,2.552232E-1,-2.0765321E-1,-3.37588E-2,2.0104499E-1,7E-1,-2.918488E-1,-1.6007176E-1,-6.539909E-2,3.0079212E-2,1.3171247E-1,2.9091546E-1,5.0327307E-1,7E-1,-1.1645189E-2,-7.957986E-3,-3.719168E-3,-5.4140706E-3,-2.065202E-3,8.577815E-3,2.625725E-3,-1.7075155E-5,5.205926E-3,2.5373173E-3,7.5876554E-3,1.0938739E-2,1.6852306E-2,-3.0748576E-3,2.1E-2,4.791158E-3],"categories":[],"categories_nodes":[],"categories_segments":[],"categories_sizes":[],"default_left":[0,0,0,0,0,0,0,0,0,0,0,0,0,0,0,0,0,0,0,0,0,0,0,0,0,0,0,0,0,0,0],"id":24,"left_children":[1,3,5,7,9,11,13,15,17,19,21,23,25,27,29,-1,-1,-1,-1,-1,-1,-1,-1,-1,-1,-1,-1,-1,-1,-1,-1],"loss_changes":[1.0930114E3,2.1268103E2,3.525066E2,4.6050415E1,3.6497086E1,6.871442E1,8.309448E0,1.0437042E1,5.377365E0,1.4643734E1,1.05436325E1,1.2262314E1,1.3275543E1,8.61681E0,2.5753784E0,0E0,0E0,0E0,0E0,0E0,0E0,0E0,0E0,0E0,0E0,0E0,0E0,0E0,0E0,0E0,0E0],"parents":[2147483647,0,0,1,1,2,2,3,3,4,4,5,5,6,6,7,7,8,8,9,9,10,10,11,11,12,12,13,13,14,14],"right_children":[2,4,6,8,10,12,14,16,18,20,22,24,26,28,30,-1,-1,-1,-1,-1,-1,-1,-1,-1,-1,-1,-1,-1,-1,-1,-1],"split_conditions":[2.0505266E-1,-3.2488248E-1,1.1671584E0,-6.90703E-1,1.8249205E-3,4.8311648E-1,1.258064E0,-1.1480979E0,-3.508133E-1,3.9E0,3.2078627E-2,2.4475399E-1,8.04287E-1,1.1808487E0,1.3615925E0,-1.1645189E-2,-7.957986E-3,-3.719168E-3,-5.4140706E-3,-2.065202E-3,8.577815E-3,2.625725E-3,-1.7075155E-5,5.205926E-3,2.5373173E-3,7.5876554E-3,1.0938739E-2,1.6852306E-2,-3.0748576E-3,2.1E-2,4.791158E-3],"split_indices":[34,34,34,34,34,34,34,34,40,18,40,40,34,43,24,0,0,0,0,0,0,0,0,0,0,0,0,0,0,0,0],"split_type":[0,0,0,0,0,0,0,0,0,0,0,0,0,0,0,0,0,0,0,0,0,0,0,0,0,0,0,0,0,0,0],"sum_hessian":[4.168628E4,2.9581484E4,1.2104797E4,1.1516254E4,1.806523E4,1.1038222E4,1.0665754E3,4.154529E3,7.3617246E3,1.2078611E4,5.986619E3,6.2338857E3,4.804336E3,2.3802716E2,8.285483E2,8.926688E2,3.2618599E3,2.6629448E3,4.6987803E3,1.196305E4,1.1556128E2,2.0815017E3,3.9051172E3,3.300402E3,2.9334836E3,3.1760793E3,1.6282566E3,2.1720708E2,2.082009E1,8.18369E2,1.0179317E1],"tree_param":{"num_deleted":"0","num_feature":"46","num_nodes":"31","size_leaf_vector":"1"}},{"base_weights":[6.3569477E-4,-1.0208601E-1,2.4927092E-1,-2.1512792E-1,-3.6650896E-2,1.9821699E-1,7E-1,-3.218579E-1,-1.785778E-1,-9.164799E-2,-1.2041727E-4,1.4034303E-1,3.2189476E-1,4.538481E-1,7E-1,-1.1899918E-2,-8.828181E-3,-6.3236025E-3,-4.6231626E-3,9.1342116E-4,-3.067044E-3,4.8875096E-3,-1.6234111E-4,5.258053E-3,2.6593546E-3,1.5131296E-2,9.234385E-3,7.5635808E-3,1.694735E-2,6.434396E-3,2.1E-2],"categories":[],"categories_nodes":[],"categories_segments":[],"categories_sizes":[],"default_left":[0,0,0,0,0,0,0,0,0,0,0,0,0,0,0,0,0,0,0,0,0,0,0,0,0,0,0,0,0,0,0],"id":25,"left_children":[1,3,5,7,9,11,13,15,17,19,21,23,25,27,29,-1,-1,-1,-1,-1,-1,-1,-1,-1,-1,-1,-1,-1,-1,-1,-1],"loss_changes":[1.069952E3,2.1926685E2,3.2220917E2,4.2282654E1,3.7727806E1,7.983099E1,1.4128418E1,5.482544E0,6.320038E0,9.694229E0,9.737138E0,1.37092285E1,8.832001E0,5.3018303E0,3.3274536E0,0E0,0E0,0E0,0E0,0E0,0E0,0E0,0E0,0E0,0E0,0E0,0E0,0E0,0E0,0E0,0E0],"parents":[2147483647,0,0,1,1,2,2,3,3,4,4,5,5,6,6,7,7,8,8,9,9,10,10,11,11,12,12,13,13,14,14],"right_children":[2,4,6,8,10,12,14,16,18,20,22,24,26,28,30,-1,-1,-1,-1,-1,-1,-1,-1,-1,-1,-1,-1,-1,-1,-1,-1],"split_conditions":[2.0505266E-1,-3.5519242E-1,1.1671584E0,-8.1273085E-1,-1.1212212E-1,5.890745E-1,1.258064E0,-1.2047992E0,-5.5536604E-1,-3.508133E-1,-2.4400932E-1,2.9809794E-1,8.5191235E-2,-1.3424826E0,3.6248136E-1,-1.1899918E-2,-8.828181E-3,-6.3236025E-3,-4.6231626E-3,9.1342116E-4,-3.067044E-3,4.8875096E-3,-1.6234111E-4,5.258053E-3,2.6593546E-3,1.5131296E-2,9.234385E-3,7.5635808E-3,1.694735E-2,6.434396E-3,2.1E-2],"split_indices":[34,34,34,34,34,34,34,34,34,40,40,40,40,30,32,0,0,0,0,0,0,0,0,0,0,0,0,0,0,0,0],"split_type":[0,0,0,0,0,0,0,0,0,0,0,0,0,0,0,0,0,0,0,0,0,0,0,0,0,0,0,0,0,0,0],"sum_hessian":[4.1888816E4,2.9643156E4,1.2245659E4,1.0866406E4,1.877675E4,1.1163757E4,1.0819032E3,2.7679897E3,8.098416E3,7.49297E3,1.1283779E4,7.6079507E3,3.555806E3,2.4735274E2,8.345505E2,7.3851404E2,2.0294758E3,3.4899463E3,4.6084697E3,5.975704E2,6.8954E3,3.5280264E2,1.0930977E4,4.5376685E3,3.0702822E3,2.4975102E2,3.3060547E3,9.015004E1,1.5720268E2,1.6272827E1,8.1827765E2],"tree_param":{"num_deleted":"0","num_feature":"46","num_nodes":"31","size_leaf_vector":"1"}},{"base_weights":[2.117743E-3,-1.1150231E-1,2.139802E-1,-2.2284761E-1,-5.2254014E-2,1.6746429E-1,7E-1,-3.174061E-1,-1.8517603E-1,-9.922613E-2,-9.156025E-3,1.0788064E-1,2.815359E-1,4.4391352E-1,7E-1,-1.1638018E-2,-8.72738E-3,-6.3046743E-3,-4.7884593E-3,-2.4202357E-3,-4.476061E-3,5.1501684E-4,-2.141826E-3,5.0894422E-3,2.4894055E-3,7.167042E-3,1.0657615E-2,1.577732E-2,6.8789697E-3,4.8668967E-3,2.1E-2],"categories":[],"categories_nodes":[],"categories_segments":[],"categories_sizes":[],"default_left":[0,0,0,0,0,0,0,0,0,0,0,0,0,0,0,0,0,0,0,0,0,0,0,0,0,0,0,0,0,0,0],"id":26,"left_children":[1,3,5,7,9,11,13,15,17,19,21,23,25,27,29,-1,-1,-1,-1,-1,-1,-1,-1,-1,-1,-1,-1,-1,-1,-1,-1],"loss_changes":[1.00442566E3,1.7915411E2,3.737652E2,3.3482086E1,3.589086E1,9.138214E1,1.5824219E1,4.7901917E0,4.242752E0,7.841255E0,1.5154385E1,1.3569405E1,1.4334717E1,4.268078E0,4.284546E0,0E0,0E0,0E0,0E0,0E0,0E0,0E0,0E0,0E0,0E0,0E0,0E0,0E0,0E0,0E0,0E0],"parents":[2147483647,0,0,1,1,2,2,3,3,4,4,5,5,6,6,7,7,8,8,9,9,10,10,11,11,12,12,13,13,14,14],"right_children":[2,4,6,8,10,12,14,16,18,20,22,24,26,28,30,-1,-1,-1,-1,-1,-1,-1,-1,-1,-1,-1,-1,-1,-1,-1,-1],"split_conditions":[1.2439351E-1,-3.9885765E-1,1.1671584E0,-8.1273085E-1,-1.16978355E-1,5.106939E-1,1.258064E0,-1.2047992E0,-5.5536604E-1,1E0,1E0,1.04659565E-1,8.04287E-1,3.0529502E-1,-4.0089834E-1,-1.1638018E-2,-8.72738E-3,-6.3046743E-3,-4.7884593E-3,-2.4202357E-3,-4.476061E-3,5.1501684E-4,-2.141826E-3,5.0894422E-3,2.4894055E-3,7.167042E-3,1.0657615E-2,1.577732E-2,6.8789697E-3,4.8668967E-3,2.1E-2],"split_indices":[34,34,34,34,34,34,34,34,34,44,44,40,34,36,37,0,0,0,0,0,0,0,0,0,0,0,0,0,0,0,0],"split_type":[0,0,0,0,0,0,0,0,0,0,0,0,0,0,0,0,0,0,0,0,0,0,0,0,0,0,0,0,0,0,0],"sum_hessian":[4.1722215E4,2.7158361E4,1.4563854E4,9.430362E3,1.7727998E4,1.3451804E4,1.1120496E3,2.682425E3,6.7479375E3,8.481491E3,9.246507E3,8.838851E3,4.6129536E3,2.5423973E2,8.578098E2,7.250335E2,1.9573915E3,3.4054465E3,3.3424912E3,6.189215E3,2.2922761E3,6.499171E3,2.747336E3,2.5361394E3,6.3027114E3,2.9280232E3,1.6849302E3,1.8185712E2,7.238261E1,1.6204151E1,8.4160565E2],"tree_param":{"num_deleted":"0","num_feature":"46","num_nodes":"31","size_leaf_vector":"1"}},{"base_weights":[4.7218907E-3,-1.0153616E-1,2.2435836E-1,-2.0362432E-1,-3.358055E-2,1.8061724E-1,7E-1,-3.1270918E-1,-1.690792E-1,-6.57682E-2,1.7279455E-2,1.1764976E-1,2.8340206E-1,7E-1,2.601638E-1,-1.1435293E-2,-8.354075E-3,-6.182111E-3,-4.2842664E-3,-1.5604135E-3,-4.430277E-3,2.867461E-4,9.693435E-3,4.5999377E-3,2.4023177E-3,7.3157228E-3,1.1228711E-2,4.4927797E-3,2.1E-2,1.8290876E-3,8.942477E-3],"categories":[],"categories_nodes":[],"categories_segments":[],"categories_sizes":[],"default_left":[0,0,0,0,0,0,0,0,0,0,0,0,0,0,0,0,0,0,0,0,0,0,0,0,0,0,0,0,0,0,0],"id":27,"left_children":[1,3,5,7,9,11,13,15,17,19,21,23,25,27,29,-1,-1,-1,-1,-1,-1,-1,-1,-1,-1,-1,-1,-1,-1,-1,-1],"loss_changes":[9.8053107E2,1.9642365E2,3.4674792E2,4.2534973E1,2.7835585E1,8.263092E1,4.642395E0,6.162323E0,8.296692E0,1.1715565E1,1.5558516E1,1.0602615E1,1.7258514E1,2.7642212E0,1.8316865E-1,0E0,0E0,0E0,0E0,0E0,0E0,0E0,0E0,0E0,0E0,0E0,0E0,0E0,0E0,0E0,0E0],"parents":[2147483647,0,0,1,1,2,2,3,3,4,4,5,5,6,6,7,7,8,8,9,9,10,10,11,11,12,12,13,13,14,14],"right_children":[2,4,6,8,10,12,14,16,18,20,22,24,26,28,30,-1,-1,-1,-1,-1,-1,-1,-1,-1,-1,-1,-1,-1,-1,-1,-1],"split_conditions":[1.6311815E-1,-3.2488248E-1,1.258064E0,-8.1273085E-1,-3.6304905E-3,5.106939E-1,-3.6226526E-1,-1.1480979E0,-5.458773E-1,1.00477904E-1,3.25E0,2.2959755E-1,8.781309E-1,5.7379335E-1,1.2203934E3,-1.1435293E-2,-8.354075E-3,-6.182111E-3,-4.2842664E-3,-1.5604135E-3,-4.430277E-3,2.867461E-4,9.693435E-3,4.5999377E-3,2.4023177E-3,7.3157228E-3,1.1228711E-2,4.4927797E-3,2.1E-2,1.8290876E-3,8.942477E-3],"split_indices":[34,34,34,34,34,34,30,34,34,40,18,40,34,33,2,0,0,0,0,0,0,0,0,0,0,0,0,0,0,0,0],"split_type":[0,0,0,0,0,0,0,0,0,0,0,0,0,0,0,0,0,0,0,0,0,0,0,0,0,0,0,0,0,0,0],"sum_hessian":[4.201015E4,2.8313447E4,1.3696703E4,1.1313477E4,1.699997E4,1.2775556E4,9.211474E2,2.7171846E3,8.596292E3,1.0410755E4,6.589215E3,7.9249214E3,4.850634E3,8.940847E2,2.7062695E1,8.9908466E2,1.8181E3,3.5640583E3,5.032234E3,8.916685E3,1.4940708E3,6.4289688E3,1.6024619E2,4.061588E3,3.8633335E3,3.3851533E3,1.4654806E3,1.0366732E1,8.8371796E2,5.161932E0,2.1900764E1],"tree_param":{"num_deleted":"0","num_feature":"46","num_nodes":"31","size_leaf_vector":"1"}},{"base_weights":[1.8232774E-3,-9.723767E-2,2.1976367E-1,-2.1387306E-1,-3.5779588E-2,1.8080744E-1,7E-1,-3.147878E-1,-1.7662752E-1,-9.915454E-2,-5.649019E-4,1.4322042E-1,3.4660056E-1,5.03439E-1,7E-1,-1.1677291E-2,-8.396288E-3,-6.422214E-3,-4.8609055E-3,-1.8059531E-3,-4.0068E-3,-8.5205596E-4,9.494911E-4,2.8447667E-3,5.7823816E-3,1.3724771E-2,9.318358E-3,1.7500598E-2,8.594419E-3,3.9113006E-3,2.1E-2],"categories":[],"categories_nodes":[],"categories_segments":[],"categories_sizes":[],"default_left":[0,0,0,0,0,0,0,0,0,0,0,0,0,0,0,0,0,0,0,0,0,0,0,0,0,0,0,0,0,0,0],"id":28,"left_children":[1,3,5,7,9,11,13,15,17,19,21,23,25,27,29,-1,-1,-1,-1,-1,-1,-1,-1,-1,-1,-1,-1,-1,-1,-1,-1],"loss_changes":[9.1255066E2,2.0829138E2,2.743457E2,3.757965E1,4.24787E1,7.668884E1,1.0185333E1,6.8023376E0,3.9368134E0,9.096184E0,1.0975758E1,2.404721E1,8.798462E0,4.6762238E0,5.226776E0,0E0,0E0,0E0,0E0,0E0,0E0,0E0,0E0,0E0,0E0,0E0,0E0,0E0,0E0,0E0,0E0],"parents":[2147483647,0,0,1,1,2,2,3,3,4,4,5,5,6,6,7,7,8,8,9,9,10,10,11,11,12,12,13,13,14,14],"right_children":[2,4,6,8,10,12,14,16,18,20,22,24,26,28,30,-1,-1,-1,-1,-1,-1,-1,-1,-1,-1,-1,-1,-1,-1,-1,-1],"split_conditions":[1.8489191E-1,-3.7717587E-1,1.258064E0,-8.1273085E-1,-1.4807336E-1,7.7117956E-1,1.3868127E0,-1.1480979E0,-6.403552E-1,-1.6412139E-1,7.395375E-5,3.9707112E-1,3.7193683E-1,4.428571E0,1.23571575E-1,-1.1677291E-2,-8.396288E-3,-6.422214E-3,-4.8609055E-3,-1.8059531E-3,-4.0068E-3,-8.5205596E-4,9.494911E-4,2.8447667E-3,5.7823816E-3,1.3724771E-2,9.318358E-3,1.7500598E-2,8.594419E-3,3.9113006E-3,2.1E-2],"split_indices":[34,34,34,34,34,34,34,34,34,40,34,34,40,15,29,0,0,0,0,0,0,0,0,0,0,0,0,0,0,0,0],"split_type":[0,0,0,0,0,0,0,0,0,0,0,0,0,0,0,0,0,0,0,0,0,0,0,0,0,0,0,0,0,0,0],"sum_hessian":[4.226451E4,2.9057877E4,1.3206637E4,1.002584E4,1.9032037E4,1.2320235E4,8.8640076E2,2.6987693E3,7.3270703E3,6.796651E3,1.2235386E4,1.0046352E4,2.273884E3,2.8698615E2,5.994146E2,8.550079E2,1.8437615E3,2.04745E3,5.2796206E3,3.190106E3,3.606545E3,6.563788E3,5.671598E3,5.084131E3,4.9622207E3,5.514069E2,1.722477E3,2.0726485E2,7.9721306E1,1.7129025E1,5.822856E2],"tree_param":{"num_deleted":"0","num_feature":"46","num_nodes":"31","size_leaf_vector":"1"}},{"base_weights":[-7.1856007E-4,-9.799821E-2,2.1288273E-1,-2.067486E-1,-3.646605E-2,1.6434044E-1,7E-1,-3.1407586E-1,-1.7114878E-1,-9.292544E-2,-9.3535444E-4,1.04323536E-1,2.5658938E-1,4.7481367E-1,7E-1,-1.2086827E-2,-8.448682E-3,-6.2824856E-3,-4.5443033E-3,-4.3594078E-4,-3.1914117E-3,7.461729E-4,-1.9057331E-3,4.604366E-3,2.0956395E-3,6.4891037E-3,1.0224167E-2,2.1E-2,1.2398392E-2,7.4061975E-3,2.1E-2],"categories":[],"categories_nodes":[],"categories_segments":[],"categories_sizes":[],"default_left":[0,0,0,0,0,0,0,0,0,0,0,0,0,0,0,0,0,0,0,0,0,0,0,0,0,0,0,0,0,0,0],"id":29,"left_children":[1,3,5,7,9,11,13,15,17,19,21,23,25,27,29,-1,-1,-1,-1,-1,-1,-1,-1,-1,-1,-1,-1,-1,-1,-1,-1],"loss_changes":[8.642803E2,1.9122168E2,3.0996564E2,3.9348236E1,3.6618004E1,6.5537415E1,2.7052063E1,7.1800385E0,5.777359E0,7.43367E0,1.8103203E1,1.21451645E1,1.5690582E1,9.9292145E0,4.265442E0,0E0,0E0,0E0,0E0,0E0,0E0,0E0,0E0,0E0,0E0,0E0,0E0,0E0,0E0,0E0,0E0],"parents":[2147483647,0,0,1,1,2,2,3,3,4,4,5,5,6,6,7,7,8,8,9,9,10,10,11,11,12,12,13,13,14,14],"right_children":[2,4,6,8,10,12,14,16,18,20,22,24,26,28,30,-1,-1,-1,-1,-1,-1,-1,-1,-1,-1,-1,-1,-1,-1,-1,-1],"split_conditions":[1.8489191E-1,-3.5519242E-1,1.1671584E0,-8.1273085E-1,-1.21110596E-1,5.106939E-1,1.3868127E0,-1.2047992E0,-5.9573114E-1,-2.9533935E-1,1E0,1.8625112E-1,8.401581E-1,2.2857144E0,1.7777778E0,-1.2086827E-2,-8.448682E-3,-6.2824856E-3,-4.5443033E-3,-4.3594078E-4,-3.1914117E-3,7.461729E-4,-1.9057331E-3,4.604366E-3,2.0956395E-3,6.4891037E-3,1.0224167E-2,2.1E-2,1.2398392E-2,7.4061975E-3,2.1E-2],"split_indices":[34,34,34,34,34,34,34,34,34,40,44,40,34,15,15,0,0,0,0,0,0,0,0,0,0,0,0,0,0,0,0],"split_type":[0,0,0,0,0,0,0,0,0,0,0,0,0,0,0,0,0,0,0,0,0,0,0,0,0,0,0,0,0,0,0],"sum_hessian":[4.1589805E4,2.857643E4,1.3013376E4,1.0324481E4,1.8251947E4,1.1845009E4,1.168367E3,2.5676926E3,7.7567886E3,7.048473E3,1.1203475E4,7.1787783E3,4.6662305E3,5.5080396E2,6.1756305E2,6.8102325E2,1.8866694E3,2.627089E3,5.129699E3,1.0331396E3,6.0153335E3,7.933433E3,3.2700415E3,2.956159E3,4.222619E3,3.1611768E3,1.5050538E3,7.911481E1,4.7168915E2,2.3547047E1,5.94016E2],"tree_param":{"num_deleted":"0","num_feature":"46","num_nodes":"31","size_leaf_vector":"1"}},{"base_weights":[3.7782227E-3,-9.425729E-2,2.1716768E-1,-1.9212475E-1,-3.145511E-2,1.7406039E-1,7E-1,-2.7577746E-1,-1.4758547E-1,-6.17679E-2,3.3102807E-2,1.2263162E-1,2.934966E-1,5.446317E-1,7E-1,-1.145297E-2,-7.4210837E-3,-3.4172805E-3,-5.398549E-3,-1.9914657E-3,9.445008E-3,3.436816E-3,1.9318951E-4,2.6444318E-3,5.1009264E-3,1.1529561E-2,7.789621E-3,2.1E-2,1.4042007E-2,1.1086663E-2,2.1E-2],"categories":[],"categories_nodes":[],"categories_segments":[],"categories_sizes":[],"default_left":[0,0,0,0,0,0,0,0,0,0,0,0,0,0,0,0,0,0,0,0,0,0,0,0,0,0,0,0,0,0,0],"id":30,"left_children":[1,3,5,7,9,11,13,15,17,19,21,23,25,27,29,-1,-1,-1,-1,-1,-1,-1,-1,-1,-1,-1,-1,-1,-1,-1,-1],"loss_changes":[8.751049E2,1.7616002E2,3.0712646E2,4.1660614E1,3.4175545E1,7.494034E1,6.925476E0,1.1524261E1,7.9322968E0,2.0691704E1,1.2119204E1,1.3928421E1,1.1093903E1,5.5570297E0,4.4401855E0,0E0,0E0,0E0,0E0,0E0,0E0,0E0,0E0,0E0,0E0,0E0,0E0,0E0,0E0,0E0,0E0],"parents":[2147483647,0,0,1,1,2,2,3,3,4,4,5,5,6,6,7,7,8,8,9,9,10,10,11,11,12,12,13,13,14,14],"right_children":[2,4,6,8,10,12,14,16,18,20,22,24,26,28,30,-1,-1,-1,-1,-1,-1,-1,-1,-1,-1,-1,-1,-1,-1,-1,-1],"split_conditions":[1.8489191E-1,-3.2488248E-1,1.258064E0,-6.90703E-1,1.8249205E-3,6.0824865E-1,1.3868127E0,-1.1480979E0,-2.9148126E-1,3.9E0,-6.7536794E-3,3.8990003E-1,3.345715E-1,1.4773368E3,2E0,-1.145297E-2,-7.4210837E-3,-3.4172805E-3,-5.398549E-3,-1.9914657E-3,9.445008E-3,3.436816E-3,1.9318951E-4,2.6444318E-3,5.1009264E-3,1.1529561E-2,7.789621E-3,2.1E-2,1.4042007E-2,1.1086663E-2,2.1E-2],"split_indices":[34,34,34,34,34,34,34,34,40,18,36,34,40,1,9,0,0,0,0,0,0,0,0,0,0,0,0,0,0,0,0],"split_type":[0,0,0,0,0,0,0,0,0,0,0,0,0,0,0,0,0,0,0,0,0,0,0,0,0,0,0,0,0,0,0],"sum_hessian":[4.1827574E4,2.8661162E4,1.3166412E4,1.1201399E4,1.7459762E4,1.2210102E4,9.5631055E2,3.8882292E3,7.31317E3,1.1881133E4,5.5786294E3,8.537808E3,3.672294E3,3.254948E2,6.3081573E2,8.166158E2,3.0716135E3,3.5884873E3,3.7246826E3,1.1738949E4,1.4218344E2,1.3740924E3,4.204537E3,4.9455454E3,3.592262E3,9.9129004E2,2.681004E3,5.9011345E1,2.6648346E2,4.7637627E1,5.831781E2],"tree_param":{"num_deleted":"0","num_feature":"46","num_nodes":"31","size_leaf_vector":"1"}},{"base_weights":[2.8879987E-3,-9.639589E-2,2.0536767E-1,-2.0079625E-1,-4.122293E-2,1.6771907E-1,7E-1,-2.968255E-1,-1.663848E-1,-8.7921716E-2,-4.9670823E-3,1.0719418E-1,2.6366547E-1,7E-1,5.22124E-1,-1.14082135E-2,-7.927711E-3,-5.8759577E-3,-4.1293646E-3,-6.626195E-4,-2.8907673E-3,-2.3536658E-4,1.0905456E-2,2.4518773E-3,4.7000106E-3,6.4108474E-3,9.742233E-3,2.9194863E-3,2.1E-2,9.52343E-3,2.1E-2],"categories":[],"categories_nodes":[],"categories_segments":[],"categories_sizes":[],"default_left":[0,0,0,0,0,0,0,0,0,0,0,0,0,0,0,0,0,0,0,0,0,0,0,0,0,0,0,0,0,0,0],"id":31,"left_children":[1,3,5,7,9,11,13,15,17,19,21,23,25,27,29,-1,-1,-1,-1,-1,-1,-1,-1,-1,-1,-1,-1,-1,-1,-1,-1],"loss_changes":[8.411088E2,1.6169287E2,2.728908E2,3.1975464E1,3.1101398E1,7.4588776E1,7.9957886E0,6.75119E0,6.004074E0,4.4552956E0,1.0976564E1,9.908493E0,1.5031738E1,3.9085999E0,9.998497E0,0E0,0E0,0E0,0E0,0E0,0E0,0E0,0E0,0E0,0E0,0E0,0E0,0E0,0E0,0E0,0E0],"parents":[2147483647,0,0,1,1,2,2,3,3,4,4,5,5,6,6,7,7,8,8,9,9,10,10,11,11,12,12,13,13,14,14],"right_children":[2,4,6,8,10,12,14,16,18,20,22,24,26,28,30,-1,-1,-1,-1,-1,-1,-1,-1,-1,-1,-1,-1,-1,-1,-1,-1],"split_conditions":[1.6311815E-1,-3.7717587E-1,1.258064E0,-8.1273085E-1,-1.1212212E-1,5.106939E-1,2.6082155E-1,-1.2047992E0,-5.458773E-1,-1.2666327E2,4.7E0,3.7227413E-1,7.7117956E-1,-5.836397E-1,3.8991988E-1,-1.14082135E-2,-7.927711E-3,-5.8759577E-3,-4.1293646E-3,-6.626195E-4,-2.8907673E-3,-2.3536658E-4,1.0905456E-2,2.4518773E-3,4.7000106E-3,6.4108474E-3,9.742233E-3,2.9194863E-3,2.1E-2,9.52343E-3,2.1E-2],"split_indices":[34,34,34,34,34,34,37,34,34,0,18,34,34,37,37,0,0,0,0,0,0,0,0,0,0,0,0,0,0,0,0],"split_type":[0,0,0,0,0,0,0,0,0,0,0,0,0,0,0,0,0,0,0,0,0,0,0,0,0,0,0,0,0,0,0],"sum_hessian":[4.183606E4,2.8072188E4,1.3763869E4,9.704219E3,1.8367969E4,1.2852037E4,9.118325E2,2.556038E3,7.14818E3,8.026592E3,1.0341378E4,7.883318E3,4.968719E3,6.301469E2,2.816856E2,7.115421E2,1.844496E3,3.5228503E3,3.6253298E3,9.126365E2,7.113955E3,1.0263163E4,7.821524E1,5.2079556E3,2.6753623E3,2.7377542E3,2.230965E3,1.1458748E1,6.186882E2,1.3434973E2,1.4733589E2],"tree_param":{"num_deleted":"0","num_feature":"46","num_nodes":"31","size_leaf_vector":"1"}},{"base_weights":[2.0947855E-3,-1.00656666E-1,1.6417496E-1,-2.004548E-1,-5.294909E-2,9.696048E-2,3.9826134E-1,-2.9751232E-1,-1.6770561E-1,-8.370532E-2,-1.3120433E-2,1.24709874E-1,1.9982444E-2,3.4758595E-1,7E-1,-9.785194E-3,-6.313748E-3,-3.3602987E-3,-5.5973353E-3,1.9583022E-2,-2.552129E-3,-1.8862315E-3,2.326799E-4,2.7463408E-3,5.5701053E-3,3.6462112E-3,-8.905526E-4,9.783543E-3,2.1E-2,2.1E-2,1.2241465E-2],"categories":[],"categories_nodes":[],"categories_segments":[],"categories_sizes":[],"default_left":[0,0,0,0,0,0,0,0,0,0,0,0,0,0,0,0,0,0,0,0,0,0,0,0,0,0,0,0,0,0,0],"id":32,"left_children":[1,3,5,7,9,11,13,15,17,19,21,23,25,27,29,-1,-1,-1,-1,-1,-1,-1,-1,-1,-1,-1,-1,-1,-1,-1,-1],"loss_changes":[6.94438E2,1.21481476E2,2.5447238E2,2.6133087E1,2.1151527E1,2.6849762E1,7.771698E1,5.0513916E0,6.4492645E0,9.911034E0,7.819055E0,1.8647812E1,1.6821968E1,3.1351715E1,2.4113312E0,0E0,0E0,0E0,0E0,0E0,0E0,0E0,0E0,0E0,0E0,0E0,0E0,0E0,0E0,0E0,0E0],"parents":[2147483647,0,0,1,1,2,2,3,3,4,4,5,5,6,6,7,7,8,8,9,9,10,10,11,11,12,12,13,13,14,14],"right_children":[2,4,6,8,10,12,14,16,18,20,22,24,26,28,30,-1,-1,-1,-1,-1,-1,-1,-1,-1,-1,-1,-1,-1,-1,-1,-1],"split_conditions":[2.5117373E-1,-2.6650435E-1,8.5092616E-1,-7.0590687E-1,-3.2318275E-2,1E0,1.7286687E0,-6.539906E-2,4.5510668E-1,-1.4244695E0,-1.0682248E-2,5.635245E-1,-9.7602054E-2,-2.8773716E-1,2.1769679E-1,-9.785194E-3,-6.313748E-3,-3.3602987E-3,-5.5973353E-3,1.9583022E-2,-2.552129E-3,-1.8862315E-3,2.326799E-4,2.7463408E-3,5.5701053E-3,3.6462112E-3,-8.905526E-4,9.783543E-3,2.1E-2,2.1E-2,1.2241465E-2],"split_indices":[33,33,33,33,40,44,33,24,30,30,33,33,30,35,27,0,0,0,0,0,0,0,0,0,0,0,0,0,0,0,0],"split_type":[0,0,0,0,0,0,0,0,0,0,0,0,0,0,0,0,0,0,0,0,0,0,0,0,0,0,0,0,0,0,0],"sum_hessian":[4.1694055E4,2.5517732E4,1.6176323E4,8.251095E3,1.7266637E4,1.2569892E4,3.606432E3,2.0776052E3,6.1734897E3,9.741734E3,7.524903E3,9.238363E3,3.331528E3,3.2769473E3,3.2948456E2,1.5588813E3,5.187239E2,1.5659454E3,4.6075444E3,1.6265211E1,9.72547E3,2.2229685E3,5.301934E3,5.9864604E3,3.2519028E3,1.0932355E3,2.2382927E3,3.1425027E3,1.3444458E2,2.9169702E2,3.7787544E1],"tree_param":{"num_deleted":"0","num_feature":"46","num_nodes":"31","size_leaf_vector":"1"}},{"base_weights":[2.9723144E-3,-7.701218E-2,2.3253067E-1,-1.8893081E-1,-1.4356544E-2,1.8779708E-1,6.9573593E-1,-3.2485738E-1,-1.5846772E-1,-7.6529E-2,1.568272E-2,1.4139633E-1,2.8531033E-1,4.7572228E-1,7E-1,-1.1327873E-2,-8.439115E-3,-5.959377E-3,-3.8065861E-3,-1.169463E-3,-2.9067602E-3,1.173456E-3,-1.3066849E-3,4.9471725E-3,2.3742723E-3,9.218987E-3,5.4097716E-3,1.9157453E-2,8.942237E-3,9.389122E-3,2.1E-2],"categories":[],"categories_nodes":[],"categories_segments":[],"categories_sizes":[],"default_left":[0,0,0,0,0,0,0,0,0,0,0,0,0,0,0,0,0,0,0,0,0,0,0,0,0,0,0,0,0,0,0],"id":33,"left_children":[1,3,5,7,9,11,13,15,17,19,21,23,25,27,29,-1,-1,-1,-1,-1,-1,-1,-1,-1,-1,-1,-1,-1,-1,-1,-1],"loss_changes":[7.6865076E2,2.1769821E2,2.2388019E2,4.6034668E1,3.7178158E1,4.4565704E1,1.369455E1,4.4689026E0,1.1504425E1,4.950535E0,1.8635574E1,9.764816E0,7.2290344E0,8.069702E0,6.7899475E0,0E0,0E0,0E0,0E0,0E0,0E0,0E0,0E0,0E0,0E0,0E0,0E0,0E0,0E0,0E0,0E0],"parents":[2147483647,0,0,1,1,2,2,3,3,4,4,5,5,6,6,7,7,8,8,9,9,10,10,11,11,12,12,13,13,14,14],"right_children":[2,4,6,8,10,12,14,16,18,20,22,24,26,28,30,-1,-1,-1,-1,-1,-1,-1,-1,-1,-1,-1,-1,-1,-1,-1,-1],"split_conditions":[2.8037632E-1,-3.187484E-1,1.258064E0,-8.7590206E-1,-1.1212212E-1,6.6662174E-1,1.3868127E0,-9.555709E-1,-5.458773E-1,-1.8797293E-2,1E0,1E0,3.625E0,3.25E0,2E0,-1.1327873E-2,-8.439115E-3,-5.959377E-3,-3.8065861E-3,-1.169463E-3,-2.9067602E-3,1.173456E-3,-1.3066849E-3,4.9471725E-3,2.3742723E-3,9.218987E-3,5.4097716E-3,1.9157453E-2,8.942237E-3,9.389122E-3,2.1E-2],"split_indices":[34,34,34,34,34,34,34,32,34,36,44,44,15,18,9,0,0,0,0,0,0,0,0,0,0,0,0,0,0,0,0],"split_type":[0,0,0,0,0,0,0,0,0,0,0,0,0,0,0,0,0,0,0,0,0,0,0,0,0,0,0,0,0,0,0],"sum_hessian":[4.1859023E4,3.1043822E4,1.0815199E4,1.1140348E4,1.9903477E4,9.86528E3,9.4991895E2,2.0360679E3,9.104279E3,6.4828286E3,1.3420647E4,6.687837E3,3.1774436E3,2.900816E2,6.5983734E2,9.1398975E2,1.1220781E3,4.0021472E3,5.1021323E3,2.2816228E3,4.2012056E3,9.617168E3,3.8034795E3,4.852175E3,1.8356624E3,2.6239893E3,5.5345435E2,1.4863261E2,1.41449E2,4.987185E1,6.099655E2],"tree_param":{"num_deleted":"0","num_feature":"46","num_nodes":"31","size_leaf_vector":"1"}},{"base_weights":[1.8511072E-3,-8.823066E-2,2.0462303E-1,-2.0345734E-1,-3.649457E-2,1.6477682E-1,7E-1,-2.9939145E-1,-1.6523741E-1,-9.5804565E-2,-2.5193368E-3,1.2468043E-1,2.7172527E-1,5.525011E-1,7E-1,-1.12817455E-2,-7.9285195E-3,-4.254012E-3,-5.901837E-3,-8.8300725E-4,-3.3370673E-3,5.197137E-4,-1.5563498E-3,2.651293E-3,4.9234326E-3,9.332213E-3,5.4719276E-3,2.1E-2,1.3598509E-2,2.810456E-3,2.1E-2],"categories":[],"categories_nodes":[],"categories_segments":[],"categories_sizes":[],"default_left":[0,0,0,0,0,0,0,0,0,0,0,0,0,0,0,0,0,0,0,0,0,0,0,0,0,0,0,0,0,0,0],"id":34,"left_children":[1,3,5,7,9,11,13,15,17,19,21,23,25,27,29,-1,-1,-1,-1,-1,-1,-1,-1,-1,-1,-1,-1,-1,-1,-1,-1],"loss_changes":[7.630203E2,1.7240834E2,2.5639685E2,3.2760834E1,4.0227257E1,5.0986908E1,1.2561768E1,6.6667633E0,4.6773987E0,7.439995E0,1.2435401E1,1.2372955E1,1.1291595E1,1.3609528E1,2.1297607E0,0E0,0E0,0E0,0E0,0E0,0E0,0E0,0E0,0E0,0E0,0E0,0E0,0E0,0E0,0E0,0E0],"parents":[2147483647,0,0,1,1,2,2,3,3,4,4,5,5,6,6,7,7,8,8,9,9,10,10,11,11,12,12,13,13,14,14],"right_children":[2,4,6,8,10,12,14,16,18,20,22,24,26,28,30,-1,-1,-1,-1,-1,-1,-1,-1,-1,-1,-1,-1,-1,-1,-1,-1],"split_conditions":[2.0505266E-1,-3.9885765E-1,1.258064E0,-8.1273085E-1,-1.4807336E-1,6.6662174E-1,1.5963674E0,-1.1480979E0,-2.9148126E-1,-2.9533935E-1,1E0,3.9707112E-1,1E0,1.1111112E0,-4.0089834E-1,-1.12817455E-2,-7.9285195E-3,-4.254012E-3,-5.901837E-3,-8.8300725E-4,-3.3370673E-3,5.197137E-4,-1.5563498E-3,2.651293E-3,4.9234326E-3,9.332213E-3,5.4719276E-3,2.1E-2,1.3598509E-2,2.810456E-3,2.1E-2],"split_indices":[34,34,34,34,34,34,34,34,40,40,44,34,44,13,37,0,0,0,0,0,0,0,0,0,0,0,0,0,0,0,0],"split_type":[0,0,0,0,0,0,0,0,0,0,0,0,0,0,0,0,0,0,0,0,0,0,0,0,0,0,0,0,0,0,0],"sum_hessian":[4.176861E4,2.8921371E4,1.2847238E4,8.959933E3,1.9961438E4,1.1903722E4,9.435173E2,2.5487546E3,6.411178E3,7.2687915E3,1.2692647E4,8.660948E3,3.2427727E3,6.204399E2,3.230774E2,7.944445E2,1.75431E3,3.681903E3,2.7292754E3,1.3722712E3,5.89652E3,9.0540625E3,3.638584E3,4.5128135E3,4.1481353E3,2.2477031E3,9.950695E2,1.6027803E2,4.6016183E2,6.459171E0,3.1661823E2],"tree_param":{"num_deleted":"0","num_feature":"46","num_nodes":"31","size_leaf_vector":"1"}},{"base_weights":[9.845268E-4,-7.928349E-2,1.8241543E-1,-1.7226836E-1,-2.553627E-2,1.2854044E-1,4.316835E-1,-2.6812717E-1,-1.3626894E-1,-5.9290603E-2,1.21054975E-2,9.7887486E-2,2.0728801E-1,7E-1,3.6859483E-1,-1.1036572E-2,-7.360756E-3,-4.1893073E-3,3.3444082E-3,7.322405E-4,-2.119589E-3,-2.3008639E-3,9.1575633E-4,3.6655057E-3,8.4972236E-4,5.9528947E-3,2.1E-2,2.1E-2,1.2575844E-2,1.8573383E-2,1.0338209E-2],"categories":[],"categories_nodes":[],"categories_segments":[],"categories_sizes":[],"default_left":[0,0,0,0,0,0,0,0,0,0,0,0,0,0,0,0,0,0,0,0,0,0,0,0,0,0,0,0,0,0,0],"id":35,"left_children":[1,3,5,7,9,11,13,15,17,19,21,23,25,27,29,-1,-1,-1,-1,-1,-1,-1,-1,-1,-1,-1,-1,-1,-1,-1,-1],"loss_changes":[6.109491E2,1.453459E2,1.7268973E2,3.6689423E1,2.3422298E1,2.550624E1,4.1489258E1,6.4210052E0,6.5095367E0,9.246189E0,1.4262126E1,1.2874924E1,2.0507622E1,8.318558E0,1.09019165E1,0E0,0E0,0E0,0E0,0E0,0E0,0E0,0E0,0E0,0E0,0E0,0E0,0E0,0E0,0E0,0E0],"parents":[2147483647,0,0,1,1,2,2,3,3,4,4,5,5,6,6,7,7,8,8,9,9,10,10,11,11,12,12,13,13,14,14],"right_children":[2,4,6,8,10,12,14,16,18,20,22,24,26,28,30,-1,-1,-1,-1,-1,-1,-1,-1,-1,-1,-1,-1,-1,-1,-1,-1],"split_conditions":[3.6504936E-1,-1.6282201E-1,1.0256368E0,-6.0644484E-1,-7.710803E-3,7.1818614E-1,9E0,-7.688484E-1,2.0755118E-1,-1.5944543E-1,-1.0682248E-2,1E0,3.8E0,3.9191753E-1,-1.0803089E0,-1.1036572E-2,-7.360756E-3,-4.1893073E-3,3.3444082E-3,7.322405E-4,-2.119589E-3,-2.3008639E-3,9.1575633E-4,3.6655057E-3,8.4972236E-4,5.9528947E-3,2.1E-2,2.1E-2,1.2575844E-2,1.8573383E-2,1.0338209E-2],"split_indices":[33,33,33,33,40,33,23,43,27,43,33,44,11,26,39,0,0,0,0,0,0,0,0,0,0,0,0,0,0,0,0],"split_type":[0,0,0,0,0,0,0,0,0,0,0,0,0,0,0,0,0,0,0,0,0,0,0,0,0,0,0,0,0,0,0],"sum_hessian":[4.1947875E4,2.9082447E4,1.2865428E4,1.0651138E4,1.843131E4,1.058146E4,2.2839685E3,2.9044106E3,7.746727E3,9.71683E3,8.7144795E3,7.619868E3,2.9615918E3,4.0081976E2,1.8831487E3,5.340792E2,2.3703315E3,7.643487E3,1.0324057E2,1.1611495E3,8.555681E3,1.4959956E3,7.218484E3,5.646302E3,1.973566E3,2.9432498E3,1.8341946E1,2.8489496E2,1.1592478E2,1.6022415E2,1.7229246E3],"tree_param":{"num_deleted":"0","num_feature":"46","num_nodes":"31","size_leaf_vector":"1"}},{"base_weights":[3.2660542E-3,-7.155123E-2,2.0902723E-1,-1.9627984E-1,-2.2077138E-2,1.5210061E-1,4.4590512E-1,-3.3896774E-1,-1.7209032E-1,-6.166095E-2,2.621235E-2,7.402551E-2,1.8793231E-1,7E-1,3.7233055E-1,-1.0947715E-2,-6.958133E-3,-6.2222797E-3,-3.984523E-3,-2.0063163E-3,4.1731163E-3,-3.57329E-5,2.4330453E-3,1.2431049E-3,4.7266474E-3,5.4179323E-3,2.049058E-2,3.773012E-5,2.1E-2,8.18834E-3,1.3511809E-2],"categories":[],"categories_nodes":[],"categories_segments":[],"categories_sizes":[],"default_left":[0,0,0,0,0,0,0,0,0,0,0,0,0,0,0,0,0,0,0,0,0,0,0,0,0,0,0,0,0,0,0],"id":36,"left_children":[1,3,5,7,9,11,13,15,17,19,21,23,25,27,29,-1,-1,-1,-1,-1,-1,-1,-1,-1,-1,-1,-1,-1,-1,-1,-1],"loss_changes":[6.480842E2,1.9050229E2,1.5123904E2,3.0145569E1,4.226053E1,2.5300385E1,4.7709167E1,3.3556976E0,1.0349182E1,1.27417755E1,1.4981345E1,7.7485523E0,2.2282806E1,7.839737E0,1.3415115E1,0E0,0E0,0E0,0E0,0E0,0E0,0E0,0E0,0E0,0E0,0E0,0E0,0E0,0E0,0E0,0E0],"parents":[2147483647,0,0,1,1,2,2,3,3,4,4,5,5,6,6,7,7,8,8,9,9,10,10,11,11,12,12,13,13,14,14],"right_children":[2,4,6,8,10,12,14,16,18,20,22,24,26,28,30,-1,-1,-1,-1,-1,-1,-1,-1,-1,-1,-1,-1,-1,-1,-1,-1],"split_conditions":[4.353377E-1,-2.4011917E-1,1.0629272E0,-8.3238196E-1,1.0375936E-1,4.1788235E-1,9E0,-6.0644484E-1,-3.4479806E-1,2.9E0,3.4874E-1,1.4401264E-1,4.2E0,-1.4878543E-1,1.0377274E0,-1.0947715E-2,-6.958133E-3,-6.2222797E-3,-3.984523E-3,-2.0063163E-3,4.1731163E-3,-3.57329E-5,2.4330453E-3,1.2431049E-3,4.7266474E-3,5.4179323E-3,2.049058E-2,3.773012E-5,2.1E-2,8.18834E-3,1.3511809E-2],"split_indices":[33,32,33,32,33,32,23,33,33,15,32,29,5,36,32,0,0,0,0,0,0,0,0,0,0,0,0,0,0,0,0],"split_type":[0,0,0,0,0,0,0,0,0,0,0,0,0,0,0,0,0,0,0,0,0,0,0,0,0,0,0,0,0,0,0],"sum_hessian":[4.20945E4,3.0870803E4,1.1223697E4,8.765717E3,2.2105086E4,9.051678E3,2.1720203E3,1.2668508E3,7.4988657E3,1.2147224E4,9.957863E3,2.8493184E3,6.2023594E3,4.1321307E2,1.7588071E3,1.0157097E3,2.5114113E2,3.9436707E3,3.5551948E3,1.1840907E4,3.0631604E2,6.643199E3,3.314664E3,2.0518062E3,7.975123E2,6.1145044E3,8.785483E1,1.6064272E1,3.971488E2,7.7768787E2,9.811192E2],"tree_param":{"num_deleted":"0","num_feature":"46","num_nodes":"31","size_leaf_vector":"1"}},{"base_weights":[1.3102764E-3,-8.7119564E-2,1.9432355E-1,-1.8331794E-1,-2.8818341E-2,1.5635072E-1,6.457668E-1,-2.6812628E-1,-1.3768469E-1,-5.7853125E-2,2.738656E-2,1.1209368E-1,2.4680762E-1,5.188707E-1,7E-1,-1.081605E-2,-7.1837404E-3,-3.202672E-3,-5.012993E-3,-1.8684748E-3,1.0486348E-2,1.8260522E-3,-8.810984E-4,5.398788E-3,2.8012085E-3,1.1333012E-2,6.833768E-3,1.9435676E-2,9.790203E-3,2.1E-2,9.696594E-3],"categories":[],"categories_nodes":[],"categories_segments":[],"categories_sizes":[],"default_left":[0,0,0,0,0,0,0,0,0,0,0,0,0,0,0,0,0,0,0,0,0,0,0,0,0,0,0,0,0,0,0],"id":37,"left_children":[1,3,5,7,9,11,13,15,17,19,21,23,25,27,29,-1,-1,-1,-1,-1,-1,-1,-1,-1,-1,-1,-1,-1,-1,-1,-1],"loss_changes":[7.175255E2,1.616833E2,2.2622897E2,4.202823E1,2.9301218E1,4.8731476E1,1.8235626E1,9.904114E0,6.4029694E0,2.1406578E1,1.162727E1,1.0367058E1,9.793625E0,1.6402466E1,5.079651E0,0E0,0E0,0E0,0E0,0E0,0E0,0E0,0E0,0E0,0E0,0E0,0E0,0E0,0E0,0E0,0E0],"parents":[2147483647,0,0,1,1,2,2,3,3,4,4,5,5,6,6,7,7,8,8,9,9,10,10,11,11,12,12,13,13,14,14],"right_children":[2,4,6,8,10,12,14,16,18,20,22,24,26,28,30,-1,-1,-1,-1,-1,-1,-1,-1,-1,-1,-1,-1,-1,-1,-1,-1],"split_conditions":[2.0505266E-1,-3.187484E-1,1.258064E0,-6.90703E-1,1.8249205E-3,6.0824865E-1,1.5963674E0,-1.1099412E0,-2.9148126E-1,3.9E0,1.4002928E-1,1.04659565E-1,3.7434402E1,3.5E0,5.6E1,-1.081605E-2,-7.1837404E-3,-3.202672E-3,-5.012993E-3,-1.8684748E-3,1.0486348E-2,1.8260522E-3,-8.810984E-4,5.398788E-3,2.8012085E-3,1.1333012E-2,6.833768E-3,1.9435676E-2,9.790203E-3,2.1E-2,9.696594E-3],"split_indices":[34,34,34,34,34,34,34,34,40,18,40,40,0,18,23,0,0,0,0,0,0,0,0,0,0,0,0,0,0,0,0],"split_type":[0,0,0,0,0,0,0,0,0,0,0,0,0,0,0,0,0,0,0,0,0,0,0,0,0,0,0,0,0,0,0],"sum_hessian":[4.2034914E4,2.8828234E4,1.3206679E4,1.0876864E4,1.795137E4,1.2184482E4,1.0221966E3,3.8017153E3,7.075149E3,1.1836642E4,6.1147275E3,8.18457E3,3.999912E3,6.7552136E2,3.4667523E2,8.946769E2,2.9070386E3,3.4533386E3,3.6218103E3,1.171101E4,1.2563185E2,3.8458408E3,2.2688867E3,1.7657957E3,6.4187744E3,5.0236548E2,3.4975466E3,4.016845E2,2.7383688E2,3.0599048E2,4.0684742E1],"tree_param":{"num_deleted":"0","num_feature":"46","num_nodes":"31","size_leaf_vector":"1"}},{"base_weights":[2.2624012E-3,-8.9448616E-2,1.885847E-1,-1.8592252E-1,-3.6705222E-2,1.5458958E-1,6.065635E-1,-2.9232034E-1,-1.511767E-1,-6.303423E-2,2.164531E-2,1.0125702E-1,2.1868394E-1,4.8528942E-1,7E-1,-1.1417815E-2,-7.8344885E-3,-5.3016082E-3,-3.9008707E-3,-1.9363951E-3,1.8460494E-2,2.2676315E-3,-5.495312E-4,4.009155E-3,1.5768185E-3,5.551666E-3,8.546768E-3,2.1E-2,1.278612E-2,2.1E-2,6.3627707E-3],"categories":[],"categories_nodes":[],"categories_segments":[],"categories_sizes":[],"default_left":[0,0,0,0,0,0,0,0,0,0,0,0,0,0,0,0,0,0,0,0,0,0,0,0,0,0,0,0,0,0,0],"id":38,"left_children":[1,3,5,7,9,11,13,15,17,19,21,23,25,27,29,-1,-1,-1,-1,-1,-1,-1,-1,-1,-1,-1,-1,-1,-1,-1,-1],"loss_changes":[7.1222003E2,1.4211263E2,1.9516684E2,3.6408752E1,2.7750383E1,4.3426483E1,2.0657166E1,6.482483E0,3.97641E0,1.2847832E1,1.2111726E1,1.0937195E1,1.2750336E1,1.2471802E1,6.0718536E0,0E0,0E0,0E0,0E0,0E0,0E0,0E0,0E0,0E0,0E0,0E0,0E0,0E0,0E0,0E0,0E0],"parents":[2147483647,0,0,1,1,2,2,3,3,4,4,5,5,6,6,7,7,8,8,9,9,10,10,11,11,12,12,13,13,14,14],"right_children":[2,4,6,8,10,12,14,16,18,20,22,24,26,28,30,-1,-1,-1,-1,-1,-1,-1,-1,-1,-1,-1,-1,-1,-1,-1,-1],"split_conditions":[1.8489191E-1,-3.5519242E-1,1.258064E0,-8.1273085E-1,1.8249205E-3,4.8311648E-1,1.5963674E0,-1.2047992E0,-5.458773E-1,6E0,5.838187E-2,2.744874E-1,8.401581E-1,5.0658192E-2,1.32E2,-1.1417815E-2,-7.8344885E-3,-5.3016082E-3,-3.9008707E-3,-1.9363951E-3,1.8460494E-2,2.2676315E-3,-5.495312E-4,4.009155E-3,1.5768185E-3,5.551666E-3,8.546768E-3,2.1E-2,1.278612E-2,2.1E-2,6.3627707E-3],"split_indices":[34,34,34,34,34,34,34,34,34,5,40,40,34,42,19,0,0,0,0,0,0,0,0,0,0,0,0,0,0,0,0],"split_type":[0,0,0,0,0,0,0,0,0,0,0,0,0,0,0,0,0,0,0,0,0,0,0,0,0,0,0,0,0,0,0],"sum_hessian":[4.1676035E4,2.7929635E4,1.3746402E4,9.870419E3,1.8059215E4,1.2715003E4,1.0313993E3,2.4261853E3,7.444234E3,1.2444038E4,5.6151772E3,6.9429634E3,5.77204E3,6.630473E2,3.6835196E2,6.272978E2,1.7988875E3,3.3650237E3,4.07921E3,1.2418165E4,2.5873182E1,2.3888733E3,3.226304E3,4.1679365E3,2.775027E3,3.832854E3,1.9391858E3,7.66214E1,5.8642596E2,3.4072894E2,2.7623018E1],"tree_param":{"num_deleted":"0","num_feature":"46","num_nodes":"31","size_leaf_vector":"1"}},{"base_weights":[4.6074332E-4,-8.499156E-2,1.8664584E-1,-1.880468E-1,-2.9688012E-2,1.5322278E-1,5.5628276E-1,-2.9593113E-1,-1.5273173E-1,-8.119272E-2,3.3501186E-3,1.0651563E-1,2.3392676E-1,4.4645926E-1,7E-1,-1.1584132E-2,-7.897373E-3,-4.277212E-3,-5.832985E-3,-6.5581594E-4,-3.1245565E-3,-6.986958E-5,3.7535767E-3,4.167044E-3,1.6508765E-3,7.279775E-3,-5.9763994E-4,1.740216E-2,9.765454E-3,2.1E-2,1.32866325E-2],"categories":[],"categories_nodes":[],"categories_segments":[],"categories_sizes":[],"default_left":[0,0,0,0,0,0,0,0,0,0,0,0,0,0,0,0,0,0,0,0,0,0,0,0,0,0,0,0,0,0,0],"id":39,"left_children":[1,3,5,7,9,11,13,15,17,19,21,23,25,27,29,-1,-1,-1,-1,-1,-1,-1,-1,-1,-1,-1,-1,-1,-1,-1,-1],"loss_changes":[6.6546655E2,1.633828E2,1.6238931E2,3.805359E1,3.1751627E1,4.544638E1,2.1078857E1,7.0701904E0,3.141388E0,9.928577E0,7.8630095E0,1.2738533E1,9.814011E0,1.08289795E1,9.9262085E0,0E0,0E0,0E0,0E0,0E0,0E0,0E0,0E0,0E0,0E0,0E0,0E0,0E0,0E0,0E0,0E0],"parents":[2147483647,0,0,1,1,2,2,3,3,4,4,5,5,6,6,7,7,8,8,9,9,10,10,11,11,12,12,13,13,14,14],"right_children":[2,4,6,8,10,12,14,16,18,20,22,24,26,28,30,-1,-1,-1,-1,-1,-1,-1,-1,-1,-1,-1,-1,-1,-1,-1,-1],"split_conditions":[2.0505266E-1,-3.5519242E-1,1.258064E0,-8.1273085E-1,-1.1212212E-1,5.744215E-1,1.5963674E0,-1.2047992E0,-1.3254872E-1,-6.63249E-2,2.7E0,3.0473933E-1,5.182659E-1,3.25E0,3.9470237E-1,-1.1584132E-2,-7.897373E-3,-4.277212E-3,-5.832985E-3,-6.5581594E-4,-3.1245565E-3,-6.986958E-5,3.7535767E-3,4.167044E-3,1.6508765E-3,7.279775E-3,-5.9763994E-4,1.740216E-2,9.765454E-3,2.1E-2,1.32866325E-2],"split_indices":[34,34,34,34,34,34,34,34,40,36,18,40,28,18,24,0,0,0,0,0,0,0,0,0,0,0,0,0,0,0,0],"split_type":[0,0,0,0,0,0,0,0,0,0,0,0,0,0,0,0,0,0,0,0,0,0,0,0,0,0,0,0,0,0,0],"sum_hessian":[4.1823086E4,2.866703E4,1.3156056E4,1.0009694E4,1.8657336E4,1.2067707E4,1.0883485E3,2.4648967E3,7.5447974E3,7.2898804E3,1.1367454E4,7.646791E3,4.4209155E3,6.914913E2,3.9685727E2,6.498313E2,1.8150654E3,6.074053E3,1.4707438E3,2.0349553E3,5.2549253E3,1.0862794E4,5.0466055E2,4.692029E3,2.9547625E3,4.273978E3,1.4693756E2,3.2493146E2,3.665598E2,2.3387845E2,1.6297884E2],"tree_param":{"num_deleted":"0","num_feature":"46","num_nodes":"31","size_leaf_vector":"1"}},{"base_weights":[3.179209E-3,-1.02218635E-1,1.5229209E-1,-1.96027E-1,-5.0428417E-2,1.2350527E-1,5.713732E-1,-2.9979315E-1,-1.6171432E-1,-8.548841E-2,-1.3606193E-2,8.0913596E-2,2.088921E-1,4.660556E-1,7E-1,-1.1148501E-2,-8.078528E-3,-5.581511E-3,-4.0389043E-3,1.6166136E-3,-2.8325985E-3,-4.930079E-4,1.7823739E-2,1.8956239E-3,3.9307163E-3,5.308258E-3,7.954217E-3,2.1E-2,1.2019115E-2,2.1E-2,8.298845E-3],"categories":[],"categories_nodes":[],"categories_segments":[],"categories_sizes":[],"default_left":[0,0,0,0,0,0,0,0,0,0,0,0,0,0,0,0,0,0,0,0,0,0,0,0,0,0,0,0,0,0,0],"id":40,"left_children":[1,3,5,7,9,11,13,15,17,19,21,23,25,27,29,-1,-1,-1,-1,-1,-1,-1,-1,-1,-1,-1,-1,-1,-1,-1,-1],"loss_changes":[6.576853E2,1.1909628E2,2.0892712E2,3.0951996E1,2.0394444E1,5.8949448E1,2.1022888E1,4.5432587E0,4.2722473E0,1.0084614E1,1.3264868E1,9.598206E0,9.604202E0,1.2034424E1,5.741089E0,0E0,0E0,0E0,0E0,0E0,0E0,0E0,0E0,0E0,0E0,0E0,0E0,0E0,0E0,0E0,0E0],"parents":[2147483647,0,0,1,1,2,2,3,3,4,4,5,5,6,6,7,7,8,8,9,9,10,10,11,11,12,12,13,13,14,14],"right_children":[2,4,6,8,10,12,14,16,18,20,22,24,26,28,30,-1,-1,-1,-1,-1,-1,-1,-1,-1,-1,-1,-1,-1,-1,-1,-1],"split_conditions":[7.3504195E-2,-3.9885765E-1,1.258064E0,-8.453697E-1,-1.21110596E-1,5.106939E-1,1.5963674E0,-1.2047992E0,-5.5536604E-1,-3.901456E-1,4.6E0,3.7227413E-1,8.401581E-1,4.8930043E-1,5.6E1,-1.1148501E-2,-8.078528E-3,-5.581511E-3,-4.0389043E-3,1.6166136E-3,-2.8325985E-3,-4.930079E-4,1.7823739E-2,1.8956239E-3,3.9307163E-3,5.308258E-3,7.954217E-3,2.1E-2,1.2019115E-2,2.1E-2,8.298845E-3],"split_indices":[34,34,34,34,34,34,34,34,34,40,15,34,34,40,23,0,0,0,0,0,0,0,0,0,0,0,0,0,0,0,0],"split_type":[0,0,0,0,0,0,0,0,0,0,0,0,0,0,0,0,0,0,0,0,0,0,0,0,0,0,0,0,0,0,0],"sum_hessian":[4.1843695E4,2.4515773E4,1.732792E4,8.718415E3,1.5797359E4,1.6216587E4,1.1113328E3,2.1626858E3,6.555729E3,8.090966E3,7.7063936E3,1.0822251E4,5.394336E3,7.365861E2,3.747466E2,6.381062E2,1.5245796E3,3.4468652E3,3.1088638E3,4.8665875E2,7.604307E3,7.6726436E3,3.3750267E1,7.997662E3,2.8245889E3,3.445512E3,1.9488241E3,1.4230902E2,5.942771E2,3.3924963E2,3.5496983E1],"tree_param":{"num_deleted":"0","num_feature":"46","num_nodes":"31","size_leaf_vector":"1"}},{"base_weights":[5.190071E-4,-9.810929E-2,1.4959434E-1,-1.9306761E-1,-4.8854284E-2,1.1857119E-1,5.0824857E-1,-2.9722095E-1,-1.5840235E-1,-8.1603125E-2,-1.7942976E-2,7.803541E-2,1.9880065E-1,7E-1,4.2316028E-1,-1.1296088E-2,-7.9078125E-3,-3.8274E-3,-5.3959745E-3,-4.6636167E-4,-2.8730745E-3,-6.131769E-4,1.5677541E-2,3.7606312E-3,1.6942065E-3,4.9595376E-3,7.335116E-3,1.2996476E-2,2.1E-2,2.1E-2,1.1888636E-2],"categories":[],"categories_nodes":[],"categories_segments":[],"categories_sizes":[],"default_left":[0,0,0,0,0,0,0,0,0,0,0,0,0,0,0,0,0,0,0,0,0,0,0,0,0,0,0,0,0,0,0],"id":41,"left_children":[1,3,5,7,9,11,13,15,17,19,21,23,25,27,29,-1,-1,-1,-1,-1,-1,-1,-1,-1,-1,-1,-1,-1,-1,-1,-1],"loss_changes":[6.142036E2,1.1756883E2,1.849494E2,3.0905487E1,1.6757675E1,4.9764633E1,2.2097717E1,5.513916E0,4.2186127E0,7.5196075E0,1.1517241E1,1.0367649E1,7.781906E0,9.583008E0,7.8551025E0,0E0,0E0,0E0,0E0,0E0,0E0,0E0,0E0,0E0,0E0,0E0,0E0,0E0,0E0,0E0,0E0],"parents":[2147483647,0,0,1,1,2,2,3,3,4,4,5,5,6,6,7,7,8,8,9,9,10,10,11,11,12,12,13,13,14,14],"right_children":[2,4,6,8,10,12,14,16,18,20,22,24,26,28,30,-1,-1,-1,-1,-1,-1,-1,-1,-1,-1,-1,-1,-1,-1,-1,-1],"split_conditions":[9.67507E-2,-3.9885765E-1,1.1671584E0,-8.453697E-1,-1.21110596E-1,5.106939E-1,9E0,-1.2047992E0,-3.8451308E-1,-2.9533935E-1,4.6E0,1.04659565E-1,7.7117956E-1,1.3868127E0,3.4860054E-1,-1.1296088E-2,-7.9078125E-3,-3.8274E-3,-5.3959745E-3,-4.6636167E-4,-2.8730745E-3,-6.131769E-4,1.5677541E-2,3.7606312E-3,1.6942065E-3,4.9595376E-3,7.335116E-3,1.2996476E-2,2.1E-2,2.1E-2,1.1888636E-2],"split_indices":[34,34,34,34,34,34,23,34,40,40,15,40,34,34,40,0,0,0,0,0,0,0,0,0,0,0,0,0,0,0,0],"split_type":[0,0,0,0,0,0,0,0,0,0,0,0,0,0,0,0,0,0,0,0,0,0,0,0,0,0,0,0,0,0,0],"sum_hessian":[4.1769902E4,2.5138768E4,1.6631135E4,8.583968E3,1.65548E4,1.530954E4,1.3215951E3,2.139773E3,6.444195E3,8.036883E3,8.517917E3,1.01733955E4,5.136144E3,3.8747412E2,9.3412103E2,6.3101776E2,1.5087551E3,2.65106E3,3.793135E3,1.4199052E3,6.6169775E3,8.480677E3,3.724092E1,3.1815774E3,6.9918184E3,2.9697231E3,2.1664207E3,1.4641148E2,2.4106262E2,6.254435E1,8.7157666E2],"tree_param":{"num_deleted":"0","num_feature":"46","num_nodes":"31","size_leaf_vector":"1"}},{"base_weights":[5.2506773E-4,-8.439895E-2,1.6920209E-1,-1.9080283E-1,-3.509447E-2,1.3816243E-1,5.342277E-1,-3.0389047E-1,-1.5989229E-1,-8.054169E-2,-3.804782E-3,8.6985394E-2,2.0961258E-1,7E-1,4.549861E-1,-8.544711E-3,-1.3009187E-2,-6.353559E-3,-4.2817076E-3,8.41893E-5,-2.7642006E-3,5.7526503E-4,-1.8079629E-3,3.162295E-3,1.0991122E-3,8.15121E-3,5.4943264E-3,2.1E-2,4.980863E-4,1.1219796E-2,1.9226518E-2],"categories":[],"categories_nodes":[],"categories_segments":[],"categories_sizes":[],"default_left":[0,0,0,0,0,0,0,0,0,0,0,0,0,0,0,0,0,0,0,0,0,0,0,0,0,0,0,0,0,0,0],"id":42,"left_children":[1,3,5,7,9,11,13,15,17,19,21,23,25,27,29,-1,-1,-1,-1,-1,-1,-1,-1,-1,-1,-1,-1,-1,-1,-1,-1],"loss_changes":[5.99257E2,1.4596057E2,1.5857779E2,3.0699585E1,2.7041567E1,4.7184128E1,2.0725983E1,4.4260864E0,6.1076813E0,7.496273E0,1.4617971E1,6.975338E0,8.755844E0,6.2942505E0,1.2526764E1,0E0,0E0,0E0,0E0,0E0,0E0,0E0,0E0,0E0,0E0,0E0,0E0,0E0,0E0,0E0,0E0],"parents":[2147483647,0,0,1,1,2,2,3,3,4,4,5,5,6,6,7,7,8,8,9,9,10,10,11,11,12,12,13,13,14,14],"right_children":[2,4,6,8,10,12,14,16,18,20,22,24,26,28,30,-1,-1,-1,-1,-1,-1,-1,-1,-1,-1,-1,-1,-1,-1,-1,-1],"split_conditions":[1.8489191E-1,-3.9353293E-1,1.258064E0,-8.7590206E-1,-1.21110596E-1,5.106939E-1,9.7758865E1,3.6E0,-6.90703E-1,-3.2983434E-1,1E0,1E0,3.345715E-1,3.4285715E0,1.5963674E0,-8.544711E-3,-1.3009187E-2,-6.353559E-3,-4.2817076E-3,8.41893E-5,-2.7642006E-3,5.7526503E-4,-1.8079629E-3,3.162295E-3,1.0991122E-3,8.15121E-3,5.4943264E-3,2.1E-2,4.980863E-4,1.1219796E-2,1.9226518E-2],"split_indices":[34,34,34,34,34,34,0,12,34,40,44,44,40,12,34,0,0,0,0,0,0,0,0,0,0,0,0,0,0,0,0],"split_type":[0,0,0,0,0,0,0,0,0,0,0,0,0,0,0,0,0,0,0,0,0,0,0,0,0,0,0,0,0,0,0],"sum_hessian":[4.1829742E4,2.7822775E4,1.4006966E4,8.808162E3,1.9014613E4,1.291178E4,1.0951855E3,1.8869618E3,6.9212E3,7.751978E3,1.1262636E4,7.525782E3,5.3859985E3,2.3335841E2,8.618271E2,1.6507697E3,2.3619203E2,1.7149703E3,5.20623E3,9.4714124E2,6.804837E3,8.0055747E3,3.257061E3,5.508E3,2.0177823E3,1.6041506E3,3.781848E3,2.1978291E2,1.3575515E1,6.044854E2,2.5734167E2],"tree_param":{"num_deleted":"0","num_feature":"46","num_nodes":"31","size_leaf_vector":"1"}},{"base_weights":[8.949231E-4,-1.0014898E-1,1.4116561E-1,-2.0695761E-1,-5.582936E-2,9.63664E-2,3.7345225E-1,-3.142701E-1,-1.6973323E-1,-9.360474E-2,-1.9746961E-2,5.0818484E-2,1.5550892E-1,3.153521E-1,6.910508E-1,-1.1155759E-2,-8.075246E-3,-4.24055E-3,-6.0796365E-3,-2.3180016E-3,-4.090589E-3,-8.042485E-4,7.7378135E-3,2.3359582E-3,-5.4769224E-4,4.8038745E-3,-2.7577623E-3,1.1313465E-2,6.047517E-3,2.1E-2,9.589882E-3],"categories":[],"categories_nodes":[],"categories_segments":[],"categories_sizes":[],"default_left":[0,0,0,0,0,0,0,0,0,0,0,0,0,0,0,0,0,0,0,0,0,0,0,0,0,0,0,0,0,0,0],"id":43,"left_children":[1,3,5,7,9,11,13,15,17,19,21,23,25,27,29,-1,-1,-1,-1,-1,-1,-1,-1,-1,-1,-1,-1,-1,-1,-1,-1],"loss_changes":[5.940281E2,1.1529991E2,1.825491E2,2.8429565E1,2.3468155E1,3.962242E1,5.19075E1,4.571579E0,4.9024506E0,5.8542633E0,1.72882E1,1.5538506E1,7.3470154E0,1.6723694E1,1.5642609E1,0E0,0E0,0E0,0E0,0E0,0E0,0E0,0E0,0E0,0E0,0E0,0E0,0E0,0E0,0E0,0E0],"parents":[2147483647,0,0,1,1,2,2,3,3,4,4,5,5,6,6,7,7,8,8,9,9,10,10,11,11,12,12,13,13,14,14],"right_children":[2,4,6,8,10,12,14,16,18,20,22,24,26,28,30,-1,-1,-1,-1,-1,-1,-1,-1,-1,-1,-1,-1,-1,-1,-1,-1],"split_conditions":[7.3504195E-2,-4.6792927E-1,8.781309E-1,-8.7590206E-1,-1.5321432E-1,3.8059616E-1,1.5963674E0,-9.555709E-1,1.4285715E0,1E0,3.25E0,1E0,2.0184006E3,1E0,6.464755E-1,-1.1155759E-2,-8.075246E-3,-4.24055E-3,-6.0796365E-3,-2.3180016E-3,-4.090589E-3,-8.042485E-4,7.7378135E-3,2.3359582E-3,-5.4769224E-4,4.8038745E-3,-2.7577623E-3,1.1313465E-2,6.047517E-3,2.1E-2,9.589882E-3],"split_indices":[34,34,34,34,34,34,34,32,14,44,18,44,1,44,26,0,0,0,0,0,0,0,0,0,0,0,0,0,0,0,0],"split_type":[0,0,0,0,0,0,0,0,0,0,0,0,0,0,0,0,0,0,0,0,0,0,0,0,0,0,0,0,0,0,0],"sum_hessian":[4.1907188E4,2.436003E4,1.754716E4,7.1416304E3,1.7218398E4,1.4712509E4,2.8346514E3,1.8354395E3,5.306191E3,8.4103E3,8.8081E3,8.313604E3,6.398905E3,2.3996545E3,4.349968E2,7.9969836E2,1.0357411E3,2.8552554E3,2.4509355E3,6.088818E3,2.3214814E3,8.591424E3,2.1667522E2,5.9741333E3,2.3394707E3,6.2823037E3,1.1660125E2,1.5523E3,8.473545E2,3.218441E2,1.1315271E2],"tree_param":{"num_deleted":"0","num_feature":"46","num_nodes":"31","size_leaf_vector":"1"}},{"base_weights":[7.907022E-4,