{"learner":{"attributes":{"best_iteration":"389","best_score":"1.2378870417073795","scikit_learn":"{\"_estimator_type\": \"regressor\"}"},"feature_names":["elo_diff","elo_home_pre","elo_away_pre","h2h_matches","h2h_home_win_rate","home_form_goals_for_5","home_form_goals_against_5","home_form_points_5","away_form_goals_for_5","away_form_goals_against_5","away_form_points_5","home_form_goals_for_10","home_form_goals_against_10","home_form_points_10","away_form_goals_for_10","away_form_goals_against_10","away_form_points_10","form_points_diff_5","form_goal_diff_5","home_rest_days","away_rest_days","rest_days_diff","home_matches_played","away_matches_played","home_mcmc_attack_mean","home_mcmc_attack_sd","home_mcmc_defense_mean","home_mcmc_defense_sd","away_mcmc_attack_mean","away_mcmc_attack_sd","away_mcmc_defense_mean","away_mcmc_defense_sd","mcmc_attack_diff","mcmc_defense_diff","mcmc_net_strength_home","mcmc_net_strength_away","online_att_home","online_def_home","online_att_away","online_def_away","online_net_home","online_net_away","online_att_diff","online_def_diff","neutral","tournament_tier_enc"],"feature_types":["float","float","float","float","float","float","float","float","float","float","float","float","float","float","float","float","float","float","float","float","float","float","int","int","float","float","float","float","float","float","float","float","float","float","float","float","float","float","float","float","float","float","float","float","int","int"],"gradient_booster":{"model":{"cats":{"enc":[],"feature_segments":[],"sorted_idx":[]},"gbtree_model_param":{"num_parallel_tree":"1","num_trees":"440"},"iteration_indptr":[0,1,2,3,4,5,6,7,8,9,10,11,12,13,14,15,16,17,18,19,20,21,22,23,24,25,26,27,28,29,30,31,32,33,34,35,36,37,38,39,40,41,42,43,44,45,46,47,48,49,50,51,52,53,54,55,56,57,58,59,60,61,62,63,64,65,66,67,68,69,70,71,72,73,74,75,76,77,78,79,80,81,82,83,84,85,86,87,88,89,90,91,92,93,94,95,96,97,98,99,100,101,102,103,104,105,106,107,108,109,110,111,112,113,114,115,116,117,118,119,120,121,122,123,124,125,126,127,128,129,130,131,132,133,134,135,136,137,138,139,140,141,142,143,144,145,146,147,148,149,150,151,152,153,154,155,156,157,158,159,160,161,162,163,164,165,166,167,168,169,170,171,172,173,174,175,176,177,178,179,180,181,182,183,184,185,186,187,188,189,190,191,192,193,194,195,196,197,198,199,200,201,202,203,204,205,206,207,208,209,210,211,212,213,214,215,216,217,218,219,220,221,222,223,224,225,226,227,228,229,230,231,232,233,234,235,236,237,238,239,240,241,242,243,244,245,246,247,248,249,250,251,252,253,254,255,256,257,258,259,260,261,262,263,264,265,266,267,268,269,270,271,272,273,274,275,276,277,278,279,280,281,282,283,284,285,286,287,288,289,290,291,292,293,294,295,296,297,298,299,300,301,302,303,304,305,306,307,308,309,310,311,312,313,314,315,316,317,318,319,320,321,322,323,324,325,326,327,328,329,330,331,332,333,334,335,336,337,338,339,340,341,342,343,344,345,346,347,348,349,350,351,352,353,354,355,356,357,358,359,360,361,362,363,364,365,366,367,368,369,370,371,372,373,374,375,376,377,378,379,380,381,382,383,384,385,386,387,388,389,390,391,392,393,394,395,396,397,398,399,400,401,402,403,404,405,406,407,408,409,410,411,412,413,414,415,416,417,418,419,420,421,422,423,424,425,426,427,428,429,430,431,432,433,434,435,436,437,438,439,440],"tree_info":[0,0,0,0,0,0,0,0,0,0,0,0,0,0,0,0,0,0,0,0,0,0,0,0,0,0,0,0,0,0,0,0,0,0,0,0,0,0,0,0,0,0,0,0,0,0,0,0,0,0,0,0,0,0,0,0,0,0,0,0,0,0,0,0,0,0,0,0,0,0,0,0,0,0,0,0,0,0,0,0,0,0,0,0,0,0,0,0,0,0,0,0,0,0,0,0,0,0,0,0,0,0,0,0,0,0,0,0,0,0,0,0,0,0,0,0,0,0,0,0,0,0,0,0,0,0,0,0,0,0,0,0,0,0,0,0,0,0,0,0,0,0,0,0,0,0,0,0,0,0,0,0,0,0,0,0,0,0,0,0,0,0,0,0,0,0,0,0,0,0,0,0,0,0,0,0,0,0,0,0,0,0,0,0,0,0,0,0,0,0,0,0,0,0,0,0,0,0,0,0,0,0,0,0,0,0,0,0,0,0,0,0,0,0,0,0,0,0,0,0,0,0,0,0,0,0,0,0,0,0,0,0,0,0,0,0,0,0,0,0,0,0,0,0,0,0,0,0,0,0,0,0,0,0,0,0,0,0,0,0,0,0,0,0,0,0,0,0,0,0,0,0,0,0,0,0,0,0,0,0,0,0,0,0,0,0,0,0,0,0,0,0,0,0,0,0,0,0,0,0,0,0,0,0,0,0,0,0,0,0,0,0,0,0,0,0,0,0,0,0,0,0,0,0,0,0,0,0,0,0,0,0,0,0,0,0,0,0,0,0,0,0,0,0,0,0,0,0,0,0,0,0,0,0,0,0,0,0,0,0,0,0,0,0,0,0,0,0,0,0,0,0,0,0,0,0,0,0,0,0,0,0,0,0,0,0,0,0,0,0,0,0,0,0,0,0,0,0,0,0,0,0,0,0,0,0,0,0,0,0,0,0,0,0,0,0,0,0,0,0,0,0,0,0,0,0,0,0,0,0,0,0,0,0,0,0,0,0,0,0],"trees":[{"base_weights":[3.2545049E-3,-9.6631266E-2,6.9171005E-1,-2.3872408E-1,3.178827E-2,3.9877307E-1,7E-1,-3.1277928E-1,-1.6759203E-1,-1.4228114E-2,1.596086E-1,3.7055176E-1,7E-1,7E-1,-1.0718008E-1,-1.1900242E-2,-8.359307E-3,-5.842811E-3,-4.1691037E-3,-2.338009E-3,3.7686538E-4,7.327481E-3,3.4605921E-3,1.309841E-2,8.022465E-3,2.1E-2,-3.934389E-3,2.1E-2,-6.679869E-3,1.5565719E-3,-1.0287828E-2],"categories":[],"categories_nodes":[],"categories_segments":[],"categories_sizes":[],"default_left":[0,0,0,0,0,0,0,0,0,0,0,0,0,0,0,0,0,0,0,0,0,0,0,0,0,0,0,0,0,0,0],"id":0,"left_children":[1,3,5,7,9,11,13,15,17,19,21,23,25,27,29,-1,-1,-1,-1,-1,-1,-1,-1,-1,-1,-1,-1,-1,-1,-1,-1],"loss_changes":[1.9863448E3,4.6031512E2,2.042898E2,6.2977905E1,7.7950386E1,2.0924438E1,9.047607E0,1.657489E1,4.699066E0,1.6635141E1,1.3084358E1,1.4043182E1,6.5684586E0,8.322266E0,6.1272293E-1,0E0,0E0,0E0,0E0,0E0,0E0,0E0,0E0,0E0,0E0,0E0,0E0,0E0,0E0,0E0,0E0],"parents":[2147483647,0,0,1,1,2,2,3,3,4,4,5,5,6,6,7,7,8,8,9,9,10,10,11,11,12,12,13,13,14,14],"right_children":[2,4,6,8,10,12,14,16,18,20,22,24,26,28,30,-1,-1,-1,-1,-1,-1,-1,-1,-1,-1,-1,-1,-1,-1,-1,-1],"split_conditions":[3.491326E-1,-2.8773716E-1,6.66532E-1,-5.9493387E-1,1.06553055E-1,1.6424297E3,2.25E0,-9.5846444E-1,-4.2067137E-1,-1.6972448E-1,1.0024653E-1,2.4052565E-1,7E0,-1.0682248E-2,1.5395215E3,-1.1900242E-2,-8.359307E-3,-5.842811E-3,-4.1691037E-3,-2.338009E-3,3.7686538E-4,7.327481E-3,3.4605921E-3,1.309841E-2,8.022465E-3,2.1E-2,-3.934389E-3,2.1E-2,-6.679869E-3,1.5565719E-3,-1.0287828E-2],"split_indices":[35,35,35,35,35,1,7,35,35,35,41,38,21,33,1,0,0,0,0,0,0,0,0,0,0,0,0,0,0,0,0],"split_type":[0,0,0,0,0,0,0,0,0,0,0,0,0,0,0,0,0,0,0,0,0,0,0,0,0,0,0,0,0,0,0],"sum_hessian":[2.8881238E4,2.5223379E4,3.6578586E3,1.1973405E4,1.3249974E4,2.263007E3,1.3948516E3,5.86284E3,6.1105654E3,9.743875E3,3.5060986E3,2.093393E3,1.6961394E2,1.3814609E3,1.3390574E1,1.6894441E3,4.1733955E3,3.128931E3,2.9816345E3,2.883437E3,6.8604375E3,1.2006882E3,2.3054106E3,1.2721046E3,8.212886E2,1.6068689E2,8.92705E0,1.3725339E3,8.92705E0,8.92705E0,4.463525E0],"tree_param":{"num_deleted":"0","num_feature":"46","num_nodes":"31","size_leaf_vector":"1"}},{"base_weights":[1.1789952E-3,-8.480712E-2,7E-1,-2.3066601E-1,4.8934653E-2,4.2586175E-1,7E-1,-3.123338E-1,-1.6350341E-1,-1.199612E-2,1.8183795E-1,4.0371844E-1,7E-1,7E-1,3.2978272E-1,-1.1949944E-2,-8.346634E-3,-5.914012E-3,-3.9071687E-3,-1.2499848E-3,1.79389E-3,3.1577377E-3,6.4846766E-3,1.0666211E-2,1.6645266E-2,-7.842119E-3,2.1E-2,2.1E-2,-1.4225342E-3,1.5490377E-2,1.1347188E-3],"categories":[],"categories_nodes":[],"categories_segments":[],"categories_sizes":[],"default_left":[0,0,0,0,0,0,0,0,0,0,0,0,0,0,0,0,0,0,0,0,0,0,0,0,0,0,0,0,0,0,0],"id":1,"left_children":[1,3,5,7,9,11,13,15,17,19,21,23,25,27,29,-1,-1,-1,-1,-1,-1,-1,-1,-1,-1,-1,-1,-1,-1,-1,-1],"loss_changes":[1.8951046E3,5.068727E2,1.125072E2,6.806879E1,1.0977839E2,1.1506653E1,6.150757E0,1.6225464E1,7.5827484E0,1.9807362E1,1.115361E1,1.0053955E1,2.9233131E0,5.2301025E0,2.7947679E0,0E0,0E0,0E0,0E0,0E0,0E0,0E0,0E0,0E0,0E0,0E0,0E0,0E0,0E0,0E0,0E0],"parents":[2147483647,0,0,1,1,2,2,3,3,4,4,5,5,6,6,7,7,8,8,9,9,10,10,11,11,12,12,13,13,14,14],"right_children":[2,4,6,8,10,12,14,16,18,20,22,24,26,28,30,-1,-1,-1,-1,-1,-1,-1,-1,-1,-1,-1,-1,-1,-1,-1,-1],"split_conditions":[4.3137383E-1,-2.6850006E-1,6.66532E-1,-6.0820746E-1,1.06553055E-1,1.6594357E3,4.7069514E-1,-9.7951156E-1,-4.2067137E-1,1E0,1.4301613E3,-1.0655665E-1,2.5E-1,2.46E2,-9.206879E-1,-1.1949944E-2,-8.346634E-3,-5.914012E-3,-3.9071687E-3,-1.2499848E-3,1.79389E-3,3.1577377E-3,6.4846766E-3,1.0666211E-2,1.6645266E-2,-7.842119E-3,2.1E-2,2.1E-2,-1.4225342E-3,1.5490377E-2,1.1347188E-3],"split_indices":[35,35,35,35,35,1,26,35,35,44,1,42,6,23,32,0,0,0,0,0,0,0,0,0,0,0,0,0,0,0,0],"split_type":[0,0,0,0,0,0,0,0,0,0,0,0,0,0,0,0,0,0,0,0,0,0,0,0,0,0,0,0,0,0,0],"sum_hessian":[2.8885152E4,2.5980418E4,2.904734E3,1.2426557E4,1.3553862E4,1.5081063E3,1.3966274E3,5.60443E3,6.8221265E3,9.2945205E3,4.2593413E3,1.4330636E3,7.5042755E1,1.3466008E3,5.0026665E1,1.5856548E3,4.0187751E3,3.3875068E3,3.4346196E3,6.5771763E3,2.7173442E3,1.3205922E3,2.9387493E3,1.0917273E3,3.4133624E2,2.2229993E0,7.2819756E1,1.3374843E3,9.116501E0,2.9584742E1,2.0441921E1],"tree_param":{"num_deleted":"0","num_feature":"46","num_nodes":"31","size_leaf_vector":"1"}},{"base_weights":[-8.095409E-4,7E-1,-7.249707E-2,7E-1,4.4284502E-1,4.967131E-2,-2.0647189E-1,7E-1,3.6242342E-1,3.5528007E-1,7E-1,1.8211526E-1,-1.0591246E-2,-1.6306388E-1,-3.134072E-1,2.7925774E-4,2.1E-2,2.664154E-3,1.8435594E-2,1.2567758E-2,5.0679967E-3,1.0091884E-2,2.1E-2,5.113544E-3,1.6633648E-2,-1.4304459E-3,2.4619477E-3,-5.7920436E-3,-2.6242752E-3,-8.532183E-3,-1.1350503E-2],"categories":[],"categories_nodes":[],"categories_segments":[],"categories_sizes":[],"default_left":[0,0,0,0,0,0,0,0,0,0,0,0,0,0,0,0,0,0,0,0,0,0,0,0,0,0,0,0,0,0,0],"id":2,"left_children":[1,3,5,7,9,11,13,15,17,19,21,23,25,27,29,-1,-1,-1,-1,-1,-1,-1,-1,-1,-1,-1,-1,-1,-1,-1,-1],"loss_changes":[1.5809329E3,7.574719E1,4.2915283E2,6.5809326E0,2.8029846E1,1.0947012E2,5.7946106E1,6.557373E0,4.467394E0,1.0411606E1,1.282724E1,1.8437943E1,3.2408794E1,2.0148712E1,6.581024E0,0E0,0E0,0E0,0E0,0E0,0E0,0E0,0E0,0E0,0E0,0E0,0E0,0E0,0E0,0E0,0E0],"parents":[2147483647,0,0,1,1,2,2,3,3,4,4,5,5,6,6,7,7,8,8,9,9,10,10,11,11,12,12,13,13,14,14],"right_children":[2,4,6,8,10,12,14,16,18,20,22,24,26,28,30,-1,-1,-1,-1,-1,-1,-1,-1,-1,-1,-1,-1,-1,-1,-1,-1],"split_conditions":[-6.4377683E-1,-8.5229784E-1,9.8647125E-2,2.7832624E-1,1E0,-2.851321E-1,5.836161E-1,7.1428573E-1,1.25E0,4.5E1,-3.2442734E-1,1.8515219E-1,1E0,1E0,9.5350057E-1,2.7925774E-4,2.1E-2,2.664154E-3,1.8435594E-2,1.2567758E-2,5.0679967E-3,1.0091884E-2,2.1E-2,5.113544E-3,1.6633648E-2,-1.4304459E-3,2.4619477E-3,-5.7920436E-3,-2.6242752E-3,-8.532183E-3,-1.1350503E-2],"split_indices":[33,33,33,24,44,33,33,12,5,20,40,31,44,44,33,0,0,0,0,0,0,0,0,0,0,0,0,0,0,0,0],"split_type":[0,0,0,0,0,0,0,0,0,0,0,0,0,0,0,0,0,0,0,0,0,0,0,0,0,0,0,0,0,0,0],"sum_hessian":[2.8633916E4,2.4173318E3,2.6216584E4,1.2590614E3,1.1582704E3,1.3713152E4,1.2503432E4,1.1947139E3,6.43476E1,8.8780396E2,2.7046646E2,4.2870684E3,9.426084E3,8.896958E3,3.606473E3,1.3800093E1,1.1809138E3,3.2153564E1,3.219404E1,6.599183E2,2.2788567E2,1.02435905E2,1.6803055E2,4.159679E3,1.2738911E2,6.732167E3,2.6939172E3,6.3666455E3,2.530313E3,2.5005696E3,1.1059033E3],"tree_param":{"num_deleted":"0","num_feature":"46","num_nodes":"31","size_leaf_vector":"1"}},{"base_weights":[1.0874621E-3,-7.750327E-2,7E-1,-2.3049508E-1,6.261785E-2,4.7092566E-1,7E-1,-3.0601257E-1,-1.7255631E-1,9.2403864E-4,2.0358895E-1,7E-1,4.3164057E-1,7E-1,-1.6095668E-1,-1.1817323E-2,-8.125149E-3,-6.0296943E-3,-4.390965E-3,-7.9512293E-4,2.12212E-3,5.219498E-3,8.530474E-3,-3.567581E-3,2.1E-2,1.2394396E-2,2.1E-2,2.1E-2,5.495115E-3,-1.3219235E-3,-7.974371E-3],"categories":[],"categories_nodes":[],"categories_segments":[],"categories_sizes":[],"default_left":[0,0,0,0,0,0,0,0,0,0,0,0,0,0,0,0,0,0,0,0,0,0,0,0,0,0,0,0,0,0,0],"id":3,"left_children":[1,3,5,7,9,11,13,15,17,19,21,23,25,27,29,-1,-1,-1,-1,-1,-1,-1,-1,-1,-1,-1,-1,-1,-1,-1,-1],"loss_changes":[1.6956458E3,5.580075E2,8.579907E1,5.433789E1,1.1816791E2,1.55841675E1,5.630493E0,1.64805E1,5.1880035E0,1.8104956E1,9.790314E0,9.662209E0,8.557312E0,3.3397217E0,8.588229E-2,0E0,0E0,0E0,0E0,0E0,0E0,0E0,0E0,0E0,0E0,0E0,0E0,0E0,0E0,0E0,0E0],"parents":[2147483647,0,0,1,1,2,2,3,3,4,4,5,5,6,6,7,7,8,8,9,9,10,10,11,11,12,12,13,13,14,14],"right_children":[2,4,6,8,10,12,14,16,18,20,22,24,26,28,30,-1,-1,-1,-1,-1,-1,-1,-1,-1,-1,-1,-1,-1,-1,-1,-1],"split_conditions":[4.577808E-1,-2.6344615E-1,7.7874446E-1,-6.152786E-1,1.2937425E-1,1.3933782E-1,2.25E0,-9.7951156E-1,-4.2705193E-1,1E0,1E0,4.7076663E-1,1.64061E3,8E0,1.4051602E3,-1.1817323E-2,-8.125149E-3,-6.0296943E-3,-4.390965E-3,-7.9512293E-4,2.12212E-3,5.219498E-3,8.530474E-3,-3.567581E-3,2.1E-2,1.2394396E-2,2.1E-2,2.1E-2,5.495115E-3,-1.3219235E-3,-7.974371E-3],"split_indices":[35,35,35,35,35,41,7,35,35,44,44,35,1,3,1,0,0,0,0,0,0,0,0,0,0,0,0,0,0,0,0],"split_type":[0,0,0,0,0,0,0,0,0,0,0,0,0,0,0,0,0,0,0,0,0,0,0,0,0,0,0,0,0,0,0],"sum_hessian":[2.8735744E4,2.60263E4,2.7094443E3,1.2441122E4,1.3585178E4,1.651721E3,1.0577235E3,5.397477E3,7.043645E3,9.451074E3,4.1341035E3,2.1873274E2,1.4329883E3,1.0508054E3,6.9181023E0,1.5367767E3,3.8607004E3,3.3708293E3,3.6728157E3,6.786174E3,2.6649006E3,3.0297454E3,1.1043582E3,1.3868973E1,2.0486377E2,1.3698253E3,6.3162876E1,1.0366332E3,1.41722355E1,4.6144314E0,2.3036706E0],"tree_param":{"num_deleted":"0","num_feature":"46","num_nodes":"31","size_leaf_vector":"1"}},{"base_weights":[1.9345201E-4,7E-1,-6.983313E-2,7E-1,4.205187E-1,3.7591867E-2,-2.1296647E-1,7E-1,5.3360915E-1,3.6155632E-1,7E-1,1.8989536E-1,-1.3981455E-2,-1.7029466E-1,-3.1920904E-1,2.1E-2,-4.875129E-3,2.1E-2,1.04440795E-2,1.26376115E-2,3.859131E-3,2.5028738E-3,2.1E-2,5.065361E-3,1.4120578E-2,-1.5046307E-3,2.1508154E-3,-2.4676048E-3,-6.0218396E-3,-8.374298E-3,-1.1498129E-2],"categories":[],"categories_nodes":[],"categories_segments":[],"categories_sizes":[],"default_left":[0,0,0,0,0,0,0,0,0,0,0,0,0,0,0,0,0,0,0,0,0,0,0,0,0,0,0,0,0,0,0],"id":4,"left_children":[1,3,5,7,9,11,13,15,17,19,21,23,25,27,29,-1,-1,-1,-1,-1,-1,-1,-1,-1,-1,-1,-1,-1,-1,-1,-1],"loss_changes":[1.4504586E3,9.304724E1,4.0388177E2,6.8132324E0,2.8193314E1,1.1787634E2,5.094632E1,5.6848145E0,1.17449875E1,1.4847092E1,4.25898E0,2.2278824E1,3.475483E1,2.1506088E1,8.062927E0,0E0,0E0,0E0,0E0,0E0,0E0,0E0,0E0,0E0,0E0,0E0,0E0,0E0,0E0,0E0,0E0],"parents":[2147483647,0,0,1,1,2,2,3,3,4,4,5,5,6,6,7,7,8,8,9,9,10,10,11,11,12,12,13,13,14,14],"right_children":[2,4,6,8,10,12,14,16,18,20,22,24,26,28,30,-1,-1,-1,-1,-1,-1,-1,-1,-1,-1,-1,-1,-1,-1,-1,-1],"split_conditions":[-6.4377683E-1,-8.5229784E-1,1.363709E-1,-1.249991E-1,-5.3293693E-1,-3.1453755E-1,5.8742225E-1,2.2E0,-8.3238196E-1,-3.9787576E-1,-3.400823E-1,4.857719E-2,1E0,1.2945843E-1,8.5092616E-1,2.1E-2,-4.875129E-3,2.1E-2,1.04440795E-2,1.26376115E-2,3.859131E-3,2.5028738E-3,2.1E-2,5.065361E-3,1.4120578E-2,-1.5046307E-3,2.1508154E-3,-2.4676048E-3,-6.0218396E-3,-8.374298E-3,-1.1498129E-2],"split_indices":[33,33,32,24,34,33,32,7,32,32,36,40,44,33,33,0,0,0,0,0,0,0,0,0,0,0,0,0,0,0,0],"split_type":[0,0,0,0,0,0,0,0,0,0,0,0,0,0,0,0,0,0,0,0,0,0,0,0,0,0,0,0,0,0,0],"sum_hessian":[2.881967E4,2.5558557E3,2.6263814E4,1.354074E3,1.2017819E3,1.5004244E4,1.1259569E4,1.0745803E3,2.7949362E2,1.073572E3,1.282098E2,3.794164E3,1.1210081E4,8.036824E3,3.222745E3,1.067621E3,6.9594154E0,1.15766556E2,1.6372705E2,8.532623E2,2.2030975E2,1.1780986E1,1.164288E2,3.5325427E3,2.6162115E2,7.882743E3,3.3273374E3,2.066374E3,5.97045E3,1.989304E3,1.233441E3],"tree_param":{"num_deleted":"0","num_feature":"46","num_nodes":"31","size_leaf_vector":"1"}},{"base_weights":[9.4214565E-4,-7.398967E-2,7E-1,-1.9937877E-1,8.332869E-2,4.5006472E-1,7E-1,-3.0908173E-1,-1.359623E-1,2.0619204E-2,1.9986422E-1,7E-1,4.1302702E-1,7E-1,6.3204065E-2,-1.169565E-2,-8.186095E-3,-5.6245183E-3,-3.1276874E-3,5.7198456E-4,2.1E-2,5.0323866E-3,8.410676E-3,2.1E-2,6.8946253E-3,1.3231841E-2,3.067168E-3,2.1E-2,7.979339E-3,-9.605131E-3,2.0538218E-2],"categories":[],"categories_nodes":[],"categories_segments":[],"categories_sizes":[],"default_left":[0,0,0,0,0,0,0,0,0,0,0,0,0,0,0,0,0,0,0,0,0,0,0,0,0,0,0,0,0,0,0],"id":5,"left_children":[1,3,5,7,9,11,13,15,17,19,21,23,25,27,29,-1,-1,-1,-1,-1,-1,-1,-1,-1,-1,-1,-1,-1,-1,-1,-1],"loss_changes":[1.577642E3,5.141934E2,9.57583E1,1.0082727E2,8.4485855E1,1.4365936E1,5.534668E0,1.5324158E1,1.4981659E1,1.2817345E1,1.0362656E1,2.669899E0,1.176799E1,3.4648438E0,4.265622E0,0E0,0E0,0E0,0E0,0E0,0E0,0E0,0E0,0E0,0E0,0E0,0E0,0E0,0E0,0E0,0E0],"parents":[2147483647,0,0,1,1,2,2,3,3,4,4,5,5,6,6,7,7,8,8,9,9,10,10,11,11,12,12,13,13,14,14],"right_children":[2,4,6,8,10,12,14,16,18,20,22,24,26,28,30,-1,-1,-1,-1,-1,-1,-1,-1,-1,-1,-1,-1,-1,-1,-1,-1],"split_conditions":[4.7076663E-1,-1.6972448E-1,7.7874446E-1,-6.152786E-1,1.4376147E-1,1.1111932E-1,2.2E0,-9.5846444E-1,-4.1600665E-1,5.8E0,3.491326E-1,3.9428216E-1,9.352721E-2,4.6443433E-1,-6.962233E-1,-1.169565E-2,-8.186095E-3,-5.6245183E-3,-3.1276874E-3,5.7198456E-4,2.1E-2,5.0323866E-3,8.410676E-3,2.1E-2,6.8946253E-3,1.3231841E-2,3.067168E-3,2.1E-2,7.979339E-3,-9.605131E-3,2.0538218E-2],"split_indices":[35,35,35,35,35,41,7,35,35,12,35,42,40,26,32,0,0,0,0,0,0,0,0,0,0,0,0,0,0,0,0],"split_type":[0,0,0,0,0,0,0,0,0,0,0,0,0,0,0,0,0,0,0,0,0,0,0,0,0,0,0,0,0,0,0],"sum_hessian":[2.872002E4,2.606309E4,2.6569302E3,1.4503042E4,1.1560048E4,1.5466116E3,1.1103185E3,5.309863E3,9.193179E3,7.517256E3,4.0427915E3,1.8759967E2,1.3590118E3,1.0962533E3,1.4065276E1,1.637583E3,3.67228E3,3.4984478E3,5.694731E3,7.5127524E3,4.5034533E0,2.894134E3,1.1486575E3,1.7308939E2,1.45102825E1,1.2457975E3,1.1321439E2,1.0746576E3,2.1595642E1,9.298242E0,4.767034E0],"tree_param":{"num_deleted":"0","num_feature":"46","num_nodes":"31","size_leaf_vector":"1"}},{"base_weights":[3.917569E-3,7E-1,-6.590426E-2,7E-1,4.3131164E-1,5.4471925E-2,-1.9261245E-1,1.772615E-1,7E-1,6.827863E-1,3.2738334E-1,1.5819693E-1,-1.727606E-2,-1.527888E-1,-3.17267E-1,1.8169334E-2,1.7819351E-3,2.1E-2,7.076167E-3,3.811772E-3,2.1E-2,9.148842E-3,2.1E-2,4.0517272E-3,1.17123E-2,-1.6920805E-3,2.1959133E-3,-2.1936565E-3,-5.5749696E-3,-8.107612E-3,-1.1580103E-2],"categories":[],"categories_nodes":[],"categories_segments":[],"categories_sizes":[],"default_left":[0,0,0,0,0,0,0,0,0,0,0,0,0,0,0,0,0,0,0,0,0,0,0,0,0,0,0,0,0,0,0],"id":6,"left_children":[1,3,5,7,9,11,13,15,17,19,21,23,25,27,29,-1,-1,-1,-1,-1,-1,-1,-1,-1,-1,-1,-1,-1,-1,-1,-1],"loss_changes":[1.4140623E3,1.0623242E2,3.9900818E2,1.0777222E1,3.8365784E1,9.984827E1,6.3169464E1,2.1004863E0,9.017334E0,1.0994553E1,8.537689E0,2.9371078E1,2.8087656E1,2.540953E1,9.756958E0,0E0,0E0,0E0,0E0,0E0,0E0,0E0,0E0,0E0,0E0,0E0,0E0,0E0,0E0,0E0,0E0],"parents":[2147483647,0,0,1,1,2,2,3,3,4,4,5,5,6,6,7,7,8,8,9,9,10,10,11,11,12,12,13,13,14,14],"right_children":[2,4,6,8,10,12,14,16,18,20,22,24,26,28,30,-1,-1,-1,-1,-1,-1,-1,-1,-1,-1,-1,-1,-1,-1,-1,-1],"split_conditions":[-6.4377683E-1,-2.9665065E-1,5.9163094E-2,-4.060346E-1,-9.206879E-1,-2.4011917E-1,5.9781265E-1,1.1803202E-1,9.8E1,1.5E1,-6.041257E-1,3.2078627E-2,1E0,1.12653434E-1,8.5092616E-1,1.8169334E-2,1.7819351E-3,2.1E-2,7.076167E-3,3.811772E-3,2.1E-2,9.148842E-3,2.1E-2,4.0517272E-3,1.17123E-2,-1.6920805E-3,2.1959133E-3,-2.1936565E-3,-5.5749696E-3,-8.107612E-3,-1.1580103E-2],"split_indices":[33,26,32,38,32,32,32,31,22,22,34,40,44,33,33,0,0,0,0,0,0,0,0,0,0,0,0,0,0,0,0],"split_type":[0,0,0,0,0,0,0,0,0,0,0,0,0,0,0,0,0,0,0,0,0,0,0,0,0,0,0,0,0,0,0],"sum_hessian":[2.8747072E4,2.5905186E3,2.6156553E4,1.1074471E3,1.4830714E3,1.3414017E4,1.2742536E4,4.1026352E1,1.0664209E3,4.304279E2,1.0526434E3,5.4837827E3,7.9302344E3,9.660673E3,3.0818635E3,7.066323E0,3.396003E1,1.0220111E3,4.440975E1,3.486904E1,3.9555887E2,9.9730945E2,5.533406E1,4.989734E3,4.9404904E2,5.5365947E3,2.3936392E3,2.8341204E3,6.8265527E3,1.8359812E3,1.2458822E3],"tree_param":{"num_deleted":"0","num_feature":"46","num_nodes":"31","size_leaf_vector":"1"}},{"base_weights":[1.1075176E-3,-8.920142E-2,5.825028E-1,-2.2629344E-1,3.541518E-2,3.6156073E-1,7E-1,-3.0606702E-1,-1.6266541E-1,-3.078145E-2,1.2013888E-1,3.4175405E-1,6.500389E-1,7E-1,1.946749E-1,-1.16602825E-2,-8.134085E-3,-5.805908E-3,-3.9722263E-3,-9.760571E-4,2.1E-2,2.4835481E-3,6.6158026E-3,7.964857E-3,1.2361732E-2,3.3624237E-3,2.1E-2,3.134043E-3,2.1E-2,1.2690024E-2,-8.391853E-3],"categories":[],"categories_nodes":[],"categories_segments":[],"categories_sizes":[],"default_left":[0,0,0,0,0,0,0,0,0,0,0,0,0,0,0,0,0,0,0,0,0,0,0,0,0,0,0,0,0,0,0],"id":7,"left_children":[1,3,5,7,9,11,13,15,17,19,21,23,25,27,29,-1,-1,-1,-1,-1,-1,-1,-1,-1,-1,-1,-1,-1,-1,-1,-1],"loss_changes":[1.5091349E3,4.250345E2,2.5746716E2,6.0030945E1,7.310652E1,1.5109436E1,5.2973633E0,1.4950348E1,6.1072693E0,1.4142126E1,2.1402672E1,1.3460327E1,5.9675446E0,4.916504E0,2.8994339E0,0E0,0E0,0E0,0E0,0E0,0E0,0E0,0E0,0E0,0E0,0E0,0E0,0E0,0E0,0E0,0E0],"parents":[2147483647,0,0,1,1,2,2,3,3,4,4,5,5,6,6,7,7,8,8,9,9,10,10,11,11,12,12,13,13,14,14],"right_children":[2,4,6,8,10,12,14,16,18,20,22,24,26,28,30,-1,-1,-1,-1,-1,-1,-1,-1,-1,-1,-1,-1,-1,-1,-1,-1],"split_conditions":[3.6033913E-1,-2.725852E-1,7.7874446E-1,-6.0820746E-1,2.468435E-3,1.6424297E3,7E0,-9.5846444E-1,-4.2067137E-1,6E0,1E0,5.0281066E-1,1.1E0,7.1428573E-1,6.9748175E-1,-1.16602825E-2,-8.134085E-3,-5.805908E-3,-3.9722263E-3,-9.760571E-4,2.1E-2,2.4835481E-3,6.6158026E-3,7.964857E-3,1.2361732E-2,3.3624237E-3,2.1E-2,3.134043E-3,2.1E-2,1.2690024E-2,-8.391853E-3],"split_indices":[35,35,35,35,35,1,3,35,35,6,44,35,13,12,38,0,0,0,0,0,0,0,0,0,0,0,0,0,0,0,0],"split_type":[0,0,0,0,0,0,0,0,0,0,0,0,0,0,0,0,0,0,0,0,0,0,0,0,0,0,0,0,0,0,0],"sum_hessian":[2.8738605E4,2.4876238E4,3.8623677E3,1.1844428E4,1.303181E4,2.7201394E3,1.1422281E3,5.2520527E3,6.592375E3,7.3165166E3,5.7152935E3,2.5494646E3,1.7067485E2,1.1196453E3,2.2582886E1,1.554801E3,3.6972517E3,3.258111E3,3.334264E3,7.3096963E3,6.820115E0,4.168033E3,1.5472603E3,1.2275199E3,1.3219447E3,1.934696E1,1.513279E2,1.4626095E1,1.1050192E3,1.5391705E1,7.1911807E0],"tree_param":{"num_deleted":"0","num_feature":"46","num_nodes":"31","size_leaf_vector":"1"}},{"base_weights":[4.923662E-3,-8.36341E-2,5.6650096E-1,-2.227888E-1,3.984046E-2,3.466069E-1,7E-1,-3.0327037E-1,-1.6025539E-1,-5.1415465E-3,1.6033106E-1,2.598296E-1,4.0194252E-1,5.3575426E-1,7E-1,-1.1635544E-2,-8.066534E-3,-5.782275E-3,-3.7430967E-3,-1.9104987E-4,2.1E-2,6.89994E-3,3.3515417E-3,7.334274E-3,2.1E-2,9.34324E-3,1.4009396E-2,1.8003669E-2,3.7451135E-3,2.1E-2,3.6764413E-3],"categories":[],"categories_nodes":[],"categories_segments":[],"categories_sizes":[],"default_left":[0,0,0,0,0,0,0,0,0,0,0,0,0,0,0,0,0,0,0,0,0,0,0,0,0,0,0,0,0,0,0],"id":8,"left_children":[1,3,5,7,9,11,13,15,17,19,21,23,25,27,29,-1,-1,-1,-1,-1,-1,-1,-1,-1,-1,-1,-1,-1,-1,-1,-1],"loss_changes":[1.4218196E3,4.243357E2,2.6701318E2,5.8337402E1,7.092987E1,1.2764008E1,9.733765E0,1.45503235E1,7.4892883E0,1.3175619E1,1.1996933E1,7.4712067E0,9.397522E0,1.0354744E1,2.2478027E0,0E0,0E0,0E0,0E0,0E0,0E0,0E0,0E0,0E0,0E0,0E0,0E0,0E0,0E0,0E0,0E0],"parents":[2147483647,0,0,1,1,2,2,3,3,4,4,5,5,6,6,7,7,8,8,9,9,10,10,11,11,12,12,13,13,14,14],"right_children":[2,4,6,8,10,12,14,16,18,20,22,24,26,28,30,-1,-1,-1,-1,-1,-1,-1,-1,-1,-1,-1,-1,-1,-1,-1,-1],"split_conditions":[3.6033913E-1,-2.725852E-1,7.7874446E-1,-6.152786E-1,1.1744613E-1,-1.3778125E-1,9.2170405E-1,-9.7951156E-1,-4.1600665E-1,7E0,1.347725E-1,4.7845807E-2,4.7076663E-1,8.480505E-1,8E0,-1.1635544E-2,-8.066534E-3,-5.782275E-3,-3.7430967E-3,-1.9104987E-4,2.1E-2,6.89994E-3,3.3515417E-3,7.334274E-3,2.1E-2,9.34324E-3,1.4009396E-2,1.8003669E-2,3.7451135E-3,2.1E-2,3.6764413E-3],"split_indices":[35,35,35,35,35,36,35,35,35,6,41,42,35,41,3,0,0,0,0,0,0,0,0,0,0,0,0,0,0,0,0],"split_type":[0,0,0,0,0,0,0,0,0,0,0,0,0,0,0,0,0,0,0,0,0,0,0,0,0,0,0,0,0,0,0],"sum_hessian":[2.858571E4,2.4693395E4,3.8923154E3,1.1608788E4,1.3084606E4,2.69963E3,1.1926855E3,5.072585E3,6.536203E3,9.529087E3,3.5555203E3,1.0556116E3,1.6440182E3,3.951495E2,7.975361E2,1.4602231E3,3.6123618E3,3.4076357E3,3.1285674E3,9.52438E3,4.7069516E0,1.4582499E3,2.0972703E3,1.0262461E3,2.93655E1,6.922756E2,9.517426E2,3.408381E2,5.4311405E1,7.8985614E2,7.679935E0],"tree_param":{"num_deleted":"0","num_feature":"46","num_nodes":"31","size_leaf_vector":"1"}},{"base_weights":[1.2670542E-3,-7.321031E-2,6.7064595E-1,-2.2322911E-1,5.2375264E-2,3.9370865E-1,7E-1,-3.1994146E-1,-1.7440331E-1,-8.629036E-3,1.6704883E-1,6.6442645E-1,3.599847E-1,7E-1,-1.7056164E-1,-1.1608203E-2,-8.411974E-3,-6.3158143E-3,-3.9079445E-3,-1.581556E-3,5.822357E-4,3.795306E-3,6.8355678E-3,2.1E-2,4.4060657E-3,9.905145E-3,1.7461438E-2,2.1E-2,4.11371E-3,-1.654834E-3,-8.126135E-3],"categories":[],"categories_nodes":[],"categories_segments":[],"categories_sizes":[],"default_left":[0,0,0,0,0,0,0,0,0,0,0,0,0,0,0,0,0,0,0,0,0,0,0,0,0,0,0,0,0,0,0],"id":9,"left_children":[1,3,5,7,9,11,13,15,17,19,21,23,25,27,29,-1,-1,-1,-1,-1,-1,-1,-1,-1,-1,-1,-1,-1,-1,-1,-1],"loss_changes":[1.4307587E3,4.865863E2,1.4880981E2,5.545996E1,9.835574E1,1.4339569E1,5.9779053E0,1.023645E1,1.2421326E1,1.1348614E1,1.197644E1,6.400017E0,9.199554E0,5.5161133E0,7.6392144E-2,0E0,0E0,0E0,0E0,0E0,0E0,0E0,0E0,0E0,0E0,0E0,0E0,0E0,0E0,0E0,0E0],"parents":[2147483647,0,0,1,1,2,2,3,3,4,4,5,5,6,6,7,7,8,8,9,9,10,10,11,11,12,12,13,13,14,14],"right_children":[2,4,6,8,10,12,14,16,18,20,22,24,26,28,30,-1,-1,-1,-1,-1,-1,-1,-1,-1,-1,-1,-1,-1,-1,-1,-1],"split_conditions":[4.7076663E-1,-2.6850006E-1,7.7874446E-1,-6.956527E-1,1.06553055E-1,9.580849E-2,2.25E0,-9.7951156E-1,-4.3127176E-1,-1.15005165E-1,2.900398E-1,2.9172987E-1,1.0729453E-1,2.3446445E-1,-2.1264003E2,-1.1608203E-2,-8.411974E-3,-6.3158143E-3,-3.9079445E-3,-1.581556E-3,5.822357E-4,3.795306E-3,6.8355678E-3,2.1E-2,4.4060657E-3,9.905145E-3,1.7461438E-2,2.1E-2,4.11371E-3,-1.654834E-3,-8.126135E-3],"split_indices":[35,35,35,35,35,41,7,35,35,35,35,42,37,29,0,0,0,0,0,0,0,0,0,0,0,0,0,0,0,0,0],"split_type":[0,0,0,0,0,0,0,0,0,0,0,0,0,0,0,0,0,0,0,0,0,0,0,0,0,0,0,0,0,0,0],"sum_hessian":[2.8695248E4,2.582379E4,2.8714607E3,1.1766503E4,1.4057285E4,1.6210518E3,1.2504089E3,3.9437544E3,7.822749E3,9.177087E3,4.8801978E3,1.7542557E2,1.4456262E3,1.2432281E3,7.1808376E0,1.4571902E3,2.4865642E3,4.2978013E3,3.5249475E3,3.566623E3,5.610464E3,2.9317288E3,1.9484691E3,1.5257039E2,2.2855183E1,1.2789004E3,1.6672572E2,1.2247247E3,1.8503372E1,4.7807126E0,2.4001253E0],"tree_param":{"num_deleted":"0","num_feature":"46","num_nodes":"31","size_leaf_vector":"1"}},{"base_weights":[6.542757E-4,-7.292712E-2,6.501588E-1,-1.9383037E-1,7.323522E-2,3.7987402E-1,7E-1,-2.978089E-1,-1.3592085E-1,1.0746327E-2,1.6189636E-1,7E-1,3.5882586E-1,1.09327786E-1,7E-1,-1.1566827E-2,-7.84351E-3,-5.7065156E-3,-3.1267945E-3,9.16291E-3,1.2074238E-4,3.7895262E-3,7.7720606E-3,2.1E-2,1.0591927E-2,8.34369E-3,1.4457725E-2,-4.981822E-3,1.28813265E-2,2.1E-2,-1.9814734E-5],"categories":[],"categories_nodes":[],"categories_segments":[],"categories_sizes":[],"default_left":[0,0,0,0,0,0,0,0,0,0,0,0,0,0,0,0,0,0,0,0,0,0,0,0,0,0,0,0,0,0,0],"id":10,"left_children":[1,3,5,7,9,11,13,15,17,19,21,23,25,27,29,-1,-1,-1,-1,-1,-1,-1,-1,-1,-1,-1,-1,-1,-1,-1,-1],"loss_changes":[1.3662521E3,4.5380963E2,1.6531042E2,8.4544495E1,6.441101E1,1.1652252E1,5.925659E0,1.583313E1,1.55009E1,1.35100765E1,1.6551956E1,3.835598E0,1.5619202E1,1.8871703E0,3.9628906E0,0E0,0E0,0E0,0E0,0E0,0E0,0E0,0E0,0E0,0E0,0E0,0E0,0E0,0E0,0E0,0E0],"parents":[2147483647,0,0,1,1,2,2,3,3,4,4,5,5,6,6,7,7,8,8,9,9,10,10,11,11,12,12,13,13,14,14],"right_children":[2,4,6,8,10,12,14,16,18,20,22,24,26,28,30,-1,-1,-1,-1,-1,-1,-1,-1,-1,-1,-1,-1,-1,-1,-1,-1],"split_conditions":[4.7076663E-1,-1.6972448E-1,7.7874446E-1,-6.152786E-1,1.06553055E-1,-2.1966006E-1,7.5E-1,-9.5846444E-1,-4.2067137E-1,-2.95E0,1E0,4.7E1,-2.4193892E-2,6.892564E-2,2.44E2,-1.1566827E-2,-7.84351E-3,-5.7065156E-3,-3.1267945E-3,9.16291E-3,1.2074238E-4,3.7895262E-3,7.7720606E-3,2.1E-2,1.0591927E-2,8.34369E-3,1.4457725E-2,-4.981822E-3,1.28813265E-2,2.1E-2,-1.9814734E-5],"split_indices":[35,35,35,35,35,38,6,35,35,18,44,22,36,24,23,0,0,0,0,0,0,0,0,0,0,0,0,0,0,0,0],"split_type":[0,0,0,0,0,0,0,0,0,0,0,0,0,0,0,0,0,0,0,0,0,0,0,0,0,0,0,0,0,0,0],"sum_hessian":[2.8583803E4,2.5676703E4,2.9070999E3,1.4052248E4,1.1624455E4,1.6911683E3,1.2159315E3,5.0237124E3,9.028535E3,6.819954E3,4.8045015E3,9.394535E1,1.5972229E3,1.7793549E1,1.1981381E3,1.466084E3,3.5576287E3,3.3240417E3,5.7044937E3,1.5010822E2,6.6698457E3,3.5202075E3,1.284294E3,5.5936893E1,3.800846E1,9.686791E2,6.285439E2,1.0081312E1,7.7122364E0,1.1900696E3,8.068402E0],"tree_param":{"num_deleted":"0","num_feature":"46","num_nodes":"31","size_leaf_vector":"1"}},{"base_weights":[3.5396141E-3,-8.384283E-2,5.343429E-1,-2.1423328E-1,3.1925727E-2,3.377584E-1,7E-1,-2.9256877E-1,-1.5436648E-1,-1.0013177E-2,1.3890244E-1,2.591787E-1,3.8746423E-1,7E-1,-2.3853457E-1,-1.1400526E-2,-7.759684E-3,-5.668321E-3,-3.6104645E-3,-1.0412432E-3,1.5191043E-3,1.0394344E-2,3.8148535E-3,6.93019E-3,1.827782E-2,1.9865286E-2,1.0551163E-2,2.1E-2,8.8678254E-4,-1.7172035E-3,-1.0507114E-2],"categories":[],"categories_nodes":[],"categories_segments":[],"categories_sizes":[],"default_left":[0,0,0,0,0,0,0,0,0,0,0,0,0,0,0,0,0,0,0,0,0,0,0,0,0,0,0,0,0,0,0],"id":11,"left_children":[1,3,5,7,9,11,13,15,17,19,21,23,25,27,29,-1,-1,-1,-1,-1,-1,-1,-1,-1,-1,-1,-1,-1,-1,-1,-1],"loss_changes":[1.3314092E3,3.720677E2,2.57104E2,5.4272095E1,5.858474E1,1.0795654E1,9.237305E0,1.46883545E1,7.688034E0,1.4055299E1,8.874168E0,1.0536781E1,1.643515E1,5.848755E0,1.9479984E-1,0E0,0E0,0E0,0E0,0E0,0E0,0E0,0E0,0E0,0E0,0E0,0E0,0E0,0E0,0E0,0E0],"parents":[2147483647,0,0,1,1,2,2,3,3,4,4,5,5,6,6,7,7,8,8,9,9,10,10,11,11,12,12,13,13,14,14],"right_children":[2,4,6,8,10,12,14,16,18,20,22,24,26,28,30,-1,-1,-1,-1,-1,-1,-1,-1,-1,-1,-1,-1,-1,-1,-1,-1],"split_conditions":[3.6033913E-1,-2.725852E-1,7.7874446E-1,-6.152786E-1,1.06553055E-1,4.7076663E-1,2.25E0,-9.7951156E-1,-4.2067137E-1,1E0,-1.05563164E-1,3.5327387E-1,1.0744255E-1,8E0,1.4051602E3,-1.1400526E-2,-7.759684E-3,-5.668321E-3,-3.6104645E-3,-1.0412432E-3,1.5191043E-3,1.0394344E-2,3.8148535E-3,6.93019E-3,1.827782E-2,1.9865286E-2,1.0551163E-2,2.1E-2,8.8678254E-4,-1.7172035E-3,-1.0507114E-2],"split_indices":[35,35,35,35,35,35,7,35,35,44,41,36,41,3,1,0,0,0,0,0,0,0,0,0,0,0,0,0,0,0,0],"split_type":[0,0,0,0,0,0,0,0,0,0,0,0,0,0,0,0,0,0,0,0,0,0,0,0,0,0,0,0,0,0,0],"sum_hessian":[2.8700814E4,2.4645312E4,4.055502E3,1.1589889E4,1.3055425E4,2.8133784E3,1.2421237E3,5.017168E3,6.57272E3,9.379945E3,3.6754795E3,1.0948942E3,1.7184841E3,1.2325244E3,9.599155E0,1.3962693E3,3.6208987E3,3.255018E3,3.3177021E3,6.6664243E3,2.713521E3,1.9370671E2,3.4817727E3,1.016419E3,7.84752E1,1.9389291E2,1.5245912E3,1.2193325E3,1.3191962E1,4.812799E0,4.786356E0],"tree_param":{"num_deleted":"0","num_feature":"46","num_nodes":"31","size_leaf_vector":"1"}},{"base_weights":[3.3846095E-3,6.0638624E-1,-5.9837945E-2,7E-1,3.9844063E-1,3.893592E-2,-2.043679E-1,7E-1,-2.3048829E-1,7E-1,3.4219477E-1,1.500746E-1,-1.5301869E-2,-1.6834834E-1,-3.2660645E-1,-6.536434E-3,2.1E-2,-8.623988E-3,-2.2854358E-3,1.1065041E-2,2.1E-2,9.649603E-3,2.1E-2,3.9732135E-3,1.1677382E-2,-1.5681116E-3,2.1952202E-3,-3.1249172E-3,-6.2136296E-3,-8.302774E-3,-1.1326539E-2],"categories":[],"categories_nodes":[],"categories_segments":[],"categories_sizes":[],"default_left":[0,0,0,0,0,0,0,0,0,0,0,0,0,0,0,0,0,0,0,0,0,0,0,0,0,0,0,0,0,0,0],"id":12,"left_children":[1,3,5,7,9,11,13,15,17,19,21,23,25,27,29,-1,-1,-1,-1,-1,-1,-1,-1,-1,-1,-1,-1,-1,-1,-1,-1],"loss_changes":[1.0977844E3,1.4454712E2,3.7208716E2,5.505249E0,3.6360657E1,9.334065E1,4.6478577E1,5.045288E0,2.2057295E-2,9.537338E0,1.2108536E1,2.1315468E1,3.404897E1,2.0306122E1,5.9013367E0,0E0,0E0,0E0,0E0,0E0,0E0,0E0,0E0,0E0,0E0,0E0,0E0,0E0,0E0,0E0,0E0],"parents":[2147483647,0,0,1,1,2,2,3,3,4,4,5,5,6,6,7,7,8,8,9,9,10,10,11,11,12,12,13,13,14,14],"right_children":[2,4,6,8,10,12,14,16,18,20,22,24,26,28,30,-1,-1,-1,-1,-1,-1,-1,-1,-1,-1,-1,-1,-1,-1,-1,-1],"split_conditions":[-6.562172E-1,-1.0618631E0,1.4203814E-1,2.44E2,9.919906E-2,-2.7703166E-1,6.582703E-1,-1.8431365E-1,1.1790314E3,1.5842433E-1,-5.3293693E-1,1.581444E-1,6.214294E-2,2.4190134E-1,7.9052395E-1,-6.536434E-3,2.1E-2,-8.623988E-3,-2.2854358E-3,1.1065041E-2,2.1E-2,9.649603E-3,2.1E-2,3.9732135E-3,1.1677382E-2,-1.5681116E-3,2.1952202E-3,-3.1249172E-3,-6.2136296E-3,-8.302774E-3,-1.1326539E-2],"split_indices":[33,33,32,23,30,32,32,41,1,25,34,31,41,33,33,0,0,0,0,0,0,0,0,0,0,0,0,0,0,0,0],"split_type":[0,0,0,0,0,0,0,0,0,0,0,0,0,0,0,0,0,0,0,0,0,0,0,0,0,0,0,0,0,0,0],"sum_hessian":[2.8791719E4,2.7306118E3,2.6061105E4,8.689863E2,1.8616255E3,1.5481967E4,1.057914E4,8.63496E2,5.4903913E0,2.4819235E2,1.6134332E3,5.076393E3,1.0405574E4,8.1749985E3,2.404141E3,5.1515636E0,8.5834436E2,2.7493083E0,2.741083E0,9.38993E1,1.5429305E2,1.5342181E3,7.921506E1,4.7307046E3,3.4568826E2,7.339624E3,3.0659502E3,3.0814026E3,5.0935957E3,1.2216631E3,1.1824779E3],"tree_param":{"num_deleted":"0","num_feature":"46","num_nodes":"31","size_leaf_vector":"1"}},{"base_weights":[9.3475194E-4,-7.0758246E-2,6.041452E-1,-2.1077396E-1,4.4067338E-2,3.9599892E-1,7E-1,-2.9230997E-1,-1.4864534E-1,-7.7435765E-3,1.6506344E-1,3.6616954E-1,6.107396E-1,7E-1,1.7307776E-1,-1.1494182E-2,-7.757653E-3,-5.0550946E-3,-2.974382E-3,-9.4197603E-4,1.5151775E-3,4.038102E-3,7.7086193E-3,8.33411E-3,1.3545106E-2,1.2004946E-2,2.1E-2,1.2127297E-2,2.1E-2,1.2656776E-2,-3.4082348E-3],"categories":[],"categories_nodes":[],"categories_segments":[],"categories_sizes":[],"default_left":[0,0,0,0,0,0,0,0,0,0,0,0,0,0,0,0,0,0,0,0,0,0,0,0,0,0,0,0,0,0,0],"id":13,"left_children":[1,3,5,7,9,11,13,15,17,19,21,23,25,27,29,-1,-1,-1,-1,-1,-1,-1,-1,-1,-1,-1,-1,-1,-1,-1,-1],"loss_changes":[1.2330886E3,4.0974286E2,1.8147571E2,5.80831E1,8.778894E1,1.4128052E1,2.7485962E0,1.5005676E1,6.3766174E0,1.3516294E1,1.168264E1,1.4852051E1,8.060265E0,2.5149536E0,1.0538011E0,0E0,0E0,0E0,0E0,0E0,0E0,0E0,0E0,0E0,0E0,0E0,0E0,0E0,0E0,0E0,0E0],"parents":[2147483647,0,0,1,1,2,2,3,3,4,4,5,5,6,6,7,7,8,8,9,9,10,10,11,11,12,12,13,13,14,14],"right_children":[2,4,6,8,10,12,14,16,18,20,22,24,26,28,30,-1,-1,-1,-1,-1,-1,-1,-1,-1,-1,-1,-1,-1,-1,-1,-1],"split_conditions":[4.7076663E-1,-2.6344615E-1,9.8928964E-1,-6.0820746E-1,1.4376147E-1,1.6666666E0,5E0,-9.7951156E-1,1E0,1E0,4.4892883E-1,6.445213E-1,-2.1520384E-2,1.18195646E-1,1.4588639E3,-1.1494182E-2,-7.757653E-3,-5.0550946E-3,-2.974382E-3,-9.4197603E-4,1.5151775E-3,4.038102E-3,7.7086193E-3,8.33411E-3,1.3545106E-2,1.2004946E-2,2.1E-2,1.2127297E-2,2.1E-2,1.2656776E-2,-3.4082348E-3],"split_indices":[35,35,35,35,35,13,9,35,44,44,24,35,24,31,2,0,0,0,0,0,0,0,0,0,0,0,0,0,0,0,0],"split_type":[0,0,0,0,0,0,0,0,0,0,0,0,0,0,0,0,0,0,0,0,0,0,0,0,0,0,0,0,0,0,0],"sum_hessian":[2.8509398E4,2.5482508E4,3.0268914E3,1.1481075E4,1.4001434E4,2.273408E3,7.534834E2,4.961855E3,6.51922E3,9.804841E3,4.1965923E3,2.0008785E3,2.7252933E2,7.42054E2,1.1429396E1,1.3377855E3,3.6240693E3,4.649253E3,1.8699672E3,6.973688E3,2.831153E3,3.1555234E3,1.0410686E3,9.8715814E2,1.0137204E3,1.2288782E2,1.4964153E2,3.7955627E1,7.040984E2,5.6138697E0,5.815526E0],"tree_param":{"num_deleted":"0","num_feature":"46","num_nodes":"31","size_leaf_vector":"1"}},{"base_weights":[1.6019839E-3,4.928513E-1,-6.969472E-2,7E-1,2.9676503E-1,1.7740315E-2,-2.0302407E-1,7E-1,4.6227166E-1,5.386851E-1,2.53348E-1,8.6070105E-2,-4.274448E-2,-1.5684116E-1,-3.040747E-1,2.1E-2,-3.2979413E-3,8.488899E-3,2.0688608E-2,1.2097858E-2,2.1E-2,1.3209258E-3,8.393784E-3,1.3556938E-3,6.001074E-3,-2.6538684E-3,2.7126935E-4,-5.6610773E-3,-2.314078E-3,-8.070588E-3,-1.18217785E-2],"categories":[],"categories_nodes":[],"categories_segments":[],"categories_sizes":[],"default_left":[0,0,0,0,0,0,0,0,0,0,0,0,0,0,0,0,0,0,0,0,0,0,0,0,0,0,0,0,0,0,0],"id":14,"left_children":[1,3,5,7,9,11,13,15,17,19,21,23,25,27,29,-1,-1,-1,-1,-1,-1,-1,-1,-1,-1,-1,-1,-1,-1,-1,-1],"loss_changes":[1.00520154E3,2.0815869E2,2.9217853E2,2.577832E1,2.3319504E1,6.2572468E1,4.6229065E1,1.088446E1,1.8911095E1,8.666008E0,1.0537727E1,3.310159E1,1.9016659E1,1.7282501E1,9.602875E0,0E0,0E0,0E0,0E0,0E0,0E0,0E0,0E0,0E0,0E0,0E0,0E0,0E0,0E0,0E0,0E0],"parents":[2147483647,0,0,1,1,2,2,3,3,4,4,5,5,6,6,7,7,8,8,9,9,10,10,11,11,12,12,13,13,14,14],"right_children":[2,4,6,8,10,12,14,16,18,20,22,24,26,28,30,-1,-1,-1,-1,-1,-1,-1,-1,-1,-1,-1,-1,-1,-1,-1,-1],"split_conditions":[-5.713047E-1,-2.9665065E-1,1.6532777E-1,-8.8003695E-1,-1.0511469E0,-1.305884E-1,5.779706E-1,1.9193554E-1,1E0,1.0671302E0,1.8801838E-1,1E0,-5.9624337E-2,1E0,9.5350057E-1,2.1E-2,-3.2979413E-3,8.488899E-3,2.0688608E-2,1.2097858E-2,2.1E-2,1.3209258E-3,8.393784E-3,1.3556938E-3,6.001074E-3,-2.6538684E-3,2.7126935E-4,-5.6610773E-3,-2.314078E-3,-8.070588E-3,-1.18217785E-2],"split_indices":[33,26,32,33,32,32,32,42,44,28,28,44,41,44,33,0,0,0,0,0,0,0,0,0,0,0,0,0,0,0,0],"split_type":[0,0,0,0,0,0,0,0,0,0,0,0,0,0,0,0,0,0,0,0,0,0,0,0,0,0,0,0,0,0,0],"sum_hessian":[2.869603E4,3.6354165E3,2.5060611E4,1.3912549E3,2.2441619E3,1.5136257E4,9.924355E3,9.1978156E2,4.714733E2,3.380012E2,1.9061606E3,7.1068213E3,8.029435E3,6.814874E3,3.1094812E3,9.036951E2,1.6086382E1,2.6609512E2,2.0537819E2,2.0802806E2,1.2997313E2,2.1440709E2,1.6917535E3,5.232632E3,1.8741895E3,4.263854E3,3.7655813E3,4.866715E3,1.9481594E3,2.2434753E3,8.6600586E2],"tree_param":{"num_deleted":"0","num_feature":"46","num_nodes":"31","size_leaf_vector":"1"}},{"base_weights":[1.81217E-3,-8.089838E-2,4.7343233E-1,-2.1175928E-1,2.4620118E-2,3.3250287E-1,7E-1,-3.058454E-1,-1.6301107E-1,-2.7354717E-2,9.272728E-2,2.8024885E-1,4.6070084E-1,7E-1,1.7693321E-1,-1.1197934E-2,-8.031215E-3,-5.7076034E-3,-3.653005E-3,-8.702255E-4,2.1E-2,1.845243E-3,5.265858E-3,7.7608777E-3,1.6733792E-2,1.1052734E-2,1.8092131E-2,2.1E-2,1.9247046E-3,-2.48265E-3,7.3002693E-3],"categories":[],"categories_nodes":[],"categories_segments":[],"categories_sizes":[],"default_left":[0,0,0,0,0,0,0,0,0,0,0,0,0,0,0,0,0,0,0,0,0,0,0,0,0,0,0,0,0,0,0],"id":15,"left_children":[1,3,5,7,9,11,13,15,17,19,21,23,25,27,29,-1,-1,-1,-1,-1,-1,-1,-1,-1,-1,-1,-1,-1,-1,-1,-1],"loss_changes":[1.119291E3,3.3710547E2,2.5571155E2,4.9883636E1,4.785239E1,2.3375092E1,3.4857178E0,9.3576355E0,8.02417E0,1.3696105E1,1.5102852E1,1.4734726E1,1.2936035E1,3.3410645E0,3.2175928E-1,0E0,0E0,0E0,0E0,0E0,0E0,0E0,0E0,0E0,0E0,0E0,0E0,0E0,0E0,0E0,0E0],"parents":[2147483647,0,0,1,1,2,2,3,3,4,4,5,5,6,6,7,7,8,8,9,9,10,10,11,11,12,12,13,13,14,14],"right_children":[2,4,6,8,10,12,14,16,18,20,22,24,26,28,30,-1,-1,-1,-1,-1,-1,-1,-1,-1,-1,-1,-1,-1,-1,-1,-1],"split_conditions":[3.6033913E-1,-2.8773716E-1,9.8928964E-1,-6.956527E-1,3.5535723E-3,6.66532E-1,7E0,-9.7951156E-1,-4.2067137E-1,6E0,1E0,1.6424297E3,-2.598993E-1,5E0,-5.745681E2,-1.1197934E-2,-8.031215E-3,-5.7076034E-3,-3.653005E-3,-8.702255E-4,2.1E-2,1.845243E-3,5.265858E-3,7.7608777E-3,1.6733792E-2,1.1052734E-2,1.8092131E-2,2.1E-2,1.9247046E-3,-2.48265E-3,7.3002693E-3],"split_indices":[35,35,35,35,35,35,3,35,35,6,44,1,42,9,0,0,0,0,0,0,0,0,0,0,0,0,0,0,0,0,0],"split_type":[0,0,0,0,0,0,0,0,0,0,0,0,0,0,0,0,0,0,0,0,0,0,0,0,0,0,0,0,0,0,0],"sum_hessian":[2.8689945E4,2.4410588E4,4.2793584E3,1.0895856E4,1.351473E4,3.5259639E3,7.533945E2,3.7150679E3,7.1807886E3,7.665857E3,5.848873E3,2.5094668E3,1.01649713E3,7.3907245E2,1.4322002E1,1.3359178E3,2.3791501E3,4.320088E3,2.860701E3,7.6587427E3,7.114474E0,4.2499644E3,1.5989089E3,2.3322207E3,1.7724605E2,6.2110645E2,3.953907E2,7.303845E2,8.687926E0,2.8163962E0,1.1505606E1],"tree_param":{"num_deleted":"0","num_feature":"46","num_nodes":"31","size_leaf_vector":"1"}},{"base_weights":[1.9799434E-3,4.8246875E-1,-6.903679E-2,7E-1,3.3152196E-1,7.2819497E-3,-2.1518552E-1,7E-1,3.2391086E-1,6.452475E-1,2.831577E-1,1.0146102E-1,-4.3315258E-2,-1.7820822E-1,-3.385282E-1,2.1E-2,-7.1675954E-3,1.9355811E-2,6.305133E-4,1.0689147E-2,2.1E-2,7.5922366E-3,1.2956526E-2,1.9253346E-3,6.3786353E-3,-2.025111E-3,1.0215153E-3,-5.4006227E-3,2.1E-2,-8.912224E-3,-1.2085356E-2],"categories":[],"categories_nodes":[],"categories_segments":[],"categories_sizes":[],"default_left":[0,0,0,0,0,0,0,0,0,0,0,0,0,0,0,0,0,0,0,0,0,0,0,0,0,0,0,0,0,0,0],"id":16,"left_children":[1,3,5,7,9,11,13,15,17,19,21,23,25,27,29,-1,-1,-1,-1,-1,-1,-1,-1,-1,-1,-1,-1,-1,-1,-1,-1],"loss_changes":[9.7816907E2,2.0161743E2,2.7857065E2,1.3844116E1,4.179486E1,7.820126E1,3.89563E1,5.8393555E0,1.0172057E1,1.6193283E1,1.0568802E1,2.3742249E1,1.9982729E1,1.2592056E1,5.023529E0,0E0,0E0,0E0,0E0,0E0,0E0,0E0,0E0,0E0,0E0,0E0,0E0,0E0,0E0,0E0,0E0],"parents":[2147483647,0,0,1,1,2,2,3,3,4,4,5,5,6,6,7,7,8,8,9,9,10,10,11,11,12,12,13,13,14,14],"right_children":[2,4,6,8,10,12,14,16,18,20,22,24,26,28,30,-1,-1,-1,-1,-1,-1,-1,-1,-1,-1,-1,-1,-1,-1,-1,-1],"split_conditions":[-5.713047E-1,-1.0618631E0,2.4190134E-1,-1.249991E-1,9.919906E-2,-1.8715237E-1,6.97246E-1,2.44E2,-9.206879E-1,1.5842433E-1,4.291977E-1,1E0,6.214294E-2,1.04E1,9.5350057E-1,2.1E-2,-7.1675954E-3,1.9355811E-2,6.305133E-4,1.0689147E-2,2.1E-2,7.5922366E-3,1.2956526E-2,1.9253346E-3,6.3786353E-3,-2.025111E-3,1.0215153E-3,-5.4006227E-3,2.1E-2,-8.912224E-3,-1.2085356E-2],"split_indices":[33,33,33,24,30,32,32,23,32,25,38,44,41,18,33,0,0,0,0,0,0,0,0,0,0,0,0,0,0,0,0],"split_type":[0,0,0,0,0,0,0,0,0,0,0,0,0,0,0,0,0,0,0,0,0,0,0,0,0,0,0,0,0,0,0],"sum_hessian":[2.8662238E4,3.689311E3,2.4972928E4,9.1269385E2,2.7766172E3,1.640707E4,8.565856E3,8.098876E2,1.02806305E2,3.6757526E2,2.409042E3,5.73333E3,1.067374E4,6.59393E3,1.9719265E3,8.0415204E2,5.7354984E0,4.879194E1,5.4014362E1,1.5275986E2,2.148154E2,2.008236E3,4.008061E2,4.2957026E3,1.4376276E3,8.1316353E3,2.5421047E3,6.584313E3,9.617632E0,1.2059181E3,7.6600836E2],"tree_param":{"num_deleted":"0","num_feature":"46","num_nodes":"31","size_leaf_vector":"1"}},{"base_weights":[3.9219623E-3,-6.5123916E-2,5.5202675E-1,-2.0362344E-1,4.4139523E-2,3.6690798E-1,7E-1,-3.069687E-1,-1.5277697E-1,-8.989347E-3,1.4217775E-1,3.1471553E-1,4.6948186E-1,3.2154417E-1,7E-1,-1.120411E-2,-8.084877E-3,-5.461993E-3,-3.3579916E-3,-3.0795514E-4,2.1E-2,3.8448267E-3,7.977703E-3,1.0294816E-2,4.1961316E-3,1.5096777E-2,5.280272E-3,3.120324E-3,2.1E-2,2.1E-2,4.8448546E-3],"categories":[],"categories_nodes":[],"categories_segments":[],"categories_sizes":[],"default_left":[0,0,0,0,0,0,0,0,0,0,0,0,0,0,0,0,0,0,0,0,0,0,0,0,0,0,0,0,0,0,0],"id":17,"left_children":[1,3,5,7,9,11,13,15,17,19,21,23,25,27,29,-1,-1,-1,-1,-1,-1,-1,-1,-1,-1,-1,-1,-1,-1,-1,-1],"loss_changes":[1.0745184E3,3.8161926E2,1.9132733E2,5.8343506E1,7.343284E1,1.2339874E1,5.146179E0,8.932495E0,8.880783E0,1.0046885E1,8.526192E0,7.713867E0,7.6646576E0,4.7181053E0,3.8641357E0,0E0,0E0,0E0,0E0,0E0,0E0,0E0,0E0,0E0,0E0,0E0,0E0,0E0,0E0,0E0,0E0],"parents":[2147483647,0,0,1,1,2,2,3,3,4,4,5,5,6,6,7,7,8,8,9,9,10,10,11,11,12,12,13,13,14,14],"right_children":[2,4,6,8,10,12,14,16,18,20,22,24,26,28,30,-1,-1,-1,-1,-1,-1,-1,-1,-1,-1,-1,-1,-1,-1,-1,-1],"split_conditions":[4.7076663E-1,-2.6850006E-1,9.8928964E-1,-6.956527E-1,1.06553055E-1,-2.4193892E-2,1.18195646E-1,-9.7951156E-1,-4.1600665E-1,8.661551E-1,7.3376554E-1,4E0,3.1809562E-1,3.5E0,8E0,-1.120411E-2,-8.084877E-3,-5.461993E-3,-3.3579916E-3,-3.0795514E-4,2.1E-2,3.8448267E-3,7.977703E-3,1.0294816E-2,4.1961316E-3,1.5096777E-2,5.280272E-3,3.120324E-3,2.1E-2,2.1E-2,4.8448546E-3],"split_indices":[35,35,35,35,35,36,31,35,35,37,24,3,36,6,3,0,0,0,0,0,0,0,0,0,0,0,0,0,0,0,0],"split_type":[0,0,0,0,0,0,0,0,0,0,0,0,0,0,0,0,0,0,0,0,0,0,0,0,0,0,0,0,0,0,0],"sum_hessian":[2.8389182E4,2.521461E4,3.1745732E3,1.1118878E4,1.409573E4,2.3581726E3,8.164008E2,3.6632544E3,7.4556235E3,9.142853E3,4.9528784E3,1.5683092E3,7.8986334E2,4.0772167E1,7.7562866E2,1.3137878E3,2.3494666E3,4.3379404E3,3.117683E3,9.131887E3,1.096557E1,4.452598E3,5.0028036E2,1.3472096E3,2.2109961E2,7.07127E2,8.273631E1,3.1288877E1,9.48329E0,7.6092377E2,1.4704903E1],"tree_param":{"num_deleted":"0","num_feature":"46","num_nodes":"31","size_leaf_vector":"1"}},{"base_weights":[6.1869607E-3,2.4098277E-1,-1.1299581E-1,7E-1,1.7890109E-1,-2.8763974E-2,-1.9315718E-1,3.6419562E-1,7E-1,4.5159504E-1,1.4215942E-1,-3.1714965E-2,7E-1,-1.5801327E-1,-3.2808915E-1,2.1E-2,5.3314427E-3,2.1E-2,6.5293834E-3,2.1E-2,1.1691068E-2,3.2007948E-3,7.5550815E-3,-1.810766E-3,1.0273728E-3,2.1E-2,2.326851E-3,-5.378443E-3,-2.2956955E-3,-9.313905E-3,-1.2927549E-2],"categories":[],"categories_nodes":[],"categories_segments":[],"categories_sizes":[],"default_left":[0,0,0,0,0,0,0,0,0,0,0,0,0,0,0,0,0,0,0,0,0,0,0,0,0,0,0,0,0,0,0],"id":18,"left_children":[1,3,5,7,9,11,13,15,17,19,21,23,25,27,29,-1,-1,-1,-1,-1,-1,-1,-1,-1,-1,-1,-1,-1,-1,-1,-1],"loss_changes":[8.0242896E2,3.4985742E2,1.2841675E2,2.2992615E1,8.787344E1,2.3311947E1,4.6108795E1,1.7925966E1,4.8814087E0,1.9135178E1,3.006633E1,1.7476532E1,3.7389297E0,1.337912E1,3.3787842E0,0E0,0E0,0E0,0E0,0E0,0E0,0E0,0E0,0E0,0E0,0E0,0E0,0E0,0E0,0E0,0E0],"parents":[2147483647,0,0,1,1,2,2,3,3,4,4,5,5,6,6,7,7,8,8,9,9,10,10,11,11,12,12,13,13,14,14],"right_children":[2,4,6,8,10,12,14,16,18,20,22,24,26,28,30,-1,-1,-1,-1,-1,-1,-1,-1,-1,-1,-1,-1,-1,-1,-1,-1],"split_conditions":[-1.8715237E-1,-8.221164E-1,1.6532777E-1,-4.806028E-1,-9.206879E-1,5.8E0,6.97246E-1,-5.918457E-1,7E0,-1.85E0,1E0,1E0,2.9E1,5.55795E-1,1.3173612E0,2.1E-2,5.3314427E-3,2.1E-2,6.5293834E-3,2.1E-2,1.1691068E-2,3.2007948E-3,7.5550815E-3,-1.810766E-3,1.0273728E-3,2.1E-2,2.326851E-3,-5.378443E-3,-2.2956955E-3,-9.313905E-3,-1.2927549E-2],"split_indices":[32,26,32,28,32,6,32,32,3,17,44,44,19,28,32,0,0,0,0,0,0,0,0,0,0,0,0,0,0,0,0],"split_type":[0,0,0,0,0,0,0,0,0,0,0,0,0,0,0,0,0,0,0,0,0,0,0,0,0,0,0,0,0,0,0],"sum_hessian":[2.8671008E4,9.652692E3,1.9018314E4,8.714023E2,8.78129E3,9.275031E3,9.743283E3,2.105897E2,6.6081256E2,1.0399886E3,7.741302E3,9.245726E3,2.9306194E1,7.7334087E3,2.0098749E3,5.53998E1,1.5518991E2,6.376202E2,2.3192352E1,1.6530579E2,8.7468286E2,5.8526646E3,1.8886371E3,6.44647E3,2.799255E3,1.9126091E1,1.0180105E1,6.1309004E3,1.6025083E3,1.7226403E3,2.8723462E2],"tree_param":{"num_deleted":"0","num_feature":"46","num_nodes":"31","size_leaf_vector":"1"}},{"base_weights":[1.4298446E-3,-8.288166E-2,4.5464385E-1,-2.4356705E-1,-4.123984E-3,3.1361398E-1,7E-1,-3.3330658E-1,-2.0486021E-1,-8.002671E-2,5.153213E-2,2.76255E-1,4.1771936E-1,7E-1,1.3494247E-1,-1.2675117E-2,-9.351126E-3,-6.8158177E-3,-4.3204264E-3,-2.4672442E-3,1.9415839E-2,4.2411563E-4,3.181747E-3,7.895504E-3,1.768599E-2,2.1E-2,1.1535658E-2,2.1E-2,1.5502231E-2,1.1371157E-2,-4.018366E-3],"categories":[],"categories_nodes":[],"categories_segments":[],"categories_sizes":[],"default_left":[0,0,0,0,0,0,0,0,0,0,0,0,0,0,0,0,0,0,0,0,0,0,0,0,0,0,0,0,0,0,0],"id":19,"left_children":[1,3,5,7,9,11,13,15,17,19,21,23,25,27,29,-1,-1,-1,-1,-1,-1,-1,-1,-1,-1,-1,-1,-1,-1,-1,-1],"loss_changes":[1.0907476E3,3.0458276E2,2.727068E2,2.7361328E1,6.824808E1,1.3920685E1,3.5668335E0,4.3271484E0,7.45755E0,1.1114376E1,1.9002491E1,1.0679092E1,9.626129E0,1.2734985E0,1.0361987E0,0E0,0E0,0E0,0E0,0E0,0E0,0E0,0E0,0E0,0E0,0E0,0E0,0E0,0E0,0E0,0E0],"parents":[2147483647,0,0,1,1,2,2,3,3,4,4,5,5,6,6,7,7,8,8,9,9,10,10,11,11,12,12,13,13,14,14],"right_children":[2,4,6,8,10,12,14,16,18,20,22,24,26,28,30,-1,-1,-1,-1,-1,-1,-1,-1,-1,-1,-1,-1,-1,-1,-1,-1],"split_conditions":[3.6033913E-1,-4.2067137E-1,9.8928964E-1,-8.2184494E-1,-1.0938519E-1,1E0,5E0,-1.2817792E0,1E0,2.0184006E3,1.06553055E-1,1.6594357E3,-1.9280171E-1,1.3333334E0,1.4588639E3,-1.2675117E-2,-9.351126E-3,-6.8158177E-3,-4.3204264E-3,-2.4672442E-3,1.9415839E-2,4.2411563E-4,3.181747E-3,7.895504E-3,1.768599E-2,2.1E-2,1.1535658E-2,2.1E-2,1.5502231E-2,1.1371157E-2,-4.018366E-3],"split_indices":[35,35,35,35,35,44,9,35,44,1,35,1,38,13,2,0,0,0,0,0,0,0,0,0,0,0,0,0,0,0,0],"split_type":[0,0,0,0,0,0,0,0,0,0,0,0,0,0,0,0,0,0,0,0,0,0,0,0,0,0,0,0,0,0,0],"sum_hessian":[2.8541295E4,2.4065938E4,4.475358E3,7.9143975E3,1.6151539E4,3.6366025E3,8.3875525E2,2.3803875E3,5.5340103E3,6.832556E3,9.318982E3,2.6815986E3,9.550039E2,8.2651495E2,1.224034E1,4.568624E2,1.923525E3,4.044132E3,1.4898783E3,6.813579E3,1.8977087E1,5.529366E3,3.7896165E3,2.5777231E3,1.0387536E2,8.424616E1,8.7075775E2,7.6141595E2,6.509899E1,5.9865003E0,6.2538404E0],"tree_param":{"num_deleted":"0","num_feature":"46","num_nodes":"31","size_leaf_vector":"1"}},{"base_weights":[1.4806013E-3,5.2332914E-1,-5.6239992E-2,7E-1,3.5667938E-1,3.127821E-2,-1.9132E-1,4.8893458E-1,7E-1,7E-1,3.2470018E-1,1.1909883E-1,-2.3270614E-2,-1.5816334E-1,-3.2963508E-1,7.061892E-3,2.1E-2,-4.362248E-4,2.1E-2,2.1E-2,3.0561376E-3,1.1475291E-2,6.5883514E-3,2.997527E-3,7.2501577E-3,-2.0849141E-3,6.819025E-4,-2.0909898E-3,-5.574255E-3,-6.1839162E-3,-1.0509337E-2],"categories":[],"categories_nodes":[],"categories_segments":[],"categories_sizes":[],"default_left":[0,0,0,0,0,0,0,0,0,0,0,0,0,0,0,0,0,0,0,0,0,0,0,0,0,0,0,0,0,0,0],"id":20,"left_children":[1,3,5,7,9,11,13,15,17,19,21,23,25,27,29,-1,-1,-1,-1,-1,-1,-1,-1,-1,-1,-1,-1,-1,-1,-1,-1],"loss_changes":[8.626383E2,1.6030237E2,3.048597E2,8.060303E0,2.4483093E1,7.497641E1,4.6392487E1,1.2389545E1,6.42688E0,6.7873306E0,1.172644E1,1.405027E1,2.0534687E1,1.998407E1,4.857132E0,0E0,0E0,0E0,0E0,0E0,0E0,0E0,0E0,0E0,0E0,0E0,0E0,0E0,0E0,0E0,0E0],"parents":[2147483647,0,0,1,1,2,2,3,3,4,4,5,5,6,6,7,7,8,8,9,9,10,10,11,11,12,12,13,13,14,14],"right_children":[2,4,6,8,10,12,14,16,18,20,22,24,26,28,30,-1,-1,-1,-1,-1,-1,-1,-1,-1,-1,-1,-1,-1,-1,-1,-1],"split_conditions":[-6.7100334E-1,-8.221164E-1,1.363709E-1,1.60329E-1,-1.2846682E0,-2.4011917E-1,6.97246E-1,-5.943081E-2,-6.190774E-1,-6.1078317E-2,-6.3534045E-1,-2.6340397E-2,-4.9506765E-2,1.2945843E-1,4.7308898E-1,7.061892E-3,2.1E-2,-4.362248E-4,2.1E-2,2.1E-2,3.0561376E-3,1.1475291E-2,6.5883514E-3,2.997527E-3,7.2501577E-3,-2.0849141E-3,6.819025E-4,-2.0909898E-3,-5.574255E-3,-6.1839162E-3,-1.0509337E-2],"split_indices":[33,26,32,25,33,32,32,30,36,26,32,40,41,33,33,0,0,0,0,0,0,0,0,0,0,0,0,0,0,0,0],"split_type":[0,0,0,0,0,0,0,0,0,0,0,0,0,0,0,0,0,0,0,0,0,0,0,0,0,0,0,0,0,0,0],"sum_hessian":[2.8634758E4,2.8501934E3,2.5784564E4,7.285931E2,2.1216003E3,1.5647865E4,1.0136699E4,2.0093164E2,5.2766144E2,1.6570236E2,1.955898E3,5.9945703E3,9.653295E3,8.1800728E3,1.9566266E3,1.018184E2,9.911325E1,1.2507315E1,5.151541E2,1.4599123E2,1.9711134E1,1.2583793E3,6.975187E2,5.186564E3,8.0800653E2,4.81432E3,4.8389756E3,1.9493262E3,6.2307466E3,2.8373526E2,1.6728914E3],"tree_param":{"num_deleted":"0","num_feature":"46","num_nodes":"31","size_leaf_vector":"1"}},{"base_weights":[5.0504007E-3,-8.439906E-2,3.8248527E-1,-2.0086367E-1,1.2487745E-2,2.7328783E-1,7E-1,-3.042189E-1,-1.4938289E-1,-2.904095E-2,7.449143E-2,1.9302396E-1,3.5769698E-1,2.3241487E-1,7E-1,-1.1217752E-2,-7.975248E-3,-5.055388E-3,-2.9750916E-3,-9.1715454E-4,2.1E-2,1.3119297E-3,4.612971E-3,5.419674E-3,1.3532244E-2,9.362208E-3,1.4451033E-2,3.0594175E-3,2.1E-2,2.1E-2,9.353835E-3],"categories":[],"categories_nodes":[],"categories_segments":[],"categories_sizes":[],"default_left":[0,0,0,0,0,0,0,0,0,0,0,0,0,0,0,0,0,0,0,0,0,0,0,0,0,0,0,0,0,0,0],"id":21,"left_children":[1,3,5,7,9,11,13,15,17,19,21,23,25,27,29,-1,-1,-1,-1,-1,-1,-1,-1,-1,-1,-1,-1,-1,-1,-1,-1],"loss_changes":[9.696242E2,2.6199023E2,2.8082977E2,5.600998E1,3.2644073E1,3.0987976E1,8.914978E0,9.174042E0,6.7309723E0,1.3264347E1,1.2386667E1,7.366974E0,1.2354919E1,2.8627634E0,4.425049E0,0E0,0E0,0E0,0E0,0E0,0E0,0E0,0E0,0E0,0E0,0E0,0E0,0E0,0E0,0E0,0E0],"parents":[2147483647,0,0,1,1,2,2,3,3,4,4,5,5,6,6,7,7,8,8,9,9,10,10,11,11,12,12,13,13,14,14],"right_children":[2,4,6,8,10,12,14,16,18,20,22,24,26,28,30,-1,-1,-1,-1,-1,-1,-1,-1,-1,-1,-1,-1,-1,-1,-1,-1],"split_conditions":[2.900398E-1,-2.8773716E-1,9.8928964E-1,-6.956527E-1,6.7736633E-4,5.0281066E-1,1.18195646E-1,-9.7951156E-1,1E0,6E0,1E0,9.4289136E-1,1E0,3.5E0,9.6E1,-1.1217752E-2,-7.975248E-3,-5.055388E-3,-2.9750916E-3,-9.1715454E-4,2.1E-2,1.3119297E-3,4.612971E-3,5.419674E-3,1.3532244E-2,9.362208E-3,1.4451033E-2,3.0594175E-3,2.1E-2,2.1E-2,9.353835E-3],"split_indices":[35,35,35,35,35,35,31,35,44,6,44,26,44,6,22,0,0,0,0,0,0,0,0,0,0,0,0,0,0,0,0],"split_type":[0,0,0,0,0,0,0,0,0,0,0,0,0,0,0,0,0,0,0,0,0,0,0,0,0,0,0,0,0,0,0],"sum_hessian":[2.8716037E4,2.3215643E4,5.5003945E3,1.0541676E4,1.2673967E4,4.5922544E3,9.0813995E2,3.5016943E3,7.039982E3,7.5908477E3,5.083119E3,2.357297E3,2.2349575E3,4.325811E1,8.6488184E2,1.2371398E3,2.2645544E3,5.0944155E3,1.9455663E3,7.5857485E3,5.0993137E0,3.6643584E3,1.4187607E3,2.252726E3,1.0457109E2,1.6389801E3,5.9597736E2,3.6413765E1,6.844343E0,8.3101605E2,3.3865776E1],"tree_param":{"num_deleted":"0","num_feature":"46","num_nodes":"31","size_leaf_vector":"1"}},{"base_weights":[6.2891454E-3,4.0837586E-1,-6.341712E-2,7E-1,3.1150714E-1,1.4979342E-2,-1.8799219E-1,7E-1,1.1524358E-2,2.4983287E-1,4.8326072E-1,1.06662676E-1,-2.514935E-2,-1.5329853E-1,-3.2227868E-1,2.1E-2,-8.948497E-3,-3.461002E-3,2.5883594E-3,1.1177258E-2,5.81128E-3,2.1E-2,1.1110895E-2,2.1384258E-3,6.2921625E-3,-2.1833316E-3,6.438355E-4,-1.7503134E-3,-5.4172245E-3,-7.884003E-3,-1.1217456E-2],"categories":[],"categories_nodes":[],"categories_segments":[],"categories_sizes":[],"default_left":[0,0,0,0,0,0,0,0,0,0,0,0,0,0,0,0,0,0,0,0,0,0,0,0,0,0,0,0,0,0,0],"id":22,"left_children":[1,3,5,7,9,11,13,15,17,19,21,23,25,27,29,-1,-1,-1,-1,-1,-1,-1,-1,-1,-1,-1,-1,-1,-1,-1,-1],"loss_changes":[8.0013464E2,1.9595099E2,2.3761859E2,4.610901E0,3.875583E1,5.4951584E1,4.3682922E1,4.0111694E0,1.3179095E-1,1.8544434E1,2.7500473E1,1.6553242E1,2.3067694E1,1.9330704E1,5.723633E0,0E0,0E0,0E0,0E0,0E0,0E0,0E0,0E0,0E0,0E0,0E0,0E0,0E0,0E0,0E0,0E0],"parents":[2147483647,0,0,1,1,2,2,3,3,4,4,5,5,6,6,7,7,8,8,9,9,10,10,11,11,12,12,13,13,14,14],"right_children":[2,4,6,8,10,12,14,16,18,20,22,24,26,28,30,-1,-1,-1,-1,-1,-1,-1,-1,-1,-1,-1,-1,-1,-1,-1,-1],"split_conditions":[-5.4771733E-1,-1.2846682E0,1.6532777E-1,-3.6112684E-1,1E0,-2.655676E-1,6.97246E-1,2.44E2,1.3210482E3,-8.5229784E-1,7.4467316E-2,1E0,-5.6914397E-2,1.3412775E-1,8.099985E-1,2.1E-2,-8.948497E-3,-3.461002E-3,2.5883594E-3,1.1177258E-2,5.81128E-3,2.1E-2,1.1110895E-2,2.1384258E-3,6.2921625E-3,-2.1833316E-3,6.438355E-4,-1.7503134E-3,-5.4172245E-3,-7.884003E-3,-1.1217456E-2],"split_indices":[33,33,32,32,44,32,32,23,1,33,30,44,41,33,33,0,0,0,0,0,0,0,0,0,0,0,0,0,0,0,0],"split_type":[0,0,0,0,0,0,0,0,0,0,0,0,0,0,0,0,0,0,0,0,0,0,0,0,0,0,0,0,0,0,0],"sum_hessian":[2.8543879E4,4.215853E3,2.4328025E4,5.363521E2,3.679501E3,1.4932561E4,9.395465E3,5.2655707E2,9.7950325E0,2.7109473E3,9.685537E2,4.5450405E3,1.038752E4,7.4698667E3,1.9255983E3,5.235487E2,3.0083723E0,3.2284193E0,6.5666137E0,8.470873E2,1.86386E3,2.8886017E2,6.7969354E2,3.38611E3,1.1589305E3,5.1371084E3,5.250411E3,1.6682961E3,5.801571E3,9.005087E2,1.0250896E3],"tree_param":{"num_deleted":"0","num_feature":"46","num_nodes":"31","size_leaf_vector":"1"}},{"base_weights":[4.623064E-3,-6.0519416E-2,4.649427E-1,-1.9915837E-1,4.490261E-2,3.067809E-1,7E-1,-2.7661115E-1,-1.4182192E-1,5.0979336E-3,1.3818267E-1,2.0599437E-1,3.4210187E-1,2.4825521E-1,7E-1,-1.0956336E-2,-7.191633E-3,-4.803191E-3,-2.8859358E-3,-6.735552E-4,2.1706538E-3,2.7618976E-3,5.867339E-3,4.189792E-3,1.1646552E-2,9.240105E-3,1.5633734E-2,9.200741E-4,2.1E-2,2.1E-2,1.2124673E-2],"categories":[],"categories_nodes":[],"categories_segments":[],"categories_sizes":[],"default_left":[0,0,0,0,0,0,0,0,0,0,0,0,0,0,0,0,0,0,0,0,0,0,0,0,0,0,0,0,0,0,0],"id":23,"left_children":[1,3,5,7,9,11,13,15,17,19,21,23,25,27,29,-1,-1,-1,-1,-1,-1,-1,-1,-1,-1,-1,-1,-1,-1,-1,-1],"loss_changes":[8.5655554E2,3.6575467E2,2.065766E2,4.792447E1,5.278373E1,9.142395E0,7.7855835E0,1.4846619E1,5.154152E0,1.847026E1,1.1219032E1,8.132561E0,1.1448257E1,4.693386E0,4.3635864E0,0E0,0E0,0E0,0E0,0E0,0E0,0E0,0E0,0E0,0E0,0E0,0E0,0E0,0E0,0E0,0E0],"parents":[2147483647,0,0,1,1,2,2,3,3,4,4,5,5,6,6,7,7,8,8,9,9,10,10,11,11,12,12,13,13,14,14],"right_children":[2,4,6,8,10,12,14,16,18,20,22,24,26,28,30,-1,-1,-1,-1,-1,-1,-1,-1,-1,-1,-1,-1,-1,-1,-1,-1],"split_conditions":[4.577808E-1,-2.725852E-1,9.8928964E-1,-6.152786E-1,1.4376147E-1,6.666667E-1,1.18195646E-1,-9.5846444E-1,1E0,1E0,-1.7634097E-1,1.5039515E3,-3.914505E-2,3.5E0,4E0,-1.0956336E-2,-7.191633E-3,-4.803191E-3,-2.8859358E-3,-6.735552E-4,2.1706538E-3,2.7618976E-3,5.867339E-3,4.189792E-3,1.1646552E-2,9.240105E-3,1.5633734E-2,9.200741E-4,2.1E-2,2.1E-2,1.2124673E-2],"split_indices":[35,35,35,35,35,9,31,35,44,44,42,1,42,6,3,0,0,0,0,0,0,0,0,0,0,0,0,0,0,0,0],"split_type":[0,0,0,0,0,0,0,0,0,0,0,0,0,0,0,0,0,0,0,0,0,0,0,0,0,0,0,0,0,0,0],"sum_hessian":[2.8560957E4,2.5021725E4,3.5392314E3,1.08073545E4,1.4214371E4,2.6057686E3,9.3346277E2,4.5939634E3,6.213391E3,9.964435E3,4.2499365E3,6.797635E2,1.9260051E3,4.095305E1,8.9250977E2,1.3452452E3,3.2487183E3,4.4321353E3,1.7812556E3,7.069834E3,2.8946006E3,2.3593293E3,1.8906072E3,5.0094012E2,1.7882335E2,1.6224237E3,3.035814E2,3.0229544E1,1.0723504E1,8.334565E2,5.905325E1],"tree_param":{"num_deleted":"0","num_feature":"46","num_nodes":"31","size_leaf_vector":"1"}},{"base_weights":[1.5432623E-3,-1.01978555E-1,2.7352437E-1,-2.2818354E-1,-2.9451974E-2,1.9580522E-1,7E-1,-3.367595E-1,-1.933323E-1,-8.712382E-2,1.2441435E-2,1.3885605E-1,2.967323E-1,5.7313544E-1,7E-1,-1.29005E-2,-9.253123E-3,-6.7721102E-3,-4.914713E-3,-3.5000332E-3,-1.0623467E-3,3.284003E-4,2.1E-2,2.8414486E-3,5.85522E-3,7.1518044E-3,1.0816228E-2,1.0755091E-2,2.1E-2,2.1E-2,1.3607868E-3],"categories":[],"categories_nodes":[],"categories_segments":[],"categories_sizes":[],"default_left":[0,0,0,0,0,0,0,0,0,0,0,0,0,0,0,0,0,0,0,0,0,0,0,0,0,0,0,0,0,0,0],"id":24,"left_children":[1,3,5,7,9,11,13,15,17,19,21,23,25,27,29,-1,-1,-1,-1,-1,-1,-1,-1,-1,-1,-1,-1,-1,-1,-1,-1],"loss_changes":[8.020676E2,1.8884653E2,3.3699347E2,2.8362366E1,3.1665854E1,3.985489E1,7.656067E0,4.5601196E0,5.3810577E0,8.416771E0,1.2164466E1,1.1014801E1,9.151764E0,1.4386505E1,2.9684753E0,0E0,0E0,0E0,0E0,0E0,0E0,0E0,0E0,0E0,0E0,0E0,0E0,0E0,0E0,0E0,0E0],"parents":[2147483647,0,0,1,1,2,2,3,3,4,4,5,5,6,6,7,7,8,8,9,9,10,10,11,11,12,12,13,13,14,14],"right_children":[2,4,6,8,10,12,14,16,18,20,22,24,26,28,30,-1,-1,-1,-1,-1,-1,-1,-1,-1,-1,-1,-1,-1,-1,-1,-1],"split_conditions":[1.4376147E-1,-4.2067137E-1,9.8928964E-1,-8.6956155E-1,-1.6972448E-1,4.7076663E-1,1.2957824E0,-1.2817792E0,-6.0820746E-1,6.295923E-1,6.2222223E0,-1.7634097E-1,-2.985905E-1,-3.6180866E-1,8.9983666E-1,-1.29005E-2,-9.253123E-3,-6.7721102E-3,-4.914713E-3,-3.5000332E-3,-1.0623467E-3,3.284003E-4,2.1E-2,2.8414486E-3,5.85522E-3,7.1518044E-3,1.0816228E-2,1.0755091E-2,2.1E-2,2.1E-2,1.3607868E-3],"split_indices":[35,35,35,35,35,35,35,35,35,24,12,42,42,40,38,0,0,0,0,0,0,0,0,0,0,0,0,0,0,0,0],"split_type":[0,0,0,0,0,0,0,0,0,0,0,0,0,0,0,0,0,0,0,0,0,0,0,0,0,0,0,0,0,0,0],"sum_hessian":[2.84826E4,2.0631182E4,7.851418E3,7.527731E3,1.3103451E4,6.946381E3,9.0503674E2,1.8249463E3,5.7027847E3,5.5125435E3,7.5909077E3,4.4437183E3,2.5026628E3,5.345823E2,3.7045453E2,4.185158E2,1.4064304E3,2.711671E3,2.9911138E3,3.5066382E3,2.0059052E3,7.5856855E3,5.2222085E0,2.4941821E3,1.949536E3,1.3123143E3,1.1903485E3,2.038187E2,3.3076355E2,3.632411E2,7.2134295E0],"tree_param":{"num_deleted":"0","num_feature":"46","num_nodes":"31","size_leaf_vector":"1"}},{"base_weights":[4.138003E-3,-7.24584E-2,3.964339E-1,-1.9921185E-1,2.3101896E-2,2.7638778E-1,7E-1,-2.968838E-1,-1.509696E-1,-1.1897024E-2,1.0838701E-1,2.4964893E-1,4.0297887E-1,5.6114817E-1,7E-1,-1.0892329E-2,-7.71036E-3,-5.6010485E-3,-3.6519004E-3,-3.923061E-4,2.1E-2,6.319213E-4,3.9829994E-3,6.9761197E-3,1.5263977E-2,1.5091286E-2,6.915234E-3,1.2267288E-2,2.1E-2,2.1E-2,6.575654E-4],"categories":[],"categories_nodes":[],"categories_segments":[],"categories_sizes":[],"default_left":[0,0,0,0,0,0,0,0,0,0,0,0,0,0,0,0,0,0,0,0,0,0,0,0,0,0,0,0,0,0,0],"id":25,"left_children":[1,3,5,7,9,11,13,15,17,19,21,23,25,27,29,-1,-1,-1,-1,-1,-1,-1,-1,-1,-1,-1,-1,-1,-1,-1,-1],"loss_changes":[8.5976166E2,2.8996747E2,2.3967987E2,4.839624E1,4.074779E1,1.2463013E1,9.883484E0,8.786926E0,7.1552734E0,1.25835085E1,8.450554E0,1.3484497E1,1.09719925E1,1.9317078E1,1.6742554E0,0E0,0E0,0E0,0E0,0E0,0E0,0E0,0E0,0E0,0E0,0E0,0E0,0E0,0E0,0E0,0E0],"parents":[2147483647,0,0,1,1,2,2,3,3,4,4,5,5,6,6,7,7,8,8,9,9,10,10,11,11,12,12,13,13,14,14],"right_children":[2,4,6,8,10,12,14,16,18,20,22,24,26,28,30,-1,-1,-1,-1,-1,-1,-1,-1,-1,-1,-1,-1,-1,-1,-1,-1],"split_conditions":[3.6033913E-1,-2.8773716E-1,9.8928964E-1,-6.956527E-1,1.06553055E-1,7.7874446E-1,1.2957824E0,-9.5846444E-1,-4.8008883E-1,7E0,6.666667E-1,1.6424297E3,6.9122165E-1,-1.1277403E0,8.53E2,-1.0892329E-2,-7.71036E-3,-5.6010485E-3,-3.6519004E-3,-3.923061E-4,2.1E-2,6.319213E-4,3.9829994E-3,6.9761197E-3,1.5263977E-2,1.5091286E-2,6.915234E-3,1.2267288E-2,2.1E-2,2.1E-2,6.575654E-4],"split_indices":[35,35,35,35,35,35,35,35,35,6,5,1,41,33,20,0,0,0,0,0,0,0,0,0,0,0,0,0,0,0,0],"split_type":[0,0,0,0,0,0,0,0,0,0,0,0,0,0,0,0,0,0,0,0,0,0,0,0,0,0,0,0,0,0,0],"sum_hessian":[2.8608598E4,2.3936574E4,4.672024E3,1.0288067E4,1.3648506E4,3.7393892E3,9.326347E2,3.39804E3,6.890028E3,9.678435E3,3.9700713E3,3.0921936E3,6.471957E2,5.614625E2,3.711722E2,1.2712838E3,2.1267563E3,3.0959143E3,3.7941133E3,9.673102E3,5.3330345E0,8.6730115E2,3.1027703E3,2.9042234E3,1.8797026E2,4.071453E2,2.4005038E2,3.6574716E2,1.9571538E2,3.673995E2,3.7727034E0],"tree_param":{"num_deleted":"0","num_feature":"46","num_nodes":"31","size_leaf_vector":"1"}},{"base_weights":[2.433495E-3,3.0903906E-1,-7.690579E-2,7E-1,2.3866424E-1,-4.266657E-3,-1.8425809E-1,7E-1,8.760708E-2,3.646795E-1,1.7800486E-1,7.837776E-2,-3.6118705E-2,-1.5014617E-1,-3.1819484E-1,2.1E-2,5.0684973E-3,4.461483E-3,-3.682482E-3,8.973239E-3,1.4993535E-2,3.2942411E-3,8.036898E-3,1.2616136E-3,5.391932E-3,-1.8906743E-3,8.5974135E-4,4.655619E-5,-4.9107233E-3,-8.400419E-3,-1.1821721E-2],"categories":[],"categories_nodes":[],"categories_segments":[],"categories_sizes":[],"default_left":[0,0,0,0,0,0,0,0,0,0,0,0,0,0,0,0,0,0,0,0,0,0,0,0,0,0,0,0,0,0,0],"id":26,"left_children":[1,3,5,7,9,11,13,15,17,19,21,23,25,27,29,-1,-1,-1,-1,-1,-1,-1,-1,-1,-1,-1,-1,-1,-1,-1,-1],"loss_changes":[6.921139E2,2.3480615E2,1.7625569E2,6.0770874E0,4.044754E1,3.549855E1,4.1580536E1,5.7969666E0,2.7840546E-1,1.4965515E1,2.193283E1,1.3796358E1,1.696672E1,1.4946274E1,5.1373596E0,0E0,0E0,0E0,0E0,0E0,0E0,0E0,0E0,0E0,0E0,0E0,0E0,0E0,0E0,0E0,0E0],"parents":[2147483647,0,0,1,1,2,2,3,3,4,4,5,5,6,6,7,7,8,8,9,9,10,10,11,11,12,12,13,13,14,14],"right_children":[2,4,6,8,10,12,14,16,18,20,22,24,26,28,30,-1,-1,-1,-1,-1,-1,-1,-1,-1,-1,-1,-1,-1,-1,-1,-1],"split_conditions":[-4.2615056E-1,-1.2846682E0,1.6532777E-1,8E0,-2.0180473E-1,-2.460302E-1,6.97246E-1,-6.1078317E-2,4.5E0,2.875E0,7.678455E-1,1E0,1E0,-2.9936887E-2,9.900404E-1,2.1E-2,5.0684973E-3,4.461483E-3,-3.682482E-3,8.973239E-3,1.4993535E-2,3.2942411E-3,8.036898E-3,1.2616136E-3,5.391932E-3,-1.8906743E-3,8.5974135E-4,4.655619E-5,-4.9107233E-3,-8.400419E-3,-1.1821721E-2],"split_indices":[33,33,32,3,26,32,32,26,6,12,28,44,44,33,33,0,0,0,0,0,0,0,0,0,0,0,0,0,0,0,0],"split_type":[0,0,0,0,0,0,0,0,0,0,0,0,0,0,0,0,0,0,0,0,0,0,0,0,0,0,0,0,0,0,0],"sum_hessian":[2.8447816E4,5.846871E3,2.2600945E4,5.404787E2,5.3063926E3,1.3481123E4,9.119821E3,5.2366095E2,1.6817722E1,1.7210393E3,3.5853533E3,3.7495334E3,9.73159E3,7.2719854E3,1.8478362E3,5.016304E2,2.203054E1,1.3486051E1,3.3316722E0,1.1630132E3,5.580261E2,2.0412169E3,1.5441362E3,2.7623616E3,9.8717194E2,6.87588E3,2.85571E3,5.962151E2,6.67577E3,1.235436E3,6.124001E2],"tree_param":{"num_deleted":"0","num_feature":"46","num_nodes":"31","size_leaf_vector":"1"}},{"base_weights":[3.6099202E-3,-7.189583E-2,3.6700538E-1,-1.879831E-1,2.3199463E-2,2.5555304E-1,7E-1,-2.867527E-1,-1.4156212E-1,-2.26501E-2,7.783694E-2,1.8833314E-1,3.0065417E-1,5.487818E-1,7E-1,-1.0840189E-2,-7.3882225E-3,-5.151769E-3,-3.013324E-3,-7.277786E-4,2.1E-2,1.531247E-3,4.5180367E-3,5.2000615E-3,1.9664459E-2,7.7515785E-3,1.161933E-2,1.2261027E-2,2.1E-2,2.1E-2,-3.6566628E-3],"categories":[],"categories_nodes":[],"categories_segments":[],"categories_sizes":[],"default_left":[0,0,0,0,0,0,0,0,0,0,0,0,0,0,0,0,0,0,0,0,0,0,0,0,0,0,0,0,0,0,0],"id":27,"left_children":[1,3,5,7,9,11,13,15,17,19,21,23,25,27,29,-1,-1,-1,-1,-1,-1,-1,-1,-1,-1,-1,-1,-1,-1,-1,-1],"loss_changes":[7.869542E2,2.621574E2,2.292857E2,4.8947662E1,3.2708645E1,1.181778E1,1.253833E1,1.0138519E1,8.992615E0,1.2692242E1,1.1599808E1,1.0881622E1,8.414291E0,1.690158E1,2.6132812E0,0E0,0E0,0E0,0E0,0E0,0E0,0E0,0E0,0E0,0E0,0E0,0E0,0E0,0E0,0E0,0E0],"parents":[2147483647,0,0,1,1,2,2,3,3,4,4,5,5,6,6,7,7,8,8,9,9,10,10,11,11,12,12,13,13,14,14],"right_children":[2,4,6,8,10,12,14,16,18,20,22,24,26,28,30,-1,-1,-1,-1,-1,-1,-1,-1,-1,-1,-1,-1,-1,-1,-1,-1],"split_conditions":[3.491326E-1,-2.6850006E-1,9.8928964E-1,-6.956527E-1,6.7736633E-4,5.0281066E-1,1.2957824E0,-9.7951156E-1,-4.1600665E-1,6.2222223E0,1E0,9.589961E-1,-2.4193892E-2,-1.1277403E0,8E0,-1.0840189E-2,-7.3882225E-3,-5.151769E-3,-3.013324E-3,-7.277786E-4,2.1E-2,1.531247E-3,4.5180367E-3,5.2000615E-3,1.9664459E-2,7.7515785E-3,1.161933E-2,1.2261027E-2,2.1E-2,2.1E-2,-3.6566628E-3],"split_indices":[35,35,35,35,35,35,35,35,35,12,44,26,36,33,3,0,0,0,0,0,0,0,0,0,0,0,0,0,0,0,0],"split_type":[0,0,0,0,0,0,0,0,0,0,0,0,0,0,0,0,0,0,0,0,0,0,0,0,0,0,0,0,0,0,0],"sum_hessian":[2.867679E4,2.3744746E4,4.9320425E3,1.0691355E4,1.3053391E4,3.9334373E3,9.9860535E2,3.4149768E3,7.2763784E3,7.0981123E3,5.9552783E3,1.5835803E3,2.349857E3,5.8917334E2,4.09432E2,1.1957695E3,2.2192073E3,4.1936367E3,3.0827417E3,7.092661E3,5.450897E0,4.3549688E3,1.6003096E3,1.5369779E3,4.660234E1,1.5848063E3,7.6505054E2,3.6804117E2,2.2113216E2,4.0611258E2,3.319426E0],"tree_param":{"num_deleted":"0","num_feature":"46","num_nodes":"31","size_leaf_vector":"1"}},{"base_weights":[6.4149983E-3,-9.21518E-2,2.8951934E-1,-1.9466496E-1,2.8784263E-3,2.1014453E-1,7E-1,-2.6476005E-1,-1.3840862E-1,-4.606668E-2,3.192187E-2,1.5413786E-1,3.0675957E-1,8.1942566E-2,7E-1,-1.0697909E-2,-6.983082E-3,-5.2218507E-3,-3.3536763E-3,-1.5139326E-3,2.1E-2,9.390824E-3,7.756327E-4,3.823732E-3,7.2990214E-3,1.231627E-2,8.050595E-3,-4.346193E-3,7.985217E-3,1.7347291E-2,2.1E-2],"categories":[],"categories_nodes":[],"categories_segments":[],"categories_sizes":[],"default_left":[0,0,0,0,0,0,0,0,0,0,0,0,0,0,0,0,0,0,0,0,0,0,0,0,0,0,0,0,0,0,0],"id":28,"left_children":[1,3,5,7,9,11,13,15,17,19,21,23,25,27,29,-1,-1,-1,-1,-1,-1,-1,-1,-1,-1,-1,-1,-1,-1,-1,-1],"loss_changes":[8.0424005E2,2.0826266E2,2.952201E2,4.0480103E1,1.5776126E1,3.486502E1,1.4862305E1,1.3279968E1,5.3797226E0,1.3818446E1,1.1863081E1,9.676849E0,9.22168E0,1.810128E0,7.061035E0,0E0,0E0,0E0,0E0,0E0,0E0,0E0,0E0,0E0,0E0,0E0,0E0,0E0,0E0,0E0,0E0],"parents":[2147483647,0,0,1,1,2,2,3,3,4,4,5,5,6,6,7,7,8,8,9,9,10,10,11,11,12,12,13,13,14,14],"right_children":[2,4,6,8,10,12,14,16,18,20,22,24,26,28,30,-1,-1,-1,-1,-1,-1,-1,-1,-1,-1,-1,-1,-1,-1,-1,-1],"split_conditions":[1.8448457E-1,-2.8773716E-1,9.8928964E-1,-6.0820746E-1,-1.04024716E-1,5.0281066E-1,1.18195646E-1,-9.7951156E-1,3.922697E-1,8.2287437E-1,-2.7026787E-1,4.441044E-1,2.855379E-1,1.3333334E0,1.2957824E0,-1.0697909E-2,-6.983082E-3,-5.2218507E-3,-3.3536763E-3,-1.5139326E-3,2.1E-2,9.390824E-3,7.756327E-4,3.823732E-3,7.2990214E-3,1.231627E-2,8.050595E-3,-4.346193E-3,7.985217E-3,1.7347291E-2,2.1E-2],"split_indices":[35,35,35,35,35,35,31,35,24,37,41,24,41,15,35,0,0,0,0,0,0,0,0,0,0,0,0,0,0,0,0],"split_type":[0,0,0,0,0,0,0,0,0,0,0,0,0,0,0,0,0,0,0,0,0,0,0,0,0,0,0,0,0,0,0],"sum_hessian":[2.8817055E4,2.1376033E4,7.4410205E3,1.0282146E4,1.1093887E4,6.4587334E3,9.8228723E2,4.5746934E3,5.707453E3,4.1309995E3,6.9628877E3,4.0918962E3,2.3668372E3,3.9472797E1,9.4281445E2,1.176621E3,3.3980723E3,2.4350098E3,3.2724436E3,4.108978E3,2.2021248E1,1.449754E2,6.817912E3,3.1532202E3,9.386762E2,6.340661E2,1.732771E3,1.7883217E1,2.158958E1,5.404058E2,4.0240863E2],"tree_param":{"num_deleted":"0","num_feature":"46","num_nodes":"31","size_leaf_vector":"1"}},{"base_weights":[6.56852E-3,1.9793327E-1,-9.9456295E-2,1.4769822E-1,7E-1,-5.880025E-2,-2.4100009E-1,2.9125735E-1,1.05503455E-1,7E-1,4.4938293E-1,-2.4670357E-2,-1.219695E-1,-1.9159521E-1,-3.1481445E-1,1.6395107E-2,7.7101355E-3,2.1979678E-3,5.8578495E-3,5.6507015E-3,2.1E-2,9.896398E-3,2.1E-2,-7.971712E-4,2.1E-2,-4.100699E-3,1.9575197E-4,-5.856237E-3,1.6196162E-2,1.7744517E-2,-9.524975E-3],"categories":[],"categories_nodes":[],"categories_segments":[],"categories_sizes":[],"default_left":[0,0,0,0,0,0,0,0,0,0,0,0,0,0,0,0,0,0,0,0,0,0,0,0,0,0,0,0,0,0,0],"id":29,"left_children":[1,3,5,7,9,11,13,15,17,19,21,23,25,27,29,-1,-1,-1,-1,-1,-1,-1,-1,-1,-1,-1,-1,-1,-1,-1,-1],"loss_changes":[5.750661E2,2.589781E2,1.049265E2,5.56819E1,2.6773254E1,3.0546787E1,1.4718384E1,1.7985107E1,2.0560074E1,1.8891327E1,1.9996918E1,1.9373032E1,9.403313E0,6.665718E0,4.337677E0,0E0,0E0,0E0,0E0,0E0,0E0,0E0,0E0,0E0,0E0,0E0,0E0,0E0,0E0,0E0,0E0],"parents":[2147483647,0,0,1,1,2,2,3,3,4,4,5,5,6,6,7,7,8,8,9,9,10,10,11,11,12,12,13,13,14,14],"right_children":[2,4,6,8,10,12,14,16,18,20,22,24,26,28,30,-1,-1,-1,-1,-1,-1,-1,-1,-1,-1,-1,-1,-1,-1,-1,-1],"split_conditions":[-1.8715237E-1,3.3E0,4.522264E-1,-6.962233E-1,-1.0607353E0,1.6532777E-1,7.306534E-1,-8.221164E-1,1E0,-1.0309943E0,9.5265937E-1,6.8E0,2.3333333E0,4.6666665E0,-6.4845215E1,1.6395107E-2,7.7101355E-3,2.1979678E-3,5.8578495E-3,5.6507015E-3,2.1E-2,9.896398E-3,2.1E-2,-7.971712E-4,2.1E-2,-4.100699E-3,1.9575197E-4,-5.856237E-3,1.6196162E-2,1.7744517E-2,-9.524975E-3],"split_indices":[32,12,32,32,26,32,32,26,44,30,30,6,11,5,0,0,0,0,0,0,0,0,0,0,0,0,0,0,0,0,0],"split_type":[0,0,0,0,0,0,0,0,0,0,0,0,0,0,0,0,0,0,0,0,0,0,0,0,0,0,0,0,0,0,0],"sum_hessian":[2.8339219E4,1.0102831E4,1.8236389E4,9.20046E3,9.023717E2,1.4169322E4,4.067066E3,2.087241E3,7.1132188E3,4.6250363E2,4.3986807E2,9.200915E3,4.968407E3,2.4406797E3,1.6263861E3,2.4341837E2,1.8438226E3,5.2362E3,1.8770184E3,7.390887E1,3.8859476E2,3.5372357E2,8.61445E1,9.19135E3,9.565461E0,4.457611E3,5.1079636E2,2.4301436E3,1.0536137E1,3.5080786E0,1.622878E3],"tree_param":{"num_deleted":"0","num_feature":"46","num_nodes":"31","size_leaf_vector":"1"}},{"base_weights":[4.354901E-3,-9.795257E-2,2.6003605E-1,-2.1787255E-1,-3.0226607E-2,1.8220943E-1,7E-1,-3.2437825E-1,-1.8520528E-1,-8.5106015E-2,8.925868E-3,1.3287316E-1,2.6570013E-1,5.079328E-1,7E-1,-8.656433E-3,-1.1613349E-2,-6.6503873E-3,-4.630023E-3,-2.6747629E-3,9.199891E-3,2.2387927E-4,2.1E-2,2.8969327E-3,5.279194E-3,1.41110765E-2,7.2443094E-3,1.1517394E-2,2.1E-2,5.2533844E-3,2.1E-2],"categories":[],"categories_nodes":[],"categories_segments":[],"categories_sizes":[],"default_left":[0,0,0,0,0,0,0,0,0,0,0,0,0,0,0,0,0,0,0,0,0,0,0,0,0,0,0,0,0,0,0],"id":30,"left_children":[1,3,5,7,9,11,13,15,17,19,21,23,25,27,29,-1,-1,-1,-1,-1,-1,-1,-1,-1,-1,-1,-1,-1,-1,-1,-1],"loss_changes":[7.467678E2,1.6558557E2,3.330251E2,2.5482971E1,2.8004787E1,2.9324127E1,2.1825317E1,3.6531677E0,6.277939E0,8.670963E0,1.1694383E1,6.9917603E0,1.2903915E1,1.4794022E1,3.939148E0,0E0,0E0,0E0,0E0,0E0,0E0,0E0,0E0,0E0,0E0,0E0,0E0,0E0,0E0,0E0,0E0],"parents":[2147483647,0,0,1,1,2,2,3,3,4,4,5,5,6,6,7,7,8,8,9,9,10,10,11,11,12,12,13,13,14,14],"right_children":[2,4,6,8,10,12,14,16,18,20,22,24,26,28,30,-1,-1,-1,-1,-1,-1,-1,-1,-1,-1,-1,-1,-1,-1,-1,-1],"split_conditions":[1.4376147E-1,-4.2067137E-1,9.8928964E-1,-8.6956155E-1,-1.6972448E-1,4.7076663E-1,1.2957824E0,9.5350057E-1,-6.152786E-1,7.90254E-1,7E0,-1.9162211E-1,1.18120424E-1,-1.1277403E0,-2.5E0,-8.656433E-3,-1.1613349E-2,-6.6503873E-3,-4.630023E-3,-2.6747629E-3,9.199891E-3,2.2387927E-4,2.1E-2,2.8969327E-3,5.279194E-3,1.41110765E-2,7.2443094E-3,1.1517394E-2,2.1E-2,5.2533844E-3,2.1E-2],"split_indices":[35,35,35,35,35,35,35,33,35,37,6,42,41,33,17,0,0,0,0,0,0,0,0,0,0,0,0,0,0,0,0],"split_type":[0,0,0,0,0,0,0,0,0,0,0,0,0,0,0,0,0,0,0,0,0,0,0,0,0,0,0,0,0,0,0],"sum_hessian":[2.8544307E4,2.0387678E4,8.1566294E3,7.356806E3,1.3030872E4,7.134168E3,1.0224616E3,1.7226284E3,5.6341777E3,5.424745E3,7.606127E3,4.4875625E3,2.6466052E3,6.162001E2,4.062615E2,1.1035367E3,6.190916E2,2.577041E3,3.0571367E3,5.370731E3,5.4014023E1,7.6004375E3,5.6891212E0,2.4391934E3,2.0483691E3,2.7618594E2,2.3704192E3,3.8413715E2,2.3206293E2,1.5855001E1,3.904065E2],"tree_param":{"num_deleted":"0","num_feature":"46","num_nodes":"31","size_leaf_vector":"1"}},{"base_weights":[4.2995624E-3,-9.564969E-2,2.488605E-1,-1.8875231E-1,-6.0120705E-3,1.863789E-1,7E-1,-2.8271225E-1,-1.4417362E-1,-6.2375378E-2,1.3945216E-2,1.21361196E-1,2.6780123E-1,4.905471E-1,7E-1,-1.0417141E-2,-7.464359E-3,-5.5998275E-3,-3.683903E-3,-2.0291132E-3,2.1E-2,2.190868E-3,-1.1564622E-4,2.2648312E-3,5.255313E-3,8.6760735E-3,3.7616545E-3,2.1E-2,1.1569823E-2,7.833051E-3,2.1E-2],"categories":[],"categories_nodes":[],"categories_segments":[],"categories_sizes":[],"default_left":[0,0,0,0,0,0,0,0,0,0,0,0,0,0,0,0,0,0,0,0,0,0,0,0,0,0,0,0,0,0,0],"id":31,"left_children":[1,3,5,7,9,11,13,15,17,19,21,23,25,27,29,-1,-1,-1,-1,-1,-1,-1,-1,-1,-1,-1,-1,-1,-1,-1,-1],"loss_changes":[6.9917035E2,1.6945297E2,2.8389905E2,4.163672E1,1.1640725E1,3.9544342E1,1.7107727E1,6.83313E0,6.093094E0,1.1516456E1,8.038689E0,1.025127E1,1.0047119E1,1.0834763E1,3.3403015E0,0E0,0E0,0E0,0E0,0E0,0E0,0E0,0E0,0E0,0E0,0E0,0E0,0E0,0E0,0E0,0E0],"parents":[2147483647,0,0,1,1,2,2,3,3,4,4,5,5,6,6,7,7,8,8,9,9,10,10,11,11,12,12,13,13,14,14],"right_children":[2,4,6,8,10,12,14,16,18,20,22,24,26,28,30,-1,-1,-1,-1,-1,-1,-1,-1,-1,-1,-1,-1,-1,-1,-1,-1],"split_conditions":[1.4376147E-1,-2.8773716E-1,1.0765086E0,-6.956527E-1,-1.6972448E-1,4.3137383E-1,1.2957824E0,-9.7951156E-1,-5.283778E-1,8.2287437E-1,6.666667E-1,-1.7634097E-1,4E0,3E0,1.1913868E-1,-1.0417141E-2,-7.464359E-3,-5.5998275E-3,-3.683903E-3,-2.0291132E-3,2.1E-2,2.190868E-3,-1.1564622E-4,2.2648312E-3,5.255313E-3,8.6760735E-3,3.7616545E-3,2.1E-2,1.1569823E-2,7.833051E-3,2.1E-2],"split_indices":[35,35,35,35,35,35,35,35,35,37,9,42,3,20,31,0,0,0,0,0,0,0,0,0,0,0,0,0,0,0,0],"split_type":[0,0,0,0,0,0,0,0,0,0,0,0,0,0,0,0,0,0,0,0,0,0,0,0,0,0,0,0,0,0,0],"sum_hessian":[2.859937E4,2.0302988E4,8.296381E3,9.957924E3,1.0345064E4,7.4800806E3,8.163004E2,3.2008025E3,6.7571206E3,2.7040486E3,7.641016E3,4.16178E3,3.3183008E3,4.1029846E2,4.0600192E2,1.0960659E3,2.1047368E3,2.2565933E3,4.5005273E3,2.6882856E3,1.5763E1,1.7676067E3,5.8734097E3,2.2494226E3,1.9123572E3,2.8829941E3,4.353065E2,1.0966955E2,3.006289E2,2.0427692E1,3.8557425E2],"tree_param":{"num_deleted":"0","num_feature":"46","num_nodes":"31","size_leaf_vector":"1"}},{"base_weights":[4.281643E-3,-6.906226E-2,3.3737758E-1,-1.8018547E-1,1.7249107E-2,2.405635E-1,7E-1,-3.1685573E-1,-1.4547068E-1,-1.2032741E-2,8.7915204E-2,2.0411178E-1,3.8088015E-1,4.88004E-1,7E-1,-1.26292445E-2,-8.752108E-3,-5.8530974E-3,-3.4677098E-3,-3.9713678E-4,2.1E-2,4.7617117E-3,1.532812E-3,5.683595E-3,1.2677248E-2,1.3540629E-2,5.3228345E-3,6.460432E-4,1.596352E-2,2.1E-2,-2.0072321E-4],"categories":[],"categories_nodes":[],"categories_segments":[],"categories_sizes":[],"default_left":[0,0,0,0,0,0,0,0,0,0,0,0,0,0,0,0,0,0,0,0,0,0,0,0,0,0,0,0,0,0,0],"id":32,"left_children":[1,3,5,7,9,11,13,15,17,19,21,23,25,27,29,-1,-1,-1,-1,-1,-1,-1,-1,-1,-1,-1,-1,-1,-1,-1,-1],"loss_changes":[6.9545337E2,2.2376611E2,2.218169E2,4.829724E1,2.7176584E1,2.1610855E1,1.80083E1,5.1529236E0,1.2022247E1,1.2016656E1,1.0015833E1,1.0671341E1,1.238916E1,8.671173E0,4.1101685E0,0E0,0E0,0E0,0E0,0E0,0E0,0E0,0E0,0E0,0E0,0E0,0E0,0E0,0E0,0E0,0E0],"parents":[2147483647,0,0,1,1,2,2,3,3,4,4,5,5,6,6,7,7,8,8,9,9,10,10,11,11,12,12,13,13,14,14],"right_children":[2,4,6,8,10,12,14,16,18,20,22,24,26,28,30,-1,-1,-1,-1,-1,-1,-1,-1,-1,-1,-1,-1,-1,-1,-1,-1],"split_conditions":[3.491326E-1,-2.725852E-1,1.0765086E0,-8.2184494E-1,1.06553055E-1,7.7874446E-1,1.2957824E0,-1.2817792E0,-5.553034E-1,7E0,1.0024653E-1,1.64061E3,7.90558E-1,-1E0,8.9983666E-1,-1.26292445E-2,-8.752108E-3,-5.8530974E-3,-3.4677098E-3,-3.9713678E-4,2.1E-2,4.7617117E-3,1.532812E-3,5.683595E-3,1.2677248E-2,1.3540629E-2,5.3228345E-3,6.460432E-4,1.596352E-2,2.1E-2,-2.0072321E-4],"split_indices":[35,35,35,35,35,35,35,35,35,6,41,1,41,21,38,0,0,0,0,0,0,0,0,0,0,0,0,0,0,0,0],"split_type":[0,0,0,0,0,0,0,0,0,0,0,0,0,0,0,0,0,0,0,0,0,0,0,0,0,0,0,0,0,0,0],"sum_hessian":[2.846263E4,2.332772E4,5.134911E3,1.0197099E4,1.3130622E4,4.2535767E3,8.813345E2,2.062174E3,8.1349243E3,9.284904E3,3.845718E3,3.3803362E3,8.7324036E2,4.2050424E2,4.608302E2,3.9468002E2,1.6674941E3,3.0528857E3,5.0820386E3,9.279095E3,5.809184E0,1.3133995E3,2.5323186E3,3.1712815E3,2.0905478E2,6.4676825E2,2.2647206E2,3.658791E1,3.8391635E2,4.5263788E2,8.192339E0],"tree_param":{"num_deleted":"0","num_feature":"46","num_nodes":"31","size_leaf_vector":"1"}},{"base_weights":[6.1819437E-3,-9.155698E-2,2.4343444E-1,-2.1536924E-1,-2.2153849E-2,1.7154425E-1,7E-1,-3.5424453E-1,-1.902918E-1,-8.042247E-2,1.76873E-2,1.23406865E-1,2.5249833E-1,4.807119E-1,7E-1,-1.304097E-2,-9.987271E-3,-6.42787E-3,-3.7789964E-3,-1.1702895E-3,-3.8605041E-3,-5.8102E-4,1.5266441E-3,2.9127046E-3,5.9813727E-3,1.5522716E-2,6.959018E-3,2.1E-2,1.15200225E-2,-2.8493495E-3,2.1E-2],"categories":[],"categories_nodes":[],"categories_segments":[],"categories_sizes":[],"default_left":[0,0,0,0,0,0,0,0,0,0,0,0,0,0,0,0,0,0,0,0,0,0,0,0,0,0,0,0,0,0,0],"id":33,"left_children":[1,3,5,7,9,11,13,15,17,19,21,23,25,27,29,-1,-1,-1,-1,-1,-1,-1,-1,-1,-1,-1,-1,-1,-1,-1,-1],"loss_changes":[6.6286847E2,1.7395901E2,2.9143204E2,2.5190765E1,3.0125355E1,2.8278137E1,2.8443909E1,1.6158752E0,9.450363E0,1.0521824E1,9.484652E0,9.087395E0,1.45000305E1,1.5974625E1,5.3038635E0,0E0,0E0,0E0,0E0,0E0,0E0,0E0,0E0,0E0,0E0,0E0,0E0,0E0,0E0,0E0,0E0],"parents":[2147483647,0,0,1,1,2,2,3,3,4,4,5,5,6,6,7,7,8,8,9,9,10,10,11,11,12,12,13,13,14,14],"right_children":[2,4,6,8,10,12,14,16,18,20,22,24,26,28,30,-1,-1,-1,-1,-1,-1,-1,-1,-1,-1,-1,-1,-1,-1,-1,-1],"split_conditions":[1.4376147E-1,-4.1600665E-1,9.8928964E-1,-9.7951156E-1,-1.6972448E-1,4.7076663E-1,1.2957824E0,-1.4702486E0,1E0,-1.5034126E-1,3.2580337E-1,4.441044E-1,-1.6588163E-1,3E0,-2.5E0,-1.304097E-2,-9.987271E-3,-6.42787E-3,-3.7789964E-3,-1.1702895E-3,-3.8605041E-3,-5.8102E-4,1.5266441E-3,2.9127046E-3,5.9813727E-3,1.5522716E-2,6.959018E-3,2.1E-2,1.15200225E-2,-2.8493495E-3,2.1E-2],"split_indices":[35,35,35,35,35,35,35,35,44,41,28,24,38,20,17,0,0,0,0,0,0,0,0,0,0,0,0,0,0,0,0],"split_type":[0,0,0,0,0,0,0,0,0,0,0,0,0,0,0,0,0,0,0,0,0,0,0,0,0,0,0,0,0,0,0],"sum_hessian":[2.858179E4,2.024348E4,8.338309E3,7.269964E3,1.2973517E4,7.2705312E3,1.0677773E3,1.1079641E3,6.162E3,5.2675557E3,7.705961E3,4.562563E3,2.7079685E3,6.0988464E2,4.5789267E2,2.241109E2,8.838533E2,4.4857437E3,1.6762561E3,2.8368599E3,2.4306956E3,3.6420227E3,4.0639382E3,3.3920989E3,1.170464E3,1.912854E2,2.516683E3,1.47429E2,4.6245566E2,7.9429803E0,4.4994968E2],"tree_param":{"num_deleted":"0","num_feature":"46","num_nodes":"31","size_leaf_vector":"1"}},{"base_weights":[4.2065033E-3,-6.493678E-2,3.1049424E-1,-1.7499313E-1,2.2685807E-2,2.4875146E-1,7E-1,-2.650609E-1,-1.3004768E-1,-3.4547667E-3,8.7615706E-2,1.806608E-1,3.5713556E-1,5.112388E-1,7E-1,-1.0515687E-2,-6.777853E-3,-4.54968E-3,-2.228098E-3,-2.6635157E-3,4.0591948E-4,1.5550848E-3,4.7601666E-3,4.9084104E-3,1.1362219E-2,8.727776E-3,1.4471474E-2,1.0321301E-3,1.8900985E-2,2.1E-2,5.0061177E-3],"categories":[],"categories_nodes":[],"categories_segments":[],"categories_sizes":[],"default_left":[0,0,0,0,0,0,0,0,0,0,0,0,0,0,0,0,0,0,0,0,0,0,0,0,0,0,0,0,0,0,0],"id":34,"left_children":[1,3,5,7,9,11,13,15,17,19,21,23,25,27,29,-1,-1,-1,-1,-1,-1,-1,-1,-1,-1,-1,-1,-1,-1,-1,-1],"loss_changes":[6.043852E2,2.2453394E2,1.7692902E2,4.170987E1,2.2004997E1,3.5219208E1,3.6865234E0,1.132518E1,8.280266E0,1.340165E1,9.444498E0,9.822937E0,1.5027618E1,7.375366E0,3.301117E0,0E0,0E0,0E0,0E0,0E0,0E0,0E0,0E0,0E0,0E0,0E0,0E0,0E0,0E0,0E0,0E0],"parents":[2147483647,0,0,1,1,2,2,3,3,4,4,5,5,6,6,7,7,8,8,9,9,10,10,11,11,12,12,13,13,14,14],"right_children":[2,4,6,8,10,12,14,16,18,20,22,24,26,28,30,-1,-1,-1,-1,-1,-1,-1,-1,-1,-1,-1,-1,-1,-1,-1,-1],"split_conditions":[3.491326E-1,-2.6344615E-1,1.2957824E0,-6.734643E-1,1E0,6.66532E-1,-6.8188053E-1,-9.7951156E-1,1E0,-1.6972448E-1,6.942284E-2,1.6424297E3,1E0,3.1742004E-1,5.2E1,-1.0515687E-2,-6.777853E-3,-4.54968E-3,-2.228098E-3,-2.6635157E-3,4.0591948E-4,1.5550848E-3,4.7601666E-3,4.9084104E-3,1.1362219E-2,8.727776E-3,1.4471474E-2,1.0321301E-3,1.8900985E-2,2.1E-2,5.0061177E-3],"split_indices":[35,35,35,35,44,35,42,35,44,35,35,1,44,28,22,0,0,0,0,0,0,0,0,0,0,0,0,0,0,0,0],"split_type":[0,0,0,0,0,0,0,0,0,0,0,0,0,0,0,0,0,0,0,0,0,0,0,0,0,0,0,0,0,0,0],"sum_hessian":[2.8534795E4,2.3280816E4,5.253979E3,1.0318503E4,1.29623125E4,4.787772E3,4.66207E2,3.4317336E3,6.8867695E3,9.243003E3,3.71931E3,2.9437434E3,1.8440287E3,1.2896846E2,3.3723856E2,1.0728362E3,2.3588975E3,4.961316E3,1.9254534E3,1.5330441E3,7.7099585E3,2.4760085E3,1.2433015E3,2.7138374E3,2.299058E2,1.2106725E3,6.3335614E2,2.6236279E1,1.0273218E2,3.2417624E2,1.3062298E1],"tree_param":{"num_deleted":"0","num_feature":"46","num_nodes":"31","size_leaf_vector":"1"}},{"base_weights":[-1.6466755E-3,-9.668485E-2,2.172518E-1,-2.1320906E-1,-3.2480773E-2,1.635459E-1,7E-1,-3.1739312E-1,-1.8129222E-1,-7.784047E-2,5.205451E-3,1.3326205E-1,2.981098E-1,4.799246E-1,7E-1,-8.515026E-3,-1.1302712E-2,-6.1065056E-3,-3.663572E-3,-1.4798841E-3,-3.722577E-3,2.285985E-3,-2.9259553E-4,3.0959377E-3,5.2472153E-3,8.553316E-3,2.1E-2,1.1519788E-2,2.1E-2,2.1E-2,5.895703E-3],"categories":[],"categories_nodes":[],"categories_segments":[],"categories_sizes":[],"default_left":[0,0,0,0,0,0,0,0,0,0,0,0,0,0,0,0,0,0,0,0,0,0,0,0,0,0,0,0,0,0,0],"id":35,"left_children":[1,3,5,7,9,11,13,15,17,19,21,23,25,27,29,-1,-1,-1,-1,-1,-1,-1,-1,-1,-1,-1,-1,-1,-1,-1,-1],"loss_changes":[5.945552E2,1.4906992E2,2.304942E2,2.3423859E1,2.1967983E1,3.174945E1,2.014853E1,3.0879822E0,7.0934753E0,7.6768684E0,7.4574375E0,7.950966E0,9.9724045E0,1.3385948E1,6.332062E0,0E0,0E0,0E0,0E0,0E0,0E0,0E0,0E0,0E0,0E0,0E0,0E0,0E0,0E0,0E0,0E0],"parents":[2147483647,0,0,1,1,2,2,3,3,4,4,5,5,6,6,7,7,8,8,9,9,10,10,11,11,12,12,13,13,14,14],"right_children":[2,4,6,8,10,12,14,16,18,20,22,24,26,28,30,-1,-1,-1,-1,-1,-1,-1,-1,-1,-1,-1,-1,-1,-1,-1,-1],"split_conditions":[1.2937425E-1,-4.2067137E-1,1.0765086E0,-8.6956155E-1,-1.4878522E-1,6.66532E-1,1.2957824E0,9.5350057E-1,1E0,-1.0816459E-1,-9.3333334E-1,-1.7634097E-1,5.294118E-1,-1.0618631E0,-1.0618631E0,-8.515026E-3,-1.1302712E-2,-6.1065056E-3,-3.663572E-3,-1.4798841E-3,-3.722577E-3,2.285985E-3,-2.9259553E-4,3.0959377E-3,5.2472153E-3,8.553316E-3,2.1E-2,1.1519788E-2,2.1E-2,2.1E-2,5.895703E-3],"split_indices":[35,35,35,35,35,35,35,33,44,41,17,42,4,33,33,0,0,0,0,0,0,0,0,0,0,0,0,0,0,0,0],"split_type":[0,0,0,0,0,0,0,0,0,0,0,0,0,0,0,0,0,0,0,0,0,0,0,0,0,0,0,0,0,0,0],"sum_hessian":[2.8575266E4,1.9925441E4,8.649824E3,7.0769033E3,1.2848538E4,7.808558E3,8.4126624E2,1.6554001E3,5.4215034E3,5.8296973E3,7.0188413E3,6.3773125E3,1.4312455E3,4.342405E2,4.0702573E2,1.0649424E3,5.9045776E2,3.936071E3,1.4854323E3,3.6088933E3,2.220804E3,1.2200875E3,5.7987534E3,3.707662E3,2.6696504E3,1.4064674E3,2.4778019E1,3.534405E2,8.08E1,3.8018008E2,2.6845648E1],"tree_param":{"num_deleted":"0","num_feature":"46","num_nodes":"31","size_leaf_vector":"1"}},{"base_weights":[4.367265E-3,-8.673762E-2,2.2565202E-1,-2.073081E-1,-2.1597216E-2,1.8415804E-1,7E-1,-3.2914266E-1,-1.6915637E-1,-7.361485E-2,1.3743681E-2,1.3769402E-1,3.341266E-1,3.0070484E-1,7E-1,-1.2540772E-2,-9.085853E-3,-5.7729054E-3,-3.2559326E-3,-2.912148E-3,1.8003046E-4,3.7037794E-4,2.1E-2,3.1565866E-3,5.2448236E-3,7.819026E-3,1.3661812E-2,1.5901307E-2,1.2494813E-3,2.1E-2,-4.3057417E-3],"categories":[],"categories_nodes":[],"categories_segments":[],"categories_sizes":[],"default_left":[0,0,0,0,0,0,0,0,0,0,0,0,0,0,0,0,0,0,0,0,0,0,0,0,0,0,0,0,0,0,0],"id":36,"left_children":[1,3,5,7,9,11,13,15,17,19,21,23,25,27,29,-1,-1,-1,-1,-1,-1,-1,-1,-1,-1,-1,-1,-1,-1,-1,-1],"loss_changes":[5.778159E2,1.594482E2,2.1339899E2,3.2989227E1,2.4237864E1,5.4773315E1,5.217804E0,3.708664E0,7.6157837E0,9.961988E0,1.1287613E1,7.216255E0,1.6348648E1,2.2653575E0,3.0368958E0,0E0,0E0,0E0,0E0,0E0,0E0,0E0,0E0,0E0,0E0,0E0,0E0,0E0,0E0,0E0,0E0],"parents":[2147483647,0,0,1,1,2,2,3,3,4,4,5,5,6,6,7,7,8,8,9,9,10,10,11,11,12,12,13,13,14,14],"right_children":[2,4,6,8,10,12,14,16,18,20,22,24,26,28,30,-1,-1,-1,-1,-1,-1,-1,-1,-1,-1,-1,-1,-1,-1,-1,-1],"split_conditions":[1.4990823E-1,-4.2067137E-1,1.2957824E0,-8.6956155E-1,-1.6972448E-1,6.66532E-1,5E-1,-1.2817792E0,1E0,7.8829587E-1,7E0,3.6033913E-1,1E0,-2.1E0,8E0,-1.2540772E-2,-9.085853E-3,-5.7729054E-3,-3.2559326E-3,-2.912148E-3,1.8003046E-4,3.7037794E-4,2.1E-2,3.1565866E-3,5.2448236E-3,7.819026E-3,1.3661812E-2,1.5901307E-2,1.2494813E-3,2.1E-2,-4.3057417E-3],"split_indices":[35,35,35,35,35,35,9,35,44,24,6,35,44,17,3,0,0,0,0,0,0,0,0,0,0,0,0,0,0,0,0],"split_type":[0,0,0,0,0,0,0,0,0,0,0,0,0,0,0,0,0,0,0,0,0,0,0,0,0,0,0,0,0,0,0],"sum_hessian":[2.8657387E4,2.0300646E4,8.356738E3,7.1191733E3,1.3181474E4,7.871736E3,4.8500308E2,1.6940624E3,5.425111E3,5.3316895E3,7.849784E3,6.0126895E3,1.8590461E3,3.687314E1,4.4812994E2,3.797888E2,1.3142736E3,3.9170303E3,1.5080806E3,4.1179917E3,1.213698E3,7.8438403E3,5.944175E0,3.211655E3,2.8010344E3,1.161458E3,6.975881E2,1.8448647E1,1.8424492E1,4.4448453E2,3.6454067E0],"tree_param":{"num_deleted":"0","num_feature":"46","num_nodes":"31","size_leaf_vector":"1"}},{"base_weights":[6.8660337E-3,2.1066193E-1,-7.594522E-2,6.6048914E-1,1.6948675E-1,-8.717983E-3,-1.6780142E-1,7E-1,3.6896285E-1,2.535414E-1,1.17408715E-1,-3.7824806E-2,5.9855055E-2,-1.2771982E-1,-2.6876983E-1,2.1E-2,4.7456687E-3,2.1E-2,9.045786E-3,1.3648543E-2,6.742527E-3,2.994483E-3,9.203163E-3,-5.0356187E-4,-3.0788733E-3,1.8271623E-2,1.6016582E-3,-4.5768716E-3,-2.0701792E-3,-6.7626615E-3,-1.0350405E-2],"categories":[],"categories_nodes":[],"categories_segments":[],"categories_sizes":[],"default_left":[0,0,0,0,0,0,0,0,0,0,0,0,0,0,0,0,0,0,0,0,0,0,0,0,0,0,0,0,0,0,0],"id":37,"left_children":[1,3,5,7,9,11,13,15,17,19,21,23,25,27,29,-1,-1,-1,-1,-1,-1,-1,-1,-1,-1,-1,-1,-1,-1,-1,-1],"loss_changes":[4.8445532E2,1.5339755E2,1.2604443E2,2.895346E1,3.321428E1,2.3532763E1,3.4839386E1,7.983673E0,7.789734E0,1.6647476E1,1.558667E1,1.1281285E1,1.2412316E1,8.990753E0,7.939453E0,0E0,0E0,0E0,0E0,0E0,0E0,0E0,0E0,0E0,0E0,0E0,0E0,0E0,0E0,0E0,0E0],"parents":[2147483647,0,0,1,1,2,2,3,3,4,4,5,5,6,6,7,7,8,8,9,9,10,10,11,11,12,12,13,13,14,14],"right_children":[2,4,6,8,10,12,14,16,18,20,22,24,26,28,30,-1,-1,-1,-1,-1,-1,-1,-1,-1,-1,-1,-1,-1,-1,-1,-1],"split_conditions":[-3.1453755E-1,-1.2846682E0,1.6532777E-1,3.0490223E-1,-6.562172E-1,1E0,5.8742225E-1,3.5E0,-7.929425E-1,-1.2303139E-1,-2.680567E-1,1.0805142E-1,-7.9639035E-1,1E0,8.5092616E-1,2.1E-2,4.7456687E-3,2.1E-2,9.045786E-3,1.3648543E-2,6.742527E-3,2.994483E-3,9.203163E-3,-5.0356187E-4,-3.0788733E-3,1.8271623E-2,1.6016582E-3,-4.5768716E-3,-2.0701792E-3,-6.7626615E-3,-1.0350405E-2],"split_indices":[33,33,32,39,33,44,32,8,36,30,34,33,39,44,33,0,0,0,0,0,0,0,0,0,0,0,0,0,0,0,0],"split_type":[0,0,0,0,0,0,0,0,0,0,0,0,0,0,0,0,0,0,0,0,0,0,0,0,0,0,0,0,0,0,0],"sum_hessian":[2.8701854E4,8.292119E3,2.0409732E4,6.9285E2,7.5992695E3,1.1786027E4,8.623706E3,4.1180026E2,2.810497E2,2.9041665E3,4.695103E3,8.274635E3,3.511392E3,6.1763853E3,2.4473208E3,3.832658E2,2.8534449E1,3.246674E1,2.4858298E2,3.5951328E2,2.5446533E3,4.298783E3,3.963198E2,6.248508E3,2.0261268E3,3.8694252E1,3.4726978E3,4.337807E3,1.8385781E3,1.5652963E3,8.820245E2],"tree_param":{"num_deleted":"0","num_feature":"46","num_nodes":"31","size_leaf_vector":"1"}},{"base_weights":[3.63E-3,2.0099606E-1,-7.601897E-2,7E-1,1.6335125E-1,-2.6573423E-2,-1.9744934E-1,7E-1,4.7351277E-1,2.8104812E-1,1.1218079E-1,-1.3894713E-1,-1.0340823E-2,-1.7575479E-1,-3.3916664E-1,2.1E-2,7.8211434E-4,6.308453E-3,1.7087964E-2,6.926565E-3,1.1734258E-2,3.0057526E-3,9.586838E-3,-5.1585143E-3,-1.1339313E-3,-1.139501E-3,1.5434535E-3,-5.3364905E-3,2.1E-2,-1.1585381E-2,-7.15068E-3],"categories":[],"categories_nodes":[],"categories_segments":[],"categories_sizes":[],"default_left":[0,0,0,0,0,0,0,0,0,0,0,0,0,0,0,0,0,0,0,0,0,0,0,0,0,0,0,0,0,0,0],"id":38,"left_children":[1,3,5,7,9,11,13,15,17,19,21,23,25,27,29,-1,-1,-1,-1,-1,-1,-1,-1,-1,-1,-1,-1,-1,-1,-1,-1],"loss_changes":[4.4634912E2,1.856589E2,1.2145337E2,1.3878235E1,4.6351883E1,2.622492E1,1.787735E1,3.3590088E0,7.086624E0,1.2709091E1,1.3299286E1,6.044842E0,2.1466251E1,1.510968E1,3.4887314E0,0E0,0E0,0E0,0E0,0E0,0E0,0E0,0E0,0E0,0E0,0E0,0E0,0E0,0E0,0E0,0E0],"parents":[2147483647,0,0,1,1,2,2,3,3,4,4,5,5,6,6,7,7,8,8,9,9,10,10,11,11,12,12,13,13,14,14],"right_children":[2,4,6,8,10,12,14,16,18,20,22,24,26,28,30,-1,-1,-1,-1,-1,-1,-1,-1,-1,-1,-1,-1,-1,-1,-1,-1],"split_conditions":[-3.1453755E-1,-1.3855388E0,3.2907194E-1,1.1111111E-1,-7.56876E-1,-3.368264E-1,9.5350057E-1,7E0,1.5644409E-1,1E0,1.6910918E-1,6.026408E-1,1E0,9.8E0,1E0,2.1E-2,7.8211434E-4,6.308453E-3,1.7087964E-2,6.926565E-3,1.1734258E-2,3.0057526E-3,9.586838E-3,-5.1585143E-3,-1.1339313E-3,-1.139501E-3,1.5434535E-3,-5.3364905E-3,2.1E-2,-1.1585381E-2,-7.15068E-3],"split_indices":[33,33,33,13,33,41,33,3,28,44,31,28,44,9,44,0,0,0,0,0,0,0,0,0,0,0,0,0,0,0,0],"split_type":[0,0,0,0,0,0,0,0,0,0,0,0,0,0,0,0,0,0,0,0,0,0,0,0,0,0,0,0,0,0,0],"sum_hessian":[2.838976E4,8.161912E3,2.0227848E4,4.5712125E2,7.704791E3,1.4376346E4,5.851503E3,1.6946686E2,2.876544E2,2.3319958E3,5.3727954E3,1.8126642E3,1.2563681E4,5.078543E3,7.7295996E2,1.6191339E2,7.5534587E0,7.8627846E1,2.0902655E2,1.6063025E3,7.256933E2,5.081964E3,2.9083118E2,1.3656694E3,4.4699463E2,8.680896E3,3.8827847E3,5.074817E3,3.7259955E0,5.2327216E2,2.496878E2],"tree_param":{"num_deleted":"0","num_feature":"46","num_nodes":"31","size_leaf_vector":"1"}},{"base_weights":[4.7003645E-3,1.9559427E-1,-7.399012E-2,6.271945E-1,1.5713322E-1,-1.7449351E-2,-1.8809588E-1,7E-1,3.3653715E-1,2.4543782E-1,1.0105939E-1,-3.4636676E-2,6.0209155E-2,-1.528864E-1,-3.1522173E-1,2.1E-2,9.804627E-3,1.0694008E-2,-9.167374E-3,6.8322555E-3,1.3121244E-2,2.5805663E-3,8.1208125E-3,3.224638E-4,-1.9236141E-3,2.1E-2,1.682221E-3,-4.7238325E-3,4.2768577E-3,-5.3254208E-3,-1.0100743E-2],"categories":[],"categories_nodes":[],"categories_segments":[],"categories_sizes":[],"default_left":[0,0,0,0,0,0,0,0,0,0,0,0,0,0,0,0,0,0,0,0,0,0,0,0,0,0,0,0,0,0,0],"id":39,"left_children":[1,3,5,7,9,11,13,15,17,19,21,23,25,27,29,-1,-1,-1,-1,-1,-1,-1,-1,-1,-1,-1,-1,-1,-1,-1,-1],"loss_changes":[4.3025082E2,1.3858615E2,1.3084409E2,3.646515E1,3.7974213E1,1.8108591E1,2.9981766E1,8.659271E0,4.196144E0,9.925873E0,1.1945221E1,1.4864432E1,8.445595E0,7.162636E0,4.1840057E0,0E0,0E0,0E0,0E0,0E0,0E0,0E0,0E0,0E0,0E0,0E0,0E0,0E0,0E0,0E0,0E0],"parents":[2147483647,0,0,1,1,2,2,3,3,4,4,5,5,6,6,7,7,8,8,9,9,10,10,11,11,12,12,13,13,14,14],"right_children":[2,4,6,8,10,12,14,16,18,20,22,24,26,28,30,-1,-1,-1,-1,-1,-1,-1,-1,-1,-1,-1,-1,-1,-1,-1,-1],"split_conditions":[-3.1453755E-1,-1.2846682E0,2.596157E-1,2.4E1,-6.562172E-1,7.873171E-1,7.306534E-1,2.863498E-1,1.4285715E0,-5.1750904E-1,4.857719E-2,3.1226733E-1,9.0137064E-2,1.9841126E-1,4.8731658E-1,2.1E-2,9.804627E-3,1.0694008E-2,-9.167374E-3,6.8322555E-3,1.3121244E-2,2.5805663E-3,8.1208125E-3,3.224638E-4,-1.9236141E-3,2.1E-2,1.682221E-3,-4.7238325E-3,4.2768577E-3,-5.3254208E-3,-1.0100743E-2],"split_indices":[33,33,32,22,33,28,32,39,13,34,40,26,25,25,33,0,0,0,0,0,0,0,0,0,0,0,0,0,0,0,0],"split_type":[0,0,0,0,0,0,0,0,0,0,0,0,0,0,0,0,0,0,0,0,0,0,0,0,0,0,0,0,0,0,0],"sum_hessian":[2.8638342E4,8.358537E3,2.0279805E4,6.814018E2,7.6771353E3,1.3561985E4,6.7178193E3,3.725313E2,3.0887048E2,2.97903E3,4.6981055E3,1.110528E4,2.4567046E3,5.2642173E3,1.4536018E3,3.0531497E2,6.721635E1,3.0043536E2,8.435112E0,2.731562E3,2.47468E2,4.3182456E3,3.7986E2,4.3738013E3,6.7314795E3,8.744925E0,2.4479597E3,5.1848696E3,7.934772E1,1.9856073E2,1.2550411E3],"tree_param":{"num_deleted":"0","num_feature":"46","num_nodes":"31","size_leaf_vector":"1"}},{"base_weights":[1.6397906E-3,-8.992365E-2,2.0800601E-1,-2.0659757E-1,-2.7366078E-2,1.668203E-1,7E-1,-3.12298E-1,-1.7438546E-1,-7.985739E-2,8.422234E-3,1.2297221E-1,2.9032904E-1,7E-1,2.9265174E-1,-1.2298866E-2,-8.7168105E-3,-6.531963E-3,-4.617114E-3,-3.8669102E-3,-1.5817541E-3,2.2988969E-4,2.1E-2,1.5345498E-3,4.3319818E-3,6.0637565E-3,1.0773651E-2,1.5791029E-2,2.1E-2,-4.949299E-3,1.7750053E-2],"categories":[],"categories_nodes":[],"categories_segments":[],"categories_sizes":[],"default_left":[0,0,0,0,0,0,0,0,0,0,0,0,0,0,0,0,0,0,0,0,0,0,0,0,0,0,0,0,0,0,0],"id":40,"left_children":[1,3,5,7,9,11,13,15,17,19,21,23,25,27,29,-1,-1,-1,-1,-1,-1,-1,-1,-1,-1,-1,-1,-1,-1,-1,-1],"loss_changes":[5.40139E2,1.4450734E2,2.1947003E2,2.3420563E1,2.4219213E1,4.4639297E1,7.218109E0,3.1831207E0,4.6393127E0,6.940441E0,5.9556756E0,9.366859E0,1.2970932E1,3.5584412E0,6.95589E0,0E0,0E0,0E0,0E0,0E0,0E0,0E0,0E0,0E0,0E0,0E0,0E0,0E0,0E0,0E0,0E0],"parents":[2147483647,0,0,1,1,2,2,3,3,4,4,5,5,6,6,7,7,8,8,9,9,10,10,11,11,12,12,13,13,14,14],"right_children":[2,4,6,8,10,12,14,16,18,20,22,24,26,28,30,-1,-1,-1,-1,-1,-1,-1,-1,-1,-1,-1,-1,-1,-1,-1,-1],"split_conditions":[1.4376147E-1,-4.2067137E-1,1.2957824E0,-8.6956155E-1,-1.6972448E-1,6.445213E-1,-1.0618631E0,-1.3645431E0,-6.734643E-1,4.331579E-1,1.3970612E0,-2.1006702E-1,-5.888451E-1,-6.8188053E-1,8.75E-1,-1.2298866E-2,-8.7168105E-3,-6.531963E-3,-4.617114E-3,-3.8669102E-3,-1.5817541E-3,2.2988969E-4,2.1E-2,1.5345498E-3,4.3319818E-3,6.0637565E-3,1.0773651E-2,1.5791029E-2,2.1E-2,-4.949299E-3,1.7750053E-2],"split_indices":[35,35,35,35,35,35,33,35,35,0,24,36,43,42,13,0,0,0,0,0,0,0,0,0,0,0,0,0,0,0,0],"split_type":[0,0,0,0,0,0,0,0,0,0,0,0,0,0,0,0,0,0,0,0,0,0,0,0,0,0,0,0,0,0,0],"sum_hessian":[2.8581451E4,1.9798227E4,8.783225E3,6.9086133E3,1.2889614E4,8.253874E3,5.2935077E2,1.6095768E3,5.299036E3,5.224415E3,7.6651987E3,6.0942754E3,2.1595989E3,4.8194458E2,4.740616E1,2.865278E2,1.3230491E3,1.6942085E3,3.604828E3,1.8582527E3,3.3661624E3,7.6628613E3,2.3375843E0,1.401946E3,4.692329E3,9.497434E2,1.2098553E3,1.4853789E2,3.334067E2,1.9088625E1,2.8317535E1],"tree_param":{"num_deleted":"0","num_feature":"46","num_nodes":"31","size_leaf_vector":"1"}},{"base_weights":[5.893298E-3,2.2519346E-1,-5.9641372E-2,6.48932E-1,1.7055197E-1,-1.384456E-2,-1.9737265E-1,4.2091605E-1,7E-1,2.5549397E-1,1.3027081E-1,1.9373352E-2,-6.358889E-2,-1.7619243E-1,-3.3273402E-1,1.6252799E-2,8.669254E-3,2.1E-2,-8.421349E-4,9.858027E-3,5.332341E-3,3.1632888E-3,8.203051E-3,4.7022904E-6,2.5890267E-3,-2.9590232E-3,-4.8214677E-4,-5.3540054E-3,2.1E-2,-1.0528727E-2,-2.6330692E-3],"categories":[],"categories_nodes":[],"categories_segments":[],"categories_sizes":[],"default_left":[0,0,0,0,0,0,0,0,0,0,0,0,0,0,0,0,0,0,0,0,0,0,0,0,0,0,0,0,0,0,0],"id":41,"left_children":[1,3,5,7,9,11,13,15,17,19,21,23,25,27,29,-1,-1,-1,-1,-1,-1,-1,-1,-1,-1,-1,-1,-1,-1,-1,-1],"loss_changes":[4.0951773E2,1.5157474E2,1.3837642E2,3.0175964E1,1.9812332E1,2.721156E1,1.5577591E1,6.464157E0,6.932251E0,1.0494194E1,1.3964935E1,1.2700167E1,1.0976814E1,1.4959122E1,3.2348557E0,0E0,0E0,0E0,0E0,0E0,0E0,0E0,0E0,0E0,0E0,0E0,0E0,0E0,0E0,0E0,0E0],"parents":[2147483647,0,0,1,1,2,2,3,3,4,4,5,5,6,6,7,7,8,8,9,9,10,10,11,11,12,12,13,13,14,14],"right_children":[2,4,6,8,10,12,14,16,18,20,22,24,26,28,30,-1,-1,-1,-1,-1,-1,-1,-1,-1,-1,-1,-1,-1,-1,-1,-1],"split_conditions":[-4.2615056E-1,-1.2846682E0,3.4617728E-1,-3.6732242E-1,-2.1663308E-1,1.9084556E-2,9.5350057E-1,-1.55E0,2.0755118E-1,6.3E1,1.1000963E0,7.873171E-1,9.493006E-2,1.12E1,1.49E2,1.6252799E-2,8.669254E-3,2.1E-2,-8.421349E-4,9.858027E-3,5.332341E-3,3.1632888E-3,8.203051E-3,4.7022904E-6,2.5890267E-3,-2.9590232E-3,-4.8214677E-4,-5.3540054E-3,2.1E-2,-1.0528727E-2,-2.6330692E-3],"split_indices":[33,33,33,40,26,33,33,17,27,23,28,28,38,9,19,0,0,0,0,0,0,0,0,0,0,0,0,0,0,0,0],"split_type":[0,0,0,0,0,0,0,0,0,0,0,0,0,0,0,0,0,0,0,0,0,0,0,0,0,0,0,0,0,0,0],"sum_hessian":[2.8490742E4,6.554016E3,2.1936725E4,7.461276E2,5.807888E3,1.646438E4,5.472344E3,4.2306003E2,3.230676E2,1.8648154E3,3.943073E3,9.872809E3,6.5915723E3,4.7359116E3,7.364328E2,2.1757356E2,2.0548648E2,3.1014133E2,1.2926275E1,9.577751E2,9.0704034E2,3.363279E3,5.7979395E2,7.6719893E3,2.2008196E3,3.792418E3,2.7991543E3,4.732064E3,3.8475256E0,6.846356E2,5.179719E1],"tree_param":{"num_deleted":"0","num_feature":"46","num_nodes":"31","size_leaf_vector":"1"}},{"base_weights":[4.4627003E-3,-6.8848155E-2,2.5370458E-1,-2.0725441E-1,-6.21398E-3,2.0010073E-1,7E-1,-3.4804198E-1,-1.8085703E-1,-7.050403E-2,2.73783E-2,1.6960396E-1,3.8209203E-1,4.943696E-1,7E-1,4.3413565E-3,-1.0528657E-2,-6.1059003E-3,-3.6514224E-3,-2.4835404E-3,5.5138563E-4,2.523045E-4,2.2234449E-3,3.8222175E-3,6.6674114E-3,1.692506E-4,1.2253466E-2,1.71722E-2,5.0412575E-3,1.0137649E-2,2.1E-2],"categories":[],"categories_nodes":[],"categories_segments":[],"categories_sizes":[],"default_left":[0,0,0,0,0,0,0,0,0,0,0,0,0,0,0,0,0,0,0,0,0,0,0,0,0,0,0,0,0,0,0],"id":42,"left_children":[1,3,5,7,9,11,13,15,17,19,21,23,25,27,29,-1,-1,-1,-1,-1,-1,-1,-1,-1,-1,-1,-1,-1,-1,-1,-1],"loss_changes":[5.220353E2,1.9137888E2,1.906547E2,2.5435394E1,3.2832066E1,3.2851624E1,1.0924591E1,1.6573792E0,7.722702E0,5.6979713E0,8.850878E0,1.125708E1,8.441742E0,6.9772263E0,9.230377E0,0E0,0E0,0E0,0E0,0E0,0E0,0E0,0E0,0E0,0E0,0E0,0E0,0E0,0E0,0E0,0E0],"parents":[2147483647,0,0,1,1,2,2,3,3,4,4,5,5,6,6,7,7,8,8,9,9,10,10,11,11,12,12,13,13,14,14],"right_children":[2,4,6,8,10,12,14,16,18,20,22,24,26,28,30,-1,-1,-1,-1,-1,-1,-1,-1,-1,-1,-1,-1,-1,-1,-1,-1],"split_conditions":[2.809329E-1,-4.1600665E-1,1.2957824E0,-9.5846444E-1,-1.6972448E-1,9.2170405E-1,1.4838156E0,2E0,1E0,4.4404846E-1,1E0,5.1846933E-1,-3.2E1,1.4285715E0,-6.8188053E-1,4.3413565E-3,-1.0528657E-2,-6.1059003E-3,-3.6514224E-3,-2.4835404E-3,5.5138563E-4,2.523045E-4,2.2234449E-3,3.8222175E-3,6.6674114E-3,1.692506E-4,1.2253466E-2,1.71722E-2,5.0412575E-3,1.0137649E-2,2.1E-2],"split_indices":[35,35,35,35,35,35,35,20,44,36,44,35,21,15,42,0,0,0,0,0,0,0,0,0,0,0,0,0,0,0,0],"split_type":[0,0,0,0,0,0,0,0,0,0,0,0,0,0,0,0,0,0,0,0,0,0,0,0,0,0,0,0,0,0,0],"sum_hessian":[2.8566107E4,2.2074627E4,6.491481E3,6.8759146E3,1.5198712E4,5.9404087E3,5.510723E2,1.0818129E3,5.7941016E3,5.2152983E3,9.983413E3,5.0911367E3,8.492717E2,2.7953973E2,2.715326E2,5.786048E0,1.0760269E3,4.1849E3,1.6092017E3,4.582317E3,6.3298157E2,7.103001E3,2.8804124E3,2.8297537E3,2.2613833E3,5.5729218E1,7.935425E2,2.2437509E2,5.516463E1,7.588212E1,1.9565048E2],"tree_param":{"num_deleted":"0","num_feature":"46","num_nodes":"31","size_leaf_vector":"1"}},{"base_weights":[4.164555E-3,-6.456835E-2,2.3807639E-1,-1.8657185E-1,7.864092E-4,1.8644436E-1,7E-1,-3.1921056E-1,-1.5313399E-1,-5.6588933E-2,2.5929991E-2,1.6374591E-1,3.6022145E-1,7E-1,4.7878185E-1,-1.2524521E-2,-8.918027E-3,-5.228238E-3,-2.966826E-3,-2.5939175E-3,4.1372934E-4,2.1E-2,7.36439E-4,3.6255647E-3,5.949063E-3,7.1066096E-3,1.7231598E-2,2.1E-2,-6.5661105E-3,2.1E-2,1.0408073E-2],"categories":[],"categories_nodes":[],"categories_segments":[],"categories_sizes":[],"default_left":[0,0,0,0,0,0,0,0,0,0,0,0,0,0,0,0,0,0,0,0,0,0,0,0,0,0,0,0,0,0,0],"id":43,"left_children":[1,3,5,7,9,11,13,15,17,19,21,23,25,27,29,-1,-1,-1,-1,-1,-1,-1,-1,-1,-1,-1,-1,-1,-1,-1,-1],"loss_changes":[4.5973465E2,1.762226E2,1.8914465E2,3.409427E1,2.0767523E1,2.3449615E1,8.4021E0,3.094986E0,7.030075E0,9.225193E0,1.0538061E1,7.7905426E0,1.791639E1,5.079712E0,5.15366E0,0E0,0E0,0E0,0E0,0E0,0E0,0E0,0E0,0E0,0E0,0E0,0E0,0E0,0E0,0E0,0E0],"parents":[2147483647,0,0,1,1,2,2,3,3,4,4,5,5,6,6,7,7,8,8,9,9,10,10,11,11,12,12,13,13,14,14],"right_children":[2,4,6,8,10,12,14,16,18,20,22,24,26,28,30,-1,-1,-1,-1,-1,-1,-1,-1,-1,-1,-1,-1,-1,-1,-1,-1],"split_conditions":[2.809329E-1,-3.740481E-1,1.2957824E0,-8.6956155E-1,-1.6972448E-1,9.8928964E-1,2.4E1,-1.3645431E0,1E0,1E0,-6.2E0,4.7076663E-1,-1.1277403E0,6.382543E-1,1.0179851E-1,-1.2524521E-2,-8.918027E-3,-5.228238E-3,-2.966826E-3,-2.5939175E-3,4.1372934E-4,2.1E-2,7.36439E-4,3.6255647E-3,5.949063E-3,7.1066096E-3,1.7231598E-2,2.1E-2,-6.5661105E-3,2.1E-2,1.0408073E-2],"split_indices":[35,35,35,35,35,35,22,35,44,44,18,35,33,38,29,0,0,0,0,0,0,0,0,0,0,0,0,0,0,0,0],"split_type":[0,0,0,0,0,0,0,0,0,0,0,0,0,0,0,0,0,0,0,0,0,0,0,0,0,0,0,0,0,0,0],"sum_hessian":[2.8591104E4,2.2098969E4,6.492136E3,7.707321E3,1.4391647E4,5.9728403E3,5.1929596E2,1.5483512E3,6.1589697E3,4.3843843E3,1.0007264E4,5.2862446E3,6.865954E2,3.295803E2,1.8971567E2,2.7603812E2,1.2723131E3,4.4284863E3,1.7304833E3,3.0775593E3,1.3068248E3,1.56715555E1,9.991592E3,2.3626008E3,2.923644E3,4.383618E2,2.482336E2,3.2440326E2,5.1770377E0,6.724555E1,1.22470116E2],"tree_param":{"num_deleted":"0","num_feature":"46","num_nodes":"31","size_leaf_vector":"1"}},{"base_weights":[3.2245987E-3,-8.184355E-2,1.9404595E-1,-1.9143109E-1,-2.0085644E-2,1.5889846E-1,7E-1,-3.3566034E-1,-1.6809645E-1,-7.266412E-2,1.3918119E-2,1.0281652E-1,2.4405101E-1,7E-1,3.9624444E-1,-1.2278073E-2,-9.200784E-3,-5.715219E-3,-3.3050254E-3,-3.8959363E-3,-1.2374147E-3,3.7543272E-4,2.1E-2,1.986869E-3,4.543443E-3,6.0278955E-3,1.0084386E-2,1.4234122E-2,2.1E-2,2.1E-2,8.576307E-3],"categories":[],"categories_nodes":[],"categories_segments":[],"categories_sizes":[],"default_left":[0,0,0,0,0,0,0,0,0,0,0,0,0,0,0,0,0,0,0,0,0,0,0,0,0,0,0,0,0,0,0],"id":44,"left_children":[1,3,5,7,9,11,13,15,17,19,21,23,25,27,29,-1,-1,-1,-1,-1,-1,-1,-1,-1,-1,-1,-1,-1,-1,-1,-1],"loss_changes":[4.6583078E2,1.3432472E2,1.7412292E2,2.3963318E1,2.2702093E1,3.975038E1,1.8137726E1,1.868866E0,7.9571533E0,8.950815E0,1.0941868E1,8.92691E0,1.3001648E1,3.1576538E0,7.955494E0,0E0,0E0,0E0,0E0,0E0,0E0,0E0,0E0,0E0,0E0,0E0,0E0,0E0,0E0,0E0,0E0],"parents":[2147483647,0,0,1,1,2,2,3,3,4,4,5,5,6,6,7,7,8,8,9,9,10,10,11,11,12,12,13,13,14,14],"right_children":[2,4,6,8,10,12,14,16,18,20,22,24,26,28,30,-1,-1,-1,-1,-1,-1,-1,-1,