{"learner":{"attributes":{"best_iteration":"178","best_score":"0.8250132275138937","scikit_learn":"{\"_estimator_type\": \"classifier\"}"},"feature_names":["elo_diff","elo_home_pre","elo_away_pre","h2h_matches","h2h_home_win_rate","home_form_goals_for_5","home_form_goals_against_5","home_form_points_5","away_form_goals_for_5","away_form_goals_against_5","away_form_points_5","home_form_goals_for_10","home_form_goals_against_10","home_form_points_10","away_form_goals_for_10","away_form_goals_against_10","away_form_points_10","form_points_diff_5","form_goal_diff_5","home_rest_days","away_rest_days","rest_days_diff","home_matches_played","away_matches_played","home_mcmc_attack_mean","home_mcmc_attack_sd","home_mcmc_defense_mean","home_mcmc_defense_sd","away_mcmc_attack_mean","away_mcmc_attack_sd","away_mcmc_defense_mean","away_mcmc_defense_sd","mcmc_attack_diff","mcmc_defense_diff","mcmc_net_strength_home","mcmc_net_strength_away","neutral","tournament_tier_enc"],"feature_types":["float","float","float","float","float","float","float","float","float","float","float","float","float","float","float","float","float","float","float","float","float","float","int","int","float","float","float","float","float","float","float","float","float","float","float","float","int","int"],"gradient_booster":{"model":{"cats":{"enc":[],"feature_segments":[],"sorted_idx":[]},"gbtree_model_param":{"num_parallel_tree":"1","num_trees":"687"},"iteration_indptr":[0,3,6,9,12,15,18,21,24,27,30,33,36,39,42,45,48,51,54,57,60,63,66,69,72,75,78,81,84,87,90,93,96,99,102,105,108,111,114,117,120,123,126,129,132,135,138,141,144,147,150,153,156,159,162,165,168,171,174,177,180,183,186,189,192,195,198,201,204,207,210,213,216,219,222,225,228,231,234,237,240,243,246,249,252,255,258,261,264,267,270,273,276,279,282,285,288,291,294,297,300,303,306,309,312,315,318,321,324,327,330,333,336,339,342,345,348,351,354,357,360,363,366,369,372,375,378,381,384,387,390,393,396,399,402,405,408,411,414,417,420,423,426,429,432,435,438,441,444,447,450,453,456,459,462,465,468,471,474,477,480,483,486,489,492,495,498,501,504,507,510,513,516,519,522,525,528,531,534,537,540,543,546,549,552,555,558,561,564,567,570,573,576,579,582,585,588,591,594,597,600,603,606,609,612,615,618,621,624,627,630,633,636,639,642,645,648,651,654,657,660,663,666,669,672,675,678,681,684,687],"tree_info":[0,1,2,0,1,2,0,1,2,0,1,2,0,1,2,0,1,2,0,1,2,0,1,2,0,1,2,0,1,2,0,1,2,0,1,2,0,1,2,0,1,2,0,1,2,0,1,2,0,1,2,0,1,2,0,1,2,0,1,2,0,1,2,0,1,2,0,1,2,0,1,2,0,1,2,0,1,2,0,1,2,0,1,2,0,1,2,0,1,2,0,1,2,0,1,2,0,1,2,0,1,2,0,1,2,0,1,2,0,1,2,0,1,2,0,1,2,0,1,2,0,1,2,0,1,2,0,1,2,0,1,2,0,1,2,0,1,2,0,1,2,0,1,2,0,1,2,0,1,2,0,1,2,0,1,2,0,1,2,0,1,2,0,1,2,0,1,2,0,1,2,0,1,2,0,1,2,0,1,2,0,1,2,0,1,2,0,1,2,0,1,2,0,1,2,0,1,2,0,1,2,0,1,2,0,1,2,0,1,2,0,1,2,0,1,2,0,1,2,0,1,2,0,1,2,0,1,2,0,1,2,0,1,2,0,1,2,0,1,2,0,1,2,0,1,2,0,1,2,0,1,2,0,1,2,0,1,2,0,1,2,0,1,2,0,1,2,0,1,2,0,1,2,0,1,2,0,1,2,0,1,2,0,1,2,0,1,2,0,1,2,0,1,2,0,1,2,0,1,2,0,1,2,0,1,2,0,1,2,0,1,2,0,1,2,0,1,2,0,1,2,0,1,2,0,1,2,0,1,2,0,1,2,0,1,2,0,1,2,0,1,2,0,1,2,0,1,2,0,1,2,0,1,2,0,1,2,0,1,2,0,1,2,0,1,2,0,1,2,0,1,2,0,1,2,0,1,2,0,1,2,0,1,2,0,1,2,0,1,2,0,1,2,0,1,2,0,1,2,0,1,2,0,1,2,0,1,2,0,1,2,0,1,2,0,1,2,0,1,2,0,1,2,0,1,2,0,1,2,0,1,2,0,1,2,0,1,2,0,1,2,0,1,2,0,1,2,0,1,2,0,1,2,0,1,2,0,1,2,0,1,2,0,1,2,0,1,2,0,1,2,0,1,2,0,1,2,0,1,2,0,1,2,0,1,2,0,1,2,0,1,2,0,1,2,0,1,2,0,1,2,0,1,2,0,1,2,0,1,2,0,1,2,0,1,2,0,1,2,0,1,2,0,1,2,0,1,2,0,1,2,0,1,2,0,1,2,0,1,2,0,1,2,0,1,2,0,1,2,0,1,2,0,1,2,0,1,2,0,1,2,0,1,2,0,1,2,0,1,2,0,1,2,0,1,2,0,1,2,0,1,2,0,1,2,0,1,2,0,1,2,0,1,2,0,1,2,0,1,2,0,1,2,0,1,2,0,1,2,0,1,2,0,1,2,0,1,2,0,1,2,0,1,2,0,1,2,0,1,2,0,1,2,0,1,2,0,1,2,0,1,2,0,1,2,0,1,2,0,1,2,0,1,2,0,1,2,0,1,2,0,1,2,0,1,2,0,1,2,0,1,2,0,1,2,0,1,2,0,1,2,0,1,2,0,1,2],"trees":[{"base_weights":[-1.5811222E-3,8.616833E-1,-2.2864649E-1,1.3796703E0,6.1088E-1,2.4101457E-2,-5.0167614E-1,1.3936101E0,3.957613E-3,7.278918E-1,1.6944991E-1,4.0772098E-1,-4.124402E-2,-3.2901976E-1,-5.921235E-1,6.806933E-3,4.2077564E-2,2.934458E-2,1.7697806E-2,-3.007156E-4,1.3089534E-2,8.376532E-3,2.3496922E-2,-2.074087E-3,1.882586E-2,-1.2481016E-2,-5.4167234E-3,-1.9139072E-2,-1.4248558E-2],"categories":[],"categories_nodes":[],"categories_segments":[],"categories_sizes":[],"default_left":[0,0,0,0,0,0,0,0,0,0,0,0,0,0,0,0,0,0,0,0,0,0,0,0,0,0,0,0,0],"id":0,"left_children":[1,3,5,7,9,11,13,15,-1,17,19,21,23,25,27,-1,-1,-1,-1,-1,-1,-1,-1,-1,-1,-1,-1,-1,-1],"loss_changes":[4.905171E2,6.601691E1,1.367468E2,2.561737E0,1.8075302E1,2.5872395E1,1.4485077E1,1.1055298E0,0E0,8.506119E0,3.6934392E0,6.810734E0,1.654943E1,4.1379547E0,2.7382965E0,0E0,0E0,0E0,0E0,0E0,0E0,0E0,0E0,0E0,0E0,0E0,0E0,0E0,0E0],"parents":[2147483647,0,0,1,1,2,2,3,3,4,4,5,5,6,6,7,7,9,9,10,10,11,11,12,12,13,13,14,14],"right_children":[2,4,6,8,10,12,14,16,-1,18,20,22,24,26,28,-1,-1,-1,-1,-1,-1,-1,-1,-1,-1,-1,-1,-1,-1],"split_conditions":[-2.935436E-1,-6.7078584E-1,1.5408677E-1,1.4757478E0,-1.3952968E-1,-2.634283E-1,2.7078697E-1,4.2857143E-1,3.957613E-3,-5.9388506E-1,1E0,-2.8889757E-1,3E0,1.450931E-1,3.3180475E-1,6.806933E-3,4.2077564E-2,2.934458E-2,1.7697806E-2,-3.007156E-4,1.3089534E-2,8.376532E-3,2.3496922E-2,-2.074087E-3,1.882586E-2,-1.2481016E-2,-5.4167234E-3,-1.9139072E-2,-1.4248558E-2],"split_indices":[33,32,33,30,32,32,32,12,0,33,36,34,12,27,30,0,0,0,0,0,0,0,0,0,0,0,0,0,0],"split_type":[0,0,0,0,0,0,0,0,0,0,0,0,0,0,0,0,0,0,0,0,0,0,0,0,0,0,0,0,0],"sum_hessian":[2.498405E3,5.1913837E2,1.9792667E3,1.6642235E2,3.5271603E2,1.028755E3,9.505117E2,1.6435242E2,2.0699296E0,2.7778458E2,7.493146E1,1.4820697E2,8.805481E2,3.2994678E2,6.2056494E2,1.6559438E0,1.6269647E2,9.4388794E1,1.8339577E2,4.595244E1,2.8979015E1,1.1301816E2,3.5188805E1,8.4701526E2,3.353286E1,2.05751E2,1.2419578E2,4.3965308E2,1.8091185E2],"tree_param":{"num_deleted":"0","num_feature":"38","num_nodes":"29","size_leaf_vector":"1"}},{"base_weights":[-4.527854E-3,6.435594E-2,-4.1922012E-1,-3.1630516E-1,1.0148806E-1,-3.077165E-1,-5.763969E-1,-4.7891316E-1,2.817386E-2,1.5391533E-1,-1.0164572E-1,-3.3340922E-1,2.6077E-1,-1.5568145E-2,-5.9078896E-1,4.578237E-4,-1.5429229E-2,1.7137362E-2,-3.0406911E-3,-2.011568E-4,6.704914E-3,9.06256E-3,-4.1087256E-3,6.565286E-3,-1.069815E-2,-8.496141E-3,2.5703102E-2,-1.0069757E-2,1.2780077E-2,-1.7954981E-2,2.9970396E-3],"categories":[],"categories_nodes":[],"categories_segments":[],"categories_sizes":[],"default_left":[0,0,0,0,0,0,0,0,0,0,0,0,0,0,0,0,0,0,0,0,0,0,0,0,0,0,0,0,0,0,0],"id":1,"left_children":[1,3,5,7,9,11,13,15,17,19,21,23,25,27,29,-1,-1,-1,-1,-1,-1,-1,-1,-1,-1,-1,-1,-1,-1,-1,-1],"loss_changes":[6.1855747E1,2.6313229E1,5.0511055E0,9.299438E0,1.8066858E1,2.8720837E0,9.9633026E-1,1.9845524E0,3.9826968E0,1.5056278E1,5.0528803E0,2.431408E0,3.4388964E0,1.0209073E0,7.7205276E-1,0E0,0E0,0E0,0E0,0E0,0E0,0E0,0E0,0E0,0E0,0E0,0E0,0E0,0E0,0E0,0E0],"parents":[2147483647,0,0,1,1,2,2,3,3,4,4,5,5,6,6,7,7,8,8,9,9,10,10,11,11,12,12,13,13,14,14],"right_children":[2,4,6,8,10,12,14,16,18,20,22,24,26,28,30,-1,-1,-1,-1,-1,-1,-1,-1,-1,-1,-1,-1,-1,-1,-1,-1],"split_conditions":[5.634079E-1,-6.577782E-1,7.315786E-1,-6.046742E-1,1.7580725E-1,2.2E0,2.7712297E-1,1E0,6.25E-1,1.4628239E-2,1.194769E-1,2E-1,5.555556E-1,1.5331949E2,3E0,4.578237E-4,-1.5429229E-2,1.7137362E-2,-3.0406911E-3,-2.011568E-4,6.704914E-3,9.06256E-3,-4.1087256E-3,6.565286E-3,-1.069815E-2,-8.496141E-3,2.5703102E-2,-1.0069757E-2,1.2780077E-2,-1.7954981E-2,2.9970396E-3],"split_indices":[33,32,34,33,34,6,32,6,15,30,27,6,4,0,10,0,0,0,0,0,0,0,0,0,0,0,0,0,0,0,0],"split_type":[0,0,0,0,0,0,0,0,0,0,0,0,0,0,0,0,0,0,0,0,0,0,0,0,0,0,0,0,0,0,0],"sum_hessian":[2.1615059E3,1.8550555E3,3.0645035E2,1.6353499E2,1.6915205E3,1.8273257E2,1.23717766E2,1.10563866E2,5.2971115E1,1.3448975E3,3.4662305E2,1.7562234E2,7.1102166E0,3.1995974E0,1.2051817E2,7.4657273E0,1.03098145E2,8.887771E0,4.4083344E1,4.070599E2,9.378376E2,2.6663313E1,3.1995975E2,6.3991947E0,1.6922316E2,4.26613E0,2.8440866E0,2.133065E0,1.0665325E0,1.1945164E2,1.0665325E0],"tree_param":{"num_deleted":"0","num_feature":"38","num_nodes":"31","size_leaf_vector":"1"}},{"base_weights":[-6.3449363E-3,-2.975532E-1,5.116214E-1,-6.424405E-1,-8.850356E-2,2.5425676E-1,7.4042183E-1,-8.1117755E-1,-4.673842E-1,-3.054821E-1,9.957384E-4,-1.5419438E-1,3.0912545E-1,5.4387033E-1,8.551635E-1,-2.6337784E-2,-1.99628E-2,-1.5594068E-2,9.428114E-4,5.011308E-3,-9.77861E-3,-9.376067E-3,1.7177532E-3,-6.925225E-3,6.203504E-3,5.579643E-3,1.4901698E-2,1.7922238E-2,7.1994415E-3,2.2989996E-2,3.0079879E-2],"categories":[],"categories_nodes":[],"categories_segments":[],"categories_sizes":[],"default_left":[0,0,0,0,0,0,0,0,0,0,0,0,0,0,0,0,0,0,0,0,0,0,0,0,0,0,0,0,0,0,0],"id":2,"left_children":[1,3,5,7,9,11,13,15,17,19,21,23,25,27,29,-1,-1,-1,-1,-1,-1,-1,-1,-1,-1,-1,-1,-1,-1,-1,-1],"loss_changes":[4.562247E2,1.3947595E2,6.3721436E1,2.081491E1,2.3454494E1,1.1644505E1,1.2041992E1,2.4230804E0,9.528572E0,3.5207024E0,1.5154297E1,1.8208939E0,1.0325138E1,3.2520294E0,3.1759949E0,0E0,0E0,0E0,0E0,0E0,0E0,0E0,0E0,0E0,0E0,0E0,0E0,0E0,0E0,0E0,0E0],"parents":[2147483647,0,0,1,1,2,2,3,3,4,4,5,5,6,6,7,7,8,8,9,9,10,10,11,11,12,12,13,13,14,14],"right_children":[2,4,6,8,10,12,14,16,18,20,22,24,26,28,30,-1,-1,-1,-1,-1,-1,-1,-1,-1,-1,-1,-1,-1,-1,-1,-1],"split_conditions":[1.752813E-1,-2.3404157E-1,4.100986E-1,-5.8335865E-1,-6.1059546E-2,-1.0947447E-1,4.7269723E-1,-5.7765895E-1,1.690408E-1,-2.897041E-1,-1.2666667E0,7.1E1,4.0210918E-1,6.242187E-1,8.434328E-1,-2.6337784E-2,-1.99628E-2,-1.5594068E-2,9.428114E-4,5.011308E-3,-9.77861E-3,-9.376067E-3,1.7177532E-3,-6.925225E-3,6.203504E-3,5.579643E-3,1.4901698E-2,1.7922238E-2,7.1994415E-3,2.2989996E-2,3.0079879E-2],"split_indices":[32,32,33,34,33,33,34,32,33,35,18,23,32,30,34,0,0,0,0,0,0,0,0,0,0,0,0,0,0,0,0],"split_type":[0,0,0,0,0,0,0,0,0,0,0,0,0,0,0,0,0,0,0,0,0,0,0,0,0,0,0,0,0,0,0],"sum_hessian":[3.02062E3,1.9340948E3,1.0865253E3,7.283411E2,1.2057538E3,5.133308E2,5.731945E2,3.6716376E2,3.6117737E2,3.5070123E2,8.5505255E2,6.036252E1,4.5296832E2,2.1550916E2,3.5768533E2,2.4494212E2,1.2222163E2,3.2675577E2,3.44216E1,1.3968186E1,3.3673306E2,1.2870686E2,7.263457E2,5.0385242E1,9.977276E0,2.7587167E2,1.7709665E2,1.8158643E2,3.3922737E1,2.3097394E2,1.267114E2],"tree_param":{"num_deleted":"0","num_feature":"38","num_nodes":"31","size_leaf_vector":"1"}},{"base_weights":[-1.4798165E-2,-2.4043278E-1,7.7273977E-1,-5.0649136E-1,1.3484293E-2,1.2149594E0,4.7781247E-1,-4.03713E-1,-5.99801E-1,4.4727823E-1,-3.295517E-2,1.3290083E0,8.360884E-1,5.748699E-1,5.689216E-2,-1.4323024E-2,-8.279732E-3,-1.6056065E-2,-1.9680949E-2,1.7516047E-2,-6.9466075E-3,5.48939E-3,-3.0936205E-3,4.0291604E-2,3.4983077E-3,-9.773755E-3,2.6492942E-2,1.3452446E-2,2.4795221E-2,2.3992043E-2,-1.4246601E-3],"categories":[],"categories_nodes":[],"categories_segments":[],"categories_sizes":[],"default_left":[0,0,0,0,0,0,0,0,0,0,0,0,0,0,0,0,0,0,0,0,0,0,0,0,0,0,0,0,0,0,0],"id":3,"left_children":[1,3,5,7,9,11,13,15,17,19,21,23,25,27,29,-1,-1,-1,-1,-1,-1,-1,-1,-1,-1,-1,-1,-1,-1,-1,-1],"loss_changes":[4.4768265E2,1.32304E2,7.201605E1,8.686752E0,2.02535E1,7.4215393E0,1.3820274E1,4.0788116E0,1.1035461E0,9.284578E0,1.380557E1,2.550171E0,3.6904716E0,8.040756E0,5.1863256E0,0E0,0E0,0E0,0E0,0E0,0E0,0E0,0E0,0E0,0E0,0E0,0E0,0E0,0E0,0E0,0E0],"parents":[2147483647,0,0,1,1,2,2,3,3,4,4,5,5,6,6,7,7,8,8,9,9,10,10,11,11,12,12,13,13,14,14],"right_children":[2,4,6,8,10,12,14,16,18,20,22,24,26,28,30,-1,-1,-1,-1,-1,-1,-1,-1,-1,-1,-1,-1,-1,-1,-1,-1],"split_conditions":[1.8674277E-1,-2.4159944E-1,-5.9388506E-1,4.100986E-1,-1.8666667E0,-4.8116174E-1,-1.61502E-1,-3.6611226E-1,5.1251936E-1,3.7363764E-2,-1.2295048E-1,5.714286E0,-1.1836935E0,1E0,8E-1,-1.4323024E-2,-8.279732E-3,-1.6056065E-2,-1.9680949E-2,1.7516047E-2,-6.9466075E-3,5.48939E-3,-3.0936205E-3,4.0291604E-2,3.4983077E-3,-9.773755E-3,2.6492942E-2,1.3452446E-2,2.4795221E-2,2.3992043E-2,-1.4246601E-3],"split_indices":[35,35,33,33,18,32,32,35,34,32,33,12,24,36,14,0,0,0,0,0,0,0,0,0,0,0,0,0,0,0,0],"split_type":[0,0,0,0,0,0,0,0,0,0,0,0,0,0,0,0,0,0,0,0,0,0,0,0,0,0,0,0,0,0,0],"sum_hessian":[2.5152854E3,1.9562086E3,5.590768E2,9.5429395E2,1.0019146E3,2.2118652E2,3.3789026E2,4.591759E2,4.9511807E2,9.521765E1,9.0669696E2,1.661545E2,5.5032017E1,2.7398276E2,6.390747E1,2.876614E2,1.7151448E2,2.4020374E2,2.5491434E2,7.950081E1,1.5716843E1,2.215769E2,6.8512006E2,1.6403865E2,2.1158483E0,1.6787893E0,5.335323E1,1.8605092E2,8.7931854E1,6.2321305E0,5.7675343E1],"tree_param":{"num_deleted":"0","num_feature":"38","num_nodes":"31","size_leaf_vector":"1"}},{"base_weights":[-8.095848E-3,5.631731E-2,-4.0123206E-1,9.933969E-2,-3.9546135E-1,-3.399382E-1,-6.1182505E-1,1.3442191E-1,-6.434916E-2,-4.2273572E-1,7.5705224E-1,1.13667004E-1,-3.6095175E-1,7.187191E-4,-1.879177E-2,4.7501605E-3,-2.460807E-3,-5.8773127E-3,1.7257357E-3,-1.3012791E-2,1.2718352E-2,2.702658E-2,3.053609E-3,-9.960151E-3,1.6455961E-2,-1.1500851E-2,2.6481713E-3],"categories":[],"categories_nodes":[],"categories_segments":[],"categories_sizes":[],"default_left":[0,0,0,0,0,0,0,0,0,0,0,0,0,0,0,0,0,0,0,0,0,0,0,0,0,0,0],"id":4,"left_children":[1,3,5,7,9,11,13,15,17,19,21,23,25,-1,-1,-1,-1,-1,-1,-1,-1,-1,-1,-1,-1,-1,-1],"loss_changes":[5.5017582E1,3.636634E1,3.532013E0,9.81555E0,5.7554474E0,2.383072E0,6.454544E-1,7.3032074E0,4.872749E0,1.8635693E0,2.3871827E-1,2.7304268E0,2.395132E0,0E0,0E0,0E0,0E0,0E0,0E0,0E0,0E0,0E0,0E0,0E0,0E0,0E0,0E0],"parents":[2147483647,0,0,1,1,2,2,3,3,4,4,5,5,6,6,7,7,8,8,9,9,10,10,11,11,12,12],"right_children":[2,4,6,8,10,12,14,16,18,20,22,24,26,-1,-1,-1,-1,-1,-1,-1,-1,-1,-1,-1,-1,-1,-1],"split_conditions":[5.634079E-1,5.785781E-1,1.0141467E0,1.35E0,5.8E0,9.5067814E-2,2.5E-1,2.4E0,1.10104896E-1,7.800359E-1,1.9E1,1.24762185E-1,2.3333333E0,7.187191E-4,-1.879177E-2,4.7501605E-3,-2.460807E-3,-5.8773127E-3,1.7257357E-3,-1.3012791E-2,1.2718352E-2,2.702658E-2,3.053609E-3,-9.960151E-3,1.6455961E-2,-1.1500851E-2,2.6481713E-3],"split_indices":[33,35,33,18,12,25,7,6,25,24,20,31,6,0,0,0,0,0,0,0,0,0,0,0,0,0,0],"split_type":[0,0,0,0,0,0,0,0,0,0,0,0,0,0,0,0,0,0,0,0,0,0,0,0,0,0,0],"sum_hessian":[2.1688357E3,1.8649824E3,3.038534E2,1.7042489E3,1.6073349E2,2.3940273E2,6.445066E1,1.403751E3,3.00498E2,1.5825478E2,2.4787083E0,1.0209018E1,2.2919371E2,1.4147658E0,6.3035896E1,1.264559E3,1.3919199E2,1.4392145E2,1.5657654E2,1.571836E2,1.0711832E0,1.4178089E0,1.0608994E0,5.2754908E0,4.9335275E0,2.1858272E2,1.0610978E1],"tree_param":{"num_deleted":"0","num_feature":"38","num_nodes":"27","size_leaf_vector":"1"}},{"base_weights":[6.376209E-5,-2.9313508E-1,5.100394E-1,-5.48162E-1,-2.5427315E-2,1.9971316E-1,6.809327E-1,-6.8822503E-1,-3.177946E-1,-7.1463145E-2,4.6555024E-1,-1.18419476E-1,2.6457953E-1,5.044139E-1,8.135565E-1,-2.5326202E-2,-1.7297579E-2,-6.8693296E-3,-1.4859484E-2,-1.0949126E-2,-7.2067627E-4,4.6378365E-3,1.9129088E-2,-9.345898E-3,3.8466789E-3,9.201159E-3,-1.9466281E-3,1.5628502E-2,-3.9021496E-3,1.3951984E-2,2.5277715E-2],"categories":[],"categories_nodes":[],"categories_segments":[],"categories_sizes":[],"default_left":[0,0,0,0,0,0,0,0,0,0,0,0,0,0,0,0,0,0,0,0,0,0,0,0,0,0,0,0,0,0,0],"id":5,"left_children":[1,3,5,7,9,11,13,15,17,19,21,23,25,27,29,-1,-1,-1,-1,-1,-1,-1,-1,-1,-1,-1,-1,-1,-1,-1,-1],"loss_changes":[4.5262708E2,1.3119678E2,5.8331696E1,3.1320312E1,2.1308813E1,8.219309E0,1.5842621E1,9.655426E0,5.6994705E0,1.1970974E1,4.128298E0,3.33414E0,4.6051254E0,3.3945694E0,3.2955017E0,0E0,0E0,0E0,0E0,0E0,0E0,0E0,0E0,0E0,0E0,0E0,0E0,0E0,0E0,0E0,0E0],"parents":[2147483647,0,0,1,1,2,2,3,3,4,4,5,5,6,6,7,7,8,8,9,9,10,10,11,11,12,12,13,13,14,14],"right_children":[2,4,6,8,10,12,14,16,18,20,22,24,26,28,30,-1,-1,-1,-1,-1,-1,-1,-1,-1,-1,-1,-1,-1,-1,-1,-1],"split_conditions":[1.752813E-1,-6.1059546E-2,3.0305377E-1,-2.634283E-1,2.2E0,-1.0947447E-1,5.1219606E-1,-6.1863136E-1,1E0,-1.4166666E0,5.370102E1,1.6666666E0,2.05E0,1.82E2,9.5067814E-2,-2.5326202E-2,-1.7297579E-2,-6.8693296E-3,-1.4859484E-2,-1.0949126E-2,-7.2067627E-4,4.6378365E-3,1.9129088E-2,-9.345898E-3,3.8466789E-3,9.201159E-3,-1.9466281E-3,1.5628502E-2,-3.9021496E-3,1.3951984E-2,2.5277715E-2],"split_indices":[32,33,33,32,18,33,32,32,36,18,0,12,18,19,25,0,0,0,0,0,0,0,0,0,0,0,0,0,0,0,0],"split_type":[0,0,0,0,0,0,0,0,0,0,0,0,0,0,0,0,0,0,0,0,0,0,0,0,0,0,0,0,0,0,0],"sum_hessian":[3.023115E3,1.9200669E3,1.1030482E3,9.822496E2,9.378173E2,3.9326083E2,7.0978735E2,6.0838007E2,3.7386945E2,8.589847E2,7.883261E1,6.632471E1,3.2693613E2,3.0862384E2,4.011635E2,2.4831343E2,3.6006665E2,2.5224623E2,1.2162322E2,1.1765914E2,7.4132556E2,2.9437113E1,4.9395496E1,3.6904137E1,2.9420572E1,2.899954E2,3.694072E1,3.0113348E2,7.490345E0,3.346962E1,3.676939E2],"tree_param":{"num_deleted":"0","num_feature":"38","num_nodes":"31","size_leaf_vector":"1"}},{"base_weights":[3.2086773E-3,7.7702314E-1,-2.3530936E-1,4.4562095E-1,1.1255492E0,-5.03719E-1,3.0342923E-2,5.042884E-1,-2.752702E-1,1.3002797E0,8.868537E-1,-3.5704485E-1,-5.776632E-1,1.05205916E-1,-1.8943632E-1,2.1302026E-2,1.0440103E-2,1.1475518E-2,-1.1121707E-2,3.3366174E-2,4.3144546E-2,-8.327557E-3,2.7089506E-2,9.557802E-3,-1.1298519E-2,-1.7493842E-2,2.5453998E-3,1.6656271E-3,1.960023E-2,-6.9743386E-3,8.112419E-3],"categories":[],"categories_nodes":[],"categories_segments":[],"categories_sizes":[],"default_left":[0,0,0,0,0,0,0,0,0,0,0,0,0,0,0,0,0,0,0,0,0,0,0,0,0,0,0,0,0,0,0],"id":6,"left_children":[1,3,5,7,9,11,13,15,17,19,21,23,25,27,29,-1,-1,-1,-1,-1,-1,-1,-1,-1,-1,-1,-1,-1,-1,-1,-1],"loss_changes":[4.610956E2,6.698297E1,1.3619476E2,1.3178165E1,9.604645E0,9.890945E0,1.586197E1,8.600044E0,1.8061899E0,9.6517944E-1,2.8864517E0,4.5198593E0,2.3739624E0,1.9497551E1,4.9758835E0,0E0,0E0,0E0,0E0,0E0,0E0,0E0,0E0,0E0,0E0,0E0,0E0,0E0,0E0,0E0,0E0],"parents":[2147483647,0,0,1,1,2,2,3,3,4,4,5,5,6,6,7,7,8,8,9,9,10,10,11,11,12,12,13,13,14,14],"right_children":[2,4,6,8,10,12,14,16,18,20,22,24,26,28,30,-1,-1,-1,-1,-1,-1,-1,-1,-1,-1,-1,-1,-1,-1,-1,-1],"split_conditions":[-2.634283E-1,4.1402993E-1,-2.4159944E-1,1.4876541E-1,-6.9980574E-1,2.9063463E-1,4.9853265E-2,1.6E0,1.21388115E-1,7.877196E-1,-1.2627332E0,1.0439692E-1,9.267749E-1,2.6666667E0,9.167997E-1,2.1302026E-2,1.0440103E-2,1.1475518E-2,-1.1121707E-2,3.3366174E-2,4.3144546E-2,-8.327557E-3,2.7089506E-2,9.557802E-3,-1.1298519E-2,-1.7493842E-2,2.5453998E-3,1.6656271E-3,1.960023E-2,-6.9743386E-3,8.112419E-3],"split_indices":[32,35,35,33,32,33,32,10,31,35,30,29,30,6,30,0,0,0,0,0,0,0,0,0,0,0,0,0,0,0,0],"split_type":[0,0,0,0,0,0,0,0,0,0,0,0,0,0,0,0,0,0,0,0,0,0,0,0,0,0,0,0,0,0,0],"sum_hessian":[2.4942517E3,5.866126E2,1.907639E3,3.0302914E2,2.8358347E2,9.480035E2,9.5963556E2,2.8077975E2,2.224942E1,1.5859406E2,1.2498941E2,3.2164752E2,6.2635596E2,7.165881E2,2.4304744E2,1.1813947E2,1.6264026E2,2.0573158E0,2.0192104E1,7.475419E1,8.383986E1,1.2647712E0,1.2372464E2,8.195196E0,3.1345233E2,6.214692E2,4.8867297E0,6.5905176E2,5.7536335E1,2.231497E2,1.9897745E1],"tree_param":{"num_deleted":"0","num_feature":"38","num_nodes":"31","size_leaf_vector":"1"}},{"base_weights":[5.8483956E-3,9.087906E-2,-2.8764224E-1,1.557188E-1,-3.1246737E-1,-1.9890791E-1,-5.20768E-1,-5.2165583E-2,2.1158454E-1,-4.5156142E-1,-1.3624242E-1,1.4859748E-1,-2.375025E-1,1.9150821E-2,-5.5309325E-1,1.3299573E-3,-6.0578086E-3,1.1205369E-2,4.6503115E-3,-2.151083E-3,-1.435266E-2,1.8008713E-2,-6.2268986E-3,1.0530051E-2,-6.3906442E-3,1.5529216E-3,-8.16859E-3,1.4566342E-2,-1.2827777E-2,-3.9569484E-3,-1.7425297E-2],"categories":[],"categories_nodes":[],"categories_segments":[],"categories_sizes":[],"default_left":[0,0,0,0,0,0,0,0,0,0,0,0,0,0,0,0,0,0,0,0,0,0,0,0,0,0,0,0,0,0,0],"id":7,"left_children":[1,3,5,7,9,11,13,15,17,19,21,23,25,27,29,-1,-1,-1,-1,-1,-1,-1,-1,-1,-1,-1,-1,-1,-1,-1,-1],"loss_changes":[5.395065E1,4.3932537E1,9.83905E0,1.6807491E1,5.5831337E0,4.8317013E0,2.3363762E0,4.4652753E0,1.0323807E1,1.25004E0,5.793968E0,2.8368654E0,3.2507706E0,2.3793118E0,1.3104439E0,0E0,0E0,0E0,0E0,0E0,0E0,0E0,0E0,0E0,0E0,0E0,0E0,0E0,0E0,0E0,0E0],"parents":[2147483647,0,0,1,1,2,2,3,3,4,4,5,5,6,6,7,7,8,8,9,9,10,10,11,11,12,12,13,13,14,14],"right_children":[2,4,6,8,10,12,14,16,18,20,22,24,26,28,30,-1,-1,-1,-1,-1,-1,-1,-1,-1,-1,-1,-1,-1,-1,-1,-1],"split_conditions":[2.8665608E-1,4.495524E-1,7.315786E-1,1.1649983E-1,-6.9980574E-1,1.7799151E-1,2.7712297E-1,4E0,7.5E-1,5.252631E-1,-8.60559E-1,1.5624543E-1,1.9850853E-1,2.3E1,1E0,1.3299573E-3,-6.0578086E-3,1.1205369E-2,4.6503115E-3,-2.151083E-3,-1.435266E-2,1.8008713E-2,-6.2268986E-3,1.0530051E-2,-6.3906442E-3,1.5529216E-3,-8.16859E-3,1.4566342E-2,-1.2827777E-2,-3.9569484E-3,-1.7425297E-2],"split_indices":[34,35,34,27,32,33,32,37,9,35,34,31,32,19,9,0,0,0,0,0,0,0,0,0,0,0,0,0,0,0,0],"split_type":[0,0,0,0,0,0,0,0,0,0,0,0,0,0,0,0,0,0,0,0,0,0,0,0,0,0,0,0,0,0,0],"sum_hessian":[2.1577615E3,1.6741146E3,4.8364697E2,1.443322E3,2.3079263E2,3.5299387E2,1.3065309E2,3.0574258E2,1.1375793E3,1.27238594E2,1.0355404E2,3.4715485E1,3.1827838E2,7.4264555E0,1.2322664E2,1.867924E2,1.1895017E2,2.916392E2,8.459402E2,8.887768E0,1.1835082E2,7.832638E0,9.57214E1,2.2295204E1,1.24202795E1,3.4059475E1,2.842189E2,3.5483353E0,3.8781204E0,8.328039E0,1.14898605E2],"tree_param":{"num_deleted":"0","num_feature":"38","num_nodes":"31","size_leaf_vector":"1"}},{"base_weights":[-5.287356E-3,-2.854261E-1,4.8582336E-1,-5.377743E-1,-2.802114E-2,2.4111985E-1,7.05418E-1,-6.663876E-1,-3.0081406E-1,-1.0939203E-1,2.565526E-1,1.14201725E-1,3.7766734E-1,6.215737E-1,8.948336E-1,-2.4781309E-2,-1.6982606E-2,-6.4180824E-3,-1.4207194E-2,-5.0751786E-3,2.1795365E-3,4.948234E-3,1.6540797E-2,4.7073793E-3,-9.66064E-3,6.73462E-3,1.6735153E-2,2.0103246E-2,1.2219139E-2,2.7339095E-2,-1.2571521E-2],"categories":[],"categories_nodes":[],"categories_segments":[],"categories_sizes":[],"default_left":[0,0,0,0,0,0,0,0,0,0,0,0,0,0,0,0,0,0,0,0,0,0,0,0,0,0,0,0,0,0,0],"id":8,"left_children":[1,3,5,7,9,11,13,15,17,19,21,23,25,27,29,-1,-1,-1,-1,-1,-1,-1,-1,-1,-1,-1,-1,-1,-1,-1,-1],"loss_changes":[4.1424445E2,1.24507385E2,5.842874E1,2.9101166E1,2.2082945E1,8.930725E0,8.0252075E0,9.086456E0,4.9636383E0,8.089955E0,5.546809E0,5.178609E0,6.64299E0,3.669815E0,4.485489E0,0E0,0E0,0E0,0E0,0E0,0E0,0E0,0E0,0E0,0E0,0E0,0E0,0E0,0E0,0E0,0E0],"parents":[2147483647,0,0,1,1,2,2,3,3,4,4,5,5,6,6,7,7,8,8,9,9,10,10,11,11,12,12,13,13,14,14],"right_children":[2,4,6,8,10,12,14,16,18,20,22,24,26,28,30,-1,-1,-1,-1,-1,-1,-1,-1,-1,-1,-1,-1,-1,-1,-1,-1],"split_conditions":[1.752813E-1,-6.1059546E-2,4.0172043E-1,-2.3404157E-1,1.2E0,1.8293138E-1,8.369729E-1,-6.1863136E-1,1E0,2.2206582E-2,2.8E0,2.05E0,4.0210918E-1,1.0423087E0,6.6468775E-1,-2.4781309E-2,-1.6982606E-2,-6.4180824E-3,-1.4207194E-2,-5.0751786E-3,2.1795365E-3,4.948234E-3,1.6540797E-2,4.7073793E-3,-9.66064E-3,6.73462E-3,1.6735153E-2,2.0103246E-2,1.2219139E-2,2.7339095E-2,-1.2571521E-2],"split_indices":[32,33,33,32,18,33,33,32,36,32,18,18,32,26,30,0,0,0,0,0,0,0,0,0,0,0,0,0,0,0,0],"split_type":[0,0,0,0,0,0,0,0,0,0,0,0,0,0,0,0,0,0,0,0,0,0,0,0,0,0,0,0,0,0,0],"sum_hessian":[3.0069377E3,1.9152697E3,1.0916681E3,9.6603467E2,9.49235E2,5.183003E2,5.7336774E2,6.238223E2,3.4221228E2,7.3912195E2,2.10113E2,2.7052527E2,2.4777502E2,4.0337704E2,1.6999072E2,2.3510962E2,3.8871274E2,2.3068228E2,1.1153001E2,5.5651215E2,1.8260983E2,1.6267932E2,4.743368E1,2.4756645E2,2.2958822E1,1.3634639E2,1.1142864E2,3.254124E2,7.796464E1,1.6849149E2,1.4992404E0],"tree_param":{"num_deleted":"0","num_feature":"38","num_nodes":"31","size_leaf_vector":"1"}},{"base_weights":[-6.746905E-3,6.6169393E-1,-2.4554975E-1,1.1668328E0,4.62174E-1,5.3857245E-2,-4.6297717E-1,1.1912289E0,2.586108E-2,7.4857277E-1,2.8606924E-1,1.9472461E-2,5.9560555E-1,-3.066219E-1,-5.736672E-1,-2.4676507E-3,3.614207E-2,-1.1319101E-2,1.3779481E-2,-1.1140823E-2,2.2988213E-2,5.2185752E-3,1.6101975E-2,2.3861076E-3,-6.5470496E-3,2.6160501E-2,-4.364342E-4,-6.5195914E-3,-1.2424773E-2,-1.50762675E-2,-1.9130051E-2],"categories":[],"categories_nodes":[],"categories_segments":[],"categories_sizes":[],"default_left":[0,0,0,0,0,0,0,0,0,0,0,0,0,0,0,0,0,0,0,0,0,0,0,0,0,0,0,0,0,0,0],"id":9,"left_children":[1,3,5,7,9,11,13,15,17,19,21,23,25,27,29,-1,-1,-1,-1,-1,-1,-1,-1,-1,-1,-1,-1,-1,-1,-1,-1],"loss_changes":[3.9655344E2,6.482605E1,1.192028E2,5.055588E0,2.3381203E1,1.435368E1,1.8002838E1,3.293396E0,1.3764089E0,4.1079254E0,8.1195755E0,1.0426051E1,7.782501E0,4.0827675E0,2.1752167E0,0E0,0E0,0E0,0E0,0E0,0E0,0E0,0E0,0E0,0E0,0E0,0E0,0E0,0E0,0E0,0E0],"parents":[2147483647,0,0,1,1,2,2,3,3,4,4,5,5,6,6,7,7,8,8,9,9,10,10,11,11,12,12,13,13,14,14],"right_children":[2,4,6,8,10,12,14,16,18,20,22,24,26,28,30,-1,-1,-1,-1,-1,-1,-1,-1,-1,-1,-1,-1,-1,-1,-1,-1],"split_conditions":[-2.0581222E-1,-6.577782E-1,4.9853265E-2,6.4387906E-1,-4.81719E-1,2.6666667E0,3.0305377E-1,2E0,1.2201971E0,-7.3430455E-1,1E0,1.1769384E-1,1.2330108E-1,2.7712297E-1,4.6518627E-1,-2.4676507E-3,3.614207E-2,-1.1319101E-2,1.3779481E-2,-1.1140823E-2,2.2988213E-2,5.2185752E-3,1.6101975E-2,2.3861076E-3,-6.5470496E-3,2.6160501E-2,-4.364342E-4,-6.5195914E-3,-1.2424773E-2,-1.50762675E-2,-1.9130051E-2],"split_indices":[33,32,32,26,33,6,33,19,28,30,36,33,31,32,34,0,0,0,0,0,0,0,0,0,0,0,0,0,0,0,0],"split_type":[0,0,0,0,0,0,0,0,0,0,0,0,0,0,0,0,0,0,0,0,0,0,0,0,0,0,0,0,0,0,0],"sum_hessian":[2.480237E3,6.5191077E2,1.8283263E3,1.8183913E2,4.700716E2,7.697928E2,1.0585336E3,1.7794623E2,3.8929014E0,1.7651088E2,2.9356073E2,7.257982E2,4.399455E1,4.4188675E2,6.166468E2,1.7606937E0,1.7618553E2,2.151158E0,1.7417432E0,2.1246786E0,1.743862E2,2.0517702E2,8.8383705E1,5.8045764E2,1.4534058E2,2.9687284E1,1.4307263E1,2.4471202E2,1.9717474E2,3.0045398E2,3.1619278E2],"tree_param":{"num_deleted":"0","num_feature":"38","num_nodes":"31","size_leaf_vector":"1"}},{"base_weights":[3.8283854E-3,6.392918E-2,-3.7779787E-1,1.0467712E-1,-3.8098508E-1,-1.4914787E-1,-4.5849335E-1,2.0547667E-1,1.0155525E-2,-4.7569096E-1,-6.1900705E-2,-2.173731E-1,3.4391582E-1,2.7268115E-1,-4.7800198E-1,7.709147E-3,-3.2493903E-5,1.7469708E-3,-4.55164E-3,-5.1591774E-3,-1.51177775E-2,-6.4074527E-3,1.3297406E-2,-7.494562E-3,1.4780126E-2,-4.2355633E-3,2.3000788E-2,-1.0479216E-2,2.2909503E-2,-4.429098E-4,-1.4885117E-2],"categories":[],"categories_nodes":[],"categories_segments":[],"categories_sizes":[],"default_left":[0,0,0,0,0,0,0,0,0,0,0,0,0,0,0,0,0,0,0,0,0,0,0,0,0,0,0,0,0,0,0],"id":10,"left_children":[1,3,5,7,9,11,13,15,17,19,21,23,25,27,29,-1,-1,-1,-1,-1,-1,-1,-1,-1,-1,-1,-1,-1,-1,-1,-1],"loss_changes":[4.9238136E1,3.370179E1,5.252552E0,1.6198044E1,4.6562786E0,2.8123424E0,3.3264923E0,8.752842E0,6.863951E0,8.5591507E-1,3.1017885E0,1.8763521E0,2.3486629E0,2.6281023E0,1.7533913E0,0E0,0E0,0E0,0E0,0E0,0E0,0E0,0E0,0E0,0E0,0E0,0E0,0E0,0E0,0E0,0E0],"parents":[2147483647,0,0,1,1,2,2,3,3,4,4,5,5,6,6,7,7,8,8,9,9,10,10,11,11,12,12,13,13,14,14],"right_children":[2,4,6,8,10,12,14,16,18,20,22,24,26,28,30,-1,-1,-1,-1,-1,-1,-1,-1,-1,-1,-1,-1,-1,-1,-1,-1],"split_conditions":[5.634079E-1,5.785781E-1,4.6518627E-1,-2.882511E-2,-5.638626E-1,1.8333334E0,2E-1,3.2135186E-1,4.0210918E-1,1E0,2.2E0,3.2222223E0,1.409253E-1,-5.7769544E-2,-7.5E-1,7.709147E-3,-3.2493903E-5,1.7469708E-3,-4.55164E-3,-5.1591774E-3,-1.51177775E-2,-6.4074527E-3,1.3297406E-2,-7.494562E-3,1.4780126E-2,-4.2355633E-3,2.3000788E-2,-1.0479216E-2,2.2909503E-2,-4.429098E-4,-1.4885117E-2],"split_indices":[33,35,34,34,32,16,6,35,32,6,10,15,31,28,17,0,0,0,0,0,0,0,0,0,0,0,0,0,0,0,0],"split_type":[0,0,0,0,0,0,0,0,0,0,0,0,0,0,0,0,0,0,0,0,0,0,0,0,0,0,0,0,0,0,0],"sum_hessian":[2.142652E3,1.8525642E3,2.9008795E2,1.6985319E3,1.5403238E2,7.715798E1,2.1293E2,8.2083295E2,8.776989E2,1.18021416E2,3.6010956E1,6.8761696E1,8.396284E0,4.8590794E0,2.080709E2,6.566448E2,1.6418817E2,6.7770386E2,1.9999504E2,1.1244789E1,1.0677663E2,2.8582766E1,7.4281907E0,6.69966E1,1.7650958E0,4.5302763E0,3.8660076E0,2.398098E0,2.4609814E0,7.9895463E0,2.0008136E2],"tree_param":{"num_deleted":"0","num_feature":"38","num_nodes":"31","size_leaf_vector":"1"}},{"base_weights":[4.033552E-3,-2.3358081E-1,5.46604E-1,-6.158965E-1,-4.628444E-2,7.278684E-1,3.084737E-1,-4.0586245E-1,-7.373748E-1,3.277779E-2,-2.8639075E-1,6.0962397E-1,8.5316145E-1,4.106352E-1,1.2871934E-1,-5.9091942E-3,-1.4985307E-2,-2.5045136E-2,-1.7387392E-2,-2.326232E-3,4.4478984E-3,-5.942379E-3,-1.4934072E-2,1.9633222E-2,1.1397368E-2,3.2126766E-3,2.5797455E-2,7.1209865E-3,1.5359457E-2,8.230482E-3,-2.6434953E-3],"categories":[],"categories_nodes":[],"categories_segments":[],"categories_sizes":[],"default_left":[0,0,0,0,0,0,0,0,0,0,0,0,0,0,0,0,0,0,0,0,0,0,0,0,0,0,0,0,0,0,0],"id":11,"left_children":[1,3,5,7,9,11,13,15,17,19,21,23,25,27,29,-1,-1,-1,-1,-1,-1,-1,-1,-1,-1,-1,-1,-1,-1,-1,-1],"loss_changes":[3.8796286E2,1.4979976E2,3.911142E1,1.6954834E1,2.6724762E1,6.647644E0,7.2323265E0,4.8218117E0,5.698059E0,1.3529172E1,6.3128796E0,2.323288E0,1.0601044E0,4.214985E0,4.7129393E0,0E0,0E0,0E0,0E0,0E0,0E0,0E0,0E0,0E0,0E0,0E0,0E0,0E0,0E0,0E0,0E0],"parents":[2147483647,0,0,1,1,2,2,3,3,4,4,5,5,6,6,7,7,8,8,9,9,10,10,11,11,12,12,13,13,14,14],"right_children":[2,4,6,8,10,12,14,16,18,20,22,24,26,28,30,-1,-1,-1,-1,-1,-1,-1,-1,-1,-1,-1,-1,-1,-1,-1,-1],"split_conditions":[1.5448613E-1,-3.5949534E-1,-5.0454485E-1,2.0896447E-1,7.2117755E-3,5.788814E-1,-1.7887397E-1,-1.0317764E-1,-6.62436E-1,2.2593666E1,1E0,1.1352056E0,-1.75E0,2.8665608E-1,1E0,-5.9091942E-3,-1.4985307E-2,-2.5045136E-2,-1.7387392E-2,-2.326232E-3,4.4478984E-3,-5.942379E-3,-1.4934072E-2,1.9633222E-2,1.1397368E-2,3.2126766E-3,2.5797455E-2,7.1209865E-3,1.5359457E-2,8.230482E-3,-2.6434953E-3],"split_indices":[34,34,35,35,35,34,35,35,34,0,36,26,17,34,36,0,0,0,0,0,0,0,0,0,0,0,0,0,0,0,0],"split_type":[0,0,0,0,0,0,0,0,0,0,0,0,0,0,0,0,0,0,0,0,0,0,0,0,0,0,0,0,0,0,0],"sum_hessian":[3.0052908E3,2.0907866E3,9.145042E2,6.8597485E2,1.4048118E3,5.169156E2,3.9758865E2,2.5454784E2,4.31427E2,1.0581206E3,3.466911E2,2.7197357E2,2.4494199E2,2.5187138E2,1.4571729E2,8.0714355E1,1.7383348E2,2.6139404E2,1.7003296E2,5.4150183E2,5.166188E2,2.4727332E2,9.941779E1,2.2447961E2,4.7493965E1,2.4998608E0,2.4244212E2,9.541974E1,1.5645164E2,8.685424E1,5.8863037E1],"tree_param":{"num_deleted":"0","num_feature":"38","num_nodes":"31","size_leaf_vector":"1"}},{"base_weights":[-5.305968E-3,-2.7950054E-1,5.653854E-1,-4.6554852E-1,-1.6932009E-2,3.359611E-1,9.704601E-1,-3.0582115E-1,-5.6115985E-1,4.8966172E-1,-6.865949E-2,4.2247373E-1,-1.3473691E-1,1.1239301E0,6.87068E-1,8.219746E-3,-9.528402E-3,-1.766251E-2,-1.2051523E-2,-7.432193E-4,2.1687148E-2,8.5967086E-4,-6.1609433E-3,9.715166E-3,1.9464016E-2,-1.0148021E-2,6.2282956E-3,3.8103429E-3,3.418189E-2,2.2400182E-2,-3.6910723E-3],"categories":[],"categories_nodes":[],"categories_segments":[],"categories_sizes":[],"default_left":[0,0,0,0,0,0,0,0,0,0,0,0,0,0,0,0,0,0,0,0,0,0,0,0,0,0,0,0,0,0,0],"id":12,"left_children":[1,3,5,7,9,11,13,15,17,19,21,23,25,27,29,-1,-1,-1,-1,-1,-1,-1,-1,-1,-1,-1,-1,-1,-1,-1,-1],"loss_changes":[3.9400204E2,8.3065384E1,7.528903E1,1.4857285E1,1.860434E1,2.1482021E1,1.1260101E1,2.7523766E0,2.2554626E0,7.9292307E0,8.574011E0,9.486031E0,5.922886E0,2.6067352E0,5.4262238E0,0E0,0E0,0E0,0E0,0E0,0E0,0E0,0E0,0E0,0E0,0E0,0E0,0E0,0E0,0E0,0E0],"parents":[2147483647,0,0,1,1,2,2,3,3,4,4,5,5,6,6,7,7,8,8,9,9,10,10,11,11,12,12,13,13,14,14],"right_children":[2,4,6,8,10,12,14,16,18,20,22,24,26,28,30,-1,-1,-1,-1,-1,-1,-1,-1,-1,-1,-1,-1,-1,-1,-1,-1],"split_conditions":[2.2315277E-2,-2.0708957E-1,4.495524E-1,1.4584847E-1,-1.8666667E0,2.6258161E-2,-6.194072E-1,2E-1,-3.6611226E-1,0E0,1.9650831E1,1E0,1.8333334E0,3E0,4.5445743E-1,8.219746E-3,-9.528402E-3,-1.766251E-2,-1.2051523E-2,-7.432193E-4,2.1687148E-2,8.5967086E-4,-6.1609433E-3,9.715166E-3,1.9464016E-2,-1.0148021E-2,6.2282956E-3,3.8103429E-3,3.418189E-2,2.2400182E-2,-3.6910723E-3],"split_indices":[35,35,35,34,18,34,34,7,35,35,0,36,11,20,34,0,0,0,0,0,0,0,0,0,0,0,0,0,0,0,0],"split_type":[0,0,0,0,0,0,0,0,0,0,0,0,0,0,0,0,0,0,0,0,0,0,0,0,0,0,0,0,0,0,0],"sum_hessian":[2.5138792E3,1.698728E3,8.15151E2,9.9333527E2,7.053928E2,5.2274176E2,2.9240927E2,3.7509778E2,6.182375E2,6.3784657E1,6.416082E2,4.4175388E2,8.098789E1,1.8583763E2,1.06571625E2,6.590295E0,3.6850748E2,5.2244635E2,9.5791115E1,2.0455677E1,4.332898E1,3.7572495E2,2.6588324E2,3.110554E2,1.3069847E2,5.0806484E1,3.018141E1,3.1205087E0,1.8271713E2,9.94137E1,7.157932E0],"tree_param":{"num_deleted":"0","num_feature":"38","num_nodes":"31","size_leaf_vector":"1"}},{"base_weights":[-1.3099123E-2,4.6566345E-2,-3.9022332E-1,-2.9469368E-1,7.629088E-2,-1.6718632E-1,-4.6974248E-1,-3.6397782E-1,6.353748E-1,1.676968E-1,1.7815997E-3,5.378519E-1,-2.0331784E-1,1.2597346E-1,-4.8854542E-1,-1.6461626E-2,-8.015864E-3,2.706224E-2,-4.397309E-3,-8.432052E-3,5.7825358E-3,9.061994E-4,-5.578308E-3,2.6886364E-2,-6.60185E-3,-1.0102435E-2,1.0000238E-3,-8.511896E-3,2.2701925E-2,-5.2290545E-3,-1.536961E-2],"categories":[],"categories_nodes":[],"categories_segments":[],"categories_sizes":[],"default_left":[0,0,0,0,0,0,0,0,0,0,0,0,0,0,0,0,0,0,0,0,0,0,0,0,0,0,0,0,0,0,0],"id":13,"left_children":[1,3,5,7,9,11,13,15,17,19,21,23,25,27,29,-1,-1,-1,-1,-1,-1,-1,-1,-1,-1,-1,-1,-1,-1,-1,-1],"loss_changes":[4.8414516E1,1.8893272E1,5.0555534E0,1.0082586E1,1.16511135E1,2.265572E0,2.5375633E0,2.2137222E0,2.574833E0,8.746492E0,5.0514283E0,1.6073507E0,2.4817855E0,2.544746E0,1.3856316E0,0E0,0E0,0E0,0E0,0E0,0E0,0E0,0E0,0E0,0E0,0E0,0E0,0E0,0E0,0E0,0E0],"parents":[2147483647,0,0,1,1,2,2,3,3,4,4,5,5,6,6,7,7,8,8,9,9,10,10,11,11,12,12,13,13,14,14],"right_children":[2,4,6,8,10,12,14,16,18,20,22,24,26,28,30,-1,-1,-1,-1,-1,-1,-1,-1,-1,-1,-1,-1,-1,-1,-1,-1],"split_conditions":[5.634079E-1,-6.7078584E-1,4.7269723E-1,-2.8598544E-1,-5.598925E-2,-7.500786E-2,2E-1,-9.491179E-1,-1.1521938E-1,-6.592065E-1,5.1219606E-1,2E0,2.0325129E-1,-8.739046E-2,-5.3333336E-1,-1.6461626E-2,-8.015864E-3,2.706224E-2,-4.397309E-3,-8.432052E-3,5.7825358E-3,9.061994E-4,-5.578308E-3,2.6886364E-2,-6.60185E-3,-1.0102435E-2,1.0000238E-3,-8.511896E-3,2.2701925E-2,-5.2290545E-3,-1.536961E-2],"split_indices":[33,32,34,33,34,26,6,33,33,26,32,7,28,28,17,0,0,0,0,0,0,0,0,0,0,0,0,0,0,0,0],"split_type":[0,0,0,0,0,0,0,0,0,0,0,0,0,0,0,0,0,0,0,0,0,0,0,0,0,0,0,0,0,0,0],"sum_hessian":[2.1480176E3,1.8561119E3,2.919056E2,1.4728949E2,1.7088225E3,7.835072E1,2.1355489E2,1.3821097E2,9.07852E0,7.662755E2,9.4254694E2,2.4656827E0,7.588504E1,6.185526E0,2.0736937E2,4.43033E1,9.390766E1,6.540512E0,2.5380075E0,3.9438103E1,7.268374E2,8.200539E2,1.2249305E2,1.4263322E0,1.0393505E0,4.7984375E1,2.7900665E1,4.4169097E0,1.7686163E0,1.5757541E1,1.9161182E2],"tree_param":{"num_deleted":"0","num_feature":"38","num_nodes":"31","size_leaf_vector":"1"}},{"base_weights":[2.708299E-3,-2.6259372E-1,5.0753206E-1,-6.069755E-1,-8.0646805E-2,2.9112545E-1,6.9059217E-1,-7.690428E-1,-4.2945513E-1,-2.2047749E-1,4.082759E-2,3.8414964E-1,6.669948E-2,5.830526E-1,8.416008E-1,-1.5523637E-2,-2.4373645E-2,-1.41539695E-2,-3.6333955E-4,-8.651069E-3,2.3884024E-3,-6.241036E-3,3.5241551E-3,-2.5307846E-3,1.2785135E-2,-3.3043262E-3,1.0796046E-2,1.7805196E-2,-7.996251E-3,-3.4527497E-3,2.5590431E-2],"categories":[],"categories_nodes":[],"categories_segments":[],"categories_sizes":[],"default_left":[0,0,0,0,0,0,0,0,0,0,0,0,0,0,0,0,0,0,0,0,0,0,0,0,0,0,0,0,0,0,0],"id":14,"left_children":[1,3,5,7,9,11,13,15,17,19,21,23,25,27,29,-1,-1,-1,-1,-1,-1,-1,-1,-1,-1,-1,-1,-1,-1,-1,-1],"loss_changes":[4.0946405E2,1.2547656E2,4.1321014E1,1.9262497E1,2.2330597E1,1.00970955E1,8.260559E0,3.0852966E0,5.9089737E0,1.2493643E1,1.348881E1,6.8293457E0,7.589805E0,3.3264084E0,2.7318268E0,0E0,0E0,0E0,0E0,0E0,0E0,0E0,0E0,0E0,0E0,0E0,0E0,0E0,0E0,0E0,0E0],"parents":[2147483647,0,0,1,1,2,2,3,3,4,4,5,5,6,6,7,7,8,8,9,9,10,10,11,11,12,12,13,13,14,14],"right_children":[2,4,6,8,10,12,14,16,18,20,22,24,26,28,30,-1,-1,-1,-1,-1,-1,-1,-1,-1,-1,-1,-1,-1,-1,-1,-1],"split_conditions":[1.9850853E-1,-2.634283E-1,4.0172043E-1,-5.98466E-1,-6.666667E-2,1E0,6.4233E-1,2.0896447E-1,1.1769384E-1,1.2757598E-1,-5.6273017E-2,-1.6515838E-1,4.0953127E-1,9.106892E-1,2.8881416E-1,-1.5523637E-2,-2.4373645E-2,-1.41539695E-2,-3.6333955E-4,-8.651069E-3,2.3884024E-3,-6.241036E-3,3.5241551E-3,-2.5307846E-3,1.2785135E-2,-3.3043262E-3,1.0796046E-2,1.7805196E-2,-7.996251E-3,-3.4527497E-3,2.5590431E-2],"split_indices":[32,32,33,34,18,36,34,35,33,33,33,33,32,30,32,0,0,0,0,0,0,0,0,0,0,0,0,0,0,0,0],"split_type":[0,0,0,0,0,0,0,0,0,0,0,0,0,0,0,0,0,0,0,0,0,0,0,0,0,0,0,0,0,0,0],"sum_hessian":[3.0532913E3,2.0020865E3,1.0512048E3,6.9048755E2,1.311599E3,4.8410056E2,5.6710425E2,3.574705E2,3.3301706E2,6.0897284E2,7.0262616E2,3.412356E2,1.4286496E2,3.3690326E2,2.3020094E2,5.640768E1,3.010628E2,3.0210446E2,3.0912596E1,4.9668317E2,1.1228966E2,1.6463417E2,5.37992E2,2.7921082E1,3.133145E2,8.9890366E1,5.2974598E1,3.334037E2,3.4995837E0,2.4997978E0,2.2770116E2],"tree_param":{"num_deleted":"0","num_feature":"38","num_nodes":"31","size_leaf_vector":"1"}},{"base_weights":[-3.287352E-3,6.93199E-1,-2.181189E-1,9.665591E-1,3.9582428E-1,3.9726898E-2,-4.4533515E-1,1.1601005E0,7.4398077E-1,4.5368487E-1,-1.612258E-1,4.3862136E-3,5.8742934E-1,-2.3859836E-1,-5.190224E-1,3.5265736E-2,1.5690373E-3,1.939254E-2,3.148915E-2,7.043369E-4,1.50671555E-2,-1.1100694E-2,6.874452E-3,-2.3238228E-3,5.752923E-3,2.3318166E-2,-1.1287295E-2,-8.493312E-3,3.7816514E-3,-1.3106957E-2,-1.7841624E-2],"categories":[],"categories_nodes":[],"categories_segments":[],"categories_sizes":[],"default_left":[0,0,0,0,0,0,0,0,0,0,0,0,0,0,0,0,0,0,0,0,0,0,0,0,0,0,0,0,0,0,0],"id":15,"left_children":[1,3,5,7,9,11,13,15,17,19,21,23,25,27,29,-1,-1,-1,-1,-1,-1,-1,-1,-1,-1,-1,-1,-1,-1,-1,-1],"loss_changes":[3.741123E2,4.714862E1,1.1198646E2,1.1443665E1,9.354576E0,1.735608E1,1.522879E1,2.610077E0,3.049591E0,5.3934593E0,2.4810376E0,1.2982496E1,1.0528372E1,4.4645386E0,4.1258087E0,0E0,0E0,0E0,0E0,0E0,0E0,0E0,0E0,0E0,0E0,0E0,0E0,0E0,0E0,0E0,0E0],"parents":[2147483647,0,0,1,1,2,2,3,3,4,4,5,5,6,6,7,7,8,8,9,9,10,10,11,11,12,12,13,13,14,14],"right_children":[2,4,6,8,10,12,14,16,18,20,22,24,26,28,30,-1,-1,-1,-1,-1,-1,-1,-1,-1,-1,-1,-1,-1,-1,-1,-1],"split_conditions":[-2.7767798E-1,-4.81719E-1,7.019417E-2,-6.9980574E-1,1.0456266E-1,3E0,1.6482355E-1,8.2E1,1.5515055E3,5.555556E-1,2.0325129E-1,1E0,3.0034075E-2,1.6968167E3,4.7997782E-1,3.5265736E-2,1.5690373E-3,1.939254E-2,3.148915E-2,7.043369E-4,1.50671555E-2,-1.1100694E-2,6.874452E-3,-2.3238228E-3,5.752923E-3,2.3318166E-2,-1.1287295E-2,-8.493312E-3,3.7816514E-3,-1.3106957E-2,-1.7841624E-2],"split_indices":[32,33,33,32,33,6,32,22,1,15,24,36,32,1,32,0,0,0,0,0,0,0,0,0,0,0,0,0,0,0,0],"split_type":[0,0,0,0,0,0,0,0,0,0,0,0,0,0,0,0,0,0,0,0,0,0,0,0,0,0,0,0,0,0,0],"sum_hessian":[2.4962747E3,5.87415E2,1.9088596E3,3.0372073E2,2.8369427E2,8.949348E2,1.0139248E3,1.5795119E2,1.4576955E2,2.57336E2,2.6358276E1,8.425829E2,5.2351925E1,2.686571E2,7.452677E2,1.5566162E2,2.2895665E0,1.15221664E2,3.0547878E1,2.639872E1,2.3093727E2,1.7240961E1,9.117314E0,5.8724603E2,2.5533685E2,4.4059155E1,8.29277E0,2.3982916E2,2.8827925E1,3.639588E2,3.8130893E2],"tree_param":{"num_deleted":"0","num_feature":"38","num_nodes":"31","size_leaf_vector":"1"}},{"base_weights":[6.1526312E-3,8.5630365E-2,-2.776373E-1,1.4249359E-1,-2.7837896E-1,-1.9030695E-1,-5.078321E-1,2.8972316E-1,7.318954E-2,-4.3080628E-1,-6.325089E-2,-2.326888E-1,1.6088064E-1,-2.0632818E-1,-5.500326E-1,7.9022907E-4,1.1629489E-2,4.58523E-3,-6.6364254E-4,1.6783142E-3,-1.4471703E-2,-3.678391E-3,1.878783E-2,3.051678E-4,-8.048984E-3,2.2487624E-2,1.0880225E-3,7.028171E-3,-1.2109536E-2,-1.823148E-2,-7.587087E-3],"categories":[],"categories_nodes":[],"categories_segments":[],"categories_sizes":[],"default_left":[0,0,0,0,0,0,0,0,0,0,0,0,0,0,0,0,0,0,0,0,0,0,0,0,0,0,0,0,0,0,0],"id":16,"left_children":[1,3,5,7,9,11,13,15,17,19,21,23,25,27,29,-1,-1,-1,-1,-1,-1,-1,-1,-1,-1,-1,-1,-1,-1,-1,-1],"loss_changes":[4.8942093E1,3.5164547E1,9.350681E0,1.4929846E1,7.477375E0,5.245247E0,1.4191437E0,1.20751915E1,7.601332E0,3.420824E0,4.1483555E0,2.6932964E0,2.7766314E0,1.8484277E0,1.6171913E0,0E0,0E0,0E0,0E0,0E0,0E0,0E0,0E0,0E0,0E0,0E0,0E0,0E0,0E0,0E0,0E0],"parents":[2147483647,0,0,1,1,2,2,3,3,4,4,5,5,6,6,7,7,8,8,9,9,10,10,11,11,12,12,13,13,14,14],"right_children":[2,4,6,8,10,12,14,16,18,20,22,24,26,28,30,-1,-1,-1,-1,-1,-1,-1,-1,-1,-1,-1,-1,-1,-1,-1,-1],"split_conditions":[2.8665608E-1,4.495524E-1,7.315786E-1,-2.338282E-1,-6.577782E-1,-1.0757429E-1,6.620235E-1,-4.11684E-1,-4.5011517E-2,1E0,3.2E0,-5.3333336E-1,1.21913195E-1,1.4285715E0,-1.2795947E-2,7.9022907E-4,1.1629489E-2,4.58523E-3,-6.6364254E-4,1.6783142E-3,-1.4471703E-2,-3.678391E-3,1.878783E-2,3.051678E-4,-8.048984E-3,2.2487624E-2,1.0880225E-3,7.028171E-3,-1.2109536E-2,-1.823148E-2,-7.587087E-3],"split_indices":[34,35,34,34,32,35,33,33,35,6,8,17,27,11,28,0,0,0,0,0,0,0,0,0,0,0,0,0,0,0,0],"split_type":[0,0,0,0,0,0,0,0,0,0,0,0,0,0,0,0,0,0,0,0,0,0,0,0,0,0,0,0,0,0,0],"sum_hessian":[2.1657937E3,1.6930403E3,4.7275348E2,1.4653497E3,2.2769055E2,3.453786E2,1.2737487E2,4.6696594E2,9.983838E2,1.320924E2,9.559814E1,3.087884E2,3.6590202E1,1.7085428E1,1.10289444E2,1.2725093E2,3.3971503E2,5.43213E2,4.551708E2,1.26410675E1,1.1945135E2,8.953422E1,6.063921E0,3.967026E1,2.6911813E2,4.639817E0,3.1950386E1,5.169036E0,1.1916392E1,9.0608536E1,1.9680912E1],"tree_param":{"num_deleted":"0","num_feature":"38","num_nodes":"31","size_leaf_vector":"1"}},{"base_weights":[-5.2290773E-3,-2.6435822E-1,4.8588383E-1,-5.090981E-1,-2.2698663E-2,2.628614E-1,6.724929E-1,-6.3784325E-1,-2.865627E-1,-1.243845E-1,9.815022E-2,-2.1626827E-1,3.014494E-1,5.6984323E-1,8.2389796E-1,-2.2966888E-2,-1.5480952E-2,-6.6255773E-3,-1.2519581E-2,-5.8381227E-3,2.966759E-3,6.533569E-3,-7.021495E-4,-1.1395741E-2,1.1301217E-2,1.1307308E-2,3.3300947E-3,6.2461584E-3,1.776048E-2,-3.0303549E-3,2.518298E-2],"categories":[],"categories_nodes":[],"categories_segments":[],"categories_sizes":[],"default_left":[0,0,0,0,0,0,0,0,0,0,0,0,0,0,0,0,0,0,0,0,0,0,0,0,0,0,0,0,0,0,0],"id":17,"left_children":[1,3,5,7,9,11,13,15,17,19,21,23,25,27,29,-1,-1,-1,-1,-1,-1,-1,-1,-1,-1,-1,-1,-1,-1,-1,-1],"loss_changes":[3.849045E2,1.170719E2,4.3122955E1,2.781369E1,1.2291917E1,8.989784E0,7.8805237E0,8.87822E0,2.9440918E0,8.551933E0,6.6600466E0,3.86374E0,6.3014717E0,2.517273E0,3.399582E0,0E0,0E0,0E0,0E0,0E0,0E0,0E0,0E0,0E0,0E0,0E0,0E0,0E0,0E0,0E0,0E0],"parents":[2147483647,0,0,1,1,2,2,3,3,4,4,5,5,6,6,7,7,8,8,9,9,10,10,11,11,12,12,13,13,14,14],"right_children":[2,4,6,8,10,12,14,16,18,20,22,24,26,28,30,-1,-1,-1,-1,-1,-1,-1,-1,-1,-1,-1,-1,-1,-1,-1,-1],"split_conditions":[1.9850853E-1,-6.1059546E-2,4.0172043E-1,-2.3404157E-1,1.9650831E1,-1.7732437E-1,6.4233E-1,-6.62436E-1,1E0,1.2251816E-1,5.8056887E-2,1.01E2,1E0,1.6149944E-1,2.9314783E-1,-2.2966888E-2,-1.5480952E-2,-6.6255773E-3,-1.2519581E-2,-5.8381227E-3,2.966759E-3,6.533569E-3,-7.021495E-4,-1.1395741E-2,1.1301217E-2,1.1307308E-2,3.3300947E-3,6.2461584E-3,1.776048E-2,-3.0303549E-3,2.518298E-2],"split_indices":[32,33,33,32,0,33,34,34,36,33,30,20,36,34,32,0,0,0,0,0,0,0,0,0,0,0,0,0,0,0,0],"split_type":[0,0,0,0,0,0,0,0,0,0,0,0,0,0,0,0,0,0,0,0,0,0,0,0,0,0,0,0,0,0,0],"sum_hessian":[3.020494E3,1.9778379E3,1.0426561E3,9.8155646E2,9.9628143E2,4.7718024E2,5.6547595E2,6.1944916E2,3.6210727E2,5.410051E2,4.5527628E2,3.4880154E1,4.4230008E2,3.4267575E2,2.2280019E2,2.972315E2,3.2221768E2,2.4457649E2,1.1753077E2,4.117638E2,1.2924132E2,2.2865208E2,2.2662419E2,2.7901506E1,6.978647E0,3.1537875E2,1.26921326E2,2.0996866E1,3.2167886E2,3.4985445E0,2.1930165E2],"tree_param":{"num_deleted":"0","num_feature":"38","num_nodes":"31","size_leaf_vector":"1"}},{"base_weights":[6.8801637E-3,-3.703102E-1,4.0245003E-1,-2.1094124E-1,-5.094645E-1,8.81209E-1,1.9909625E-1,-5.922407E-1,-1.860013E-1,1.612856E-1,-5.1993865E-1,1.1248947E0,6.7935145E-1,4.151515E-1,9.6063994E-2,1.7937976E-3,-1.8527983E-2,-9.3953195E-4,-6.8987035E-3,-1.3470902E-2,1.5873814E-2,-1.3793462E-2,-1.8402778E-2,-5.880415E-4,3.4045707E-2,-8.028167E-3,2.089939E-2,1.3542234E-2,-8.364542E-3,1.3143955E-2,1.0551044E-3],"categories":[],"categories_nodes":[],"categories_segments":[],"categories_sizes":[],"default_left":[0,0,0,0,0,0,0,0,0,0,0,0,0,0,0,0,0,0,0,0,0,0,0,0,0,0,0,0,0,0,0],"id":18,"left_children":[1,3,5,7,9,11,13,15,17,19,21,23,25,27,29,-1,-1,-1,-1,-1,-1,-1,-1,-1,-1,-1,-1,-1,-1,-1,-1],"loss_changes":[3.7690048E2,2.8461716E1,1.1968808E2,5.5441647E0,5.0076904E0,1.6523926E1,1.9241982E1,6.7405033E-1,3.8739014E0,3.1958618E0,3.2533417E0,1.9054565E0,3.7429123E0,7.288307E0,1.2265289E1,0E0,0E0,0E0,0E0,0E0,0E0,0E0,0E0,0E0,0E0,0E0,0E0,0E0,0E0,0E0,0E0],"parents":[2147483647,0,0,1,1,2,2,3,3,4,4,5,5,6,6,7,7,8,8,9,9,10,10,11,11,12,12,13,13,14,14],"right_children":[2,4,6,8,10,12,14,16,18,20,22,24,26,28,30,-1,-1,-1,-1,-1,-1,-1,-1,-1,-1,-1,-1,-1,-1,-1,-1],"split_conditions":[-3.7801206E-2,2.6244116E-1,-4.6765488E-1,-5.522539E-1,-2.063792E-1,-6.9980574E-1,-2.3404157E-1,-9.5E-1,-9.812896E-2,0E0,5.1251936E-1,2E0,1.2595413E3,1.4311148E-1,-1.6E0,1.7937976E-3,-1.8527983E-2,-9.3953195E-4,-6.8987035E-3,-1.3470902E-2,1.5873814E-2,-1.3793462E-2,-1.8402778E-2,-5.880415E-4,3.4045707E-2,-8.028167E-3,2.089939E-2,1.3542234E-2,-8.364542E-3,1.3143955E-2,1.0551044E-3],"split_indices":[35,33,33,35,32,32,32,17,33,21,34,19,1,33,18,0,0,0,0,0,0,0,0,0,0,0,0,0,0,0,0],"split_type":[0,0,0,0,0,0,0,0,0,0,0,0,0,0,0,0,0,0,0,0,0,0,0,0,0,0,0,0,0,0,0],"sum_hessian":[2.522058E3,1.2910872E3,1.2309711E3,6.0417584E2,6.8691125E2,3.6499377E2,8.659773E2,3.4298767E1,5.698771E2,1.0118844E1,6.767924E2,1.6122043E2,2.0377335E2,2.7766473E2,5.8831256E2,1.1823359E0,3.311643E1,1.2686216E2,4.4301492E2,3.6392455E0,6.4795985E0,4.19008E2,2.5778445E2,1.3745129E0,1.5984592E2,3.1357217E0,2.0063763E2,2.645428E2,1.3121936E1,8.7030945E1,5.0128162E2],"tree_param":{"num_deleted":"0","num_feature":"38","num_nodes":"31","size_leaf_vector":"1"}},{"base_weights":[8.019833E-3,6.418371E-2,-3.642269E-1,-2.8122053E-1,1.0333228E-1,-2.7014217E-1,-5.684118E-1,-4.3941113E-1,-7.348932E-3,2.655687E-1,3.749319E-2,-3.0025962E-1,2.9369175E-1,-5.7915705E-1,3.3275385E-3,-1.3586485E-2,5.276131E-3,4.788249E-3,-1.0491051E-2,8.6066703E-4,1.0301613E-2,2.5694796E-3,-2.5063104E-3,2.1629217E-3,-1.0023201E-2,1.6585527E-2,-1.044054E-2,-4.9623026E-4,-1.7697329E-2],"categories":[],"categories_nodes":[],"categories_segments":[],"categories_sizes":[],"default_left":[0,0,0,0,0,0,0,0,0,0,0,0,0,0,0,0,0,0,0,0,0,0,0,0,0,0,0,0,0],"id":19,"left_children":[1,3,5,7,9,11,13,15,17,19,21,23,25,27,-1,-1,-1,-1,-1,-1,-1,-1,-1,-1,-1,-1,-1,-1,-1],"loss_changes":[4.490507E1,2.5290895E1,5.102394E0,8.247002E0,1.7898697E1,3.5144825E0,7.636242E-1,1.1599503E0,4.2146673E0,8.900871E0,6.983108E0,2.41251E0,2.2106423E0,5.006771E-1,0E0,0E0,0E0,0E0,0E0,0E0,0E0,0E0,0E0,0E0,0E0,0E0,0E0,0E0,0E0],"parents":[2147483647,0,0,1,1,2,2,3,3,4,4,5,5,6,6,7,7,8,8,9,9,10,10,11,11,12,12,13,13],"right_children":[2,4,6,8,10,12,14,16,18,20,22,24,26,28,-1,-1,-1,-1,-1,-1,-1,-1,-1,-1,-1,-1,-1,-1,-1],"split_conditions":[5.634079E-1,-6.046742E-1,8.202468E-1,-5.638626E-1,-2.338282E-1,2.2E0,2.6816693E-1,2.6666667E0,-8.8310684E1,-4.11684E-1,1.7580725E-1,1E0,1.1E0,-3.0628147E0,3.3275385E-3,-1.3586485E-2,5.276131E-3,4.788249E-3,-1.0491051E-2,8.6066703E-4,1.0301613E-2,2.5694796E-3,-2.5063104E-3,2.1629217E-3,-1.0023201E-2,1.6585527E-2,-1.044054E-2,-4.9623026E-4,-1.7697329E-2],"split_indices":[33,33,34,32,34,6,31,9,0,33,34,37,13,0,0,0,0,0,0,0,0,0,0,0,0,0,0,0,0],"split_type":[0,0,0,0,0,0,0,0,0,0,0,0,0,0,0,0,0,0,0,0,0,0,0,0,0,0,0,0,0],"sum_hessian":[2.1436306E3,1.8640427E3,2.7958804E2,1.8850586E2,1.6755369E3,1.9457664E2,8.501139E1,1.1872208E2,6.9783775E1,4.8192966E2,1.1936072E3,1.855978E2,8.978857E0,8.397799E1,1.033396E0,1.1669491E2,2.0271668E0,4.762553E1,2.2158245E1,1.1984821E2,3.6208142E2,8.5429803E2,3.393091E2,1.5276665E1,1.7032114E2,6.5931215E0,2.385736E0,1.6702724E0,8.230772E1],"tree_param":{"num_deleted":"0","num_feature":"38","num_nodes":"29","size_leaf_vector":"1"}},{"base_weights":[-2.8613198E-3,-2.7105403E-1,4.5044863E-1,-5.8443785E-1,-9.4327465E-2,1.4985771E-1,5.6385E-1,-7.558319E-1,-4.6461305E-1,-1.2243943E-1,4.057471E-1,2.3094706E-1,-6.860267E-2,6.8257666E-1,4.0715182E-1,-2.2975653E-2,5.7898187E-3,-6.6271364E-3,-1.5439285E-2,-2.75466E-3,-1.5142437E-2,1.8808885E-2,-3.2343667E-3,8.490626E-3,-3.2694014E-3,8.525684E-3,-6.3343924E-3,2.1534698E-2,8.986225E-3,1.3395175E-2,2.1277366E-3],"categories":[],"categories_nodes":[],"categories_segments":[],"categories_sizes":[],"default_left":[0,0,0,0,0,0,0,0,0,0,0,0,0,0,0,0,0,0,0,0,0,0,0,0,0,0,0,0,0,0,0],"id":20,"left_children":[1,3,5,7,9,11,13,15,17,19,21,23,25,27,29,-1,-1,-1,-1,-1,-1,-1,-1,-1,-1,-1,-1,-1,-1,-1,-1],"loss_changes":[3.5999323E2,1.0292473E2,3.7350525E1,1.3066803E1,1.6855911E1,5.420979E0,1.429892E1,2.8888092E0,4.6469803E0,1.3134865E1,7.3951044E0,3.9971838E0,4.339048E0,5.6630096E0,4.5565376E0,0E0,0E0,0E0,0E0,0E0,0E0,0E0,0E0,0E0,0E0,0E0,0E0,0E0,0E0,0E0,0E0],"parents":[2147483647,0,0,1,1,2,2,3,3,4,4,5,5,6,6,7,7,8,8,9,9,10,10,11,11,12,12,13,13,14,14],"right_children":[2,4,6,8,10,12,14,16,18,20,22,24,26,28,30,-1,-1,-1,-1,-1,-1,-1,-1,-1,-1,-1,-1,-1,-1,-1,-1],"split_conditions":[1.752813E-1,-3.5949534E-1,1.6149944E-1,-5.7765895E-1,2.45E0,1E0,-5.7609767E-1,1.6940961E3,-1.0317764E-1,9.291834E-1,1.2728824E-1,2.2E0,-5.6852216E-1,6.210827E-1,-1.0317764E-1,-2.2975653E-2,5.7898187E-3,-6.6271364E-3,-1.5439285E-2,-2.75466E-3,-1.5142437E-2,1.8808885E-2,-3.2343667E-3,8.490626E-3,-3.2694014E-3,8.525684E-3,-6.3343924E-3,2.1534698E-2,8.986225E-3,1.3395175E-2,2.1277366E-3],"split_indices":[32,34,34,32,18,36,35,1,35,28,29,5,35,30,35,0,0,0,0,0,0,0,0,0,0,0,0,0,0,0,0],"split_type":[0,0,0,0,0,0,0,0,0,0,0,0,0,0,0,0,0,0,0,0,0,0,0,0,0,0,0,0,0,0,0],"sum_hessian":[2.957085E3,1.8584E3,1.098685E3,6.684479E2,1.1899521E3,3.0222516E2,7.9645984E2,2.7067133E2,3.9777655E2,1.1280486E3,6.190354E1,2.203282E2,8.189697E1,4.4931323E2,3.471466E2,2.6822354E2,2.4477866E0,6.959441E1,3.2818213E2,1.0467031E3,8.1345535E1,4.2957817E1,1.8945726E1,1.9134991E2,2.8978275E1,2.2995728E1,5.890124E1,4.0985107E2,3.9462173E1,3.1018475E2,3.6961853E1],"tree_param":{"num_deleted":"0","num_feature":"38","num_nodes":"31","size_leaf_vector":"1"}},{"base_weights":[-2.3671577E-3,-3.700823E-1,3.7821463E-1,-5.175742E-1,-1.9753069E-1,1.6560642E-1,7.8648275E-1,-5.685699E-1,-4.2020157E-1,-2.1450754E-1,2.1437706E-1,8.0133684E-2,3.583682E-1,5.898346E-1,1.0199567E0,-1.8855814E-2,-1.4417233E-2,9.666428E-3,-1.3090741E-2,-1.32140815E-2,-5.5476E-3,1.2671385E-2,-8.836325E-3,-2.7159E-4,7.3518245E-3,1.1999072E-2,-6.90268E-3,1.9471612E-2,-9.536451E-4,3.175633E-3,3.1602316E-2],"categories":[],"categories_nodes":[],"categories_segments":[],"categories_sizes":[],"default_left":[0,0,0,0,0,0,0,0,0,0,0,0,0,0,0,0,0,0,0,0,0,0,0,0,0,0,0,0,0,0,0],"id":21,"left_children":[1,3,5,7,9,11,13,15,17,19,21,23,25,27,29,-1,-1,-1,-1,-1,-1,-1,-1,-1,-1,-1,-1,-1,-1,-1,-1],"loss_changes":[3.4994772E2,3.2162537E1,1.06401306E2,2.9208832E0,4.213152E0,1.3297194E1,1.80914E1,1.7359619E0,3.19495E0,3.6279297E0,2.8241582E0,8.302428E0,6.2655735E0,8.613235E0,5.568619E0,0E0,0E0,0E0,0E0,0E0,0E0,0E0,0E0,0E0,0E0,0E0,0E0,0E0,0E0,0E0,0E0],"parents":[2147483647,0,0,1,1,2,2,3,3,4,4,5,5,6,6,7,7,8,8,9,9,10,10,11,11,12,12,13,13,14,14],"right_children":[2,4,6,8,10,12,14,16,18,20,22,24,26,28,30,-1,-1,-1,-1,-1,-1,-1,-1,-1,-1,-1,-1,-1,-1,-1,-1],"split_conditions":[-3.7801206E-2,-3.8132316E-1,3.342606E-1,-5.522539E-1,1.008035E0,1E0,6.103479E-1,1.6522007E-1,1.2259281E3,7E-1,3.3E1,5.3378755E-1,2.6666667E0,1.5637779E-1,-9.8164713E-1,-1.8855814E-2,-1.4417233E-2,9.666428E-3,-1.3090741E-2,-1.32140815E-2,-5.5476E-3,1.2671385E-2,-8.836325E-3,-2.7159E-4,7.3518245E-3,1.1999072E-2,-6.90268E-3,1.9471612E-2,-9.536451E-4,3.175633E-3,3.1602316E-2],"split_indices":[35,35,35,35,30,36,35,30,2,12,20,30,9,29,30,0,0,0,0,0,0,0,0,0,0,0,0,0,0,0,0],"split_type":[0,0,0,0,0,0,0,0,0,0,0,0,0,0,0,0,0,0,0,0,0,0,0,0,0,0,0,0,0,0,0],"sum_hessian":[2.4965964E3,1.2697903E3,1.2268062E3,6.824519E2,5.8733844E2,8.085565E2,4.182497E2,4.4153458E2,2.4091731E2,5.650099E2,2.2328506E1,5.621322E2,2.4642432E2,2.3085779E2,1.8739189E2,2.5529753E2,1.8623703E2,4.3242545E0,2.3659306E2,6.2201237E1,5.028087E2,1.6091719E1,6.236788E0,3.6606665E2,1.9606552E2,2.3075197E2,1.5672353E1,2.1069734E2,2.0160444E1,6.909979E0,1.8048192E2],"tree_param":{"num_deleted":"0","num_feature":"38","num_nodes":"31","size_leaf_vector":"1"}},{"base_weights":[3.1520969E-3,8.2922764E-2,-2.8402308E-1,1.2721537E-1,-4.1313E-1,-2.2212605E-1,-5.532977E-1,3.3599313E-2,1.9998412E-1,-2.4871434E-1,-5.618267E-1,-3.2517087E-1,-9.170957E-2,-5.7386905E-1,-1.04117535E-1,-2.2508213E-3,3.3217063E-3,7.271626E-3,-1.1946247E-3,-1.5487899E-2,-4.3928386E-3,-1.761398E-2,-2.1063166E-3,1.6421637E-3,-1.076356E-2,-5.559679E-3,3.2865952E-3,1.332911E-3,-1.7557457E-2,1.0556817E-2,-1.1116209E-2],"categories":[],"categories_nodes":[],"categories_segments":[],"categories_sizes":[],"default_left":[0,0,0,0,0,0,0,0,0,0,0,0,0,0,0,0,0,0,0,0,0,0,0,0,0,0,0,0,0,0,0],"id":22,"left_children":[1,3,5,7,9,11,13,15,17,19,21,23,25,27,29,-1,-1,-1,-1,-1,-1,-1,-1,-1,-1,-1,-1,-1,-1,-1,-1],"loss_changes":[4.9323006E1,3.7126072E1,7.555561E0,1.0534542E1,3.1087456E0,5.0998E0,6.764641E-1,5.7100153E0,8.873894E0,1.7481637E0,8.031502E-1,2.768097E0,3.285768E0,6.2843513E-1,1.0159237E0,0E0,0E0,0E0,0E0,0E0,0E0,0E0,0E0,0E0,0E0,0E0,0E0,0E0,0E0,0E0,0E0],"parents":[2147483647,0,0,1,1,2,2,3,3,4,4,5,5,6,6,7,7,8,8,9,9,10,10,11,11,12,12,13,13,14,14],"right_children":[2,4,6,8,10,12,14,16,18,20,22,24,26,28,30,-1,-1,-1,-1,-1,-1,-1,-1,-1,-1,-1,-1,-1,-1,-1,-1],"split_conditions":[2.8665608E-1,5.947155E-1,8.434328E-1,1.1445578E-1,8.315302E-1,-5.257753E-1,3.0019963E-1,3.4E1,3.342606E-1,1.2E0,2.5E0,9.535919E-2,1E0,-3.0628147E0,3.4315795E-1,-2.2508213E-3,3.3217063E-3,7.271626E-3,-1.1946247E-3,-1.5487899E-2,-4.3928386E-3,-1.761398E-2,-2.1063166E-3,1.6421637E-3,-1.076356E-2,-5.559679E-3,3.2865952E-3,1.332911E-3,-1.7557457E-2,1.0556817E-2,-1.1116209E-2],"split_indices":[34,35,34,25,35,35,28,22,35,14,9,25,36,0,28,0,0,0,0,0,0,0,0,0,0,0,0,0,0,0,0],"split_type":[0,0,0,0,0,0,0,0,0,0,0,0,0,0,0,0,0,0,0,0,0,0,0,0,0,0,0,0,0,0,0],"sum_hessian":[2.1490203E3,1.6829562E3,4.660641E2,1.5463679E3,1.3658827E2,3.819229E2,8.414118E1,6.775859E2,8.68782E2,6.7404076E1,6.91842E1,2.1168188E2,1.7024101E2,7.9925606E1,4.2155776E0,2.8135788E2,3.96228E2,7.3822424E2,1.3055774E2,1.6403423E1,5.1000656E1,6.542771E1,3.7564852E0,1.7104996E1,1.9457689E2,1.16303375E2,5.3937634E1,1.3394425E0,7.858616E1,1.3180213E0,2.8975565E0],"tree_param":{"num_deleted":"0","num_feature":"38","num_nodes":"31","size_leaf_vector":"1"}},{"base_weights":[-5.1904893E-3,-2.422442E-1,4.6997666E-1,-5.687236E-1,-7.650668E-2,1.9415557E-1,6.262156E-1,-7.16379E-1,-3.9879614E-1,2.7394793E-3,-2.6179814E-1,5.9243213E-2,3.355683E-1,5.62208E-1,8.652813E-1,-2.1771345E-2,-2.087083E-3,-1.3576611E-2,1.501624E-3,-4.1032145E-3,3.568883E-3,-1.3590928E-2,-4.9874247E-3,6.207833E-3,-2.187857E-3,3.5387443E-3,1.443501E-2,1.84246E-2,1.2108253E-2,-8.719878E-4,2.6385656E-2],"categories":[],"categories_nodes":[],"categories_segments":[],"categories_sizes":[],"default_left":[0,0,0,0,0,0,0,0,0,0,0,0,0,0,0,0,0,0,0,0,0,0,0,0,0,0,0,0,0,0,0],"id":23,"left_children":[1,3,5,7,9,11,13,15,17,19,21,23,25,27,29,-1,-1,-1,-1,-1,-1,-1,-1,-1,-1,-1,-1,-1,-1,-1,-1],"loss_changes":[3.3909363E2,1.085877E2,4.293643E1,1.6388763E1,1.9596087E1,6.928234E0,8.8013E0,2.0670776E0,7.737316E0,1.5220498E1,7.154251E0,3.726051E0,5.52273E0,3.7022858E0,1.7219849E0,0E0,0E0,0E0,0E0,0E0,0E0,0E0,0E0,0E0,0E0,0E0,0E0,0E0,0E0,0E0,0E0],"parents":[2147483647,0,0,1,1,2,2,3,3,4,4,5,5,6,6,7,7,8,8,9,9,10,10,11,11,12,12,13,13,14,14],"right_children":[2,4,6,8,10,12,14,16,18,20,22,24,26,28,30,-1,-1,-1,-1,-1,-1,-1,-1,-1,-1,-1,-1,-1,-1,-1,-1],"split_conditions":[2.1422447E-1,-2.634283E-1,3.341792E-1,-5.8335865E-1,1E0,1.4584847E-1,8.434328E-1,4.2E0,1.2251816E-1,-1.6666667E-1,-5.0647598E-2,1.16061606E-1,1.7799151E-1,1E0,5.549219E-1,-2.1771345E-2,-2.087083E-3,-1.3576611E-2,1.501624E-3,-4.1032145E-3,3.568883E-3,-1.3590928E-2,-4.9874247E-3,6.207833E-3,-2.187857E-3,3.5387443E-3,1.443501E-2,1.84246E-2,1.2108253E-2,-8.719878E-4,2.6385656E-2],"split_indices":[32,32,33,34,36,34,34,8,33,18,33,25,33,36,33,0,0,0,0,0,0,0,0,0,0,0,0,0,0,0,0],"split_type":[0,0,0,0,0,0,0,0,0,0,0,0,0,0,0,0,0,0,0,0,0,0,0,0,0,0,0,0,0,0,0],"sum_hessian":[3.006394E3,2.0064078E3,9.9998615E2,6.7395306E2,1.3324548E3,3.632309E2,6.3675525E2,3.5716736E2,3.1678568E2,9.346784E2,3.977764E2,1.8734016E2,1.7589073E2,5.0756335E2,1.2919191E2,3.5184677E2,5.3205924E0,2.828884E2,3.3897274E1,4.2461777E2,5.1006067E2,1.300383E2,2.677381E2,8.794358E1,9.9396576E1,7.196019E1,1.0393055E2,3.7801065E2,1.295527E2,1.9922248E0,1.27199684E2],"tree_param":{"num_deleted":"0","num_feature":"38","num_nodes":"31","size_leaf_vector":"1"}},{"base_weights":[-4.2558652E-3,-3.596771E-1,3.5390812E-1,-4.7619656E-1,-1.4594762E-1,8.125874E-1,1.622864E-1,-3.4175012E-1,-5.3239644E-1,-7.5054035E-2,-4.25392E-1,1.0365131E0,6.142613E-1,2.9608598E-1,2.151901E-2,9.408833E-3,-1.1023315E-2,-1.8554341E-2,-1.3933535E-2,-1.2238597E-2,-7.8218157E-4,3.2492883E-3,-1.4800559E-2,3.153279E-2,-3.911105E-3,1.9733202E-2,4.9878415E-3,6.259934E-3,1.4896557E-2,2.0195087E-2,-7.747257E-4],"categories":[],"categories_nodes":[],"categories_segments":[],"categories_sizes":[],"default_left":[0,0,0,0,0,0,0,0,0,0,0,0,0,0,0,0,0,0,0,0,0,0,0,0,0,0,0,0,0,0,0],"id":24,"left_children":[1,3,5,7,9,11,13,15,17,19,21,23,25,27,29,-1,-1,-1,-1,-1,-1,-1,-1,-1,-1,-1,-1,-1,-1,-1,-1],"loss_changes":[3.1968796E2,3.1251312E1,1.0967647E2,5.7931366E0,8.803608E0,1.5073273E1,1.665139E1,4.369461E0,2.7655792E0,5.840007E0,3.376583E0,3.1658478E0,3.6820755E0,7.739502E0,1.3402932E1,0E0,0E0,0E0,0E0,0E0,0E0,0E0,0E0,0E0,0E0,0E0,0E0,0E0,0E0,0E0,0E0],"parents":[2147483647,0,0,1,1,2,2,3,3,4,4,5,5,6,6,7,7,8,8,9,9,10,10,11,11,12,12,13,13,14,14],"right_children":[2,4,6,8,10,12,14,16,18,20,22,24,26,28,30,-1,-1,-1,-1,-1,-1,-1,-1,-1,-1,-1,-1,-1,-1,-1,-1],"split_conditions":[-3.7801206E-2,-2.9560813E-1,-4.81719E-1,2.9063463E-1,1.8668522E-1,-6.9980574E-1,-1.2092572E-2,1.0584714E-1,-1.2410653E-1,7E-1,7.1428573E-1,8.2E1,-1.3259669E-1,1E0,-3E0,9.408833E-3,-1.1023315E-2,-1.8554341E-2,-1.3933535E-2,-1.2238597E-2,-7.8218157E-4,3.2492883E-3,-1.4800559E-2,3.153279E-2,-3.911105E-3,1.9733202E-2,4.9878415E-3,6.259934E-3,1.4896557E-2,2.0195087E-2,-7.747257E-4],"split_indices":[35,35,33,33,34,32,34,29,28,12,14,22,32,36,18,0,0,0,0,0,0,0,0,0,0,0,0,0,0,0,0],"split_type":[0,0,0,0,0,0,0,0,0,0,0,0,0,0,0,0,0,0,0,0,0,0,0,0,0,0,0,0,0,0,0],"sum_hessian":[2.507314E3,1.2584713E3,1.2488427E3,8.128641E2,4.456072E2,3.6608194E2,8.827607E2,2.4379572E2,5.6906836E2,3.5745892E2,8.814831E1,1.6797375E2,1.9810818E2,4.5145007E2,4.313106E2,8.351772E0,2.3544394E2,2.4388232E2,3.25186E2,4.39689E1,3.1349002E2,9.82256E0,7.8325745E1,1.6609686E2,1.8768966E0,1.7971667E2,1.8391508E1,3.172025E2,1.3424757E2,2.7422234E1,4.0388837E2],"tree_param":{"num_deleted":"0","num_feature":"38","num_nodes":"31","size_leaf_vector":"1"}},{"base_weights":[1.9275163E-3,5.6512725E-2,-3.556749E-1,-2.5653753E-1,9.405682E-2,-2.65919E-1,-1.8150985E-2,4.979792E-2,-3.3040646E-1,1.4077969E-1,-8.161859E-2,3.752384E-1,-2.9831117E-1,1.1258142E-2,-1.0918756E-2,-1.5245699E-2,-5.45534E-3,-1.27443E-3,5.7704337E-3,-4.4775433E-3,2.6901779E-3,2.0410044E-2,-6.298175E-3,-9.935209E-3,1.5267662E-3],"categories":[],"categories_nodes":[],"categories_segments":[],"categories_sizes":[],"default_left":[0,0,0,0,0,0,0,0,0,0,0,0,0,0,0,0,0,0,0,0,0,0,0,0,0],"id":25,"left_children":[1,3,5,7,9,11,-1,13,15,17,19,21,23,-1,-1,-1,-1,-1,-1,-1,-1,-1,-1,-1,-1],"loss_changes":[4.1985104E1,2.1979683E1,6.053337E0,4.566799E0,1.3711044E1,4.647936E0,0E0,5.74947E0,4.08584E0,1.2472195E1,4.1001844E0,2.2727947E0,2.3734627E0,0E0,0E0,0E0,0E0,0E0,0E0,0E0,0E0,0E0,0E0,0E0,0E0],"parents":[2147483647,0,0,1,1,2,2,3,3,4,4,5,5,7,7,8,8,9,9,10,10,11,11,12,12],"right_children":[2,4,6,8,10,12,-1,14,16,18,20,22,24,-1,-1,-1,-1,-1,-1,-1,-1,-1,-1,-1,-1],"split_conditions":[5.634079E-1,-5.9388506E-1,8.7493724E-1,5E-1,1.6848247E-1,9.5067814E-2,-1.8150985E-2,7.22867E-1,-9.3675643E-1,9.61667E-2,4.0592462E-1,6.5E1,4.7792998E-1,1.1258142E-2,-1.0918756E-2,-1.5245699E-2,-5.45534E-3,-1.27443E-3,5.7704337E-3,-4.4775433E-3,2.6901779E-3,2.0410044E-2,-6.298175E-3,-9.935209E-3,1.5267662E-3],"split_indices":[33,33,34,9,34,25,0,28,34,29,28,23,30,0,0,0,0,0,0,0,0,0,0,0,0],"split_type":[0,0,0,0,0,0,0,0,0,0,0,0,0,0,0,0,0,0,0,0,0,0,0,0,0],"sum_hessian":[2.1468384E3,1.8639977E3,2.828407E2,1.9836064E2,1.665637E3,2.1101802E2,7.1822685E1,3.8665592E1,1.5969505E2,1.3160231E3,3.4961398E2,9.130199E0,2.0188783E2,2.1745749E1,1.6919846E1,7.0493805E1,8.920124E1,2.8907434E2,1.0269487E3,2.5083234E2,9.8781654E1,5.7875137E0,3.3426852E0,1.8461732E2,1.7270504E1],"tree_param":{"num_deleted":"0","num_feature":"38","num_nodes":"25","size_leaf_vector":"1"}},{"base_weights":[2.6504905E-4,-2.4282958E-1,4.678472E-1,-5.209113E-1,-5.3620823E-2,6.6357577E-1,2.9434654E-1,-6.854857E-1,-4.1055912E-1,-1.5211418E-1,7.2475344E-2,5.6541085E-1,7.8094304E-1,1.43014E-1,4.3417624E-1,-1.1495977E-2,-2.2204986E-2,-4.8806863E-3,-1.3352695E-2,3.6003848E-3,-5.830651E-3,1.1455695E-3,1.6617859E-2,1.7341822E-2,-3.6237226E-3,2.385541E-2,1.1181061E-2,6.8008597E-3,-1.4620905E-3,1.3661187E-2,-1.5928416E-2],"categories":[],"categories_nodes":[],"categories_segments":[],"categories_sizes":[],"default_left":[0,0,0,0,0,0,0,0,0,0,0,0,0,0,0,0,0,0,0,0,0,0,0,0,0,0,0,0,0,0,0],"id":26,"left_children":[1,3,5,7,9,11,13,15,17,19,21,23,25,27,29,-1,-1,-1,-1,-1,-1,-1,-1,-1,-1,-1,-1,-1,-1,-1,-1],"loss_changes":[3.379987E2,1.02883514E2,3.415074E1,1.3819794E1,1.4509533E1,4.605255E0,1.1361591E1,4.6376495E0,3.9554672E0,7.5824413E0,8.425442E0,2.4542542E0,6.3778687E-1,4.25266E0,6.2347984E0,0E0,0E0,0E0,0E0,0E0,0E0,0E0,0E0,0E0,0E0,0E0,0E0,0E0,0E0,0E0,0E0],"parents":[2147483647,0,0,1,1,2,2,3,3,4,4,5,5,6,6,7,7,8,8,9,9,10,10,11,11,12,12,13,13,14,14],"right_children":[2,4,6,8,10,12,14,16,18,20,22,24,26,28,30,-1,-1,-1,-1,-1,-1,-1,-1,-1,-1,-1,-1,-1,-1,-1,-1],"split_conditions":[1.03892095E-1,-1.9030392E-1,-5.7609767E-1,-6.62436E-1,1.87394E1,6.1661804E-1,2.8665608E-1,2.0896447E-1,6.666667E-1,-2.792562E-1,2.6666667E0,2E0,2.25E0,-1.2752959E-1,4.5E0,-1.1495977E-2,-2.2204986E-2,-4.8806863E-3,-1.3352695E-2,3.6003848E-3,-5.830651E-3,1.1455695E-3,1.6617859E-2,1.7341822E-2,-3.6237226E-3,2.385541E-2,1.1181061E-2,6.8008597E-3,-1.4620905E-3,1.3661187E-2,-1.5928416E-2],"split_indices":[34,33,35,34,0,34,34,35,8,35,9,12,6,35,6,0,0,0,0,0,0,0,0,0,0,0,0,0,0,0,0],"split_type":[0,0,0,0,0,0,0,0,0,0,0,0,0,0,0,0,0,0,0,0,0,0,0,0,0,0,0,0,0,0,0],"sum_hessian":[2.9695955E3,1.9544459E3,1.0151495E3,7.899473E2,1.1644985E3,4.7436374E2,5.4078577E2,3.128913E2,4.7705606E2,6.53578E2,5.1092056E2,2.6464886E2,2.0971489E2,2.616534E2,2.7913232E2,5.038224E1,2.6250903E2,5.9729195E1,4.1732687E2,8.7324936E1,5.6625305E2,4.789666E2,3.195396E1,2.6016794E2,4.4809136E0,2.0081586E2,8.899037E0,1.8190443E2,7.9748985E1,2.7416724E2,4.9651E0],"tree_param":{"num_deleted":"0","num_feature":"38","num_nodes":"31","size_leaf_vector":"1"}},{"base_weights":[8.798944E-3,-3.5405773E-1,3.7316003E-1,-1.6282965E-1,-4.7258517E-1,8.0684763E-1,1.8868284E-1,1.8717078E-2,-2.2246048E-1,-2.6983446E-1,-5.1825124E-1,1.0077167E0,6.402885E-1,3.263943E-1,4.444635E-2,-7.322426E-3,6.1369906E-3,8.342728E-5,-7.932511E-3,-9.183752E-3,1.0920531E-2,-1.384086E-2,-1.8121272E-2,3.0812906E-2,-1.8664858E-3,2.079247E-2,2.887181E-3,7.069468E-3,1.6362555E-2,1.1635353E-2,-8.8572217E-4],"categories":[],"categories_nodes":[],"categories_segments":[],"categories_sizes":[],"default_left":[0,0,0,0,0,0,0,0,0,0,0,0,0,0,0,0,0,0,0,0,0,0,0,0,0,0,0,0,0,0,0],"id":27,"left_children":[1,3,5,7,9,11,13,15,17,19,21,23,25,27,29,-1,-1,-1,-1,-1,-1,-1,-1,-1,-1,-1,-1,-1,-1,-1,-1],"loss_changes":[3.3215427E2,2.8377258E1,9.998494E1,5.255804E0,6.9056854E0,1.1204819E1,1.7491243E1,6.0433598E0,3.451126E0,3.6004715E0,2.5233917E0,3.566101E0,5.8885803E0,8.705143E0,1.1025135E1,0E0,0E0,0E0,0E0,0E0,0E0,0E0,0E0,0E0,0E0,0E0,0E0,0E0,0E0,0E0,0E0],"parents":[2147483647,0,0,1,1,2,2,3,3,4,4,5,5,6,6,7,7,8,8,9,9,10,10,11,11,12,12,13,13,14,14],"right_children":[2,4,6,8,10,12,14,16,18,20,22,24,26,28,30,-1,-1,-1,-1,-1,-1,-1,-1,-1,-1,-1,-1,-1,-1,-1,-1],"split_conditions":[-4.5011517E-2,1.8293138E-1,-4.6765488E-1,-9.812896E-2,1.6482355E-1,-6.9980574E-1,-1.2092572E-2,-1.8587609E-1,1.1017511E-1,8.869905E-1,5.1251936E-1,8.2E1,-1.3952968E-1,1E0,-5.359986E1,-7.322426E-3,6.1369906E-3,8.342728E-5,-7.932511E-3,-9.183752E-3,1.0920531E-2,-1.384086E-2,-1.8121272E-2,3.0812906E-2,-1.8664858E-3,2.079247E-2,2.887181E-3,7.069468E-3,1.6362555E-2,1.1635353E-2,-8.8572217E-4],"split_indices":[35,33,33,33,32,32,34,35,29,28,34,22,32,36,0,0,0,0,0,0,0,0,0,0,0,0,0,0,0,0,0],"split_type":[0,0,0,0,0,0,0,0,0,0,0,0,0,0,0,0,0,0,0,0,0,0,0,0,0,0,0,0,0,0,0],"sum_hessian":[2.5083086E3,1.2567772E3,1.2515315E3,4.8272043E2,7.7405676E2,3.7147742E2,8.800541E2,1.1969124E2,3.6302917E2,1.4483376E2,6.29223E2,1.6381612E2,2.0766132E2,4.4891827E2,4.3113577E2,4.9321754E1,7.0369484E1,5.7297646E1,3.0573154E2,1.3796857E2,6.865185E0,3.860101E2,2.432129E2,1.6098027E2,2.835834E0,1.887932E2,1.8868128E1,3.203456E2,1.2857268E2,7.490622E1,3.5622955E2],"tree_param":{"num_deleted":"0","num_feature":"38","num_nodes":"31","size_leaf_vector":"1"}},{"base_weights":[2.0653372E-4,5.502458E-2,-3.8408682E-1,-3.356713E-1,8.327939E-2,-2.7203166E-1,-5.4413205E-1,-4.0529737E-1,2.6274738E-1,1.9817744E-1,2.6210103E-2,-3.027735E-1,3.9887118E-1,-2.1578636E-2,-5.7821923E-1,2.0468195E-3,-1.37295015E-2,1.982547E-2,-9.988413E-3,-1.9171771E-4,9.25924E-3,1.408557E-3,-4.6781865E-3,-9.702967E-3,1.6344042E-2,-3.1653247E-3,2.9995844E-2,1.142377E-2,-1.18832905E-2,-1.762753E-2,1.7863681E-3],"categories":[],"categories_nodes":[],"categories_segments":[],"categories_sizes":[],"default_left":[0,0,0,0,0,0,0,0,0,0,0,0,0,0,0,0,0,0,0,0,0,0,0,0,0,0,0,0,0,0,0],"id":28,"left_children":[1,3,5,7,9,11,13,15,17,19,21,23,25,27,29,-1,-1,-1,-1,-1,-1,-1,-1,-1,-1,-1,-1,-1,-1,-1,-1],"loss_changes":[4.5155422E1,2.0764065E1,4.5029182E0,5.5008326E0,1.1471115E1,3.5702286E0,1.9023247E0,2.9002247E0,3.8646011E0,1.3128071E1,4.4433794E0,3.0744648E0,2.6161063E0,1.6132691E0,6.76178E-1,0E0,0E0,0E0,0E0,0E0,0E0,0E0,0E0,0E0,0E0,0E0,0E0,0E0,0E0,0E0,0E0],"parents":[2147483647,0,0,1,1,2,2,3,3,4,4,5,5,6,6,7,7,8,8,9,9,10,10,11,11,12,12,13,13,14,14],"right_children":[2,4,6,8,10,12,14,16,18,20,22,24,26,28,30,-1,-1,-1,-1,-1,-1,-1,-1,-1,-1,-1,-1,-1,-1,-1,-1],"split_conditions":[5.723305E-1,-7.2337073E-1,7.315786E-1,-3.6663365E-1,-2.1090811E-1,2.25E0,1E0,-6E0,1.3002503E-1,-4.11684E-1,5.317191E-1,1.8106213E-1,5.555556E-1,1.3266213E-1,3.8367906E-1,2.0468195E-3,-1.37295015E-2,1.982547E-2,-9.988413E-3,-1.9171771E-4,9.25924E-3,1.408557E-3,-4.6781865E-3,-9.702967E-3,1.6344042E-2,-3.1653247E-3,2.9995844E-2,1.142377E-2,-1.18832905E-2,-1.762753E-2,1.7863681E-3],"split_indices":[33,32,34,33,34,6,9,21,31,33,32,25,4,27,30,0,0,0,0,0,0,0,0,0,0,0,0,0,0,0,0],"split_type":[0,0,0,0,0,0,0,0,0,0,0,0,0,0,0,0,0,0,0,0,0,0,0,0,0,0,0,0,0,0,0],"sum_hessian":[2.1394937E3,1.873902E3,2.6559164E2,1.2491189E2,1.7489901E3,1.5939276E2,1.0619889E2,1.1247128E2,1.2440607E1,5.787809E2,1.1702092E3,1.5345845E2,5.9342995E0,6.7033467E0,9.9495544E1,1.1136484E1,1.013348E2,7.325941E0,5.114666E0,2.0360649E2,3.751744E2,1.0519103E3,1.18298935E2,1.5101445E2,2.444011E0,4.1229687E0,1.8113306E0,3.2154493E0,3.4878976E0,9.821076E1,1.2847806E0],"tree_param":{"num_deleted":"0","num_feature":"38","num_nodes":"31","size_leaf_vector":"1"}},{"base_weights":[-5.643091E-5,-2.349378E-1,4.261233E-1,-5.515501E-1,-6.2588625E-2,2.7275145E-1,6.5376455E-1,-7.2058815E-1,-4.568114E-1,-2.1754622E-1,2.1419331E-2,2.7086265E-2,3.4644935E-1,3.7062293E-1,6.880435E-1,-2.1843622E-2,6.4018257E-3,-1.4014727E-2,1.8873196E-2,-3.8579972E-3,-1.1968032E-2,-2.1994747E-3,5.1573976E-3,9.13294E-3,-3.8390234E-3,7.615083E-3,1.384778E-2,-9.943199E-4,1.4740479E-2,1.6590778E-2,2.244993E-2],"categories":[],"categories_nodes":[],"categories_segments":[],"categories_sizes":[],"default_left":[0,0,0,0,0,0,0,0,0,0,0,0,0,0,0,0,0,0,0,0,0,0,0,0,0,0,0,0,0,0,0],"id":29,"left_children":[1,3,5,7,9,11,13,15,17,19,21,23,25,27,29,-1,-1,-1,-1,-1,-1,-1,-1,-1,-1,-1,-1,-1,-1,-1,-1],"loss_changes":[2.9796692E2,1.04647385E2,3.65692E1,1.0169937E1,1.621443E1,1.1483822E1,3.6081848E0,1.9949036E0,5.5174255E0,6.9608746E0,1.1559871E1,6.4759974E0,4.975418E0,2.4774704E0,2.234085E0,0E0,0E0,0E0,0E0,0E0,0E0,0E0,0E0,0E0,0E0,0E0,0E0,0E0,0E0,0E0,0E0],"parents":[2147483647,0,0,1,1,2,2,3,3,4,4,5,5,6,6,7,7,8,8,9,9,10,10,11,11,12,12,13,13,14,14],"right_children":[2,4,6,8,10,12,14,16,18,20,22,24,26,28,30,-1,-1,-1,-1,-1,-1,-1,-1,-1,-1,-1,-1,-1,-1,-1,-1],"split_conditions":[1.8293138E-1,-2.3404157E-1,5.0215906E-1,-6.1863136E-1,-6.1059546E-2,7.979956E-2,1.1756666E-1,1.6940961E3,1.690408E-1,1E0,3.5325844E1,1E0,4.4469702E-1,1.2897332E-1,5.634079E-1,-2.1843622E-2,6.4018257E-3,-1.4014727E-2,1.8873196E-2,-3.8579972E-3,-1.1968032E-2,-2.1994747E-3,5.1573976E-3,9.13294E-3,-3.8390234E-3,7.615083E-3,1.384778E-2,-9.943199E-4,1.4740479E-2,1.6590778E-2,2.244993E-2],"split_indices":[33,32,32,32,33,32,29,1,33,36,0,10,33,27,33,0,0,0,0,0,0,0,0,0,0,0,0,0,0,0,0],"split_type":[0,0,0,0,0,0,0,0,0,0,0,0,0,0,0,0,0,0,0,0,0,0,0,0,0,0,0,0,0,0,0],"sum_hessian":[2.972642E3,1.9170123E3,1.0556298E3,6.741576E2,1.2428547E3,6.333265E2,4.223033E2,2.373868E2,4.367708E2,4.3580594E2,8.0704877E2,1.4678091E2,4.865456E2,4.8156624E1,3.741467E2,2.359249E2,1.4619092E0,4.3377756E2,2.993248E0,2.9470905E2,1.410969E2,4.9590485E2,3.1114392E2,5.1943188E1,9.483773E1,2.7320642E2,2.1333916E2,1.1418524E1,3.6738102E1,1.2177365E2,2.5237303E2],"tree_param":{"num_deleted":"0","num_feature":"38","num_nodes":"31","size_leaf_vector":"1"}},{"base_weights":[1.5776986E-3,-2.5880155E-1,4.7424787E-1,-4.7280678E-1,-7.903859E-2,2.8881288E-1,8.1028074E-1,-4.030418E-1,-5.845726E-1,-9.9243E-2,8.857158E-1,3.6946824E-1,2.5215799E-2,9.8759073E-1,5.835516E-1,-1.25407E-2,-3.6910253E-3,-1.763818E-2,2.960087E-3,-7.775421E-4,-8.456566E-3,3.4090985E-2,5.3525073E-3,1.683196E-2,8.565848E-3,1.6940057E-2,-1.0292336E-3,3.033941E-2,1.1311671E-2,1.9001402E-2,-9.71645E-3],"categories":[],"categories_nodes":[],"categories_segments":[],"categories_sizes":[],"default_left":[0,0,0,0,0,0,0,0,0,0,0,0,0,0,0,0,0,0,0,0,0,0,0,0,0,0,0,0,0,0,0],"id":30,"left_children":[1,3,5,7,9,11,13,15,17,19,21,23,25,27,29,-1,-1,-1,-1,-1,-1,-1,-1,-1,-1,-1,-1,-1,-1,-1,-1],"loss_changes":[3.0620578E2,6.1641647E1,5.459932E1,5.236267E0,1.7217669E1,1.2154785E1,1.1436401E1,1.8146667E0,7.5289917E-1,1.1477971E1,2.8096924E0,6.728382E0,4.415289E0,1.7406769E0,6.845066E0,0E0,0E0,0E0,0E0,0E0,0E0,0E0,0E0,0E0,0E0,0E0,0E0,0E0,0E0,0E0,0E0],"parents":[2147483647,0,0,1,1,2,2,3,3,4,4,5,5,6,6,7,7,8,8,9,9,10,10,11,11,12,12,13,13,14,14],"right_children":[2,4,6,8,10,12,14,16,18,20,22,24,26,28,30,-1,-1,-1,-1,-1,-1,-1,-1,-1,-1,-1,-1,-1,-1,-1,-1],"split_conditions":[1.3860742E-2,-3.322684E-1,4.5913985E-1,4.452037E-1,3.3333333E0,-8.8344455E-2,-6.9980574E-1,2.2E0,3.15E2,4.2771737E-4,2E-1,1.375E0,8E-1,7.3E1,4.5445743E-1,-1.25407E-2,-3.6910253E-3,-1.763818E-2,2.960087E-3,-7.775421E-4,-8.456566E-3,3.4090985E-2,5.3525073E-3,1.683196E-2,8.565848E-3,1.6940057E-2,-1.0292336E-3,3.033941E-2,1.1311671E-2,1.9001402E-2,-9.71645E-3],"split_indices":[35,35,35,34,12,34,32,6,21,34,7,16,14,22,34,0,0,0,0,0,0,0,0,0,0,0,0,0,0,0,0],"split_type":[0,0,0,0,0,0,0,0,0,0,0,0,0,0,0,0,0,0,0,0,0,0,0,0,0,0,0,0,0,0,0],"sum_hessian":[2.4839966E3,1.6022642E3,8.8173236E2,7.299768E2,8.7228735E2,5.7058307E2,3.111493E2,4.551078E2,2.7486902E2,8.561516E2,1.613573E1,4.3628525E2,1.3429778E2,1.7083714E2,1.4031216E2,4.3105865E2,2.4049147E1,2.7379883E2,1.070187E0,6.125264E2,2.4362521E2,1.1017963E1,5.117768E0,1.2944727E2,3.06838E2,1.1659217E1,1.22638565E2,1.631836E2,7.65355E0,1.3358105E2,6.731106E0],"tree_param":{"num_deleted":"0","num_feature":"38","num_nodes":"31","size_leaf_vector":"1"}},{"base_weights":[-8.305883E-3,4.2598248E-2,-3.578844E-1,7.426429E-2,-3.710297E-1,-1.8518414E-1,-4.4160125E-1,-7.360262E-3,1.4107051E-1,-4.5290497E-1,6.572257E-2,-9.18619E-2,-5.090981E-1,-5.16964E-1,-2.6748434E-1,-4.8442488E-4,2.0554397E-2,5.249701E-3,-4.607825E-3,-1.5854474E-2,-9.197882E-3,1.8376596E-2,-4.1325316E-3,6.99266E-3,-5.8184452E-3,-4.400195E-3,-1.6476227E-2,-1.5952194E-2,8.532485E-3,-1.03630815E-2,1.3475307E-2],"categories":[],"categories_nodes":[],"categories_segments":[],"categories_sizes":[],"default_left":[0,0,0,0,0,0,0,0,0,0,0,0,0,0,0,0,0,0,0,0,0,0,0,0,0,0,0,0,0,0,0],"id":31,"left_children":[1,3,5,7,9,11,13,15,17,19,21,23,25,27,29,-1,-1,-1,-1,-1,-1,-1,-1,-1,-1,-1,-1,-1,-1,-1,-1],"loss_changes":[3.8335403E1,2.4689075E1,3.7952995E0,9.537621E0,4.8540745E0,2.7129521E0,2.124443E0,4.823049E0,9.666052E0,9.272804E-1,2.7182345E0,2.5623713E0,1.3435793E-1,1.7892113E0,3.6296973E0,0E0,0E0,0E0,0E0,0E0,0E0,0E0,0E0,0E0,0E0,0E0,0E0,0E0,0E0,0E0,0E0],"parents":[2147483647,0,0,1,1,2,2,3,3,4,4,5,5,6,6,7,7,8,8,9,9,10,10,11,11,12,12,13,13,14,14],"right_children":[2,4,6,8,10,12,14,16,18,20,22,24,26,28,30,-1,-1,-1,-1,-1,-1,-1,-1,-1,-1,-1,-1,-1,-1,-1,-1],"split_conditions":[5.634079E-1,6.103479E-1,8.333333E-1,1.1445578E-1,-4.8116174E-1,8.327585E-1,2.1E0,1.15E2,3.8874522E-1,-7.943724E-1,-4.1034696E-1,1.065018E-1,-1.01E2,5.8E0,-4.9443433E-1,-4.8442488E-4,2.0554397E-2,5.249701E-3,-4.607825E-3,-1.5854474E-2,-9.197882E-3,1.8376596E-2,-4.1325316E-3,6.99266E-3,-5.8184452E-3,-4.400195E-3,-1.6476227E-2,-1.5952194E-2,8.532485E-3,-1.03630815E-2,1.3475307E-2],"split_indices":[33,35,18,25,32,32,13,22,32,33,32,24,21,15,35,0,0,0,0,0,0,0,0,0,0,0,0,0,0,0,0],"split_type":[0,0,0,0,0,0,0,0,0,0,0,0,0,0,0,0,0,0,0,0,0,0,0,0,0,0,0,0,0,0,0],"sum_hessian":[2.1505671E3,1.8787483E3,2.71819E2,1.7466697E3,1.3207855E2,9.084274E1,1.8097626E2,7.86948E2,9.597217E2,1.11165146E2,2.091341E1,7.251716E1,1.832558E1,1.2355849E2,5.7417778E1,7.7901636E2,7.93159E0,8.613787E2,9.8343E1,6.985601E1,4.130914E1,4.5810323E0,1.6332378E1,1.6722216E1,5.5794945E1,2.7540357E0,1.5571545E1,1.2198233E2,1.5761591E0,5.2719433E1,4.6983438E0],"tree_param":{"num_deleted":"0","num_feature":"38","num_nodes":"31","size_leaf_vector":"1"}},{"base_weights":[5.0364865E-4,-2.1804622E-1,4.361423E-1,-5.568015E-1,-5.2156646E-2,1.0297602E-1,5.417599E-1,-6.9241625E-1,-4.1056356E-1,2.052502E-2,-2.1889003E-1,-6.9028795E-2,2.4437158E-1,4.4773564E-1,7.17059E-1,-2.2387926E-2,-1.708522E-2,-3.6763775E-3,-1.4119699E-2,-2.8522958E-3,4.1724313E-3,-1.3844731E-2,-4.6027293E-3,-3.910348E-5,-1.6717011E-2,8.256372E-3,-1.5070744E-2,1.4742311E-2,6.4622522E-3,-2.58698E-3,2.1955255E-2],"categories":[],"categories_nodes":[],"categories_segments":[],"categories_sizes":[],"default_left":[0,0,0,0,0,0,0,0,0,0,0,0,0,0,0,0,0,0,0,0,0,0,0,0,0,0,0,0,0,0,0],"id":32,"left_children":[1,3,5,7,9,11,13,15,17,19,21,23,25,27,29,-1,-1,-1,-1,-1,-1,-1,-1,-1,-1,-1,-1,-1,-1,-1,-1],"loss_changes":[2.83805E2,1.1149265E2,3.4930313E1,1.2368317E1,1.6183586E1,5.9235764E0,1.1813095E1,1.370758E0,5.4020767E0,1.2790776E1,6.2963753E0,3.6626832E0,3.3476133E0,4.8330765E0,3.219513E0,0E0,0E0,0E0,0E0,0E0,0E0,0E0,0E0,0E0,0E0,0E0,0E0,0E0,0E0,0E0,0E0],"parents":[2147483647,0,0,1,1,2,2,3,3,4,4,5,5,6,6,7,7,8,8,9,9,10,10,11,11,12,12,13,13,14,14],"right_children":[2,4,6,8,10,12,14,16,18,20,22,24,26,28,30,-1,-1,-1,-1,-1,-1,-1,-1,-1,-1,-1,-1,-1,-1,-1,-1],"split_conditions":[2.1422447E-1,-2.634283E-1,1.6149944E-1,-5.98466E-1,1E0,1.685713E-2,6.1661804E-1,-5.7765895E-1,-4.814147E-2,6.666667E-2,-2.4343641E-1,1.3063174E2,1.39E2,6.604995E-1,-1.1860088E0,-2.2387926E-2,-1.708522E-2,-3.6763775E-3,-1.4119699E-2,-2.8522958E-3,4.1724313E-3,-1.3844731E-2,-4.6027293E-3,-3.910348E-5,-1.6717011E-2,8.256372E-3,-1.5070744E-2,1.4742311E-2,6.4622522E-3,-2.58698E-3,2.1955255E-2],"split_indices":[32,32,34,34,36,34,34,32,30,18,34,0,20,30,26,0,0,0,0,0,0,0,0,0,0,0,0,0,0,0,0],"split_type":[0,0,0,0,0,0,0,0,0,0,0,0,0,0,0,0,0,0,0,0,0,0,0,0,0,0,0,0,0,0,0],"sum_hessian":[2.9768728E3,1.9830309E3,9.9384186E2,6.503233E2,1.3327076E3,2.4017372E2,7.5366815E2,3.3354156E2,3.167817E2,9.2934534E2,4.0336224E2,1.0882001E2,1.3135371E2,4.951796E2,2.5848856E2,2.2487683E2,1.08664734E2,5.5734173E1,2.6104755E2,4.7073624E2,4.586091E2,8.314545E1,3.202168E2,9.732422E1,1.1495788E1,1.2735662E2,3.9970932E0,4.1494467E2,8.023493E1,4.4962935E0,2.5399225E2],"tree_param":{"num_deleted":"0","num_feature":"38","num_nodes":"31","size_leaf_vector":"1"}},{"base_weights":[-9.809977E-6,-3.51742E-1,3.3872637E-1,-4.8356745E-1,-1.7663957E-1,1.8679103E-1,7.8277564E-1,-3.4795144E-1,-5.325673E-1,4.6087738E-2,-2.3250896E-1,2.1375816E-1,-3.2044876E-1,8.0715436E-1,1.3863514E-1,9.742102E-3,-1.1010361E-2,-1.8024646E-2,-1.4250263E-2,9.071867E-3,-4.398184E-3,-5.9366636E-3,-1.4519288E-2,4.206677E-3,1.1421741E-2,-1.3789113E-2,6.596842E-3,-1.169298E-2,2.4546444E-2,-7.0834425E-3,1.6837772E-2],"categories":[],"categories_nodes":[],"categories_segments":[],"categories_sizes":[],"default_left":[0,0,0,0,0,0,0,0,0,0,0,0,0,0,0,0,0,0,0,0,0,0,0,0,0,0,0,0,0,0,0],"id":33,"left_children":[1,3,5,7,9,11,13,15,17,19,21,23,25,27,29,-1,-1,-1,-1,-1,-1,-1,-1,-1,-1,-1,-1,-1,-1,-1,-1],"loss_changes":[2.9705798E2,2.8063446E1,8.539671E1,4.258835E0,6.5979004E0,1.3117264E1,4.850891E0,2.6831684E0,1.4249115E0,5.405577E0,3.4896889E0,1.09707985E1,3.865078E0,4.7545013E0,2.5139143E0,0E0,0E0,0E0,0E0,0E0,0E0,0E0,0E0,0E0,0E0,0E0,0E0,0E0,0E0,0E0,0E0],"parents":[2147483647,0,0,1,1,2,2,3,3,4,4,5,5,6,6,7,7,8,8,9,9,10,10,11,11,12,12,13,13,14,14],"right_children":[2,4,6,8,10,12,14,16,18,20,22,24,26,28,30,-1,-1,-1,-1,-1,-1,-1,-1,-1,-1,-1,-1,-1,-1,-1,-1],"split_conditions":[-4.5011517E-2,-3.5975367E-1,4.495524E-1,3.0305377E-1,-9.812896E-2,1.3246295E-1,-1.7732437E-1,1.0567247E-1,-1.2410653E-1,1.3779648E-1,4.0172043E-1,1E0,2E0,-1.1940924E0,5.947155E-1,9.742102E-3,-1.1010361E-2,-1.8024646E-2,-1.4250263E-2,9.071867E-3,-4.398184E-3,-5.9366636E-3,-1.4519288E-2,4.206677E-3,1.1421741E-2,-1.3789113E-2,6.596842E-3,-1.169298E-2,2.4546444E-2,-7.0834425E-3,1.6837772E-2],"split_indices":[35,35,35,33,33,33,33,29,28,31,33,36,11,30,35,0,0,0,0,0,0,0,0,0,0,0,0,0,0,0,0],"split_type":[0,0,0,0,0,0,0,0,0,0,0,0,0,0,0,0,0,0,0,0,0,0,0,0,0,0,0,0,0,0,0],"sum_hessian":[2.4892595E3,1.2211656E3,1.2680939E3,6.946653E2,5.265004E2,9.4693353E2,3.2116034E2,1.8867503E2,5.0599026E2,1.0565385E2,4.2084656E2,9.0023047E2,4.6703075E1,3.0896097E2,1.2199365E1,4.315012E0,1.8436002E2,2.2285127E2,2.8313898E2,4.485383E1,6.080002E1,3.7306027E2,4.7786312E1,6.2753186E2,2.726986E2,3.737443E1,9.328646E0,2.2018976E0,3.0675906E2,6.933714E0,5.2656507E0],"tree_param":{"num_deleted":"0","num_feature":"38","num_nodes":"31","size_leaf_vector":"1"}},{"base_weights":[-2.8616707E-3,4.4442482E-2,-3.4885705E-1,8.050869E-2,-3.359086E-1,-2.5377038E-1,-5.5938727E-1,1.6695958E-1,9.776397E-4,-3.6510873E-1,5.2868134E-1,-3.227818E-1,-5.21151E-2,-1.7477566E-2,-1.4697823E-1,8.192097E-3,1.0372639E-3,-1.9565425E-3,2.6376238E-3,1.5088203E-2,-1.1427745E-2,-2.6183636E-3,2.658551E-2,-1.0185557E-2,9.9096345E-3,-5.9373924E-3,8.738786E-3,8.868208E-3,-1.1554295E-2],"categories":[],"categories_nodes":[],"categories_segments":[],"categories_sizes":[],"default_left":[0,0,0,0,0,0,0,0,0,0,0,0,0,0,0,0,0,0,0,0,0,0,0,0,0,0,0,0,0],"id":34,"left_children":[1,3,5,7,9,11,13,15,17,19,21,23,25,-1,27,-1,-1,-1,-1,-1,-1,-1,-1,-1,-1,-1,-1,-1,-1],"loss_changes":[3.5338974E1,2.611207E1,4.9147453E0,1.1940146E1,4.5493946E0,2.5068722E0,5.85865E-1,1.1670151E1,5.228868E0,2.5895138E0,1.5209885E0,1.7067795E0,2.5651667E0,0E0,9.5388794E-1,0E0,0E0,0E0,0E0,0E0,0E0,0E0,0E0,0E0,0E0,0E0,0E0,0E0,0E0],"parents":[2147483647,0,0,1,1,2,2,3,3,4,4,5,5,6,6,7,7,8,8,9,9,10,10,11,11,12,12,14,14],"right_children":[2,4,6,8,10,12,14,16,18,20,22,24,26,-1,28,-1,-1,-1,-1,-1,-1,-1,-1,-1,-1,-1,-1,-1,-1],"split_conditions":[5.723305E-1,5.430087E-1,8.434328E-1,-2.882511E-2,2.3952408E-1,1E0,1.4881638E3,6.605169E-2,1.0953404E-1,-8.038002E-1,2.1481432E-1,1.9262259E-1,-6.512932E-1,-1.7477566E-2,1.25E0,8.192097E-3,1.0372639E-3,-1.9565425E-3,2.6376238E-3,1.5088203E-2,-1.1427745E-2,-2.6183636E-3,2.658551E-2,-1.0185557E-2,9.9096345E-3,-5.9373924E-3,8.738786E-3,8.868208E-3,-1.1554295E-2],"split_indices":[33,35,34,34,29,36,2,35,25,28,27,31,35,0,7,0,0,0,0,0,0,0,0,0,0,0,0,0,0],"split_type":[0,0,0,0,0,0,0,0,0,0,0,0,0,0,0,0,0,0,0,0,0,0,0,0,0,0,0,0,0],"sum_hessian":[2.1552632E3,1.897572E3,2.5769113E2,1.734662E3,1.6290999E2,1.8055408E2,7.713705E1,8.3011816E2,9.045439E2,1.5870538E2,4.204604E0,1.336235E2,4.6930573E1,7.224778E1,4.889269E0,4.596044E2,3.7051376E2,5.1383E2,3.9071387E2,1.737655E0,1.5696773E2,2.0993133E0,2.105291E0,1.3122105E2,2.4024515E0,3.353868E1,1.3391891E1,1.5417823E0,3.3474865E0],"tree_param":{"num_deleted":"0","num_feature":"38","num_nodes":"29","size_leaf_vector":"1"}},{"base_weights":[-3.9634705E-3,-2.0473145E-1,4.7299856E-1,-5.162675E-1,-5.019987E-2,5.3982556E-1,1.00689314E-1,-6.7296934E-1,-3.8001505E-1,2.4619985E-2,-2.2529483E-1,4.173158E-1,6.61051E-1,2.0171681E-1,-2.1215369E-1,4.1783787E-3,-2.0509304E-2,-1.2785854E-2,-2.6712738E-4,1.7231219E-2,2.7566953E-4,-1.2245083E-2,-4.1979835E-3,1.4323257E-2,7.4789478E-3,-7.1248205E-6,2.0291667E-2,-4.328227E-3,9.657537E-3,2.335261E-3,-1.6713735E-2],"categories":[],"categories_nodes":[],"categories_segments":[],"categories_sizes":[],"default_left":[0,0,0,0,0,0,0,0,0,0,0,0,0,0,0,0,0,0,0,0,0,0,0,0,0,0,0,0,0,0,0],"id":35,"left_children":[1,3,5,7,9,11,13,15,17,19,21,23,25,27,29,-1,-1,-1,-1,-1,-1,-1,-1,-1,-1,-1,-1,-1,-1,-1,-1],"loss_changes":[2.8611157E2,1.01176956E2,2.1913101E1,1.4369492E1,1.845328E1,1.0586105E1,4.420415E0,2.978424E0,6.460327E0,8.371667E0,6.4679203E0,3.5849075E0,3.788971E0,4.4471483E0,3.533556E0,0E0,0E0,0E0,0E0,0E0,0E0,0E0,0E0,0E0,0E0,0E0,0E0,0E0,0E0,0E0,0E0],"parents":[2147483647,0,0,1,1,2,2,3,3,4,4,5,5,6,6,7,7,8,8,9,9,10,10,11,11,12,12,13,13,14,14],"right_children":[2,4,6,8,10,12,14,16,18,20,22,24,26,28,30,-1,-1,-1,-1,-1,-1,-1,-1,-1,-1,-1,-1,-1,-1,-1,-1],"split_conditions":[1.7580725E-1,-2.3404157E-1,-1.7887397E-1,-4.81719E-1,1E0,4.6518627E-1,4.7E1,2E0,1.1769384E-1,2.2222222E-1,-5.0647598E-2,1E0,2.426699E-1,-3.364471E-2,1.2222222E0,4.1783787E-3,-2.0509304E-2,-1.2785854E-2,-2.6712738E-4,1.7231219E-2,2.7566953E-4,-1.2245083E-2,-4.1979835E-3,1.4323257E-2,7.4789478E-3,-7.1248205E-6,2.0291667E-2,-4.328227E-3,9.657537E-3,2.335261E-3,-1.6713735E-2],"split_indices":[34,32,35,33,36,34,23,19,33,14,33,36,33,32,12,0,0,0,0,0,0,0,0,0,0,0,0,0,0,0,0],"split_type":[0,0,0,0,0,0,0,0,0,0,0,0,0,0,0,0,0,0,0,0,0,0,0,0,0,0,0,0,0,0,0],"sum_hessian":[2.9838162E3,2.1007058E3,8.8311017E2,6.949677E2,1.4057383E3,7.479571E2,1.3515306E2,3.195639E2,3.7540378E2,9.860905E2,4.196477E2,3.7642703E2,3.7153006E2,1.02698654E2,3.245441E1,3.832538E0,3.1573138E2,3.3359518E2,4.180859E1,2.494489E1,9.611456E2,1.311393E2,2.8850842E2,2.7450903E2,1.01918E2,8.466588E0,3.6306348E2,2.6376127E1,7.6322525E1,1.8473543E1,1.3980867E1],"tree_param":{"num_deleted":"0","num_feature":"38","num_nodes":"31","size_leaf_vector":"1"}},{"base_weights":[-6.455444E-3,-3.4387204E-1,3.1931683E-1,-2.0100576E-1,-5.0430393E-1,7.505294E-1,1.5061745E-1,-3.2709187E-1,-7.8269385E-2,-2.659157E-1,-5.3417414E-1,6.5726185E-1,9.825693E-1,1.0931801E-1,5.766154E-1,-3.4899295E-3,-1.114834E-2,1.8442933E-2,-2.9852425E-3,2.4821779E-2,-9.506896E-3,-1.625831E-2,-2.822153E-3,2.1309216E-2,1.2154256E-2,3.045023E-2,-1.7599199E-3,4.033874E-3,-1.0752194E-2,2.0223178E-2,-5.931015E-3],"categories":[],"categories_nodes":[],"categories_segments":[],"categories_sizes":[],"default_left":[0,0,0,0,0,0,0,0,0,0,0,0,0,0,0,0,0,0,0,0,0,0,0,0,0,0,0,0,0,0,0],"id":36,"left_children":[1,3,5,7,9,11,13,15,17,19,21,23,25,27,29,-1,-1,-1,-1,-1,-1,-1,-1,-1,-1,-1,-1,-1,-1,-1,-1],"loss_changes":[2.7110263E2,2.7565216E1,9.105786E1,9.917362E0,3.7700348E0,6.334259E0,1.5786785E1,2.8890076E0,4.9655895E0,4.2798996E0,1.6212769E0,2.8666382E0,3.394867E0,9.822529E0,6.265543E0,0E0,0E0,0E0,0E0,0E0,0E0,0E0,0E0,0E0,0E0,0E0,0E0,0E0,0E0,0E0,0E0],"parents":[2147483647,0,0,1,1,2,2,3,3,4,4,5,5,6,6,7,7,8,8,9,9,10,10,11,11,12,12,13,13,14,14],"right_children":[2,4,6,8,10,12,14,16,18,20,22,24,26,28,30,-1,-1,-1,-1,-1,-1,-1,-1,-1,-1,-1,-1,-1,-1,-1,-1],"split_conditions":[-4.5011517E-2,1.8668522E-1,-4.81719E-1,-2.8561285E-1,2.426699E-1,8.315302E-1,4.1402993E-1,1.2465735E-1,-3.5471004E-1,1.1673607E-1,6E0,2.25E0,6E0,1.4876541E-1,3.597397E-1,-3.4899295E-3,-1.114834E-2,1.8442933E-2,-2.9852425E-3,2.4821779E-2,-9.506896E-3,-1.625831E-2,-2.822153E-3,2.1309216E-2,1.2154256E-2,3.045023E-2,-1.7599199E-3,4.033874E-3,-1.0752194E-2,2.0223178E-2,-5.931015E-3],"split_indices":[35,34,33,35,33,35,35,31,33,31,37,10,12,33,34,0,0,0,0,0,0,0,0,0,0,0,0,0,0,0,0],"split_type":[0,0,0,0,0,0,0,0,0,0,0,0,0,0,0,0,0,0,0,0,0,0,0,0,0,0,0,0,0,0,0],"sum_hessian":[2.4623433E3,1.2095E3,1.2528431E3,6.421576E2,5.673424E2,3.5036847E2,9.0247473E2,3.151137E2,3.2704388E2,6.5378044E1,5.0196436E2,2.5538324E2,9.498523E1,8.250057E2,7.7469025E1,5.6214268E1,2.5889944E2,8.062657E0,3.1898123E2,1.5557307E0,6.3822315E1,4.9280173E2,9.162647E0,2.0798837E2,4.7394863E1,9.216433E1,2.8209033E0,7.842691E2,4.073657E1,6.9035866E1,8.433157E0],"tree_param":{"num_deleted":"0","num_feature":"38","num_nodes":"31","size_leaf_vector":"1"}},{"base_weights":[3.6367048E-3,5.1208436E-2,-3.330973E-1,8.679373E-2,-3.572969E-1,-2.3378915E-1,-5.679479E-1,2.0170648E-1,3.400697E-2,-3.8494664E-1,5.651224E-1,-2.6648292E-1,2.7845746E-1,2.316121E-3,-1.7410176E-2,9.875496E-3,-3.585542E-4,-1.5897524E-3,2.7895137E-3,-1.2248142E-2,1.6632095E-2,-7.989667E-3,3.0409865E-2,1.6518313E-2,-8.634214E-3,2.2359148E-2,-6.149356E-3],"categories":[],"categories_nodes":[],"categories_segments":[],"categories_sizes":[],"default_left":[0,0,0,0,0,0,0,0,0,0,0,0,0,0,0,0,0,0,0,0,0,0,0,0,0,0,0],"id":37,"left_children":[1,3,5,7,9,11,13,15,17,19,21,23,25,-1,-1,-1,-1,-1,-1,-1,-1,-1,-1,-1,-1,-1,-1],"loss_changes":[3.4217575E1,2.7267784E1,5.9013405E0,1.0438723E1,4.269869E0,3.3175774E0,7.066231E-1,1.4769806E1,6.080559E0,3.6772099E0,2.4740255E0,3.4341345E0,3.0885828E0,0E0,0E0,0E0,0E0,0E0,0E0,0E0,0E0,0E0,0E0,0E0,0E0,0E0,0E0],"parents":[2147483647,0,0,1,1,2,2,3,3,4,4,5,5,6,6,7,7,8,8,9,9,10,10,11,11,12,12],"right_children":[2,4,6,8,10,12,14,16,18,20,22,24,26,-1,-1,-1,-1,-1,-1,-1,-1,-1,-1,-1,-1,-1,-1],"split_conditions":[5.634079E-1,5.785781E-1,8.434328E-1,-2.338282E-1,6.404083E-1,2.2E0,2E-1,2.3424198E-1,2.4E1,6E0,-7.943724E-1,-1.2718879E-1,2.5E1,2.316121E-3,-1.7410176E-2,9.875496E-3,-3.585542E-4,-1.5897524E-3,2.7895137E-3,-1.2248142E-2,1.6632095E-2,-7.989667E-3,3.0409865E-2,1.6518313E-2,-8.634214E-3,2.2359148E-2,-6.149356E-3],"split_indices":[33,35,34,34,24,6,6,35,22,12,33,32,20,0,0,0,0,0,0,0,0,0,0,0,0,0,0],"split_type":[0,0,0,0,0,0,0,0,0,0,0,0,0,0,0,0,0,0,0,0,0,0,0,0,0,0,0],"sum_hessian":[2.1319294E3,1.869512E3,2.6241742E2,1.7211555E3,1.4835643E2,1.8723486E2,7.5182556E1,5.3999194E2,1.1811637E3,1.4517027E2,3.1861544E0,1.7690366E2,1.0331202E1,1.2196636E0,7.39629E1,3.3752826E2,2.0246365E2,4.77294E2,7.038696E2,1.4275627E2,2.4140096E0,1.4012296E0,1.7849249E0,3.2367625E0,1.7366689E2,4.704635E0,5.626567E0],"tree_param":{"num_deleted":"0","num_feature":"38","num_nodes":"27","size_leaf_vector":"1"}},{"base_weights":[-5.73389E-4,-2.2304738E-1,4.0632635E-1,-5.4467124E-1,-6.8665765E-2,2.215293E-1,5.844936E-1,-6.7038E-1,-4.0541753E-1,2.0651151E-3,-2.3329268E-1,-1.7623441E-2,3.1713608E-1,4.927197E-1,7.1471345E-1,-2.2049E-2,-1.6868856E-2,-1.2715777E-2,4.9576103E-3,-3.6963716E-3,2.596192E-3,1.6530614E-2,-7.5699356E-3,1.3385522E-3,-1.499439E-2,1.21568525E-2,3.439932E-3,1.6118445E-2,9.2970235E-3,-6.2857424E-3,2.1687146E-2],"categories":[],"categories_nodes":[],"categories_segments":[],"categories_sizes":[],"default_left":[0,0,0,0,0,0,0,0,0,0,0,0,0,0,0,0,0,0,0,0,0,0,0,0,0,0,0,0,0,0,0],"id":38,"left_children":[1,3,5,7,9,11,13,15,17,19,21,23,25,27,29,-1,-1,-1,-1,-1,-1,-1,-1,-1,-1,-1,-1,-1,-1,-1,-1],"loss_changes":[2.7116797E2,9.6085E1,3.4604095E1,1.044664E1,1.526449E1,1.1969034E1,5.7238464E0,1.4554901E0,3.3280945E0,9.745542E0,6.1606464E0,4.5842266E0,6.572941E0,2.289894E0,1.9528198E0,0E0,0E0,0E0,0E0,0E0,0E0,0E0,0E0,0E0,0E0,0E0,0E0,0E0,0E0,0E0,0E0],"parents":[2147483647,0,0,1,1,2,2,3,3,4,4,5,5,6,6,7,7,8,8,9,9,10,10,11,11,12,12,13,13,14,14],"right_children":[2,4,6,8,10,12,14,16,18,20,22,24,26,28,30,-1,-1,-1,-1,-1,-1,-1,-1,-1,-1,-1,-1,-1,-1,-1,-1],"split_conditions":[1.8293138E-1,-2.634283E-1,4.0953127E-1,-5.98466E-1,1E0,7.979956E-2,6.4233E-1,-6.1863136E-1,1.1769384E-1,-2E-1,2.857143E-1,8.4371114E-1,1E0,3.4670046E-1,-1.5833334E0,-2.2049E-2,-1.6868856E-2,-1.2715777E-2,4.9576103E-3,-3.6963716E-3,2.596192E-3,1.6530614E-2,-7.5699356E-3,1.3385522E-3,-1.499439E-2,1.21568525E-2,3.439932E-3,1.6118445E-2,9.2970235E-3,-6.2857424E-3,2.1687146E-2],"split_indices":[33,32,32,34,36,32,34,32,33,18,12,28,36,28,17,0,0,0,0,0,0,0,0,0,0,0,0,0,0,0,0],"split_type":[0,0,0,0,0,0,0,0,0,0,0,0,0,0,0,0,0,0,0,0,0,0,0,0,0,0,0,0,0,0,0],"sum_hessian":[2.9915142E3,1.9346438E3,1.0568702E3,6.258181E2,1.3088257E3,5.209853E2,5.3588495E2,3.24896E2,3.009221E2,9.1687244E2,3.919533E2,1.4925844E2,3.7172687E2,3.199583E2,2.159266E2,1.9610973E2,1.2878625E2,2.9200037E2,8.921725E0,3.6888766E2,5.4798474E2,7.9644313E0,3.839889E2,1.3380199E2,1.5456454E1,2.576322E2,1.1409468E2,2.5413548E2,6.582284E1,1.4650772E0,2.1446153E2],"tree_param":{"num_deleted":"0","num_feature":"38","num_nodes":"31","size_leaf_vector":"1"}},{"base_weights":[-6.4351237E-3,-3.5025263E-1,3.1550005E-1,-4.849685E-1,-1.9788155E-1,1.5105245E-1,7.238483E-1,-3.1432223E-1,-5.204985E-1,-1.1474131E-1,-2.939215E-1,2.9454982E-1,-1.887587E-3,9.146057E-1,5.059476E-1,-1.1025685E-2,3.033391E-3,-1.676852E-2,-1.2674319E-2,-2.182805E-3,-1.0169962E-2,2.2511068E-3,-9.937281E-3,1.4210415E-2,7.0740734E-3,1.0437116E-2,-2.755418E-3,-4.771511E-3,2.7809821E-2,1.6510434E-2,-2.1402554E-3],"categories":[],"categories_nodes":[],"categories_segments":[],"categories_sizes":[],"default_left":[0,0,0,0,0,0,0,0,0,0,0,0,0,0,0,0,0,0,0,0,0,0,0,0,0,0,0,0,0,0,0],"id":39,"left_children":[1,3,5,7,9,11,13,15,17,19,21,23,25,27,29,-1,-1,-1,-1,-1,-1,-1,-1,-1,-1,-1,-1,-1,-1,-1,-1],"loss_changes":[2.7600943E2,2.4559357E1,8.6259766E1,3.5446777E0,4.477518E0,2.0205214E1,1.44206085E1,2.6181498E0,1.5084076E0,2.8538594E0,3.6688938E0,4.775028E0,1.4149493E1,2.8803406E0,4.6105614E0,0E0,0E0,0E0,0E0,0E0,0E0,0E0,0E0,0E0,0E0,0E0,0E0,0E0,0E0,0E0,0E0],"parents":[2147483647,0,0,1,1,2,2,3,3,4,4,5,5,6,6,7,7,8,8,9,9,10,10,11,11,12,12,13,13,14,14],"right_children":[2,4,6,8,10,12,14,16,18,20,22,24,26,28,30,-1,-1,-1,-1,-1,-1,-1,-1,-1,-1,-1,-1,-1,-1,-1,-1],"split_conditions":[-4.5011517E-2,-3.8132316E-1,4.1402993E-1,2.0161727E-2,1.0353002E-2,-4.536859E-2,-6.7078584E-1,2.25E0,3.3180475E-1,3E0,-3.6E1,-5.8335865E-1,-1.2666667E0,4.2857143E-1,2.739255E-1,-1.1025685E-2,3.033391E-3,-1.676852E-2,-1.2674319E-2,-2.182805E-3,-1.0169962E-2,2.2511068E-3,-9.937281E-3,1.4210415E-2,7.0740734E-3,1.0437116E-2,-2.755418E-3,-4.771511E-3,2.7809821E-2,1.6510434E-2,-2.1402554E-3],"split_indices":[35,35,35,34,34,34,32,7,30,21,21,34,18,12,34,0,0,0,0,0,0,0,0,0,0,0,0,0,0,0,0],"split_type":[0,0,0,0,0,0,0,0,0,0,0,0,0,0,0,0,0,0,0,0,0,0,0,0,0,0,0,0,0,0,0],"sum_hessian":[2.4896074E3,1.2038037E3,1.2858037E3,6.3660046E2,5.672033E2,9.186074E2,3.6719635E2,1.13097946E2,5.235025E2,3.0637167E2,2.608316E2,4.7297888E2,4.4562854E2,1.9238312E2,1.7481323E2,1.0046329E2,1.263466E1,3.6924768E2,1.542548E2,2.602935E2,4.607821E1,2.3774567E1,2.3705704E2,1.1332024E2,3.5965863E2,8.9988884E1,3.5563965E2,1.9244096E0,1.9045871E2,1.6241498E2,1.2398247E1],"tree_param":{"num_deleted":"0","num_feature":"38","num_nodes":"31","size_leaf_vector":"1"}},{"base_weights":[-7.5652783E-6,4.7088087E-2,-3.3366796E-1,8.268175E-2,-3.8001215E-1,-2.7053562E-1,-5.521321E-1,1.0861644E-1,-1.1201257E-1,-4.647363E-1,6.5143155E-3,1.944348E-2,-2.8254667E-1,-1.7556477E-2,-2.6252506E-2,5.9367074E-3,1.0947422E-3,6.6100014E-3,-4.881677E-3,-4.91829E-3,-1.460895E-2,1.6020453E-2,-5.420349E-3,-1.0629278E-2,-4.0424066E-3,1.1844589E-2,-9.781105E-3],"categories":[],"categories_nodes":[],"categories_segments":[],"categories_sizes":[],"default_left":[0,0,0,0,0,0,0,0,0,0,0,0,0,0,0,0,0,0,0,0,0,0,0,0,0,0,0],"id":40,"left_children":[1,3,5,7,9,11,13,15,17,19,21,-1,23,-1,25,-1,-1,-1,-1,-1,-1,-1,-1,-1,-1,-1,-1],"loss_changes":[3.3894356E1,2.8797262E1,3.3809204E0,8.84251E0,4.779497E0,2.6933298E0,9.764881E-1,9.91515E0,3.548069E0,6.398964E-1,2.9754183E0,0E0,2.127346E0,0E0,9.5430124E-1,0E0,0E0,0E0,0E0,0E0,0E0,0E0,0E0,0E0,0E0,0E0,0E0],"parents":[2147483647,0,0,1,1,2,2,3,3,4,4,5,5,6,6,7,7,8,8,9,9,10,10,12,12,14,14],"right_children":[2,4,6,8,10,12,14,16,18,20,22,-1,24,-1,26,-1,-1,-1,-1,-1,-1,-1,-1,-1,-1,-1,-1],"split_conditions":[5.634079E-1,5.947155E-1,1.0141467E0,4.0953127E-1,-4.8116174E-1,9.1239564E-2,5E1,-1.9394241E-2,1.1278954E-1,1E0,-1.1666666E0,1.944348E-2,1.4636062E-1,-1.7556477E-2,3E0,5.9367074E-3,1.0947422E-3,6.6100014E-3,-4.881677E-3,-4.91829E-3,-1.460895E-2,1.6020453E-2,-5.420349E-3,-1.0629278E-2,-4.0424066E-3,1.1844589E-2,-9.781105E-3],"split_indices":[33,35,33,32,32,25,21,35,29,6,17,0,27,0,37,0,0,0,0,0,0,0,0,0,0,0,0],"split_type":[0,0,0,0,0,0,0,0,0,0,0,0,0,0,0,0,0,0,0,0,0,0,0,0,0,0,0],"sum_hessian":[2.1529595E3,1.8881655E3,2.647939E2,1.7444033E3,1.4376222E2,2.0890169E2,5.589223E1,1.540131E3,2.0427232E2,1.1758389E2,2.6178328E1,1.3290726E0,2.0757262E2,5.2371788E1,3.5204403E0,6.866869E2,8.534441E2,2.6156504E1,1.7811581E2,9.244207E0,1.0833969E2,5.886083E0,2.0292244E1,1.378477E2,6.972492E1,1.2003807E0,2.3200598E0],"tree_param":{"num_deleted":"0","num_feature":"38","num_nodes":"27","size_leaf_vector":"1"}},{"base_weights":[-6.712284E-3,-2.2223343E-1,4.1613597E-1,-5.120059E-1,-8.0576874E-2,2.6763934E-1,5.8465624E-1,-7.0451266E-1,-4.003003E-1,-8.55322E-3,-2.4895127E-1,2.7690595E-1,-5.750121E-1,6.119546E-1,2.725183E-1,-2.136047E-2,4.6782618E-4,-3.0219287E-3,-1.3231288E-2,-2.9984454E-3,3.4886317E-3,-5.9969076E-3,-1.50331855E-2,4.361539E-3,1.0244169E-2,-4.0833787E-3,-1.9570882E-2,5.3030024E-3,1.8927215E-2,1.1655476E-2,-9.2706885E-3],"categories":[],"categories_nodes":[],"categories_segments":[],"categories_sizes":[],"default_left":[0,0,0,0,0,0,0,0,0,0,0,0,0,0,0,0,0,0,0,0,0,0,0,0,0,0,0,0,0,0,0],"id":41,"left_children":[1,3,5,7,9,11,13,15,17,19,21,23,25,27,29,-1,-1,-1,-1,-1,-1,-1,-1,-1,-1,-1,-1,-1,-1,-1,-1],"loss_changes":[2.7007364E2,8.049339E1,2.4725021E1,1.3287811E1,1.6013119E1,4.5003204E0,3.645523E0,1.2859497E0,4.942787E0,1.0602033E1,4.6935196E0,4.410534E0,4.224658E-2,3.3055573E0,3.0167603E0,0E0,0E0,0E0,0E0,0E0,0E0,0E0,0E0,0E0,0E0,0E0,0E0,0E0,0E0,0E0,0E0],"parents":[2147483647,0,0,1,1,2,2,3,3,4,4,5,5,6,6,7,7,8,8,9,9,10,10,11,11,12,12,13,13,14,14],"right_children":[2,4,6,8,10,12,14,16,18,20,22,24,26,28,30,-1,-1,-1,-1,-1,-1,-1,-1,-1,-1,-1,-1,-1,-1,-1,-1],"split_conditions":[2.1422447E-1,-2.634283E-1,5.1219606E-1,-6.1863136E-1,1E0,3E0,6.3515574E-1,6E0,-5.470924E-2,1.6E0,6.3612384E-1,1E0,1.2697527E-1,6.25E-1,1E0,-2.136047E-2,4.6782618E-4,-3.0219287E-3,-1.3231288E-2,-2.9984454E-3,3.4886317E-3,-5.9969076E-3,-1.50331855E-2,4.361539E-3,1.0244169E-2,-4.0833787E-3,-1.9570882E-2,5.3030024E-3,1.8927215E-2,1.1655476E-2,-9.2706885E-3],"split_indices":[32,32,32,32,36,10,30,37,30,7,28,14,27,13,21,0,0,0,0,0,0,0,0,0,0,0,0,0,0,0,0],"split_type":[0,0,0,0,0,0,0,0,0,0,0,0,0,0,0,0,0,0,0,0,0,0,0,0,0,0,0,0,0,0,0],"sum_hessian":[2.95949E3,1.9609592E3,9.985307E2,6.4214966E2,1.3188096E3,5.3355194E2,4.6497873E2,2.3189767E2,4.1025198E2,9.25164E2,3.9364554E2,5.290765E2,4.4754643E0,4.2581732E2,3.91614E1,2.2952861E2,2.3690653E0,4.994741E1,3.603046E2,5.3436145E2,3.9080255E2,3.3253876E2,6.110677E1,1.7635196E2,3.5272452E2,1.4975423E0,2.977922E0,1.8632454E1,4.0718488E2,3.3202484E1,5.9589176E0],"tree_param":{"num_deleted":"0","num_feature":"38","num_nodes":"31","size_leaf_vector":"1"}},{"base_weights":[-7.4627064E-4,5.375627E-1,-1.889425E-1,7.4511623E-1,2.9153788E-1,-9.647107E-3,-4.3544942E-1,8.789618E-1,5.9801304E-1,3.6870426E-1,-1.5411274E-1,3.7227806E-1,-3.904084E-2,-2.1200667E-1,-4.9529633E-1,2.6775928E-2,-5.1499866E-3,6.7397067E-3,2.0491036E-2,-3.7438737E-3,1.1873404E-2,-7.348008E-3,1.620897E-2,1.6639141E-2,1.1558414E-4,-3.1302716E-3,3.1883074E-3,-1.5246648E-2,-3.873336E-3,-1.3169892E-2,-1.7194785E-2],"categories":[],"categories_nodes":[],"categories_segments":[],"categories_sizes":[],"default_left":[0,0,0,0,0,0,0,0,0,0,0,0,0,0,0,0,0,0,0,0,0,0,0,0,0,0,0,0,0,0,0],"id":42,"left_children":[1,3,5,7,9,11,13,15,17,19,21,23,25,27,29,-1,-1,-1,-1,-1,-1,-1,-1,-1,-1,-1,-1,-1,-1,-1,-1],"loss_changes":[2.5178377E2,3.2440628E1,8.138232E1,5.7990417E0,1.0357771E1,1.2020283E1,1.01586E1,2.8427887E0,5.153248E0,3.4995232E0,3.126523E0,5.136922E0,9.451139E0,3.9768052E0,2.1711426E0,0E0,0E0,0E0,0E0,0E0,0E0,0E0,0E0,0E0,0E0,0E0,0E0,0E0,0E0,0E0,0E0],"parents":[2147483647,0,0,1,1,2,2,3,3,4,4,5,5,6,6,7,7,8,8,9,9,10,10,11,11,12,12,13,13,14,14],"right_children":[2,4,6,8,10,12,14,16,18,20,22,24,26,28,30,-1,-1,-1,-1,-1,-1,-1,-1,-1,-1,-1,-1,-1,-1,-1,-1],"split_conditions":[-2.634283E-1,-4.6765488E-1,1.746569E-1,-6.9980574E-1,3.123259E-2,-2.3333333E0,1.752813E-1,8.2E1,-8.440268E-1,1.0348856E-1,7.4E1,1.2105114E-1,1E0,-7.493156E0,5.1251936E-1,2.6775928E-2,-5.1499866E-3,6.7397067E-3,2.0491036E-2,-3.7438737E-3,1.1873404E-2,-7.348008E-3,1.620897E-2,1.6639141E-2,1.1558414E-4,-3.1302716E-3,3.1883074E-3,-1.5246648E-2,-3.873336E-3,-1.3169892E-2,-1.7194785E-2],"split_indices":[32,33,33,32,33,18,32,22,34,25,22,25,36,0,34,0,0,0,0,0,0,0,0,0,0,0,0,0,0,0,0],"split_type":[0,0,0,0,0,0,0,0,0,0,0,0,0,0,0,0,0,0,0,0,0,0,0,0,0,0,0,0,0,0,0],"sum_hessian":[2.4813313E3,6.4181024E2,1.8395211E3,3.4592276E2,2.9588745E2,1.0661449E3,7.7337616E2,1.759133E2,1.7000945E2,2.5250961E2,4.337785E1,7.452177E1,9.9162317E2,1.6530035E2,6.080758E2,1.7396742E2,1.9458799E0,3.288514E1,1.3712431E2,1.275793E1,2.3975168E2,3.950555E1,3.8723009E0,4.917211E1,2.5349651E1,6.84564E2,3.070591E2,3.3900414E1,1.3139995E2,3.6060925E2,2.4746657E2],"tree_param":{"num_deleted":"0","num_feature":"38","num_nodes":"31","size_leaf_vector":"1"}},{"base_weights":[9.7590955E-3,6.033125E-2,-3.519817E-1,9.7092435E-2,-3.2479903E-1,-2.3517141E-1,-5.279564E-1,2.0952377E-1,4.645698E-2,-3.4976584E-1,6.3716197E-1,-2.6476744E-1,4.178438E-1,-5.6881404E-1,-2.906298E-1,1.06769595E-2,2.7275023E-3,2.249567E-3,-2.8517288E-3,1.8812602E-3,-1.1828877E-2,5.5910076E-4,2.6500054E-2,-1.2240248E-3,-9.815029E-3,-5.3845863E-3,2.5868753E-2,-2.526901E-3,-1.7380478E-2,3.3430157E-3,-1.2145759E-2],"categories":[],"categories_nodes":[],"categories_segments":[],"categories_sizes":[],"default_left":[0,0,0,0,0,0,0,0,0,0,0,0,0,0,0,0,0,0,0,0,0,0,0,0,0,0,0,0,0,0,0],"id":43,"left_children":[1,3,5,7,9,11,13,15,17,19,21,23,25,27,29,-1,-1,-1,-1,-1,-1,-1,-1,-1,-1,-1,-1,-1,-1,-1,-1],"loss_changes":[3.939316E1,2.6805676E1,5.1809425E0,9.805777E0,4.409668E0,3.359047E0,6.75581E-1,9.229338E0,4.8286486E0,3.0279865E0,7.1074617E-1,2.1610422E0,2.3842816E0,3.4369087E-1,9.780204E-1,0E0,0E0,0E0,0E0,0E0,0E0,0E0,0E0,0E0,0E0,0E0,0E0,0E0,0E0,0E0,0E0],"parents":[2147483647,0,0,1,1,2,2,3,3,4,4,5,5,6,6,7,7,8,8,9,9,10,10,11,11,12,12,13,13,14,14],"right_children":[2,4,6,8,10,12,14,16,18,20,22,24,26,28,30,-1,-1,-1,-1,-1,-1,-1,-1,-1,-1,-1,-1,-1,-1,-1,-1],"split_conditions":[5.634079E-1,5.430087E-1,7.315786E-1,-2.338282E-1,7.058607E-1,2.25E0,-1.2795947E-2,6.605169E-2,2.8665608E-1,1E0,6.25E-1,1.0439585E-1,6.4831066E-1,-3.0628147E0,5.26714E-2,1.06769595E-2,2.7275023E-3,2.249567E-3,-2.8517288E-3,1.8812602E-3,-1.1828877E-2,5.5910076E-4,2.6500054E-2,-1.2240248E-3,-9.815029E-3,-5.3845863E-3,2.5868753E-2,-2.526901E-3,-1.7380478E-2,3.3430157E-3,-1.2145759E-2],"split_indices":[33,35,34,34,24,6,28,35,34,6,15,25,33,0,28,0,0,0,0,0,0,0,0,0,0,0,0,0,0,0,0],"split_type":[0,0,0,0,0,0,0,0,0,0,0,0,0,0,0,0,0,0,0,0,0,0,0,0,0,0,0,0,0,0,0],"sum_hessian":[2.1490146E3,1.8868899E3,2.621249E2,1.7238427E3,1.630472E2,1.6035536E2,1.0176953E2,5.333383E2,1.1905043E3,1.6016312E2,2.884079E0,1.5454037E2,5.8149996E0,8.443916E1,1.7330366E1,2.3693349E2,2.9640488E2,9.9155286E2,1.9895148E2,1.5526577E1,1.4463654E2,1.4335666E0,1.4505123E0,3.439558E1,1.2014479E2,2.9894936E0,2.825506E0,2.1795077E0,8.225966E1,3.8451402E0,1.3485226E1],"tree_param":{"num_deleted":"0","num_feature":"38","num_nodes":"31","size_leaf_vector":"1"}},{"base_weights":[-2.5450995E-3,-2.1521251E-1,4.0476885E-1,-4.844503E-1,-5.9176758E-2,1.3256E-1,5.059203E-1,-6.6654515E-1,-3.794606E-1,-1.16002254E-1,1.4319137E-1,-2.9534794E-2,2.2179751E-1,5.8137333E-1,3.157138E-1,-2.020355E-2,7.271231E-3,-3.457053E-3,-1.2910088E-2,-4.0534833E-3,9.717907E-3,8.8386815E-3,-2.4741702E-3,3.3388203E-3,-8.247092E-3,-4.2578327E-3,8.928208E-3,1.9787982E-2,1.2819876E-2,1.0359234E-2,-1.3191444E-2],"categories":[],"categories_nodes":[],"categories_segments":[],"categories_sizes":[],"default_left":[0,0,0,0,0,0,0,0,0,0,0,0,0,0,0,0,0,0,0,0,0,0,0,0,0,0,0,0,0,0,0],"id":44,"left_children":[1,3,5,7,9,11,13,15,17,19,21,23,25,27,29,-1,-1,-1,-1,-1,-1,-1,-1,-1,-1,-1,-1,-1,-1,-1,-1],"loss_changes":[2.5737762E2,8.194908E1,2.79292E1,1.3181488E1,1.42709465E1,4.0464606E0,1.0287216E1,1.9534531E0,6.0677032E0,